def score(input):
    var0 = 7.259129731686611 + input[0] * -0.00231514298699116 + input[1] * -0.003425319752785087 + input[2] * 0.002969626771506011 + input[3] * -0.0006654076398025929 + input[4] * -0.011041736370099985 + input[5] * -0.014848677383590095 + input[6] * -0.005947042486509489 + input[7] * -0.003215899580241384 + input[8] * 0.00201896181492623 + input[9] * 0.00855599797589693 + input[10] * 0.0122042203172586 + input[11] * 0.006570380150963581 + input[12] * -0.002038613048171735 + input[13] * -0.0025995244394089265 + input[14] * -0.0009423213302668667 + input[15] * 0.021930019289855825
    var1 = input[16] * 0.004398109391269241
    var2 = var0 + var1 + input[17] * -0.006695660115227204 + input[18] * -0.003007701166867267 + input[19] * -0.004692344192659636 + input[20] * 0.00023594826012473 + input[21] * 0.0003997800096871224 + input[22] * 0.016014485394252032 + input[23] * 0.0021033651142706522 + input[24] * -0.0044745226241457384 + input[25] * -0.008415670362353396 + input[26] * -0.0021797674284948295 + input[27] * -0.007301493523059238 + input[28] * 0.0038376436955024347 + input[29] * 0.013334838332004448 + input[30] * -0.006787195794373652 + input[31] * -0.010614674506711707 + input[32] * 0.0001249801379134771 + input[33] * -0.012481428493297255 + input[34] * -0.025972205488317662 + input[35] * 0.015171544055950554 + input[36] * -0.01748554294768443 + input[37] * -0.035146128235482764 + input[38] * -0.0008297819299958475 + input[39] * -0.004074145416920012 + input[40] * -0.0005870680603886315 + input[41] * -0.03041566031530961 + input[42] * -0.08318226163772709 + input[43] * -0.11687095145264927 + input[44] * 0.0015775927074917781 + input[45] * -0.03557152883725238 + input[46] * -0.0030755080997684147 + input[47] * -0.003502943951887236 + input[48] * -0.12420090921911618 + input[49] * -0.13152212265622562 + input[50] * -0.0006300120287620981 + input[51] * -0.0037989543330205744 + input[52] * -0.01666534451665831 + input[53] * 0.014247369987812175 + input[54] * -0.10649794406176454 + input[55] * -0.044160040427188796 + input[56] * -0.0024710955104049865 + input[57] * -0.015006537270659325 + input[58] * 0.023348534323604647 + input[59] * -0.039945942248056074 + input[60] * -0.04282698666695611 + input[61] * -0.004998537404122343 + input[62] * 0.005657519558144584 + input[63] * -0.04283161940886441 + input[64] * -0.016841463143432378 + input[65] * 0.00011733664782127708 + input[66] * 0.06258098523551209 + input[67] * 0.09631222277390974 + input[68] * 0.005150458922935887 + input[69] * -0.012646700319628045 + input[70] * -0.014406664895337424
    var3 = input[71] * 0.020278562354477593
    var4 = 0.0643918230821099 + input[0] * -0.0010801783722793675 + input[1] * -0.004097004737450187 + input[2] * -0.0035817028592803613 + input[3] * -0.0007662383232388194 + input[4] * 0.01204425535711736 + input[5] * 0.01481127362888594 + input[6] * 0.002557954100738618 + input[7] * -0.005258407840604082 + input[8] * -0.0023834179783691145 + input[9] * -0.0041531536072602565 + input[10] * -0.005843139649447092 + input[11] * 0.002142026406967019 + input[12] * 0.0009310876964435951 + input[13] * -0.005409586486382791 + input[14] * -0.0021181767470936936 + input[15] * -0.012988783955659937
    var5 = input[16] * 0.012694462676422318
    var6 = var4 + var5 + input[17] * -0.002669400486160339 + input[18] * 0.002455531816086646 + input[19] * -0.00494939657425012 + input[20] * -0.0020631904256904685 + input[21] * 0.0018711648211453909 + input[22] * 0.0004614728751528888 + input[23] * -0.0004031874104440751 + input[24] * 0.0004825934798175159 + input[25] * -0.004090315886506653 + input[26] * -0.0019349033335392123 + input[27] * 0.0004784197386185552 + input[28] * 0.0029246940465579817 + input[29] * -0.009444332518374999 + input[30] * 0.00450735804682981 + input[31] * -0.0045957480634812795 + input[32] * -0.0028457547140319198 + input[33] * -0.00806371446587039 + input[34] * 0.03071352201189635 + input[35] * -0.009229249573916616 + input[36] * 0.021194191796473208 + input[37] * -0.008978194262652228 + input[38] * -0.0008807224814836815 + input[39] * -0.018898480104305632 + input[40] * 0.01925981078811498 + input[41] * 0.027056311324285393 + input[42] * 0.06995083212257669 + input[43] * -0.025106495033552622 + input[44] * 0.0005504396465222426 + input[45] * 0.013293048083973226 + input[46] * 0.021931885993592887 + input[47] * -0.013749321336111456 + input[48] * 0.14327520597321897 + input[49] * -0.022149164475377587 + input[50] * 0.001653585132397996 + input[51] * -0.004197095273327167 + input[52] * 0.016445399634537054 + input[53] * -0.0271099272737808 + input[54] * 0.17094237129270756 + input[55] * -0.03445807128750391 + input[56] * 0.004676009706487715 + input[57] * -0.009733024447776017 + input[58] * -0.03826890316184139 + input[59] * 0.0388195071285738 + input[60] * 0.05757940114226109 + input[61] * -0.017122328329735086 + input[62] * 0.0020597965953755753 + input[63] * 0.015572861827526874 + input[64] * -0.0017975312074494873 + input[65] * 0.005368054026487536 + input[66] * -0.08758758652234416 + input[67] * 0.0291591945910098 + input[68] * -0.0016633118880993775 + input[69] * -0.006622557079816763 + input[70] * 0.00961648386655258
    var7 = input[71] * -0.024959879876112638
    var8 = 0.24869808074766026 + input[0] * 0.0034227672641979263 + input[1] * 0.00742736955767381 + input[2] * -0.0005743744994002516 + input[3] * 0.001119998391538553 + input[4] * -0.0015609677546495088 + input[5] * 0.0015072770617260722 + input[6] * 0.0036322331298860614 + input[7] * 0.008426236784095827 + input[8] * -0.0007694862294272497 + input[9] * -0.004809992945750658 + input[10] * -0.006743129156864418 + input[11] * -0.007492063745142147 + input[12] * 0.0022163576899965356 + input[13] * 0.007866556669459611 + input[14] * 0.0020278705460968715 + input[15] * -0.00821477479507253
    var9 = input[16] * -0.018530303436998463
    var10 = var8 + var9 + input[17] * 0.007367057104540427 + input[18] * 0.0023722138169888795 + input[19] * 0.009174644572424649 + input[20] * 0.00016946815319576237 + input[21] * 0.0045149960145780986 + input[22] * -0.020792502255614013 + input[23] * -0.011745675663251744 + input[24] * 0.0047010845554185275 + input[25] * 0.012001681888917912 + input[26] * 0.0016685554314357746 + input[27] * 0.010309764847665697 + input[28] * -0.007742599102768974 + input[29] * -0.024131990403750306 + input[30] * 0.0011964925536403614 + input[31] * 0.015464781152171855 + input[32] * -0.0000001566618002993668 + input[33] * 0.0032112134109895133 + input[34] * 0.0015308396327802607 + input[35] * -0.029763608076366344 + input[36] * -0.00600797808619449 + input[37] * 0.04530009451092898 + input[38] * 0.00014140139925499596 + input[39] * -0.0012171118686755001 + input[40] * -0.0010865474047868542 + input[41] * -0.012620317906450764 + input[42] * 0.010419062550535577 + input[43] * 0.1433545429051817 + input[44] * -0.0018232686408003284 + input[45] * 0.01177788156420899 + input[46] * 0.005497144551412329 + input[47] * 0.02117896146814812 + input[48] * -0.020787232008947627 + input[49] * 0.1553522931508697 + input[50] * 0.00024643564457010365 + input[51] * 0.01401443691709478 + input[52] * 0.013286082915901292 + input[53] * 0.03514637135423571 + input[54] * -0.063036277819725 + input[55] * 0.07993638392623398 + input[56] * -0.0007013101549647294 + input[57] * 0.034247138563959625 + input[58] * 0.019001131997590143 + input[59] * 0.02967767103293008 + input[60] * -0.012507582984756955 + input[61] * 0.0220109365403067 + input[62] * -0.008399950513724191 + input[63] * 0.04514303720792233 + input[64] * 0.0051337343801265015 + input[65] * 0.015127900306610131 + input[66] * 0.02690784352702482 + input[67] * -0.12608164559307358 + input[68] * -0.00500910350435333 + input[69] * 0.03865931624001368 + input[70] * -0.000038539936056339094
    var11 = input[71] * 0.0037929623488533624
    var12 = -7.572219635483566 + input[0] * -0.000027445904928164912 + input[1] * 0.00009495493256174217 + input[2] * 0.0011864505871738058 + input[3] * 0.00031164757150478064 + input[4] * 0.0005584487676273725 + input[5] * -0.001469873307011737 + input[6] * -0.00024314474411605771 + input[7] * 0.000048070636750106566 + input[8] * 0.0011339423928691816 + input[9] * 0.0004071485771155063 + input[10] * 0.00038204848903288966 + input[11] * -0.0012203428127799433 + input[12] * -0.0011088323382689807 + input[13] * 0.0001425542563322437 + input[14] * 0.0010326275312617422 + input[15] * -0.0007264605391303123
    var13 = input[16] * 0.0014377313693050783
    var14 = var12 + var13 + input[17] * 0.00199800349685797 + input[18] * -0.0018200444662092533 + input[19] * 0.00046709619448511065 + input[20] * 0.0016577740123695655 + input[21] * -0.006785940845403999 + input[22] * 0.004316543986200326 + input[23] * 0.010045497959452017 + input[24] * -0.000709155411091376 + input[25] * 0.0005043043599421263 + input[26] * 0.0024461153305974583 + input[27] * -0.0034866910632201952 + input[28] * 0.0009802613607108983 + input[29] * 0.020241484590154405 + input[30] * 0.0010833451939019681 + input[31] * -0.00025435858197917687 + input[32] * 0.0027209312379185705 + input[33] * 0.017333929548172103 + input[34] * -0.006272156156363841 + input[35] * 0.02382131359436679 + input[36] * 0.0022993292374058824 + input[37] * -0.0011757720127936807 + input[38] * 0.0015691030122247016 + input[39] * 0.024189737389896798 + input[40] * -0.01758619532296242 + input[41] * 0.01597966689751181 + input[42] * 0.002812366964614671 + input[43] * -0.0013770964189785146 + input[44] * -0.00030476371321486656 + input[45] * 0.0105005991890825 + input[46] * -0.024353522445260508 + input[47] * -0.003926696180116982 + input[48] * 0.0017129352548437217 + input[49] * -0.001681006019265112 + input[50] * -0.0012700087482064581 + input[51] * -0.006018387310731212 + input[52] * -0.013066138033786798 + input[53] * -0.022283814068255796 + input[54] * -0.0014081494112180505 + input[55] * -0.0013182722115392305 + input[56] * -0.0015036040411190756 + input[57] * -0.00950757684551818 + input[58] * -0.004080763159360107 + input[59] * -0.02855123591343489 + input[60] * -0.0022448314905476182 + input[61] * 0.00010992919355007625 + input[62] * 0.0006826343601996983 + input[63] * -0.017884279626584447 + input[64] * 0.013505259970739111 + input[65] * -0.02061329098090457 + input[66] * -0.0019012422401932507 + input[67] * 0.0006102282281517803 + input[68] * 0.001521956469513133 + input[69] * -0.019390058840586272 + input[70] * 0.004828720964849058
    var15 = input[71] * 0.0008883551727779809
    return [var2 + var3 + input[72] * 0.09465969535877557 + input[73] * 0.13470481083145025 + input[74] * 0.007119443356024374 + input[75] * 0.007214923718519928 + input[76] * -0.004577123261904994 + input[77] * 0.02781121695624746 + input[78] * 0.07616672673152085 + input[79] * 0.07867105985005148 + input[80] * -0.003183513524883031 + input[81] * 0.012255453558905291 + input[82] * -0.017540289186204715 + input[83] * -0.012479755621069151 + input[84] * 0.054485106016304234 + input[85] * 0.04296042661887231 + input[86] * 0.001202470648045991 + input[87] * 0.011526503539279875 + input[88] * -0.0022206596961325377 + input[89] * -0.057741312866474194 + input[90] * 0.026244724075091774 + input[91] * 0.019851806268268022 + input[92] * 0.0022047085686019365 + input[93] * -0.027181129648710944 + input[94] * -0.016479169890899408 + input[95] * 0.025876299528229577 + input[96] * 0.016231882133767465 + input[97] * 0.01273373743067311 + input[98] * -0.0003138303478364664 + input[99] * -0.021863968251055455 + input[100] * 0.01733138501026461 + input[101] * 0.04611392395486475 + input[102] * 0.005157759702045777 + input[103] * 0.002931479813079513 + input[104] * 0.0013681067277752903 + input[105] * 0.03386382607398634 + input[106] * 0.017503504162830197 + input[107] * 0.02629612756132282 + input[108] * 0.003789695844838112 + input[109] * 0.002562655782615483 + input[110] * -0.000012344683266495833 + input[111] * -0.005368145783627807 + input[112] * 0.007264274908319962 + input[113] * -0.02162554156686352 + input[114] * 0.000000358334915033389 + input[115] * 0.0027960498699073177 + input[116] * 0.0010839244380588615 + input[117] * 0.002086715336242022 + input[118] * -0.03760978754167182 + input[119] * -0.010711687922170155 + input[120] * -0.00270335667089641 + input[121] * 0.005352616273566926 + input[122] * -0.0020790259092555723 + input[123] * 0.07060792932316814 + input[124] * -0.011386427495676841 + input[125] * -0.020238871931944017, var6 + var7 + input[72] * -0.12457888808095528 + input[73] * -0.002396768760428495 + input[74] * -0.005553347146777609 + input[75] * -0.020879013675198083 + input[76] * -0.004001095123328637 + input[77] * 0.022908556120648644 + input[78] * -0.12375436251161022 + input[79] * 0.014190963025665755 + input[80] * 0.0010458604481867208 + input[81] * -0.0009746935102899181 + input[82] * 0.008523527820190545 + input[83] * 0.030024727578190448 + input[84] * -0.08000210945384775 + input[85] * 0.013933411911999694 + input[86] * -0.004722292133592931 + input[87] * -0.006706345402786778 + input[88] * -0.003004030995096529 + input[89] * 0.008765919765902758 + input[90] * -0.039192647696710436 + input[91] * 0.008619313752539616 + input[92] * -0.002796168685612256 + input[93] * 0.02225720995477097 + input[94] * 0.004876461075134805 + input[95] * -0.026736110539710468 + input[96] * -0.020087135516764245 + input[97] * -0.0014266230798386152 + input[98] * -0.0005672517919629928 + input[99] * 0.009245375142565756 + input[100] * -0.02153536496369929 + input[101] * -0.06383424014630598 + input[102] * -0.009487215367188209 + input[103] * -0.003332258252947424 + input[104] * -0.001354344887282909 + input[105] * -0.008766742328628712 + input[106] * -0.008533952024999828 + input[107] * -0.037563827523949364 + input[108] * -0.00715303811939877 + input[109] * -0.0035264552568930424 + input[110] * -0.0009399969378385716 + input[111] * 0.006055503345491385 + input[112] * -0.02249156222765036 + input[113] * 0.0387420404133392 + input[114] * -0.003897236915251774 + input[115] * -0.0028262881109404055 + input[116] * -0.002179867840070481 + input[117] * -0.008502331823114037 + input[118] * 0.006138821114850439 + input[119] * 0.024583218865992806 + input[120] * -0.0021802316054230927 + input[121] * -0.0036618812861781095 + input[122] * 0.00003446377700256579 + input[123] * -0.03931490687391427 + input[124] * -0.010787566500064532 + input[125] * 0.01748455832466725, var10 + var11 + input[72] * 0.029603051447490706 + input[73] * -0.13244446945441488 + input[74] * -0.003474413309138474 + input[75] * 0.020747153931185577 + input[76] * 0.006518245963919603 + input[77] * -0.05540969470303606 + input[78] * 0.04721354120901382 + input[79] * -0.09258252027996293 + input[80] * 0.0004348058063011148 + input[81] * -0.010535594491445555 + input[82] * 0.005916151819542064 + input[83] * -0.02123710978265045 + input[84] * 0.02515054866653185 + input[85] * -0.057053181419507 + input[86] * 0.0021850588528429466 + input[87] * -0.0028156091176144327 + input[88] * -0.0015439795073844966 + input[89] * 0.04782797643040111 + input[90] * 0.012920220672286185 + input[91] * -0.028707026431282208 + input[92] * -0.000939043389433865 + input[93] * 0.0059450571200214426 + input[94] * 0.008339542404003749 + input[95] * 0.00023874946839365802 + input[96] * 0.0038851104017755982 + input[97] * -0.011525054998485842 + input[98] * -0.0006523621867762114 + input[99] * 0.014151572429510702 + input[100] * 0.0038169379181422387 + input[101] * 0.01684789809563635 + input[102] * 0.004153548054883151 + input[103] * 0.000306283746526405 + input[104] * -0.0014506919993509297 + input[105] * -0.024853802951837825 + input[106] * -0.00928909291679709 + input[107] * 0.010679351649760499 + input[108] * 0.003144194504423034 + input[109] * 0.0009390978621795478 + input[110] * -0.0003682691516420355 + input[111] * -0.0013466004414270693 + input[112] * 0.01484498416772142 + input[113] * -0.01747368988475481 + input[114] * 0.0037619614263309283 + input[115] * 0.0000068764558326517995 + input[116] * -0.00008775491230137512 + input[117] * 0.005662237959760774 + input[118] * 0.031203354895889504 + input[119] * -0.013352881042641984 + input[120] * 0.004819389140464588 + input[121] * -0.0017575880538637713 + input[122] * 0.0008918542132756354 + input[123] * -0.03196187025143284 + input[124] * 0.022453184214941226 + input[125] * 0.003284648292996894, var14 + var15 + input[72] * 0.0003161412746865147 + input[73] * 0.00013642738339268148 + input[74] * 0.0019083170998894603 + input[75] * -0.007083063974536281 + input[76] * 0.002059972421327567 + input[77] * 0.004689921626139559 + input[78] * 0.00037409457107496303 + input[79] * -0.00027950259575416035 + input[80] * 0.0017028472703950188 + input[81] * -0.0007451655571881512 + input[82] * 0.003100609546477702 + input[83] * 0.0036921378255484086 + input[84] * 0.000366454771013081 + input[85] * 0.0001593428886338402 + input[86] * 0.0013347626327053915 + input[87] * -0.002004549018872726 + input[88] * 0.0067686701986235335 + input[89] * 0.0011474166701956107 + input[90] * 0.000027702949334369223 + input[91] * 0.00023590641047331864 + input[92] * 0.0015305035064446205 + input[93] * -0.001021137426062365 + input[94] * 0.0032631664117602544 + input[95] * 0.0006210615431119295 + input[96] * -0.000029857018778186914 + input[97] * 0.00021794064765079914 + input[98] * 0.0015334443265746381 + input[99] * -0.0015329793210086585 + input[100] * 0.0003870420352953061 + input[101] * 0.0008724180958215906 + input[102] * 0.00017590761026021497 + input[103] * 0.00009449469334134939 + input[104] * 0.0014369301588571754 + input[105] * -0.00024328079351775478 + input[106] * 0.0003195407789378476 + input[107] * 0.0005883483128695885 + input[108] * 0.00021914777013770333 + input[109] * 0.000024701612099050478 + input[110] * 0.0013206107727448738 + input[111] * 0.0006592428795658487 + input[112] * 0.0003823031515873746 + input[113] * 0.0003571910382815982 + input[114] * 0.0001349171540058736 + input[115] * 0.000023361785200533552 + input[116] * 0.0011836983143121314 + input[117] * 0.0007533785271057278 + input[118] * 0.00026761153093181507 + input[119] * -0.0005186499011766844 + input[120] * 0.00006419913585505247 + input[121] * 0.00006685306647507592 + input[122] * 0.0011527079189767157 + input[123] * 0.0006688478021808273 + input[124] * -0.00027919021919213646 + input[125] * -0.0005303346857061516]
