def score(input):
    var0 = 6.4826570632252265 + input[0] * -0.0011376428146439236 + input[1] * -0.019876077515717537 + input[2] * -0.0042005725309402315 + input[3] * -0.011689140240142736 + input[4] * -0.012566273684346282 + input[5] * -0.03198144202798444 + input[6] * -0.0006090436085827582 + input[7] * -0.025377386766195623 + input[8] * -0.006110477513325693 + input[9] * 0.04226536693627653 + input[10] * 0.028262877703380065
    var1 = input[11] * 0.013161288396302174
    var2 = 0.2783823293222589 + input[0] * -0.002980626251329328 + input[1] * -0.006908295260700838 + input[2] * -0.002217816592084539 + input[3] * -0.008640055567766966 + input[4] * 0.02925264662730927 + input[5] * 0.03133309626247537 + input[6] * -0.00006841722763798556 + input[7] * -0.01262901982386252 + input[8] * -0.002095637506294781 + input[9] * -0.01691759232130141 + input[10] * 0.0039058641985205756
    var3 = input[11] * 0.007903242410443271
    var4 = 0.033362703281241905 + input[0] * 0.0042567569418776865 + input[1] * 0.026449009604524218 + input[2] * 0.00634139999851175 + input[3] * 0.020960144734678582 + input[4] * -0.01868764699733953 + input[5] * 0.005484457793245084 + input[6] * 0.0032483219866197063 + input[7] * 0.03752861687497427 + input[8] * 0.00854174147219531 + input[9] * -0.021384557271110997 + input[10] * -0.03504965641407978
    var5 = input[11] * -0.021188873443291803
    var6 = -6.794402095863329 + input[0] * -0.00013848787590557018 + input[1] * 0.00033536317189534305 + input[2] * 0.00007698912452461315 + input[3] * -0.0006309489267935836 + input[4] * 0.0020012740543713095 + input[5] * -0.004836112027759131 + input[6] * -0.0025708611504028675 + input[7] * 0.0004777897150854382 + input[8] * -0.0003356264525629001 + input[9] * -0.003963217343858814 + input[10] * 0.0028809145121190247
    var7 = input[11] * 0.0001243426365129548
    return [var0 + var1 + input[12] * -0.007413695383631961 + input[13] * -0.02404318606627641 + input[14] * -0.009291890035625073 + input[15] * -0.03998465776926838 + input[16] * 0.0244739032924105 + input[17] * 0.02000442741801052 + input[18] * -0.027346868809522886 + input[19] * -0.10960293945860025 + input[20] * -0.009032767162035906 + input[21] * 0.0032052733525898694 + input[22] * -0.03737025162333402 + input[23] * -0.014163112547803287 + input[24] * -0.33016483628746723 + input[25] * -0.2567851476429398 + input[26] * 0.0044332017141083535 + input[27] * -0.008707930919042655 + input[28] * -0.004519931785263558 + input[29] * -0.021252218202352527 + input[30] * -0.10249049154337316 + input[31] * 0.029365307554111007 + input[32] * 0.010892727168423393 + input[33] * -0.0661670245132479 + input[34] * -0.011434886089564727 + input[35] * 0.006280139474280588 + input[36] * 0.1529881637459125 + input[37] * 0.24443372614844508 + input[38] * 0.03097338966609045 + input[39] * 0.02796155567134885 + input[40] * 0.004564730609394816 + input[41] * 0.03219747386252223 + input[42] * 0.1394303220895516 + input[43] * 0.0798140986419658 + input[44] * 0.014413682934623893 + input[45] * 0.018789973934063522 + input[46] * -0.047164971432277394 + input[47] * -0.03372948555637437 + input[48] * 0.0703762631418135 + input[49] * 0.02663827065971922 + input[50] * 0.005721474010492019 + input[51] * -0.005362595909056062 + input[52] * 0.0291590558030403 + input[53] * 0.07055558737622529 + input[54] * 0.019974971861179112 + input[55] * -0.010339101631482026 + input[56] * 0.013519177090147862 + input[57] * -0.013155042378161197 + input[58] * 0.007872140461372818 + input[59] * -0.00469967389923683 + input[60] * -0.0017222523134316806 + input[61] * 0.007611793421894387 + input[62] * 0.0035482701646369235 + input[63] * 0.07848012938257705 + input[64] * -0.03234709984520655 + input[65] * -0.04974652066678756, var2 + var3 + input[12] * 0.0023814651168744677 + input[13] * -0.007529974730724721 + input[14] * 0.00006445725391598228 + input[15] * 0.010580695795824959 + input[16] * -0.005260260902544893 + input[17] * -0.0275461786961849 + input[18] * 0.05093222675596046 + input[19] * -0.056915752015702446 + input[20] * 0.00022049916121041617 + input[21] * -0.039957978483485854 + input[22] * 0.05137055434338913 + input[23] * -0.0013259921787387092 + input[24] * 0.3749321314939578 + input[25] * -0.06473417352785367 + input[26] * 0.01968214714456803 + input[27] * 0.004739122370910477 + input[28] * 0.007552516498806084 + input[29] * 0.008677037495612024 + input[30] * 0.07763061728393307 + input[31] * -0.011134603212675735 + input[32] * -0.009648948985115285 + input[33] * 0.0286199383108729 + input[34] * 0.0002159806179706701 + input[35] * 0.015647997053650463 + input[36] * -0.2709602110899975 + input[37] * 0.03710537983206189 + input[38] * -0.02407289196002039 + input[39] * -0.027326996130903752 + input[40] * -0.002044957267716985 + input[41] * 0.00879686478317425 + input[42] * -0.18133606207559033 + input[43] * 0.040149520993702656 + input[44] * -0.018863235200658676 + input[45] * -0.02112180101566377 + input[46] * -0.0025650428320459612 + input[47] * -0.005114234063694862 + input[48] * -0.07967814783796862 + input[49] * -0.009579013552446317 + input[50] * -0.0031329133163261525 + input[51] * -0.0031923948547109395 + input[52] * -0.03333984944461438 + input[53] * -0.07276716650038711 + input[54] * -0.028877859744610903 + input[55] * -0.0024778435758498842 + input[56] * -0.006446978349090579 + input[57] * 0.012267219880444392 + input[58] * -0.02176114599885713 + input[59] * 0.0252598263346146 + input[60] * -0.008432272503872441 + input[61] * 0.00044306689607036867 + input[62] * -0.001129293122372839 + input[63] * -0.05712712822875138 + input[64] * 0.012320918393630193 + input[65] * 0.02518815224057571, var4 + var5 + input[12] * 0.005975623531143719 + input[13] * 0.03116687157428454 + input[14] * 0.0061676129985153184 + input[15] * 0.04097092802352306 + input[16] * -0.020648856755565752 + input[17] * -0.04036251921535737 + input[18] * -0.029029865219973736 + input[19] * 0.16921878458733566 + input[20] * 0.008951125494344377 + input[21] * -0.010952144120237647 + input[22] * 0.03478159104956109 + input[23] * -0.0051450631439513336 + input[24] * -0.046751420715794786 + input[25] * 0.32490590596365 + input[26] * -0.017892876306989266 + input[27] * 0.02338246577935325 + input[28] * 0.018378753891007866 + input[29] * 0.061078093264873255 + input[30] * 0.030612850656413827 + input[31] * -0.018731610738725486 + input[32] * -0.000001403963618919676 + input[33] * 0.07991807593759871 + input[34] * -0.01223497469344866 + input[35] * 0.012093610820118549 + input[36] * 0.11707977818243634 + input[37] * -0.281951556813874 + input[38] * -0.009341468299126583 + input[39] * 0.014670171083551708 + input[40] * -0.010688478945919939 + input[41] * -0.05327345349618767 + input[42] * 0.04034442662653328 + input[43] * -0.11978561108708027 + input[44] * 0.003876349929414979 + input[45] * 0.004548963278427397 + input[46] * 0.03781976472930166 + input[47] * 0.0353214485861157 + input[48] * 0.009307640258979545 + input[49] * -0.017545462360781777 + input[50] * -0.003571751749464759 + input[51] * 0.008955857637973028 + input[52] * 0.0006291913339186551 + input[53] * -0.003535255615071013 + input[54] * 0.00857085968749248 + input[55] * 0.012628293083795986 + input[56] * -0.007580045455728221 + input[57] * -0.00022210269830964859 + input[58] * 0.014001289269134432 + input[59] * -0.023963784436464297 + input[60] * 0.010097616762110835 + input[61] * -0.008109187877931254 + input[62] * -0.0024800759669612697 + input[63] * -0.02176195337940744 + input[64] * 0.02281025182899336 + input[65] * 0.02329812694272995, var6 + var7 + input[12] * -0.000943393264394226 + input[13] * 0.00040628922271742566 + input[14] * 0.0030598197832099067 + input[15] * -0.011566966050126032 + input[16] * 0.0014352143657071284 + input[17] * 0.04790427049357708 + input[18] * 0.005444507273544597 + input[19] * -0.00270009311303629 + input[20] * -0.00013885749350211826 + input[21] * 0.04770484925125183 + input[22] * -0.0487818937696929 + input[23] * 0.02063416787055952 + input[24] * 0.0019841255093123104 + input[25] * -0.0033865847928622496 + input[26] * -0.006222472551681061 + input[27] * -0.01941365723116163 + input[28] * -0.021411338604611044 + input[29] * -0.048502912558214255 + input[30] * -0.005752976396977016 + input[31] * 0.0005009063972833039 + input[32] * -0.0012423742196880885 + input[33] * -0.04237098973533504 + input[34] * 0.02345388016506101 + input[35] * -0.03402174734811446 + input[36] * 0.0008922691616359877 + input[37] * 0.00041245083337598077 + input[38] * 0.0024409705930737075 + input[39] * -0.015304730624044523 + input[40] * 0.008168705604296752 + input[41] * 0.012279114850572396 + input[42] * 0.0015613133595077837 + input[43] * -0.00017800854858722345 + input[44] * 0.0005732023366306915 + input[45] * -0.0022171361967915047 + input[46] * 0.011910249535012449 + input[47] * 0.003522271033970311 + input[48] * -0.000005755562822684966 + input[49] * 0.0004862052535094688 + input[50] * 0.0009831910553060317 + input[51] * -0.00040086687422958325 + input[52] * 0.003551602307667445 + input[53] * 0.005746834739190873 + input[54] * 0.0003320281959377133 + input[55] * 0.000188652123537158 + input[56] * 0.0005078467146807933 + input[57] * 0.0011099251960498377 + input[58] * -0.00011228373166054955 + input[59] * 0.003403632001080381 + input[60] * 0.00005690805519273151 + input[61] * 0.00005432755996917418 + input[62] * 0.00006109892470674874 + input[63] * 0.000408952225572389 + input[64] * -0.002784070377426375 + input[65] * 0.0012602414834595333]
