def score(input):
    var0 = 6.942941394425768 + input[0] * -0.02820771949263409 + input[1] * -0.021026200373100955 + input[2] * -0.006919054284400995 + input[3] * -0.032971433064146696 + input[4] * 0.004120555070590544 + input[5] * -0.016504942862537515 + input[6] * -0.03739530126338832 + input[7] * -0.018031277901310393 + input[8] * -0.0034357890078205275 + input[9] * 0.04817220936773745 + input[10] * 0.01482269361862546 + input[11] * 0.0197802946156938 + input[12] * -0.025527155823705842 + input[13] * -0.019850262914232624 + input[14] * 0.03764762967572946 + input[15] * -0.011356763598672862
    var1 = input[16] * 0.028166282861879707
    var2 = var0 + var1 + input[17] * 0.01862066650492331 + input[18] * -0.03479137493267228 + input[19] * -0.01682127821057192 + input[20] * 0.04858501006904486 + input[21] * 0.009567202910359144 + input[22] * -0.007865875264105721 + input[23] * -0.011328413895962506 + input[24] * -0.018658511356291565 + input[25] * -0.03385219338699455 + input[26] * 0.02443088380720429 + input[27] * -0.053149883509810064 + input[28] * -0.0021095189260206286 + input[29] * 0.0026930977314626988 + input[30] * -0.029477467111250752 + input[31] * -0.07825127773514465 + input[32] * 0.013176469056960426 + input[33] * -0.02140073934070087 + input[34] * -0.03801311193687167 + input[35] * 0.00273347504298486 + input[36] * -0.08057496421674606 + input[37] * -0.23849634476279585 + input[38] * 0.018907357218678127 + input[39] * 0.029062929507143283 + input[40] * 0.08782073811997468 + input[41] * -0.037614632395584574 + input[42] * -0.26098825840438433 + input[43] * -0.3019482896716652 + input[44] * 0.0018081862216930622 + input[45] * -0.07273380072508923 + input[46] * -0.03773372527976711 + input[47] * -0.009095008536470566 + input[48] * -0.24373815292754344 + input[49] * -0.14348371680261457 + input[50] * 0.008256695807387167 + input[51] * 0.02826116894396743 + input[52] * 0.027683597709531698 + input[53] * -0.020652034106091656 + input[54] * -0.21841851187773947 + input[55] * -0.10165215520057129 + input[56] * -0.01245890309739235 + input[57] * -0.03039801223310925 + input[58] * 0.019163381591983813 + input[59] * -0.009949490546173003 + input[60] * -0.06250312056423421 + input[61] * -0.07168421745039538 + input[62] * -0.014315041584636808 + input[63] * -0.04698508872115155 + input[64] * -0.010889686276315636 + input[65] * 0.01893533675653529 + input[66] * -0.04436782647960596 + input[67] * -0.0063853882037027574 + input[68] * 0.02646377975082879 + input[69] * -0.0033157608288643956 + input[70] * -0.017300965310162456
    var3 = input[71] * 0.004245689102051762
    var4 = 1.3065699333664094 + input[0] * 0.013457862892109457 + input[1] * -0.014847178804390014 + input[2] * -0.007531504541875723 + input[3] * 0.011005958465583327 + input[4] * -0.004581554151013777 + input[5] * 0.009833780616304903 + input[6] * 0.010610050752095531 + input[7] * -0.011332818865435634 + input[8] * 0.00026445224113625195 + input[9] * -0.01253492413702124 + input[10] * -0.004041482162293152 + input[11] * -0.0036687590287945546 + input[12] * 0.009167405172970601 + input[13] * -0.019657691733799942 + input[14] * -0.028796390930662167 + input[15] * 0.03558458031329934
    var5 = input[16] * -0.014542188142919134
    var6 = var4 + var5 + input[17] * -0.021458840007084985 + input[18] * 0.01853280413839334 + input[19] * -0.013257667976367063 + input[20] * -0.037728659527152396 + input[21] * -0.0014476701663360552 + input[22] * 0.031178063361156475 + input[23] * -0.008754101338318976 + input[24] * 0.004288068572667759 + input[25] * -0.014247942599107449 + input[26] * -0.019685548680119843 + input[27] * 0.006199987123891086 + input[28] * -0.00035972120462759234 + input[29] * 0.03174405334681997 + input[30] * 0.030594215471221913 + input[31] * -0.024788437672601905 + input[32] * -0.011329585912373947 + input[33] * 0.0054769319175732275 + input[34] * 0.03361787510373918 + input[35] * -0.013946639779624317 + input[36] * 0.10733763612615162 + input[37] * -0.06132627998984661 + input[38] * -0.012925903616915457 + input[39] * -0.01975566479822312 + input[40] * -0.026442138313134616 + input[41] * 0.023889132777948664 + input[42] * 0.26510299821611427 + input[43] * -0.057372306703746316 + input[44] * 0.0029401290712338666 + input[45] * 0.007013547392712164 + input[46] * 0.04401779941392085 + input[47] * -0.021496107836860352 + input[48] * 0.35944605873724766 + input[49] * -0.06502198289725072 + input[50] * 0.004202570928016686 + input[51] * -0.002161660057471375 + input[52] * -0.02736117911230339 + input[53] * 0.007682513984814151 + input[54] * 0.26458367073026523 + input[55] * -0.06047107162829427 + input[56] * 0.013781950065409124 + input[57] * 0.010076133888226996 + input[58] * 0.013670563527073132 + input[59] * 0.003908176172237805 + input[60] * 0.0953620134073702 + input[61] * -0.004893211469499951 + input[62] * 0.0021054603527886208 + input[63] * 0.014195978946974832 + input[64] * -0.021351277892835967 + input[65] * -0.0016803646435870955 + input[66] * 0.005703659875761095 + input[67] * -0.03346062404438865 + input[68] * -0.007996096114215447 + input[69] * 0.010787679824879385 + input[70] * -0.019705130262463566
    var7 = input[71] * -0.010720987808683519
    var8 = -0.7219748046392577 + input[0] * 0.014576232166458578 + input[1] * 0.03586107583047752 + input[2] * 0.014993572137577483 + input[3] * 0.022761955278325426 + input[4] * 0.0018833525878789626 + input[5] * 0.019511726493184472 + input[6] * 0.027220891759043787 + input[7] * 0.02925577458543523 + input[8] * 0.0036845699257699 + input[9] * -0.03744342500432068 + input[10] * -0.007413730967543661 + input[11] * -0.003959032126607759 + input[12] * 0.018611002290260824 + input[13] * 0.039147861822833155 + input[14] * -0.00839962236641292 + input[15] * -0.027439630311318682
    var9 = input[16] * -0.014631551056669455
    var10 = var8 + var9 + input[17] * 0.0066431417325135194 + input[18] * 0.018897713446197575 + input[19] * 0.029381645401717654 + input[20] * -0.010382651081818395 + input[21] * -0.000127943785575842 + input[22] * -0.023414637371284557 + input[23] * 0.007564319593453308 + input[24] * 0.014410694418625953 + input[25] * 0.04758703302556786 + input[26] * -0.005807882442214333 + input[27] * 0.04996478450519268 + input[28] * 0.00841014833471731 + input[29] * -0.060613775293737196 + input[30] * -0.0032586909809655825 + input[31] * 0.1036931995565432 + input[32] * -0.0036884429561561526 + input[33] * -0.0028050301288558496 + input[34] * 0.01983685885256621 + input[35] * -0.022445099099496095 + input[36] * -0.030601095468985148 + input[37] * 0.30195863376407095 + input[38] * -0.006086201969768866 + input[39] * -0.029449055517862345 + input[40] * -0.029194162210410723 + input[41] * -0.0034632892724305872 + input[42] * -0.008411305825993129 + input[43] * 0.3620669986521067 + input[44] * -0.0029329041013990047 + input[45] * 0.04528510941294464 + input[46] * 0.020817709168786454 + input[47] * 0.03589759792491064 + input[48] * -0.11816653726094092 + input[49] * 0.21118048997958963 + input[50] * -0.008271661635646311 + input[51] * -0.03684302033301026 + input[52] * 0.021665382654389678 + input[53] * 0.03443466030384334 + input[54] * -0.04612552384546948 + input[55] * 0.163919424531293 + input[56] * 0.0039303633441392675 + input[57] * 0.028348569001400727 + input[58] * -0.02549923003193559 + input[59] * 0.029702306729784963 + input[60] * -0.030637695016988323 + input[61] * 0.07648237956198954 + input[62] * 0.01504102548121614 + input[63] * 0.049549318649593305 + input[64] * 0.016149897653069296 + input[65] * -0.0011940534785763865 + input[66] * 0.0412395208348993 + input[67] * 0.03970817462640172 + input[68] * -0.01743077790814522 + input[69] * 0.009359249148283 + input[70] * 0.02999058364191415
    var11 = input[71] * 0.013652639351206128
    var12 = -7.527536523081659 + input[0] * 0.00017362443406636086 + input[1] * 0.000012303347013444339 + input[2] * -0.0005430133113038228 + input[3] * -0.0007964806797593511 + input[4] * -0.0014223535074881042 + input[5] * -0.012840564247042859 + input[6] * -0.00043564124774488923 + input[7] * 0.00010832218131170702 + input[8] * -0.0005132331590837816 + input[9] * 0.0018061397736573422 + input[10] * -0.0033674804888435004 + input[11] * -0.012152503460363033 + input[12] * -0.002251251639522001 + input[13] * 0.0003600928252013129 + input[14] * -0.00045161637865425607 + input[15] * 0.003211813596668478
    var13 = input[16] * 0.001007456337667392
    var14 = var12 + var13 + input[17] * -0.0038049682304485922 + input[18] * -0.0026391426519090933 + input[19] * 0.0006973007852205912 + input[20] * -0.0004736994600789375 + input[21] * -0.007991588958516158 + input[22] * 0.00010244927427394379 + input[23] * 0.012518195640685825 + input[24] * -0.0000402516349921344 + input[25] * 0.0005131029605323355 + input[26] * 0.0010625473151223601 + input[27] * -0.0030148881192983163 + input[28] * -0.005940908204105658 + input[29] * 0.026176624215262248 + input[30] * 0.002141942620995605 + input[31] * -0.0006534841487952458 + input[32] * 0.0018415598115572851 + input[33] * 0.018728837552028876 + input[34] * -0.01544162201935989 + input[35] * 0.03365826383589592 + input[36] * 0.0038384235595656205 + input[37] * -0.0021360090114237802 + input[38] * 0.00010474836799469249 + input[39] * 0.020141790808871875 + input[40] * -0.03218443759634048 + input[41] * 0.01718878888982828 + input[42] * 0.004296566014250148 + input[43] * -0.0027464022766882407 + input[44] * -0.0018154111915292155 + input[45] * 0.020435143919336554 + input[46] * -0.027101783302842377 + input[47] * -0.0053064815517165995 + input[48] * 0.0024586314512241884 + input[49] * -0.0026747902797085153 + input[50] * -0.00418760509974975 + input[51] * 0.010743511446455398 + input[52] * -0.021987801251466925 + input[53] * -0.021465140182536216 + input[54] * -0.00003963500705710337 + input[55] * -0.0017961977024161754 + input[56] * -0.005253410312145176 + input[57] * -0.008026690656487624 + input[58] * -0.007334715087015111 + input[59] * -0.02366099235579149 + input[60] * -0.002221197826137197 + input[61] * 0.00009504935790215529 + input[62] * -0.0028314442493569568 + input[63] * -0.016760208875374296 + input[64] * 0.016091066516049572 + input[65] * -0.016060918634322824 + input[66] * -0.0025753542310460167 + input[67] * 0.00013783762168167289 + input[68] * -0.0010369057284640134 + input[69] * -0.016831168144158814 + input[70] * 0.007015511930660543
    var15 = input[71] * -0.0071773406446056075
    return [var2 + var3 + input[72] * -0.033738062955390495 + input[73] * 0.07949070674751557 + input[74] * -0.00030288117596233874 + input[75] * -0.057149715912140735 + input[76] * -0.03193389285078017 + input[77] * -0.00595973399246317 + input[78] * 0.018575158382913314 + input[79] * 0.08005853007990991 + input[80] * 0.0026964709248230526 + input[81] * 0.004293063919892481 + input[82] * 0.025407295789018493 + input[83] * -0.017716923044785875 + input[84] * 0.08195422355169778 + input[85] * 0.11549480668790577 + input[86] * -0.013884857417571254 + input[87] * -0.0008258290716982034 + input[88] * 0.026909202740735723 + input[89] * 0.0002437364502346292 + input[90] * 0.1461687870190215 + input[91] * 0.25525840583688475 + input[92] * -0.025934080433439827 + input[93] * -0.04222482093524127 + input[94] * -0.04860090638432018 + input[95] * 0.01840023306034195 + input[96] * 0.1467421210423217 + input[97] * 0.1822798720470361 + input[98] * -0.01867540261911411 + input[99] * -0.07963765278906655 + input[100] * 0.04221179675588691 + input[101] * 0.01944249720733432 + input[102] * 0.14494305458440176 + input[103] * 0.1678250071470639 + input[104] * -0.01263170130110709 + input[105] * 0.09575696164724273 + input[106] * 0.026764806208532922 + input[107] * -0.02771246610267255 + input[108] * 0.17144851513746867 + input[109] * 0.07527602450778113 + input[110] * -0.01272742272899428 + input[111] * -0.045918136179542025 + input[112] * -0.039380065344243986 + input[113] * -0.05305820496812464 + input[114] * 0.09926852406086034 + input[115] * 0.04469909787274125 + input[116] * 0.00765332992821623 + input[117] * 0.0454948464233486 + input[118] * -0.03585761905144417 + input[119] * 0.11026198225584088 + input[120] * 0.027189364362114124 + input[121] * 0.025719079130195194 + input[122] * -0.023008065169781544 + input[123] * 0.1300137577695331 + input[124] * 0.028068431667246194 + input[125] * -0.05645076689913838, var6 + var7 + input[72] * 0.023237577663534306 + input[73] * -0.02178526143973819 + input[74] * 0.007542403513675023 + input[75] * 0.019877184578505448 + input[76] * -0.02169203041798479 + input[77] * 0.011770236576288907 + input[78] * -0.02513061522355521 + input[79] * -0.014519735449262942 + input[80] * 0.001783559665090869 + input[81] * 0.02523607253976631 + input[82] * -0.04225629506201011 + input[83] * -0.006334415201893854 + input[84] * -0.14752001386972957 + input[85] * 0.011565825400648004 + input[86] * -0.00794608038287121 + input[87] * -0.018970820461887698 + input[88] * -0.04214806868503701 + input[89] * 0.023589124676267257 + input[90] * -0.20333409476162861 + input[91] * 0.028358862171518864 + input[92] * 0.0012958438186707324 + input[93] * 0.024659056614287512 + input[94] * -0.0015403656346353472 + input[95] * -0.010810888907688184 + input[96] * -0.21565653814359456 + input[97] * 0.03458099979995645 + input[98] * -0.014290167261776555 + input[99] * 0.041784641058007235 + input[100] * -0.02796116627787932 + input[101] * 0.020138924307136766 + input[102] * -0.18397587785550307 + input[103] * 0.029180086557639855 + input[104] * -0.00871417593316018 + input[105] * -0.06932664340647571 + input[106] * -0.039056497490612706 + input[107] * -0.01852251255975214 + input[108] * -0.1983151803538183 + input[109] * 0.030708442035294194 + input[110] * -0.0033057598409146067 + input[111] * 0.04617289426024357 + input[112] * 0.02967159256014232 + input[113] * 0.06758642395962303 + input[114] * -0.13713306362508698 + input[115] * 0.004148508181722415 + input[116] * -0.006242599790590981 + input[117] * -0.025363556414211702 + input[118] * -0.0007824745471270456 + input[119] * -0.10798587294845233 + input[120] * -0.06225939549188842 + input[121] * -0.01896116611895412 + input[122] * 0.008868382739634596 + input[123] * -0.06272449449798072 + input[124] * -0.044362115571773005 + input[125] * 0.022479687088811234, var10 + var11 + input[72] * 0.012173074669719047 + input[73] * -0.05731814901650478 + input[74] * -0.006766666308708772 + input[75] * 0.05438834692920465 + input[76] * 0.049652359897396296 + input[77] * -0.007306706034292328 + input[78] * 0.006991838286141488 + input[79] * -0.06513676267297307 + input[80] * -0.003739774956412622 + input[81] * -0.020884952142873846 + input[82] * 0.01051020962485272 + input[83] * 0.02212393251408026 + input[84] * 0.06629126590748924 + input[85] * -0.1271980185746591 + input[86] * 0.022445728084294153 + input[87] * 0.031284107699563156 + input[88] * 0.004946029700640714 + input[89] * -0.026547136209220876 + input[90] * 0.05841449383130848 + input[91] * -0.2845435076310299 + input[92] * 0.024527935988245 + input[93] * 0.02672364886469306 + input[94] * 0.041958351377951585 + input[95] * -0.014643704941039172 + input[96] * 0.0695540925615534 + input[97] * -0.21764614461560336 + input[98] * 0.032225835469190396 + input[99] * 0.04207472382964557 + input[100] * -0.016959507408391018 + input[101] * -0.04831187644084126 + input[102] * 0.03799861282977674 + input[103] * -0.19723109305517966 + input[104] * 0.02049162289657804 + input[105] * -0.025005014932500732 + input[106] * 0.007850967768792953 + input[107] * 0.04768913535053903 + input[108] * 0.025720969763930825 + input[109] * -0.10585454770703683 + input[110] * 0.015518527901867652 + input[111] * -0.0029082077069204604 + input[112] * 0.005581289790811571 + input[113] * -0.014423017623511314 + input[114] * 0.036783840134712795 + input[115] * -0.048746437537508826 + input[116] * -0.0005343067597155441 + input[117] * -0.023917914403256545 + input[118] * 0.03351858436532406 + input[119] * -0.009183299500439602 + input[120] * 0.034549829976611324 + input[121] * -0.006564825403586836 + input[122] * 0.01485485298442282 + input[123] * -0.07948289071765856 + input[124] * 0.01091985566136898 + input[125] * 0.02809921818104901, var14 + var15 + input[72] * -0.0016725893778530131 + input[73] * -0.00038729629127228795 + input[74] * -0.00047285602900562295 + input[75] * -0.01711581559541288 + input[76] * 0.00397356337134207 + input[77] * 0.0014962034503824444 + input[78] * -0.00043638144549666507 + input[79] * -0.0004020319576712106 + input[80] * -0.0007402556335071664 + input[81] * -0.008644184316720175 + input[82] * 0.006338789648136799 + input[83] * 0.0019274057324676689 + input[84] * -0.0007254755894531807 + input[85] * 0.00013738648610811527 + input[86] * -0.0006147902838622729 + input[87] * -0.011487458165935736 + input[88] * 0.010292836243657495 + input[89] * 0.002714275082568022 + input[90] * -0.0012491860887021903 + input[91] * 0.0009262396226281739 + input[92] * 0.00011030062651507399 + input[93] * -0.009157884543680023 + input[94] * 0.008182920640944622 + input[95] * 0.0070543607882543775 + input[96] * -0.000639675460285921 + input[97] * 0.0007852727686150224 + input[98] * 0.0007397344116929996 + input[99] * -0.0042217120985947355 + input[100] * 0.002708876930442157 + input[101] * 0.008730454926213263 + input[102] * 0.001034210441319572 + input[103] * 0.00022599935047685305 + input[104] * 0.0008542543376814272 + input[105] * -0.0014253033083271498 + input[106] * 0.004440723513309371 + input[107] * -0.0014541566882278266 + input[108] * 0.0011456954524156158 + input[109] * -0.00012991883603611566 + input[110] * 0.0005146546680377647 + input[111] * 0.0026534496261804708 + input[112] * 0.004127182993271254 + input[113] * -0.00010520136806420631 + input[114] * 0.0010806994295132228 + input[115] * -0.00010116851695259563 + input[116] * -0.0008764233779121834 + input[117] * 0.00378662439408006 + input[118] * 0.003121509233246807 + input[119] * 0.006907190192989133 + input[120] * 0.0005202011531622624 + input[121] * -0.00019308760765363744 + input[122] * -0.0007151705542785331 + input[123] * 0.012193627446059037 + input[124] * 0.005373828243174774 + input[125] * 0.005871861629245113]
