def score(input):
    var0 = 7.915767546784094 + input[0] * -0.005116061981518601 + input[1] * -0.0038898123486153426 + input[2] * 0.0021035411388121935 + input[3] * -0.016633821925814047 + input[4] * -0.0007002397089369838 + input[5] * -0.0029127361572407143 + input[6] * -0.006669077215935826 + input[7] * -0.010036759835893425 + input[8] * -0.000506709356819662 + input[9] * 0.006980376534130742 + input[10] * 0.0033341481037532116 + input[11] * 0.0024206165228742344 + input[12] * -0.013164694666682226 + input[13] * -0.028474904981451846 + input[14] * 0.0008116440209536395 + input[15] * 0.016899265568978927
    var1 = input[16] * 0.008872587602552112
    var2 = var0 + var1 + input[17] * 0.015200341651775853 + input[18] * -0.05310072639665106 + input[19] * -0.10388180050349888 + input[20] * 0.0019208705633132577 + input[21] * -0.006764853229961484 + input[22] * -0.0018723802655982943 + input[23] * -0.0001594586526573768 + input[24] * -0.07660034671229474 + input[25] * -0.12068570205243712 + input[26] * -0.004867630738191771 + input[27] * -0.02173022751964713 + input[28] * 0.0011817222728148983 + input[29] * -0.02391134198690547 + input[30] * -0.09765387008395447 + input[31] * -0.04047212316693402 + input[32] * -0.002103415826658947 + input[33] * -0.01860961727022655 + input[34] * -0.00598100486418279 + input[35] * -0.045350423976915036 + input[36] * -0.11643848133014247 + input[37] * 0.020132075700822726 + input[38] * -0.0019214216255717326 + input[39] * -0.019068952728388332 + input[40] * 0.00808389693672661 + input[41] * -0.04830591425132539 + input[42] * -0.0268280858121717 + input[43] * 0.07528921458619943 + input[44] * -0.007263052325596321 + input[45] * -0.018534899072692016 + input[46] * -0.013173873461880283 + input[47] * 0.025157197997396456 + input[48] * 0.07737916552538804 + input[49] * 0.11291520473678698 + input[50] * 0.0005730528058979111 + input[51] * -0.005933262222749787 + input[52] * 0.02345579957571682 + input[53] * 0.06473126724810052 + input[54] * 0.08918673426483582 + input[55] * 0.07932901258635161 + input[56] * -0.004625937532927421 + input[57] * 0.010414069902067146 + input[58] * -0.016683223535816853 + input[59] * -0.02752520010198963 + input[60] * 0.09062349472993138 + input[61] * 0.021144597286604436 + input[62] * -0.0007280578498286807 + input[63] * -0.03673603182732478 + input[64] * 0.0030655437635700596 + input[65] * -0.05110712517517821 + input[66] * 0.05498980351911381 + input[67] * 0.00571592692587457 + input[68] * 0.0049711562292087735 + input[69] * -0.019175605684794414 + input[70] * -0.015249091314973675
    var3 = input[71] * 0.04899527750048395
    var4 = 0.15537296128169206 + input[0] * 0.002586284033475985 + input[1] * -0.006483028873505441 + input[2] * -0.003614638228555198 + input[3] * 0.004250095403376218 + input[4] * 0.0027047614341666956 + input[5] * 0.008035355656509669 + input[6] * 0.006748578793652453 + input[7] * -0.0042943302308250724 + input[8] * -0.001451666876563282 + input[9] * -0.005665788284052716 + input[10] * -0.0005977474526679805 + input[11] * 0.008654914095192664 + input[12] * 0.021254227486102756 + input[13] * -0.005725366065001914 + input[14] * -0.0013717379150596843 + input[15] * -0.005116216589716044
    var5 = input[16] * -0.008175005632081359
    var6 = var4 + var5 + input[17] * 0.006113186102638642 + input[18] * 0.04389761359863038 + input[19] * -0.019999857896345383 + input[20] * -0.0005606910697981779 + input[21] * 0.004186474102319312 + input[22] * 0.004527709482919982 + input[23] * -0.03839622264366675 + input[24] * 0.10295975568358748 + input[25] * -0.030195987051159928 + input[26] * 0.003256898997750883 + input[27] * 0.0003865569862131218 + input[28] * -0.018510571590723862 + input[29] * -0.039474610674254375 + input[30] * 0.1517526231915035 + input[31] * -0.029742638577588618 + input[32] * 0.003057774163685901 + input[33] * -0.013780722595851473 + input[34] * -0.017045790139509003 + input[35] * 0.008077880881003797 + input[36] * 0.13448969296017224 + input[37] * -0.021187420898600803 + input[38] * -0.00013097329871361186 + input[39] * 0.009858162120314035 + input[40] * 0.0024156771282501863 + input[41] * 0.023006129107052138 + input[42] * -0.02391404396593491 + input[43] * 0.009553979220851511 + input[44] * 0.002169325318898268 + input[45] * 0.005863798677192679 + input[46] * 0.027252569076158004 + input[47] * 0.013047007017864341 + input[48] * -0.10560046652166094 + input[49] * 0.017063691652835472 + input[50] * -0.002879999102685007 + input[51] * -0.0063067076858123634 + input[52] * -0.03167858319109958 + input[53] * 0.005490488227035497 + input[54] * -0.11451873527783775 + input[55] * 0.019517622742116988 + input[56] * -0.0009063728136347544 + input[57] * -0.004738796404367318 + input[58] * 0.013260690260031929 + input[59] * 0.06353149132877743 + input[60] * -0.10123866528165729 + input[61] * 0.019608351393893893 + input[62] * -0.005593941526191985 + input[63] * 0.010997361273197335 + input[64] * -0.0019765950921687347 + input[65] * 0.0392269037684084 + input[66] * -0.06464649697558428 + input[67] * 0.006708245323725386 + input[68] * -0.006398150915239316 + input[69] * 0.020239357778405177 + input[70] * 0.01467810913888352
    var7 = input[71] * -0.08703209247529309
    var8 = -0.06613898504703956 + input[0] * 0.0025264753275297557 + input[1] * 0.010279301722458788 + input[2] * 0.00030570880365655425 + input[3] * 0.012248681242822608 + input[4] * -0.0024354897503868177 + input[5] * -0.0038323333093647216 + input[6] * 0.00013607160841435972 + input[7] * 0.014260153050013774 + input[8] * 0.0008184862073440745 + input[9] * -0.0011331781292490111 + input[10] * -0.003668166566379672 + input[11] * -0.009618751240477195 + input[12] * -0.007048625334854457 + input[13] * 0.03406039720201958 + input[14] * -0.0005860564469386388 + input[15] * -0.010843680349296213
    var9 = input[16] * -0.002577028865598067
    var10 = var8 + var9 + input[17] * -0.022563562323487444 + input[18] * 0.010947508857495427 + input[19] * 0.1236540505539203 + input[20] * -0.0032098904600684074 + input[21] * 0.008509858548139253 + input[22] * -0.00610828732475387 + input[23] * 0.028820556623183526 + input[24] * -0.026004775043868243 + input[25] * 0.15093012072477044 + input[26] * -0.0006686388894711328 + input[27] * 0.022323207840814263 + input[28] * 0.01856990155406014 + input[29] * 0.04403600442147017 + input[30] * -0.05525198207516617 + input[31] * 0.07051288683466592 + input[32] * -0.0035887410606892023 + input[33] * 0.01602659699588538 + input[34] * 0.030887916450976043 + input[35] * 0.016336051410104108 + input[36] * -0.02024059414969233 + input[37] * 0.0017079927716004127 + input[38] * 0.0006660518169496363 + input[39] * -0.005562028313275949 + input[40] * 0.009542613666508817 + input[41] * 0.013307286344053287 + input[42] * 0.04816556004957783 + input[43] * -0.0839957311633263 + input[44] * 0.004809483249594361 + input[45] * 0.0027871570713638464 + input[46] * 0.006195895841956054 + input[47] * -0.03325314403282902 + input[48] * 0.026685346827611905 + input[49] * -0.1289091078326368 + input[50] * 0.0028785738786007106 + input[51] * 0.00952081193592775 + input[52] * 0.019749616329674462 + input[53] * -0.05191951553420227 + input[54] * 0.025817549934017338 + input[55] * -0.09798942039191437 + input[56] * 0.006564422396972215 + input[57] * -0.0013442309630365605 + input[58] * 0.008851070504106873 + input[59] * -0.013448489583481554 + input[60] * 0.01203961319488222 + input[61] * -0.04053783994382569 + input[62] * 0.006220554661919792 + input[63] * 0.036520530402806256 + input[64] * -0.007493992665037051 + input[65] * 0.029848486742961946 + input[66] * 0.011376805674049039 + input[67] * -0.012621355415945695 + input[68] * 0.00033090954028256505 + input[69] * 0.014724568594454434 + input[70] * -0.002525357791612376
    var11 = input[71] * 0.04516123004722979
    var12 = -8.005001522930444 + input[0] * 0.000003302620513657412 + input[1] * 0.00009353949966227087 + input[2] * 0.001205388286079932 + input[3] * 0.0001350452795834643 + input[4] * 0.0004309680251665195 + input[5] * -0.0012902861899553697 + input[6] * -0.000215573186132197 + input[7] * 0.00007093701670396746 + input[8] * 0.0011398900260337875 + input[9] * -0.0001814101208158719 + input[10] * 0.0009317659153253566 + input[11] * -0.0014567793776329395 + input[12] * -0.0010409074845657371 + input[13] * 0.00013987384443203506 + input[14] * 0.001146150341039798 + input[15] * -0.0009393686299471362
    var13 = input[16] * 0.0018794468951285025
    var14 = var12 + var13 + input[17] * 0.0012500345690413899 + input[18] * -0.0017443960594784918 + input[19] * 0.00022760784591885792 + input[20] * 0.0018497109665464061 + input[21] * -0.005931479420506782 + input[22] * 0.00345295810745621 + input[23] * 0.009735124673085975 + input[24] * -0.0003546339274327794 + input[25] * -0.000048431621177763745 + input[26] * 0.0022793706299045332 + input[27] * -0.0009795373073471832 + input[28] * -0.0012410522361446861 + input[29] * 0.019349948239588306 + input[30] * 0.0011532289676051087 + input[31] * -0.0002981250901402025 + input[32] * 0.0026343827236562506 + input[33] * 0.01636374287016147 + input[34] * -0.007861121447299942 + input[35] * 0.02093649168572025 + input[36] * 0.0021893825196541753 + input[37] * -0.000652647573813849 + input[38] * 0.001386343107332105 + input[39] * 0.014772818921324123 + input[40] * -0.020042187731461294 + input[41] * 0.01199249880014756 + input[42] * 0.00257656972853184 + input[43] * -0.0008474626437219716 + input[44] * 0.0002842437570991005 + input[45] * 0.009883943324164713 + input[46] * -0.020274591456191256 + input[47] * -0.004951060982480395 + input[48] * 0.0015359541686658833 + input[49] * -0.0010697885569836594 + input[50] * -0.0005716275818172104 + input[51] * 0.0027191579726915443 + input[52] * -0.01152683271427377 + input[53] * -0.018302239940893947 + input[54] * -0.00048554892100725227 + input[55] * -0.0008572149365510088 + input[56] * -0.001032112050414445 + input[57] * -0.004331042534646401 + input[58] * -0.005428537228334504 + input[59] * -0.022557801643309408 + input[60] * -0.001424442643147583 + input[61] * -0.00021510873667325743 + input[62] * 0.00010144471409292445 + input[63] * -0.010781859848674653 + input[64] * 0.006405043993610982 + input[65] * -0.017968265336226603 + input[66] * -0.0017201122175739476 + input[67] * 0.00019718316634235032 + input[68] * 0.001096085145740258 + input[69] * -0.015788320688030568 + input[70] * 0.003096339967677539
    var15 = input[71] * -0.00712441507245296
    return [var2 + var3 + input[72] * 0.03364848284971153 + input[73] * 0.005476459038925064 + input[74] * -0.0003153310254080924 + input[75] * 0.013895223774463922 + input[76] * -0.017676690776852987 + input[77] * 0.05347687853641098 + input[78] * 0.015397213658723914 + input[79] * 0.003406035639756956 + input[80] * 0.0016521078353205862 + input[81] * 0.03129696579915066 + input[82] * -0.019981504315662063 + input[83] * 0.036430635489094636 + input[84] * 0.0028872793643193785 + input[85] * 0.0041704049975663775 + input[86] * 0.002244864979284516 + input[87] * 0.012126993336810513 + input[88] * -0.008621826842976833 + input[89] * -0.05937628821693164 + input[90] * -0.001635020463851273 + input[91] * 0.004108578391532162 + input[92] * -0.0004543399226506786 + input[93] * -0.009223895193684686 + input[94] * -0.0051543492089395175 + input[95] * 0.005798492007855894 + input[96] * 0.00009251352893508367 + input[97] * 0.002327091285526244 + input[98] * 0.0005576209571092916 + input[99] * -0.02556999030386406 + input[100] * 0.008945001833616911 + input[101] * 0.0016564714978532815 + input[102] * -0.006028414980343411 + input[103] * 0.004651644040966909 + input[104] * 0.006185196567365384 + input[105] * 0.060365556423868434 + input[106] * 0.026898896167460846 + input[107] * -0.006435366769380685 + input[108] * 0.001307604258975077 + input[109] * 0.0011125090837309916 + input[110] * -0.0021877227712795316 + input[111] * -0.011563120471399438 + input[112] * 0.002186427517370463 + input[113] * 0.002141503901732966 + input[114] * -0.0036386756445600946 + input[115] * 0.005501277998785767 + input[116] * 0.002393212665381223 + input[117] * 0.01083481677080315 + input[118] * -0.03131573473856949 + input[119] * 0.019215597471112875 + input[120] * -0.0006328613625006145 + input[121] * 0.006265839451937389 + input[122] * -0.0015220961138752707 + input[123] * 0.06032365294021554 + input[124] * -0.01789000693436248 + input[125] * -0.018920533243960598, var6 + var7 + input[72] * -0.040797265679631 + input[73] * -0.0014543648655985031 + input[74] * -0.0019341926945946252 + input[75] * 0.012652305831591484 + input[76] * -0.0020287624955263543 + input[77] * -0.04745201803099201 + input[78] * -0.018393564889860155 + input[79] * -0.004235547338418616 + input[80] * -0.0032814066852915077 + input[81] * -0.0041087293889505855 + input[82] * 0.004570581253110156 + input[83] * -0.026853387735404053 + input[84] * -0.0062657398229277565 + input[85] * -0.004234904256712344 + input[86] * -0.0035950703927185583 + input[87] * -0.0010380576572144886 + input[88] * -0.00479204695831589 + input[89] * 0.06546352398174009 + input[90] * -0.002457840225949277 + input[91] * -0.004919796910396506 + input[92] * -0.0029639687655350633 + input[93] * 0.004252492670974953 + input[94] * 0.008085333587651717 + input[95] * -0.0026093694801394745 + input[96] * -0.001760566385619849 + input[97] * -0.0037879534226606826 + input[98] * -0.002892390192496677 + input[99] * 0.007944997079463386 + input[100] * -0.004719502754636924 + input[101] * -0.0019089570610004148 + input[102] * 0.0011686899086544504 + input[103] * -0.004649300239288755 + input[104] * -0.004714067880768246 + input[105] * -0.03034389080148022 + input[106] * -0.011270031016184153 + input[107] * 0.01139982569084341 + input[108] * -0.0032157282795737497 + input[109] * -0.0028204040897205603 + input[110] * -0.0005545134464850912 + input[111] * 0.00614316890477686 + input[112] * 0.013263339204129145 + input[113] * -0.004145159285530123 + input[114] * -0.0014406741368401205 + input[115] * -0.0037629547810227966 + input[116] * -0.0028158794258424896 + input[117] * -0.009783498111190935 + input[118] * 0.018360901588119836 + input[119] * -0.011385740649582884 + input[120] * -0.0012072784807332395 + input[121] * -0.005566402831752654 + input[122] * -0.00020373835700823563 + input[123] * -0.034395792504833184 + input[124] * 0.023274023716893247 + input[125] * 0.015349603015369757, var10 + var11 + input[72] * 0.007599601999568825 + input[73] * -0.003981245800985151 + input[74] * 0.001008605878865474 + input[75] * -0.014145143093681681 + input[76] * 0.015004901870049247 + input[77] * -0.003500369392307235 + input[78] * 0.003328688073196643 + input[79] * 0.0009030397008173675 + input[80] * 0.0000856623693762396 + input[81] * -0.020913637766723205 + input[82] * 0.00844846035382293 + input[83] * -0.009623642462428214 + input[84] * 0.0037170407925090454 + input[85] * -0.00027295373065781766 + input[86] * -0.00019080912194472955 + input[87] * -0.0034401742204703896 + input[88] * 0.0044343594090748 + input[89] * -0.007226767218843058 + input[90] * 0.004358859627306364 + input[91] * 0.0004558073450001007 + input[92] * 0.0015348078548834691 + input[93] * 0.009776540367887021 + input[94] * -0.007077448880110563 + input[95] * -0.005768552289026364 + input[96] * 0.0015255164196552394 + input[97] * 0.0012744039997159933 + input[98] * 0.0003648454925140428 + input[99] * 0.018633241641616564 + input[100] * -0.00553879540692123 + input[101] * -0.0026991637066765654 + input[102] * 0.004252461459369497 + input[103] * -0.000006719088003427444 + input[104] * -0.0031027424827303287 + input[105] * -0.031112912128455177 + input[106] * -0.01566215378269129 + input[107] * -0.0062580389435566465 + input[108] * 0.00136359886632323 + input[109] * 0.0017343616732856306 + input[110] * 0.0013366081002938015 + input[111] * 0.002787978400267645 + input[112] * -0.01533595290121944 + input[113] * 0.0014025457754778658 + input[114] * 0.004726942878354864 + input[115] * -0.001696459623577949 + input[116] * -0.0006676164521828524 + input[117] * -0.0034002152196497756 + input[118] * 0.013138123041401814 + input[119] * -0.007208510404354638 + input[120] * 0.001698775735214272 + input[121] * -0.0007466310051864034 + input[122] * 0.000687388209528635 + input[123] * -0.027367589196145105 + input[124] * -0.005448809724490866 + input[125] * 0.004448638895908123, var14 + var15 + input[72] * -0.0004508191696476958 + input[73] * -0.00004084837234256259 + input[74] * 0.0012409178411276838 + input[75] * -0.012402386512361387 + input[76] * 0.004700551402323665 + input[77] * -0.002524491113156909 + input[78] * -0.00033233684206295156 + input[79] * -0.00007352800215343549 + input[80] * 0.0015436364805870321 + input[81] * -0.006274598643513306 + input[82] * 0.006962462708710157 + input[83] * 0.00004639470867178004 + input[84] * -0.0003385803339035815 + input[85] * 0.0003374529898058803 + input[86] * 0.0015410145353737766 + input[87] * -0.007648761459147811 + input[88] * 0.008979514392209233 + input[89] * 0.0011395314539748432 + input[90] * -0.0002659989375056921 + input[91] * 0.000355411173864513 + input[92] * 0.0018835008332981093 + input[93] * -0.0048051378452048914 + input[94] * 0.00414646450140148 + input[95] * 0.0025794297612663536 + input[96] * 0.00014253643703221138 + input[97] * 0.0001864581374184525 + input[98] * 0.001969923742866858 + input[99] * -0.001008248417231765 + input[100] * 0.0013132963278949168 + input[101] * 0.002951649269797763 + input[102] * 0.0006072636123205063 + input[103] * 0.000004375286324646861 + input[104] * 0.0016316137961274802 + input[105] * 0.001091246506060658 + input[106] * 0.0000332886314016581 + input[107] * 0.0012935800220475811 + input[108] * 0.0005445251542772311 + input[109] * -0.000026466667297648826 + input[110] * 0.0014056281174625116 + input[111] * 0.002631973166354902 + input[112] * -0.00011381382030565094 + input[113] * 0.0006011096082632657 + input[114] * 0.0003524069030459092 + input[115] * -0.00004186359418506267 + input[116] * 0.0010902832126365764 + input[117] * 0.0023488965600210673 + input[118] * -0.00018328989095383501 + input[119] * -0.0006213464172233825 + input[120] * 0.00014136410801941708 + input[121] * 0.00004719438500097406 + input[122] * 0.001038446261348375 + input[123] * 0.0014397287607337559 + input[124] * 0.00006479294198212028 + input[125] * -0.0008777086673889797]
