def score(input):
    var0 = 6.755031857086103 + input[0] * -0.008649480302838726 + input[1] * -0.020248107445692658 + input[2] * 0.0024071267955497614 + input[3] * -0.03076910895001308 + input[4] * 0.0027654106215203238 + input[5] * -0.036038198335885695 + input[6] * -0.012394381385523751 + input[7] * -0.07657750996773001 + input[8] * -0.009436222419794797 + input[9] * 0.03578073747388826 + input[10] * 0.044260147932409885
    var1 = input[11] * 0.08980075248957436
    var2 = -0.2555102222673514 + input[0] * 0.0017810931230892875 + input[1] * -0.010149621383790781 + input[2] * -0.0019111400377093096 + input[3] * 0.0048752754890190415 + input[4] * -0.004310266798502784 + input[5] * 0.042635764479724315 + input[6] * 0.03487658845124427 + input[7] * -0.0512877156008993 + input[8] * 0.0009318950723926641 + input[9] * -0.012376653836891332 + input[10] * -0.03169084470429181
    var3 = input[11] * -0.05399930077173473
    var4 = -0.2218237127116478 + input[0] * 0.006857246719437337 + input[1] * 0.030295354350842747 + input[2] * -0.0002477752801204002 + input[3] * 0.025315836401351058 + input[4] * 0.0008189900795556899 + input[5] * -0.004474401642888624 + input[6] * -0.021200397923077943 + input[7] * 0.1279103099202312 + input[8] * 0.00867573499054403 + input[9] * -0.021607460949725085 + input[10] * -0.012264522373373858
    var5 = input[11] * -0.035937966532719606
    var6 = -6.27769792208765 + input[0] * 0.000011140460311181084 + input[1] * 0.00010237447863964182 + input[2] * -0.0002482114777166414 + input[3] * 0.0005779970596616011 + input[4] * 0.0007258660974328249 + input[5] * -0.0021231645009805672 + input[6] * -0.0012818091426389025 + input[7] * -0.000045084351603351405 + input[8] * -0.00017140764314307248 + input[9] * -0.001796622687251957 + input[10] * -0.0003047808547216651
    var7 = input[11] * 0.00013651481489629255
    return [var0 + var1 + input[12] * -0.2562793606953817 + input[13] * -0.248151154871993 + input[14] * -0.010607105235933115 + input[15] * -0.06266661677859157 + input[16] * 0.01835612990196849 + input[17] * -0.0739661240168958 + input[18] * -0.18791011428572618 + input[19] * 0.04607627542043563 + input[20] * 0.018470268400303712 + input[21] * -0.041982319791985245 + input[22] * -0.05356335986947805 + input[23] * -0.049713993394305114 + input[24] * 0.10865295243703238 + input[25] * 0.23089990844172179 + input[26] * 0.019576677061185214 + input[27] * 0.011033662973217489 + input[28] * 0.0037196415459692642 + input[29] * 0.054647097747847664 + input[30] * 0.18482262188024504 + input[31] * 0.05286057119699218 + input[32] * -0.004513160374389126 + input[33] * -0.054428078696813584 + input[34] * 0.009678229738323479 + input[35] * -0.044708663763439724 + input[36] * 0.0831080703954774 + input[37] * 0.015142749946082962 + input[38] * -0.0002561212830041134 + input[39] * 0.03662485120548221 + input[40] * 0.00809198314809449 + input[41] * 0.09327826711767187 + input[42] * 0.0033456008220227695 + input[43] * 0.001136047070482192 + input[44] * 0.006447420465118581 + input[45] * 0.0218923947697133 + input[46] * -0.01589273245991368 + input[47] * -0.018749675234181903 + input[48] * 0.0035860766288769662 + input[49] * -0.00039069370296856385 + input[50] * 0.00991362250640587 + input[51] * 0.003853582771115935 + input[52] * 0.004777509033320854 + input[53] * 0.01905800511155977 + input[54] * -0.002850075809810009 + input[55] * -0.00031656222074376316 + input[56] * 0.009451931997627316 + input[57] * -0.009951874693742232 + input[58] * 0.007110856533274585 + input[59] * -0.014971809298204347 + input[60] * -0.0028947111531522633 + input[61] * 0.015180376254359081 + input[62] * -0.008361509110708308 + input[63] * 0.04774311462966613 + input[64] * -0.016377322444569024 + input[65] * -0.00725047411640107, var2 + var3 + input[12] * 0.3081408511193971 + input[13] * -0.06983182582823674 + input[14] * 0.01835142453597983 + input[15] * 0.00018974432037853757 + input[16] * -0.03026487575370249 + input[17] * -0.006674493878949322 + input[18] * 0.19496670123549925 + input[19] * -0.023839796165449637 + input[20] * -0.011878885235132447 + input[21] * 0.020120361983860958 + input[22] * 0.06464109548761196 + input[23] * 0.01689125548179145 + input[24] * -0.21141408835319775 + input[25] * 0.029550537140242146 + input[26] * -0.011667555448855645 + input[27] * -0.022137491457211597 + input[28] * -0.029440974319966964 + input[29] * 0.0076290850578589154 + input[30] * -0.20631655037056534 + input[31] * 0.06956657083943908 + input[32] * -0.009038657933378755 + input[33] * 0.017788822991270103 + input[34] * -0.01503812864627296 + input[35] * 0.03832373624540756 + input[36] * -0.1252704562834514 + input[37] * -0.0014758397010033832 + input[38] * -0.0031392426545556644 + input[39] * -0.0029597571545762523 + input[40] * -0.03421329046071586 + input[41] * -0.1064577467336413 + input[42] * -0.02079763635142749 + input[43] * -0.004886898701562098 + input[44] * -0.006990905489030793 + input[45] * -0.001755378715035201 + input[46] * -0.003689475618955698 + input[47] * 0.05257796710687193 + input[48] * -0.010410573783541426 + input[49] * 0.0022284948791294213 + input[50] * -0.007069815014595068 + input[51] * -0.01914710702151871 + input[52] * 0.0022889209062357135 + input[53] * -0.015876317187845653 + input[54] * -0.006213572670609973 + input[55] * 0.00038743101011239837 + input[56] * -0.006300747845125683 + input[57] * 0.010537815920199662 + input[58] * 0.004704166782016684 + input[59] * -0.0002469144493232626 + input[60] * -0.004640564643819247 + input[61] * -0.009190888449763897 + input[62] * 0.0030443283810271445 + input[63] * -0.01568150891526342 + input[64] * 0.017236478645300802 + input[65] * 0.01551497139136531, var4 + var5 + input[12] * -0.05028823136744279 + input[13] * 0.3183226710635266 + input[14] * -0.009377817367132495 + input[15] * 0.06180856198102036 + input[16] * 0.01642631267050157 + input[17] * 0.05327404571796179 + input[18] * -0.010640326854209889 + input[19] * -0.02157996894531677 + input[20] * -0.006852630272713309 + input[21] * -0.002951344508018954 + input[22] * 0.015912121852504617 + input[23] * 0.013357807155026572 + input[24] * 0.100148878863391 + input[25] * -0.2592198780707154 + input[26] * -0.0054575045934686095 + input[27] * 0.009195253933046656 + input[28] * 0.03855765727775091 + input[29] * -0.03751700286562629 + input[30] * 0.02330829340894921 + input[31] * -0.12194814548217167 + input[32] * 0.015756926038725763 + input[33] * 0.04647629330500938 + input[34] * 0.0023531364311028427 + input[35] * 0.03557389552394107 + input[36] * 0.04352196795675495 + input[37] * -0.013770788968726055 + input[38] * 0.004126505925142957 + input[39] * -0.012942929374316606 + input[40] * 0.01717671354997915 + input[41] * 0.018802897609941447 + input[42] * 0.01857049698590608 + input[43] * 0.0031777466133162523 + input[44] * -0.00040726926700303907 + input[45] * -0.003880312033768308 + input[46] * 0.010791984387656781 + input[47] * -0.035857549383494454 + input[48] * 0.005733802949078421 + input[49] * -0.0016809855033493464 + input[50] * -0.003998284675291108 + input[51] * 0.014286527559323695 + input[52] * -0.005041629671720707 + input[53] * -0.008321392578780671 + input[54] * 0.008215811172908143 + input[55] * -0.00018020930038583876 + input[56] * -0.002383447495650153 + input[57] * -0.00922862146708953 + input[58] * -0.014032378794401923 + input[59] * 0.01821372270947814 + input[60] * 0.007410398548660327 + input[61] * -0.0060816573089843085 + input[62] * 0.005508969533574506 + input[63] * -0.029643341300648506 + input[64] * -0.0029599794454136046 + input[65] * -0.008721214431487627, var6 + var7 + input[12] * -0.001573259056570257 + input[13] * -0.000339690363310328 + input[14] * 0.0016334980670837927 + input[15] * 0.0006683104772129984 + input[16] * -0.004517566818758469 + input[17] * 0.02736657217776955 + input[18] * 0.003583739904427744 + input[19] * -0.0006565103096556245 + input[20] * 0.00026124710754203104 + input[21] * 0.024813302316038528 + input[22] * -0.02698985747064542 + input[23] * 0.019464930757498743 + input[24] * 0.002612257052773036 + input[25] * -0.0012305675112383478 + input[26] * -0.0024516170188549264 + input[27] * 0.001908574550912156 + input[28] * -0.012836324503705466 + input[29] * -0.02475917993987743 + input[30] * -0.0018143649186170992 + input[31] * -0.000478996554258541 + input[32] * -0.0022051077309569816 + input[33] * -0.009837037599452765 + input[34] * 0.003006762476812492 + input[35] * -0.029188968005836813 + input[36] * -0.0013595820687752177 + input[37] * 0.00010387872364084555 + input[38] * -0.0007311419875874567 + input[39] * -0.020722164676564014 + input[40] * 0.008944593762624532 + input[41] * -0.005623417993900834 + input[42] * -0.0011184614565048945 + input[43] * 0.0005731050177616069 + input[44] * 0.0009507542909128785 + input[45] * -0.016256704020928013 + input[46] * 0.00879022369118731 + input[47] * 0.0020292575108237505 + input[48] * 0.0010906942055855253 + input[49] * -0.00015681567281151205 + input[50] * 0.0011544771834826424 + input[51] * 0.00100699669109721 + input[52] * -0.0020248002678578203 + input[53] * 0.005139704655147138 + input[54] * 0.0008478373075133554 + input[55] * 0.00010934051101523996 + input[56] * -0.0007677366568490788 + input[57] * 0.008642680240663106 + input[58] * 0.0022173554791185207 + input[59] * -0.002994998961806964 + input[60] * 0.00012487724831085668 + input[61] * 0.00009216950438890585 + input[62] * -0.00019178880389525267 + input[63] * -0.0024182644137362413 + input[64] * 0.002100823244670067 + input[65] * 0.0004567171566460745]
