def score(input):
    var0 = 6.703527540003341 + input[0] * -0.0019830787873888265 + input[1] * -0.002658269450160694 + input[2] * 0.0033447752946895184 + input[3] * -0.005660342036783967 + input[4] * -0.004798597621584712 + input[5] * -0.01543694571559184 + input[6] * -0.005231792427390261 + input[7] * -0.002468435532865779 + input[8] * 0.003224125046559196 + input[9] * 0.0030994314036437566 + input[10] * 0.01245558397043506 + input[11] * 0.005944305555227601 + input[12] * -0.0018257560315475656 + input[13] * -0.0012019451503723936 + input[14] * 0.00048093468137421093 + input[15] * 0.020848201849127078
    var1 = input[16] * -0.0005303374974624093
    var2 = var0 + var1 + input[17] * -0.009252599988759288 + input[18] * -0.0035294797013935945 + input[19] * -0.003882783443111596 + input[20] * 0.0009330509956822591 + input[21] * 0.0021000821689736823 + input[22] * 0.011594198018342775 + input[23] * 0.005019198139693018 + input[24] * -0.004594358289913772 + input[25] * -0.008384853590685555 + input[26] * -0.0018329822297665599 + input[27] * -0.009306233254261729 + input[28] * 0.0019609788657042057 + input[29] * 0.0074852351813767875 + input[30] * -0.005351969250328267 + input[31] * -0.009268207277738204 + input[32] * -0.00012635767056295627 + input[33] * -0.01281104716370839 + input[34] * -0.026562063171598385 + input[35] * 0.004141331791912059 + input[36] * -0.013518352277987224 + input[37] * -0.025688393995786252 + input[38] * -0.0014674909590527505 + input[39] * -0.007088737124911161 + input[40] * -0.0038194092101726455 + input[41] * -0.028952863788129418 + input[42] * -0.05836095440277945 + input[43] * -0.1079944245481267 + input[44] * 0.002377644727968074 + input[45] * -0.03139137006787171 + input[46] * -0.00495723849791254 + input[47] * 0.000536887822772381 + input[48] * -0.11460617214462177 + input[49] * -0.11785244894663877 + input[50] * 0.001323333645015503 + input[51] * 0.0007983835230528006 + input[52] * -0.015536975064363343 + input[53] * 0.022323661900983584 + input[54] * -0.09606162513610181 + input[55] * -0.01203167444081302 + input[56] * -0.0025414080319066217 + input[57] * -0.00964241157353144 + input[58] * 0.029028919914073976 + input[59] * -0.04604567103903619 + input[60] * -0.036535417336150566 + input[61] * 0.020864997231565294 + input[62] * 0.010346148682985534 + input[63] * -0.04070492342047764 + input[64] * -0.018080078610542966 + input[65] * 0.01636388144437731 + input[66] * 0.06370293456245009 + input[67] * 0.13036689110523944 + input[68] * 0.004409814242252783 + input[69] * -0.00880748396590294 + input[70] * -0.01976531385276347
    var3 = input[71] * 0.013615994472588872
    var4 = -0.3028719991320557 + input[0] * -0.0013480710133248932 + input[1] * -0.004176977036720921 + input[2] * -0.0030532800497030557 + input[3] * 0.001630225898008844 + input[4] * 0.010485192753770516 + input[5] * 0.017674646391473557 + input[6] * 0.0022955015355341957 + input[7] * -0.005330068455151787 + input[8] * -0.0022213963456434046 + input[9] * -0.004121675681101041 + input[10] * -0.003950798226163114 + input[11] * 0.0031846056592452097 + input[12] * 0.00037202561357109373 + input[13] * -0.0057462486040982 + input[14] * -0.002192887833744266 + input[15] * -0.015380108909971633
    var5 = input[16] * 0.01435621575504212
    var6 = var4 + var5 + input[17] * -0.0005659796703369434 + input[18] * 0.0018505335734688236 + input[19] * -0.004876566182529387 + input[20] * -0.001494536331030788 + input[21] * 0.0006725952545191517 + input[22] * 0.00188972330123509 + input[23] * 0.0016207396676684658 + input[24] * 0.0007496799135837844 + input[25] * -0.00442544565932743 + input[26] * -0.0015631449820052428 + input[27] * 0.0033057894053738256 + input[28] * 0.0060085370543803305 + input[29] * -0.009684654538411233 + input[30] * 0.003543704459107299 + input[31] * -0.004664893732449068 + input[32] * -0.002004034428392658 + input[33] * -0.005831116282417651 + input[34] * 0.029797637231985252 + input[35] * -0.013400528947423806 + input[36] * 0.018606332233696912 + input[37] * -0.007458533129388749 + input[38] * 0.00002243993910585543 + input[39] * -0.017882527339263612 + input[40] * 0.018128203289988886 + input[41] * 0.02996425288623655 + input[42] * 0.06497260307677406 + input[43] * -0.02190354503069831 + input[44] * 0.001449529589368596 + input[45] * 0.010061629340272825 + input[46] * 0.020149560386521603 + input[47] * -0.013153793732043858 + input[48] * 0.14050471941681397 + input[49] * -0.020966522050739293 + input[50] * 0.0029621740126084817 + input[51] * -0.006851551801864377 + input[52] * 0.014654053768106554 + input[53] * -0.03468855367050347 + input[54] * 0.1712698810767986 + input[55] * -0.0277226569863197 + input[56] * 0.005428145578663325 + input[57] * -0.01581873479739112 + input[58] * -0.03962068096424105 + input[59] * 0.04452855083945747 + input[60] * 0.046571254033094284 + input[61] * -0.015209492997918024 + input[62] * 0.0010373339500767812 + input[63] * 0.01180794463651869 + input[64] * 0.00015204385323750453 + input[65] * -0.0004687028667591695 + input[66] * -0.09463340990751659 + input[67] * 0.03269665529433056 + input[68] * -0.00007866223865044034 + input[69] * -0.005620150471351632 + input[70] * 0.009332490515052716
    var7 = input[71] * -0.020088514651788243
    var8 = 0.19820966968559112 + input[0] * 0.003355167071061126 + input[1] * 0.006767597965594241 + input[2] * -0.00031508761069013163 + input[3] * 0.0032101390629388753 + input[4] * -0.006286447308696387 + input[5] * 0.00008275209297695941 + input[6] * 0.0031507975783061455 + input[7] * 0.0077707503850748295 + input[8] * -0.000986389158059533 + input[9] * 0.000492218811914684 + input[10] * -0.00885660403151642 + input[11] * -0.0075388726141204275 + input[12] * 0.0023747133674404367 + input[13] * 0.006842670729696722 + input[14] * 0.0018145271534528672 + input[15] * -0.004757960842004817
    var9 = input[16] * -0.014604578274379209
    var10 = var8 + var9 + input[17] * 0.008705250487275659 + input[18] * 0.0032906128356622725 + input[19] * 0.00833720783527186 + input[20] * 0.00019562966768792714 + input[21] * 0.003114460653179563 + input[22] * -0.017001728919609143 + input[23] * -0.014360233968584279 + input[24] * 0.004802323309377511 + input[25] * 0.012251797961478766 + input[26] * 0.0022010143262214854 + input[27] * 0.010371943694387951 + input[28] * -0.008619428243763992 + input[29] * -0.015010714770541153 + input[30] * 0.001036926107108152 + input[31] * 0.014106416374366309 + input[32] * 0.0006329174485551073 + input[33] * 0.00473065698579857 + input[34] * 0.0018467884131411721 + input[35] * -0.012688115665498415 + input[36] * -0.007174720695364006 + input[37] * 0.03425643590345522 + input[38] * 0.0007876861664676347 + input[39] * 0.000931646286009515 + input[40] * -0.0005497707406601947 + input[41] * -0.01734197614666931 + input[42] * -0.009168677185402171 + input[43] * 0.13124052268278216 + input[44] * -0.0026243025190481888 + input[45] * 0.010225739725503443 + input[46] * 0.006462337884402575 + input[47] * 0.01368967197123564 + input[48] * -0.02743392864230661 + input[49] * 0.14061077651103 + input[50] * -0.0021611467493399153 + input[51] * 0.011464291396931614 + input[52] * 0.013264080981060277 + input[53] * 0.030566039294970617 + input[54] * -0.07398357472771676 + input[55] * 0.04089879593767993 + input[56] * -0.000558765133452082 + input[57] * 0.03234542040441965 + input[58] * 0.015058392533418428 + input[59] * 0.0261119775528469 + input[60] * -0.008338629140679947 + input[61] * -0.005990638549512611 + input[62] * -0.010714702808991429 + input[63] * 0.04266912554669337 + input[64] * 0.0076371487954078835 + input[65] * 0.0023332363612725555 + input[66] * 0.032237522913513526 + input[67] * -0.16387872396394423 + input[68] * -0.004245106004127876 + input[69] * 0.031563500468295286 + input[70] * 0.005074446817504036
    var11 = input[71] * 0.006745508351198074
    var12 = -6.598865210559594 + input[0] * -0.00002401727033763157 + input[1] * 0.00006764852128477023 + input[2] * 0.00002359236560958405 + input[3] * 0.0008199770752911277 + input[4] * 0.0005998521763567127 + input[5] * -0.0023204527693825943 + input[6] * -0.00021450668646447082 + input[7] * 0.000027753602929864377 + input[8] * -0.00001633954294968148 + input[9] * 0.000530025465275965 + input[10] * 0.00035181828731354383 + input[11] * -0.0015900386007567096 + input[12] * -0.0009209829494938368 + input[13] * 0.00010552302476448116 + input[14] * -0.00010257400116129977 + input[15] * -0.0007101320972927096
    var13 = input[16] * 0.0007787000164187426
    var14 = var12 + var13 + input[17] * 0.0011133291716511826 + input[18] * -0.0016116667077844652 + input[19] * 0.00042214179036326123 + input[20] * 0.0003658556675785651 + input[21] * -0.005887138076904356 + input[22] * 0.0035178076003247612 + input[23] * 0.007720296160901614 + input[24] * -0.0009576449331006233 + input[25] * 0.0005585012885277049 + input[26] * 0.0011951128855143323 + input[27] * -0.004371499845185842 + input[28] * 0.0006499123236864538 + input[29] * 0.017210134127452738 + input[30] * 0.0007713386840763436 + input[31] * -0.00017331536420428715 + input[32] * 0.0014974746503751692 + input[33] * 0.013911506460857263 + input[34] * -0.005082362473849451 + input[35] * 0.02194731282126497 + input[36] * 0.0020867407397031842 + input[37] * -0.00110950877829464 + input[38] * 0.0006573648534563646 + input[39] * 0.024039618178839095 + input[40] * -0.013759023338919828 + input[41] * 0.016330587048530226 + input[42] * 0.0025570285115704117 + input[43] * -0.001342553103987716 + input[44] * -0.0012028717983672 + input[45] * 0.011104001002559594 + input[46] * -0.021654659773192576 + input[47] * -0.001072766062443811 + input[48] * 0.0015353813703605072 + input[49] * -0.0017918055137506582 + input[50] * -0.002124360908393589 + input[51] * -0.0054111231180322015 + input[52] * -0.012381159685541798 + input[53] * -0.018201147526006052 + input[54] * -0.001224681212774003 + input[55] * -0.0011444645107088732 + input[56] * -0.002327972413447872 + input[57] * -0.0068842740339898605 + input[58] * -0.0044666314840590225 + input[59] * -0.024594857354521132 + input[60] * -0.0016972075564114038 + input[61] * 0.00033513431583811706 + input[62] * -0.0006687798242408406 + input[63] * -0.013772146763160966 + input[64] * 0.010290885961170507 + input[65] * -0.01822841494110809 + input[66] * -0.001307047568746046 + input[67] * 0.0008151775645738798 + input[68] * -0.00008604599958175299 + input[69] * -0.017135866031927974 + input[70] * 0.005358376520431906
    var15 = input[71] * -0.0002729881727934002
    return [var2 + var3 + input[72] * 0.10920601884929465 + input[73] * 0.1698908056414636 + input[74] * 0.011932860763458909 + input[75] * 0.017444410301979896 + input[76] * -0.0108085224512123 + input[77] * 0.04250755875457707 + input[78] * 0.08316774477816735 + input[79] * 0.10520827373571442 + input[80] * -0.001698967280978778 + input[81] * 0.01387348664687975 + input[82] * -0.015618964009367029 + input[83] * -0.017406909631285414 + input[84] * 0.05669192915030522 + input[85] * 0.059693107186117464 + input[86] * 0.0022631747699990734 + input[87] * 0.010947357853921395 + input[88] * -0.007850322759626348 + input[89] * -0.05247227857234178 + input[90] * 0.027549321377331334 + input[91] * 0.026640282537859137 + input[92] * 0.003944585528359419 + input[93] * -0.024817841830482773 + input[94] * -0.014134266999505844 + input[95] * 0.016766857410874837 + input[96] * 0.0179591824774376 + input[97] * 0.014590477957619818 + input[98] * 0.0012270820080720858 + input[99] * -0.01974549815113933 + input[100] * 0.013915249971515409 + input[101] * 0.03972350749347242 + input[102] * 0.0060393959140494875 + input[103] * 0.002827140808262527 + input[104] * 0.0020929136716592482 + input[105] * 0.03487719352148226 + input[106] * 0.02271852496062639 + input[107] * 0.02984549299541395 + input[108] * 0.003950773960321572 + input[109] * 0.00202310690776036 + input[110] * 0.0006422007543953463 + input[111] * -0.0113059947233366 + input[112] * 0.007672425084508233 + input[113] * -0.018044759183484554 + input[114] * 0.0005330727013808191 + input[115] * 0.0029381132628010804 + input[116] * 0.001754251957654416 + input[117] * 0.004464107665405626 + input[118] * -0.0374087487367371 + input[119] * -0.005176029539848276 + input[120] * -0.0031484398394370124 + input[121] * 0.008542935795150992 + input[122] * -0.002479978848483447 + input[123] * 0.07048809684724483 + input[124] * -0.012893028174487784 + input[125] * -0.026806032689406154, var6 + var7 + input[72] * -0.13715360909640487 + input[73] * 0.0015351921736138135 + input[74] * -0.006157980075949885 + input[75] * -0.024558963351328202 + input[76] * -0.0037156037270872334 + input[77] * 0.014144251916235744 + input[78] * -0.13227872482248332 + input[79] * 0.013586540223202615 + input[80] * -0.00007502788253802141 + input[81] * 0.000016486457943901195 + input[82] * 0.003911310116859688 + input[83] * 0.03221990679706606 + input[84] * -0.0847483996632768 + input[85] * 0.014410544931034955 + input[86] * -0.004840856974256265 + input[87] * -0.006922359299419651 + input[88] * 0.0038481893534013786 + input[89] * -0.000030183101780384053 + input[90] * -0.041968093361565026 + input[91] * 0.008696308679158488 + input[92] * -0.003032185231870586 + input[93] * 0.017857702057585148 + input[94] * 0.004451298812383315 + input[95] * -0.020017675346295245 + input[96] * -0.02243830573462522 + input[97] * -0.001570557519822915 + input[98] * -0.00029920113984568253 + input[99] * 0.00797296519529194 + input[100] * -0.018860541655941157 + input[101] * -0.05934884381114075 + input[102] * -0.010821818291459057 + input[103] * -0.003374606454052822 + input[104] * -0.0007111254481551262 + input[105] * -0.0062596314610801175 + input[106] * -0.009709769521419356 + input[107] * -0.04087099853435614 + input[108] * -0.008157756830668246 + input[109] * -0.003307672299360812 + input[110] * -0.0002329701137783136 + input[111] * 0.0070770606482512145 + input[112] * -0.020829907391220794 + input[113] * 0.041416186167484666 + input[114] * -0.004608251249600755 + input[115] * -0.0030287150703393667 + input[116] * -0.0016121795339451043 + input[117] * -0.0083568642209109 + input[118] * 0.006504344307132979 + input[119] * 0.020952378974324403 + input[120] * -0.0020820679316374577 + input[121] * -0.0039043397334501276 + input[122] * 0.0008969986862807762 + input[123] * -0.03288295812804505 + input[124] * -0.009526717079498275 + input[125] * 0.017704453125548462, var10 + var11 + input[72] * 0.027524539144007463 + input[73] * -0.17208853640108898 + input[74] * -0.006350159575754718 + input[75] * 0.01559133504581224 + input[76] * 0.012280110832200136 + input[77] * -0.06175399646078266 + input[78] * 0.04865789140595678 + input[79] * -0.11887011285424565 + input[80] * 0.0011623901762351295 + input[81] * -0.009869630575294924 + input[82] * 0.009165402415879851 + input[83] * -0.019108197184794 + input[84] * 0.02745435836521974 + input[85] * -0.07432908643907452 + input[86] * 0.002208068654732567 + input[87] * -0.0018702057486510788 + input[88] * -0.0011697342827196285 + input[89] * 0.05052663831715366 + input[90] * 0.014103462612180246 + input[91] * -0.03551310475133897 + input[92] * -0.0014101836196035013 + input[93] * 0.0070230313500290395 + input[94] * 0.007674211756262334 + input[95] * 0.0022942644537032046 + input[96] * 0.004325472399908891 + input[97] * -0.013174521751581129 + input[98] * -0.0012504164432794083 + input[99] * 0.012039317647203207 + input[100] * 0.005253452107883659 + input[101] * 0.0186997307013535 + input[102] * 0.004539855762065283 + input[103] * 0.00045441688256018983 + input[104] * -0.0015163278462360973 + input[105] * -0.02940476180654378 + input[106] * -0.012394210394368011 + input[107] * 0.010517800764228927 + input[108] * 0.004048638298546584 + input[109] * 0.0012256266994081606 + input[110] * -0.00040141620398276745 + input[111] * 0.003243802259304204 + input[112] * 0.012405722632619387 + input[113] * -0.02337256516622564 + input[114] * 0.004003336621172888 + input[115] * 0.00002315001349692782 + input[116] * -0.00011832712276866406 + input[117] * 0.004173197589614541 + input[118] * 0.03037145284316083 + input[119] * -0.015307335936023474 + input[120] * 0.0051878258314558045 + input[121] * -0.004709832858823894 + input[122] * 0.0015325896486905544 + input[123] * -0.03733140075733012 + input[124] * 0.022739263306997153 + input[125] * 0.009168497932887433, var14 + var15 + input[72] * 0.0004230511028898171 + input[73] * 0.0006625385863199211 + input[74] * 0.0005752788880889104 + input[75] * -0.008476781996808668 + input[76] * 0.0022440153464528033 + input[77] * 0.005102185789526439 + input[78] * 0.00045308863833649297 + input[79] * 0.00007529889548901113 + input[80] * 0.0006116049871813141 + input[81] * -0.004020342529922053 + input[82] * 0.00254225147681448 + input[83] * 0.004295200019157961 + input[84] * 0.000602112147717849 + input[85] * 0.00022543432199183778 + input[86] * 0.00036961354946403105 + input[87] * -0.0021547928063012246 + input[88] * 0.005171867689144337 + input[89] * 0.0019758233570020137 + input[90] * 0.00031530937200022083 + input[91] * 0.0001765135343307897 + input[92] * 0.0004977833230612344 + input[93] * -0.00006289157776158046 + input[94] * 0.0020087564312303683 + input[95] * 0.0009565534821852028 + input[96] * 0.00015365085729928787 + input[97] * 0.00015460131379011242 + input[98] * 0.0003225355749710443 + input[99] * -0.00026678469134528717 + input[100] * -0.0003081604232027203 + input[101] * 0.0009256056166445918 + input[102] * 0.00024256661535057675 + input[103] * 0.00009304876322555595 + input[104] * 0.00013453962263204977 + input[105] * 0.0007871997460208264 + input[106] * -0.0006145450449670767 + input[107] * 0.0005077047749369866 + input[108] * 0.00015834457180584731 + input[109] * 0.00005893869219358739 + input[110] * -0.000007814436733676282 + input[111] * 0.000985131815823786 + input[112] * 0.0007517596742769397 + input[113] * 0.0000011381826037550071 + input[114] * 0.00007184192704262778 + input[115] * 0.00006745179403543937 + input[116] * -0.00002374530102929512 + input[117] * -0.0002804410339608366 + input[118] * 0.0005329515865032896 + input[119] * -0.0004690134978146404 + input[120] * 0.00004268193959101611 + input[121] * 0.00007123679713283159 + input[122] * 0.00005039051341308933 + input[123] * -0.0002737379619538838 + input[124] * -0.00031951805327431045 + input[125] * -0.00006691836870159918]
