def score(input):
    var0 = 6.481437173840577 + input[0] * -0.0008772327364954044 + input[1] * -0.002070161038300733 + input[2] * 0.0018086224483589912 + input[3] * 0.006834293122336057 + input[4] * -0.0008631322267829344 + input[5] * -0.00898949497451857 + input[6] * -0.000788914922999532 + input[7] * 0.001298814453609614 + input[8] * 0.001146153653440978 + input[9] * -0.006465498466681023 + input[10] * 0.0017919762240084997 + input[11] * -0.006873561154747628 + input[12] * -0.001928895233541528 + input[13] * -0.0015063228881327328 + input[14] * 0.0020744076593690983 + input[15] * -0.0018716433789095581 + input[16] * 0.00953404204753246 + input[17] * -0.00009354771866746926 + input[18] * -0.0012801104937965255 + input[19] * -0.001712333186448394 + input[20] * 0.0010118665799789747 + input[21] * 0.014389612789638634 + input[22] * 0.008875235160497267 + input[23] * 0.00954091848761781 + input[24] * 0.00009570393246379378 + input[25] * -0.001011488363617523 + input[26] * -0.000208096826875026 + input[27] * 0.016888671883344017 + input[28] * 0.0047095063784463095 + input[29] * 0.0028176939587898067 + input[30] * -0.0009666415989507686
    var1 = input[31] * -0.0010190219136601416
    var2 = var0 + var1 + input[32] * 0.0006593550302349476 + input[33] * 0.009482554733213864 + input[34] * 0.006840682940094146 + input[35] * -0.0038089397903263685 + input[36] * -0.0015879105544775772 + input[37] * -0.0012675447388078866 + input[38] * 0.0011243090299884254 + input[39] * 0.011956612924735972 + input[40] * -0.008592531366978308 + input[41] * -0.005367034397606864 + input[42] * -0.0017230238917842753 + input[43] * -0.0015951174813266143 + input[44] * 0.0005590660683686972 + input[45] * -0.0004611604343263362 + input[46] * 0.00018484109475653288 + input[47] * -0.00030607175252053947 + input[48] * -0.0011675448298165236 + input[49] * -0.002408274537217856 + input[50] * 0.0013301916756007864 + input[51] * 0.0016412595446306207 + input[52] * 0.008390843392483973 + input[53] * 0.006185086696745608 + input[54] * -0.0014126680714764367 + input[55] * -0.003328536564348693 + input[56] * -0.0001272520180193856 + input[57] * -0.00105466293866296 + input[58] * 0.00668179525846807 + input[59] * 0.007421606725001437 + input[60] * -0.0008759189163692467 + input[61] * -0.0035140565070138994 + input[62] * 0.00037367037737870526 + input[63] * -0.006595200806044084 + input[64] * 0.001168582450276332 + input[65] * -0.0009706380082830776 + input[66] * -0.0014614352087736517 + input[67] * -0.003867251240979833 + input[68] * -0.000006335349458554143 + input[69] * -0.0062201359824620465 + input[70] * -0.006012125498062072 + input[71] * -0.001228068178545794 + input[72] * -0.002674235836516765 + input[73] * -0.003986972114872979 + input[74] * 0.0008086905681544359 + input[75] * -0.004664008667305784 + input[76] * -0.017315437564796927 + input[77] * -0.0016325015825726377 + input[78] * -0.0029556026786989554 + input[79] * -0.003954046816872848 + input[80] * 0.00013553599308883466 + input[81] * -0.0038016515005773813 + input[82] * -0.010598270630386522 + input[83] * 0.000000536107455229014 + input[84] * -0.00424635166157271 + input[85] * -0.005046821538140262
    var3 = input[86] * -0.0003588886791988421
    var4 = var2 + var3 + input[87] * -0.002294421272382109 + input[88] * -0.008156004455537533 + input[89] * -0.012362533032294743 + input[90] * -0.005782644878099079 + input[91] * -0.01515635445510759 + input[92] * 0.00003037956443070684 + input[93] * -0.002198617387916344 + input[94] * -0.00253852473028382 + input[95] * -0.01886663797403989 + input[96] * -0.007364611880033466 + input[97] * -0.025602075424289883 + input[98] * 0.0012273349881959793 + input[99] * -0.005347268583569837 + input[100] * 0.0005660789545344509 + input[101] * 0.006233518110190166 + input[102] * -0.023200708953852133 + input[103] * -0.04194640646501944 + input[104] * 0.0018544940459071866 + input[105] * -0.011755487668095845 + input[106] * 0.0053102883552018166 + input[107] * 0.004414176293568316 + input[108] * -0.04029869674946907 + input[109] * -0.05307972386920713 + input[110] * -0.0005055161084740983 + input[111] * -0.012765403711159673 + input[112] * 0.005557516847220227 + input[113] * 0.00007848018129973135 + input[114] * -0.053402002713636314 + input[115] * -0.05607081345990475 + input[116] * 0.0004786707077359991 + input[117] * -0.005930461851502564 + input[118] * 0.005268024532037675 + input[119] * 0.020136212497644194 + input[120] * -0.053882833827282636 + input[121] * -0.05618498516713543 + input[122] * 0.0022223537531114715 + input[123] * 0.0009009387012106872 + input[124] * -0.0013534712483743254 + input[125] * 0.010797348766572302 + input[126] * -0.049151965423515284 + input[127] * -0.041567299538835555 + input[128] * 0.0006720371131520051 + input[129] * -0.005934991995262263 + input[130] * -0.009037527433232372 + input[131] * -0.0025302666179458856 + input[132] * -0.04419059715609745 + input[133] * -0.023198548892306874 + input[134] * 0.00004408155632298569 + input[135] * -0.005579517503792752 + input[136] * 0.006476692351001987 + input[137] * -0.01994149325403194 + input[138] * -0.03084713585225139 + input[139] * -0.006920943323201253 + input[140] * 0.0010186694435711646
    var5 = input[141] * -0.010910287255090544
    var6 = var4 + var5 + input[142] * -0.0017487168199931357 + input[143] * -0.008541565706189398 + input[144] * -0.020454441693951192 + input[145] * -0.0004950940600130374 + input[146] * -0.0022483434134810527 + input[147] * -0.008510313718232125 + input[148] * 0.013251552077279684 + input[149] * -0.02625182230368683 + input[150] * -0.022398705595727608 + input[151] * 0.0021867763527727104 + input[152] * 0.004836993682714121 + input[153] * -0.022013871898589436 + input[154] * -0.006504728534961191 + input[155] * 0.0058015575360099835 + input[156] * -0.0017565846265380778 + input[157] * 0.012679645238941443 + input[158] * 0.002532913775165946 + input[159] * -0.012160575005013639 + input[160] * 0.014177946251107014 + input[161] * 0.014793999997765624 + input[162] * 0.018162614178248604 + input[163] * 0.036118969215239514 + input[164] * 0.0028295611781607947 + input[165] * -0.006266842201665118 + input[166] * 0.01430083540590339 + input[167] * 0.02130424123643944 + input[168] * 0.03467039116660584 + input[169] * 0.061719243427361965 + input[170] * 0.008890739229468404 + input[171] * 0.004439470502911614 + input[172] * -0.012350222200768682 + input[173] * -0.0071265640229010874 + input[174] * 0.04988549134190452 + input[175] * 0.06821782527052038 + input[176] * 0.0013165538833623338 + input[177] * 0.018061271491025113 + input[178] * -0.011071473376935478 + input[179] * 0.006672757341784028 + input[180] * 0.04358814721751772 + input[181] * 0.07230140084368172 + input[182] * 0.005636809783711456 + input[183] * -0.001425257005498198 + input[184] * 0.001989429917362992 + input[185] * 0.020732380969293633 + input[186] * 0.03707005578917609 + input[187] * 0.050795779270875474 + input[188] * 0.0030042731760124603 + input[189] * 0.005929191503351345 + input[190] * 0.002088813259696993 + input[191] * 0.0054619136689816284 + input[192] * 0.03674992805771779 + input[193] * 0.03813381528900236 + input[194] * 0.002840869382416974 + input[195] * 0.009483857364235602
    var7 = input[196] * -0.002682014028165867
    var8 = var6 + var7 + input[197] * 0.000268567848199209 + input[198] * 0.03452008399858137 + input[199] * 0.03386414738610603 + input[200] * 0.0036655474040952 + input[201] * 0.0025111294513647598 + input[202] * -0.015934186037512194 + input[203] * -0.018385257735718488 + input[204] * 0.03523210435876726 + input[205] * 0.026002274916391867 + input[206] * 0.0017171941856526363 + input[207] * 0.0030802449355615126 + input[208] * 0.009923075364460111 + input[209] * -0.029911703064303297 + input[210] * 0.029837944294997736 + input[211] * 0.01787979298805735 + input[212] * 0.0020433666222722056 + input[213] * 0.008887702654277102 + input[214] * -0.001318581039835998 + input[215] * -0.01821298482211944 + input[216] * 0.024216663910942154 + input[217] * 0.015578280226028416 + input[218] * 0.001810683472024472 + input[219] * -0.0016213465022831724 + input[220] * 0.009613186098396426 + input[221] * -0.016678995021900678 + input[222] * 0.02041908023376199 + input[223] * 0.008853705841564533 + input[224] * 0.0009210401368089906 + input[225] * -0.004864874053282877 + input[226] * 0.002508879884886308 + input[227] * -0.0005620811919804201 + input[228] * 0.016683152338766143 + input[229] * 0.005932192650456415 + input[230] * 0.001163197559219008 + input[231] * -0.007576076631761763 + input[232] * -0.005236097963206559 + input[233] * 0.016899168831032235 + input[234] * 0.011385097308613628 + input[235] * 0.00699420096873706 + input[236] * 0.000961520139636343 + input[237] * -0.004763193781304904 + input[238] * 0.012900480657419442 + input[239] * 0.025867933191657158 + input[240] * 0.00980300182482253 + input[241] * 0.005882606130911988 + input[242] * 0.0011985159274714374 + input[243] * -0.012460627286458307 + input[244] * 0.011879559176847306 + input[245] * 0.03167627476857224 + input[246] * 0.004752620881631839 + input[247] * 0.0024716531849342015 + input[248] * 0.001711966443329744 + input[249] * -0.0042583779390707194 + input[250] * 0.007791270750121906
    var9 = input[251] * 0.019427548953221473
    var10 = -1.0787795607787183 + input[0] * -0.0004486783600010038 + input[1] * -0.0014718846389194095 + input[2] * -0.0005539644612736586 + input[3] * -0.007971951773570954 + input[4] * 0.004130856888924482 + input[5] * 0.006279103126938349 + input[6] * -0.0005491785206254115 + input[7] * -0.004717162579740807 + input[8] * 0.00023519358452170146 + input[9] * 0.005822982288716711 + input[10] * 0.0008881964188294435 + input[11] * 0.007491712306841293 + input[12] * 0.0006867711138815044 + input[13] * -0.0024772759736756385 + input[14] * -0.001007916311948712 + input[15] * -0.0007738580076704631 + input[16] * -0.002605723845774734 + input[17] * 0.0055704034897576344 + input[18] * 0.0003911315548985194 + input[19] * -0.001984078690913302 + input[20] * -0.0003111635480612663 + input[21] * -0.009205392237581893 + input[22] * -0.0009737508441401583 + input[23] * -0.001200656281160989 + input[24] * -0.0001429800309821117 + input[25] * -0.00234404257519942 + input[26] * -0.00004934624053190747 + input[27] * -0.010398556519134903 + input[28] * 0.00021832414964970215 + input[29] * 0.0006957390551957903 + input[30] * 0.0005721627771706756
    var11 = input[31] * -0.0025463996895066492
    var12 = var10 + var11 + input[32] * -0.0005179616400036611 + input[33] * -0.006510657550017873 + input[34] * 0.0029419926205547075 + input[35] * -0.00008808282470117118 + input[36] * 0.0009616448923269757 + input[37] * -0.0023385653779447397 + input[38] * -0.0000842803312646742 + input[39] * -0.006577850415440813 + input[40] * 0.009121411051118166 + input[41] * 0.003200503296439337 + input[42] * 0.001442125989686541 + input[43] * -0.00233913810511045 + input[44] * -0.00014905448586649556 + input[45] * 0.0008797023213057705 + input[46] * 0.008206104834499212 + input[47] * -0.00041464235928346095 + input[48] * 0.0010969084292632313 + input[49] * -0.002363360907120225 + input[50] * -0.00043397844999126957 + input[51] * 0.002741249756297903 + input[52] * 0.0026512555543063885 + input[53] * -0.004158999716693434 + input[54] * 0.001157821711848906 + input[55] * -0.002187979819881906 + input[56] * 0.00004121649036478544 + input[57] * 0.004106422854856995 + input[58] * 0.0005206943718669605 + input[59] * -0.004169707544474773 + input[60] * 0.00014535853473700275 + input[61] * -0.0018291425495401338 + input[62] * -0.0004544214342187875 + input[63] * 0.00335468293472824 + input[64] * 0.0015529967947975696 + input[65] * 0.0010296612573716347 + input[66] * 0.0009450359473594007 + input[67] * -0.0008589670541675465 + input[68] * -0.00041783329246846746 + input[69] * 0.002660032459046293 + input[70] * 0.010737010589101115 + input[71] * 0.0021426713784776273 + input[72] * 0.0006110665606573558 + input[73] * -0.0011751810261492748 + input[74] * -0.00043446769822933856 + input[75] * -0.00048311130594939737 + input[76] * 0.016108690622983736 + input[77] * 0.003604727878538655 + input[78] * 0.0017015213274249263 + input[79] * -0.002188398194200117 + input[80] * -0.0007595766170554758 + input[81] * -0.005765017269037177 + input[82] * 0.014817620579395068 + input[83] * -0.0012688696539752203 + input[84] * 0.0042628543657441936 + input[85] * -0.002113797494156583
    var13 = input[86] * 0.00022654404461810908
    var14 = var12 + var13 + input[87] * -0.009623068742057593 + input[88] * 0.012241237776693517 + input[89] * 0.012429366080344492 + input[90] * 0.008498066351146156 + input[91] * -0.00300487093363087 + input[92] * 0.00030134608242145787 + input[93] * -0.010696565444320618 + input[94] * 0.008059106604841505 + input[95] * 0.011879466638621553 + input[96] * 0.009671898834523534 + input[97] * -0.005121821477525313 + input[98] * 0.0003227098479946563 + input[99] * -0.0025030394382922405 + input[100] * 0.007010057817490848 + input[101] * 0.03183714047920846 + input[102] * 0.02152093134361733 + input[103] * -0.006900590434110634 + input[104] * 0.0008239699458343963 + input[105] * 0.004231828560174508 + input[106] * 0.0035873356490347475 + input[107] * -0.0190243478868799 + input[108] * 0.03509644786420428 + input[109] * -0.008760219320977392 + input[110] * 0.001602950383250364 + input[111] * 0.005216492439040709 + input[112] * 0.004761991793548379 + input[113] * -0.023846131853282233 + input[114] * 0.04937757253886907 + input[115] * -0.008200961182479963 + input[116] * 0.003350354536957533 + input[117] * 0.0013782778909691795 + input[118] * 0.0015748362715888107 + input[119] * -0.02234059754403599 + input[120] * 0.060543466226201 + input[121] * -0.008665486865506913 + input[122] * 0.0016739199302468998 + input[123] * -0.0014274835807939067 + input[124] * 0.0028392159734120905 + input[125] * -0.02218245051797744 + input[126] * 0.07033914695449542 + input[127] * -0.013026897013711822 + input[128] * 0.002762784302435194 + input[129] * -0.0013660240143466215 + input[130] * 0.0003345997052695841 + input[131] * 0.004071849031090033 + input[132] * 0.0743284209214391 + input[133] * -0.012278567667589415 + input[134] * 0.004048980408818661 + input[135] * -0.002435562905427227 + input[136] * -0.006965561477485565 + input[137] * 0.009105356896659136 + input[138] * 0.06378827575595014 + input[139] * -0.01249884942507482 + input[140] * 0.003337521239463185
    var15 = input[141] * -0.0004984243761405541
    var16 = var14 + var15 + input[142] * -0.010518064631147916 + input[143] * 0.01588116825547502 + input[144] * 0.04585787869655799 + input[145] * -0.0076932546336622365 + input[146] * 0.005581900077317792 + input[147] * 0.0034272585784989127 + input[148] * -0.021983980233579545 + input[149] * 0.016688976636507025 + input[150] * 0.026894661694017906 + input[151] * -0.0078570448312664 + input[152] * 0.0013647537195765067 + input[153] * 0.006775437346776081 + input[154] * -0.0022217560990925433 + input[155] * -0.008454951857646338 + input[156] * -0.0036914359360229933 + input[157] * 0.0012642544578948254 + input[158] * -0.0015986458238886599 + input[159] * -0.010257336033749141 + input[160] * -0.005316807927954827 + input[161] * -0.009114943419004876 + input[162] * -0.022487003038729844 + input[163] * 0.010085679759232467 + input[164] * -0.0031511494506715927 + input[165] * -0.011554499055620563 + input[166] * -0.020809172072645443 + input[167] * -0.02764745644502596 + input[168] * -0.04248297810045529 + input[169] * 0.010183792855899066 + input[170] * -0.004039433223971158 + input[171] * -0.007106694413456651 + input[172] * -0.005359771576991144 + input[173] * 0.008297771695552823 + input[174] * -0.0530900069392896 + input[175] * 0.006028009548335024 + input[176] * -0.0023863471148133433 + input[177] * -0.016102181968400884 + input[178] * 0.004959564571522948 + input[179] * 0.00856319203343513 + input[180] * -0.0558197862970812 + input[181] * 0.0007687232363535223 + input[182] * -0.0025042790791864706 + input[183] * -0.005954858265617198 + input[184] * -0.008201267829727115 + input[185] * 0.008796287653368139 + input[186] * -0.05470804497580906 + input[187] * 0.005255477588387434 + input[188] * -0.004228043478584344 + input[189] * -0.008294845698333652 + input[190] * 0.0014588507248013908 + input[191] * 0.013167637959349991 + input[192] * -0.056025384171083055 + input[193] * 0.006077450262422277 + input[194] * -0.0028728041507833438 + input[195] * 0.0014686606598504472
    var17 = input[196] * -0.0005464191422357539
    var18 = var16 + var17 + input[197] * 0.018702069266181152 + input[198] * -0.049406288731834905 + input[199] * 0.007623685067656301 + input[200] * -0.002244951154259695 + input[201] * 0.00404196815868779 + input[202] * 0.008801498756130179 + input[203] * 0.02305326994889519 + input[204] * -0.045299897210375945 + input[205] * 0.009297878862087803 + input[206] * -0.0014604177481057996 + input[207] * -0.00027540305949070394 + input[208] * -0.008251541763089792 + input[209] * 0.009414342720354699 + input[210] * -0.038648946337343136 + input[211] * 0.006833496838363249 + input[212] * -0.002236999782003299 + input[213] * -0.00803767835012122 + input[214] * -0.0013810701325538616 + input[215] * -0.00969262949392901 + input[216] * -0.031468515181381114 + input[217] * 0.00524228452461529 + input[218] * -0.0010516902959129158 + input[219] * 0.0008872600057245081 + input[220] * -0.0040079892491876185 + input[221] * -0.0031153494035474415 + input[222] * -0.025334336956601294 + input[223] * 0.004806415385961307 + input[224] * -0.0004928966123960087 + input[225] * 0.004546377881534046 + input[226] * -0.0043645737666663026 + input[227] * -0.0006167989365547193 + input[228] * -0.01966430519161887 + input[229] * 0.004205871154389531 + input[230] * -0.0005214918038724204 + input[231] * 0.006936582094140451 + input[232] * 0.00003553906985602977 + input[233] * -0.011305968013472703 + input[234] * -0.013646189677681981 + input[235] * 0.0003401771800765659 + input[236] * -0.00017493294016747164 + input[237] * 0.002832047671201847 + input[238] * -0.016226615063650196 + input[239] * -0.02788904678294364 + input[240] * -0.011580694411848865 + input[241] * -0.0006976348477809921 + input[242] * 0.00012977007336451547 + input[243] * 0.007537115052516994 + input[244] * -0.01317998117706708 + input[245] * -0.03774676710987151 + input[246] * -0.007017376092426767 + input[247] * -0.0016842214438825094 + input[248] * 0.00015041622426136098 + input[249] * 0.004669253554112405 + input[250] * -0.008264122689173125
    var19 = input[251] * -0.02346548915699522
    var20 = -0.9639529990282014 + input[0] * 0.0013527341295306058 + input[1] * 0.0035287826351187357 + input[2] * 0.0004153079345744024 + input[3] * 0.00011240917927124677 + input[4] * -0.0034773584114049 + input[5] * 0.004335433570904571 + input[6] * 0.0013855195973533896 + input[7] * 0.003396308517306144 + input[8] * 0.00031030180675486644 + input[9] * -0.0003091627213666019 + input[10] * -0.0026896989593193222 + input[11] * 0.0008505926101827244 + input[12] * 0.0013305125092402752 + input[13] * 0.003992616252457568 + input[14] * 0.0006089836269421647 + input[15] * 0.0018726669002349123 + input[16] * -0.006962827614970059 + input[17] * -0.004440167467013952 + input[18] * 0.0010266820339691611 + input[19] * 0.003691624164655387 + input[20] * 0.0009577683456290676 + input[21] * -0.005717959225968539 + input[22] * -0.0077655582924664665 + input[23] * -0.007621566329549253 + input[24] * 0.00028156190634681747 + input[25] * 0.00335126862165642 + input[26] * 0.0019417303275429472 + input[27] * -0.006792972131807004 + input[28] * -0.00477212123457197 + input[29] * -0.003164702829404103 + input[30] * 0.0007740891122440306
    var21 = input[31] * 0.003554737342591942
    var22 = var20 + var21 + input[32] * 0.0015520457192587788 + input[33] * -0.0028171443025594794 + input[34] * -0.00932087429197399 + input[35] * 0.0038769169045390463 + input[36] * 0.0011379356720155362 + input[37] * 0.003548165728388422 + input[38] * 0.0006617030530468551 + input[39] * -0.0043114998119049 + input[40] * -0.001165929449210573 + input[41] * 0.0013486127271254997 + input[42] * 0.000905807371943787 + input[43] * 0.0038057886714568424 + input[44] * 0.0012241155318068093 + input[45] * 0.0013032488785890892 + input[46] * -0.009218809337166484 + input[47] * -0.0007909079356037233 + input[48] * 0.0008457977882139911 + input[49] * 0.004553349862943069 + input[50] * 0.000556359240728343 + input[51] * -0.002052864791756804 + input[52] * -0.012418084200952743 + input[53] * -0.004678716941931557 + input[54] * 0.001025059704999854 + input[55] * 0.005250600786114487 + input[56] * 0.0013357570220396632 + input[57] * -0.0007333793514609919 + input[58] * -0.008166501960731383 + input[59] * -0.00772838641103292 + input[60] * 0.0013510320159612176 + input[61] * 0.005024666333152642 + input[62] * 0.0011684117043026228 + input[63] * 0.005364247269332221 + input[64] * -0.0026965350506728855 + input[65] * -0.006298115855774523 + input[66] * 0.0008662208280509905 + input[67] * 0.0044646000956107025 + input[68] * 0.0013916613715109758 + input[69] * 0.004646183720707712 + input[70] * -0.0037070142961305504 + input[71] * -0.008613019029526246 + input[72] * 0.0019909776725865113 + input[73] * 0.005074553583696392 + input[74] * 0.0005578474650860382 + input[75] * 0.0028468458226358897 + input[76] * 0.0029007944799136222 + input[77] * -0.010860573947791637 + input[78] * 0.0008280918558613218 + input[79] * 0.0062748313041356375 + input[80] * 0.0015604785112647624 + input[81] * 0.0027039978834915543 + input[82] * -0.0023458341906709944 + input[83] * -0.008652261303626924 + input[84] * -0.0007028203006735279 + input[85] * 0.007517775929158081
    var23 = input[86] * 0.0010986222093944502
    var24 = var22 + var23 + input[87] * 0.001456572626168836 + input[88] * -0.0011347591707838963 + input[89] * -0.010107680278899264 + input[90] * -0.003638729965223429 + input[91] * 0.018697063783556143 + input[92] * 0.0008357435860079247 + input[93] * 0.00122883883932354 + input[94] * -0.0005145174042162829 + input[95] * -0.0014995988694352248 + input[96] * -0.003443608228024352 + input[97] * 0.031290292269187885 + input[98] * 0.0000009446451905924544 + input[99] * -0.0024563862683998866 + input[100] * -0.0003507131030862244 + input[101] * -0.04380045491180326 + input[102] * 0.0005181090980815717 + input[103] * 0.049495920855274336 + input[104] * -0.000702868266269637 + input[105] * -0.000054726991378659975 + input[106] * 0.0003157907432276058 + input[107] * 0.01215985308135482 + input[108] * 0.004087070430226582 + input[109] * 0.0625979203174804 + input[110] * 0.0012496514780939252 + input[111] * 0.003701508452726048 + input[112] * -0.0009395831945636136 + input[113] * 0.024624643296556715 + input[114] * 0.0030243519008687496 + input[115] * 0.06515860184803626 + input[116] * -0.0012367873889225973 + input[117] * 0.004943009908322655 + input[118] * 0.0007071375350196548 + input[119] * 0.006305820587066792 + input[120] * -0.007344184648185299 + input[121] * 0.06585332898890738 + input[122] * -0.0012635687276306912 + input[123] * 0.003532131455948036 + input[124] * 0.004017720997045152 + input[125] * 0.018515863111394196 + input[126] * -0.02147710206695257 + input[127] * 0.05564039038436718 + input[128] * -0.0008547583026209613 + input[129] * 0.009948297472736853 + input[130] * 0.012705101796219129 + input[131] * 0.007577157231095503 + input[132] * -0.029860486287545715 + input[133] * 0.03634971932748494 + input[134] * -0.0014288849625199809 + input[135] * 0.009837614531621824 + input[136] * 0.003945783241930587 + input[137] * 0.021048685334361675 + input[138] * -0.03235080638282135 + input[139] * 0.0200276589316677 + input[140] * -0.0016504145823719536
    var25 = input[141] * 0.014256593964721028
    var26 = var24 + var25 + input[142] * 0.014231681960655787 + input[143] * 0.003372822412158161 + input[144] * -0.02467370915210148 + input[145] * 0.008482538113844532 + input[146] * -0.0009740226878637242 + input[147] * 0.009827013676987798 + input[148] * 0.00723434716687207 + input[149] * 0.020859033682686767 + input[150] * -0.0036044275142462284 + input[151] * 0.005734405619723279 + input[152] * -0.004163144581188277 + input[153] * 0.02030100590145215 + input[154] * 0.005351507012399183 + input[155] * 0.012111475827612477 + input[156] * 0.0063983975714788505 + input[157] * -0.014230086280831096 + input[158] * 0.001077380999728532 + input[159] * 0.02691912742956273 + input[160] * -0.010782310864065751 + input[161] * 0.00006916196914691857 + input[162] * 0.005242981220388334 + input[163] * -0.046513229574810244 + input[164] * 0.0022906511538797678 + input[165] * 0.02390779710055779 + input[166] * 0.004180354995277882 + input[167] * 0.008815020028397689 + input[168] * 0.008187400355636103 + input[169] * -0.07226873875753849 + input[170] * -0.0030423006628474635 + input[171] * 0.009579635778538211 + input[172] * 0.01456746144865566 + input[173] * -0.0009004218777232129 + input[174] * 0.00325467892842429 + input[175] * -0.07472227975897613 + input[176] * 0.00275884413930936 + input[177] * 0.0039036760679666306 + input[178] * 0.003901988426192542 + input[179] * -0.0158421846513032 + input[180] * 0.01215738458078783 + input[181] * -0.07351997398834888 + input[182] * -0.001606926418801153 + input[183] * 0.01148442874215218 + input[184] * 0.00475101141752648 + input[185] * -0.03068968604156106 + input[186] * 0.01753989969372852 + input[187] * -0.056260301561749916 + input[188] * 0.002549522386626222 + input[189] * 0.0056587094541766265 + input[190] * -0.005066040042313851 + input[191] * -0.01922461801601071 + input[192] * 0.01910828279588541 + input[193] * -0.04430205446198328 + input[194] * 0.0014028691981772888 + input[195] * -0.007206844835259357
    var27 = input[196] * 0.0018354143050568954
    var28 = var26 + var27 + input[197] * -0.019362062518025865 + input[198] * 0.014660256090614934 + input[199] * -0.041580668454539775 + input[200] * 0.000016016931540388803 + input[201] * -0.0025143581005000575 + input[202] * 0.006278447468462509 + input[203] * -0.005289987836520252 + input[204] * 0.00977447060890997 + input[205] * -0.03540676751584451 + input[206] * 0.0012628656916751344 + input[207] * 0.00006309815928129736 + input[208] * -0.0020362292593139827 + input[209] * 0.019674679239994764 + input[210] * 0.008315038353692772 + input[211] * -0.02481363811855811 + input[212] * 0.0015806528519399557 + input[213] * 0.0007107991538787169 + input[214] * 0.0016514731659348497 + input[215] * 0.02772248567766124 + input[216] * 0.006822725041859729 + input[217] * -0.02089205492877241 + input[218] * 0.000526756974383498 + input[219] * 0.0015670214882973587 + input[220] * -0.0061241492508470495 + input[221] * 0.019825117944151507 + input[222] * 0.0045321404787817335 + input[223] * -0.013738537253431151 + input[224] * 0.0008537916566100288 + input[225] * 0.0007285976024204527 + input[226] * 0.0019855629496183472 + input[227] * 0.00035585571635671844 + input[228] * 0.002607216367040725 + input[229] * -0.010168211668916445 + input[230] * 0.0007255899773851533 + input[231] * 0.0010259754842871793 + input[232] * 0.00555968048666542 + input[233] * -0.006574177508789913 + input[234] * 0.0019759673826591916 + input[235] * -0.007408650424131324 + input[236] * 0.0006067217323029862 + input[237] * 0.002325742381343201 + input[238] * 0.003942050586604618 + input[239] * 0.0013635849573415844 + input[240] * 0.001560513257953702 + input[241] * -0.005241424012800972 + input[242] * 0.00012756157064230258 + input[243] * 0.0047317908379571364 + input[244] * 0.002568573357030167 + input[245] * 0.004764158528585114 + input[246] * 0.001963357273702213 + input[247] * -0.0008502978117512545 + input[248] * -0.00038972369063904245 + input[249] * -0.0010495294843472093 + input[250] * 0.0019235625407082197
    var29 = input[251] * 0.0028799341401093354
    var30 = -4.43870461402336 + input[0] * -0.000026823033033531697 + input[1] * 0.0000132630421012858 + input[2] * -0.0016699659216413297 + input[3] * 0.0010252494719838834 + input[4] * 0.00020963374927003182 + input[5] * -0.0016250417233435969 + input[6] * -0.00004742615372948202 + input[7] * 0.000022039608825250218 + input[8] * -0.0016916490446987464 + input[9] * 0.0009516788993486652 + input[10] * 0.0000095263165045204 + input[11] * -0.0014687437623113902 + input[12] * -0.00008838838958334914 + input[13] * -0.000009017390648948354 + input[14] * -0.0016754749743450716 + input[15] * 0.0007728344863543781 + input[16] * 0.000034509413250136426 + input[17] * -0.0010366883041043368 + input[18] * -0.00013770309507080532 + input[19] * 0.0000047877127085565225 + input[20] * -0.0016584713775270013 + input[21] * 0.0005337386739605982 + input[22] * -0.00013592602386511588 + input[23] * -0.0007186958769492496 + input[24] * -0.00023428580783360758 + input[25] * 0.00000426231716103875 + input[26] * -0.001684287260117172 + input[27] * 0.00030285676761307364 + input[28] * -0.0001557092935656948 + input[29] * -0.00034873018462057203 + input[30] * -0.0003796102904673992
    var31 = input[31] * 0.000010684260575901959
    var32 = var30 + var31 + input[32] * -0.0016934391094712354 + input[33] * -0.00015475288063078224 + input[34] * -0.00046180126868998646 + input[35] * 0.00002010571046956579 + input[36] * -0.0005116700098683813 + input[37] * 0.00005794438836529804 + input[38] * -0.0017017317517530031 + input[39] * -0.0010672626974064857 + input[40] * 0.0006370497650286486 + input[41] * 0.0008179183740354868 + input[42] * -0.0006249094698482469 + input[43] * 0.00012846691498062568 + input[44] * -0.0016341271142911295 + input[45] * -0.0017217907655911978 + input[46] * 0.0008278634078914732 + input[47] * 0.0015116220474029737 + input[48] * -0.0007751613876610602 + input[49] * 0.00021828558139496388 + input[50] * -0.0014525724663185576 + input[51] * -0.002329644509200061 + input[52] * 0.0013759852541383357 + input[53] * 0.0026526299618699245 + input[54] * -0.0007702133453700873 + input[55] * 0.00026591559811607596 + input[56] * -0.0012497214943658645 + input[57] * -0.002318380564753726 + input[58] * 0.0009640123303556388 + input[59] * 0.004476487230484314 + input[60] * -0.0006204716343252787 + input[61] * 0.0003185327234004411 + input[62] * -0.0010876606474420165 + input[63] * -0.0021237293980180217 + input[64] * -0.000025044194441823444 + input[65] * 0.006239092606654385 + input[66] * -0.0003498215666324144 + input[67] * 0.0002616181995354604 + input[68] * -0.0009674927295642504 + input[69] * -0.0010860801972904875 + input[70] * -0.0010178707949007105 + input[71] * 0.007698415829563151 + input[72] * 0.00007219160327765865 + input[73] * 0.00008759955732396961 + input[74] * -0.0009320703349925003 + input[75] * 0.002300274150630174 + input[76] * -0.0016940475380645002 + input[77] * 0.008888347651800547 + input[78] * 0.00042598949541586967 + input[79] * -0.0001323862930630666 + input[80] * -0.0009364378872799675 + input[81] * 0.006862670886112428 + input[82] * -0.0018735157583137472 + input[83] * 0.009920594850119719 + input[84] * 0.0006863175965044252 + input[85] * -0.0003571568968595595
    var33 = input[86] * -0.0009662775747940499
    var34 = var32 + var33 + input[87] * 0.010460917388257168 + input[88] * -0.002950474150348476 + input[89] * 0.0100408472308097 + input[90] * 0.0009233084921787107 + input[91] * -0.0005358383948154377 + input[92] * -0.0011674692328404567 + input[93] * 0.011666343992899128 + input[94] * -0.005006064470325282 + input[95] * 0.008486770204793862 + input[96] * 0.0011363212735350473 + input[97] * -0.0005663953673722469 + input[98] * -0.0015509894813613115 + input[99] * 0.010306694290259877 + input[100] * -0.007225423668931009 + input[101] * 0.005729796322352313 + input[102] * 0.0011616685121565347 + input[103] * -0.0006489239561436004 + input[104] * -0.001975595725453593 + input[105] * 0.007578386099297423 + input[106] * -0.009213414747478046 + input[107] * 0.002450318511891969 + input[108] * 0.0011151784550403722 + input[109] * -0.0007579771272925358 + input[110] * -0.00234708575285127 + input[111] * 0.0038474028193755936 + input[112] * -0.009379925446206432 + input[113] * -0.0008569916246386668 + input[114] * 0.0010000782739019965 + input[115] * -0.0008868272056457543 + input[116] * -0.00259223785575289 + input[117] * -0.0003908259478103013 + input[118] * -0.007549998338669771 + input[119] * -0.004101435540725467 + input[120] * 0.000683552249274678 + input[121] * -0.0010028569562548723 + input[122] * -0.0026327049557132005 + input[123] * -0.003005586576400204 + input[124] * -0.005503465722102339 + input[125] * -0.0071307613600305395 + input[126] * 0.0002899205359733764 + input[127] * -0.001046193831805739 + input[128] * -0.0025800631129521976 + input[129] * -0.0026472814631406877 + input[130] * -0.004002174068281892 + input[131] * -0.009118739644257768 + input[132] * -0.00027733747779028206 + input[133] * -0.0008726027675788255 + input[134] * -0.002664177002606442 + input[135] * -0.0018225341224018584 + input[136] * -0.003456914115460808 + input[137] * -0.010212548976980007 + input[138] * -0.0005903335208655225 + input[139] * -0.0006078661833832462 + input[140] * -0.0027057761006469214
    var35 = input[141] * -0.0028478823335040056
    var36 = var34 + var35 + input[142] * -0.0019649005095039233 + input[143] * -0.010712424961433487 + input[144] * -0.0007297278505050258 + input[145] * -0.0002941894201648784 + input[146] * -0.002359533975955024 + input[147] * -0.004743958537339043 + input[148] * 0.0014980809894268668 + input[149] * -0.011296188015504393 + input[150] * -0.0008915285840433548 + input[151] * -0.0000641371412273104 + input[152] * -0.002038602821082965 + input[153] * -0.005062571349745181 + input[154] * 0.003374977621633788 + input[155] * -0.00945808150593978 + input[156] * -0.0009503770089189844 + input[157] * 0.0002861865839879393 + input[158] * -0.002011648950988373 + input[159] * -0.004501216390911963 + input[160] * 0.0019211725408779957 + input[161] * -0.005748218547904148 + input[162] * -0.0009185923599091101 + input[163] * 0.00030858060032433937 + input[164] * -0.0019690628813520345 + input[165] * -0.006086455843349777 + input[166] * 0.002327981671451877 + input[167] * -0.0024718048198430556 + input[168] * -0.0003748134217983449 + input[169] * 0.0003657024742657175 + input[170] * -0.0018090053426290638 + input[171] * -0.006912411868025208 + input[172] * 0.0031425323291100326 + input[173] * -0.0002707857950138914 + input[174] * -0.000050163331057711 + input[175] * 0.0004764449401132763 + input[176] * -0.0016890509078382045 + input[177] * -0.005862765590584149 + input[178] * 0.0022099203792375847 + input[179] * 0.0006062352760388399 + input[180] * 0.00007425449875756693 + input[181] * 0.00044984990830699943 + input[182] * -0.0015256042857050307 + input[183] * -0.00410431347103722 + input[184] * 0.0014608264948616188 + input[185] * 0.0011610174188547214 + input[186] * 0.00009808949288924177 + input[187] * 0.00020904470248175327 + input[188] * -0.0013257520840354092 + input[189] * -0.0032930552592171924 + input[190] * 0.0015183760578305454 + input[191] * 0.0005950663876172027 + input[192] * 0.00016717331747105962 + input[193] * 0.00009078891055044257 + input[194] * -0.0013709344297863986 + input[195] * -0.0037456731888352228
    var37 = input[196] * 0.0013930188653468807
    var38 = var36 + var37 + input[197] * 0.0003914254035470346 + input[198] * 0.0002259486426354047 + input[199] * 0.0000928360007709525 + input[200] * -0.0014366131813522563 + input[201] * -0.004038739509570238 + input[202] * 0.0008542398129111491 + input[203] * 0.0006219756233028634 + input[204] * 0.00029332224269759357 + input[205] * 0.0001066137373608359 + input[206] * -0.0015196421292028414 + input[207] * -0.00286794003537495 + input[208] * 0.00036469565791599117 + input[209] * 0.0008226811039382706 + input[210] * 0.0004959636886476427 + input[211] * 0.00010034829213617737 + input[212] * -0.0013870196921923984 + input[213] * -0.0015608234580610624 + input[214] * 0.0010481780064135193 + input[215] * 0.00018312863837073592 + input[216] * 0.000429126228574391 + input[217] * 0.0000714901781292507 + input[218] * -0.0012857501504777759 + input[219] * -0.0008329349917447138 + input[220] * 0.0005189524015998206 + input[221] * -0.00003077351871963695 + input[222] * 0.0003831162440535912 + input[223] * 0.00007841602590761313 + input[224] * -0.0012819351810040597 + input[225] * -0.00041010143067581463 + input[226] * -0.00012986906785580177 + input[227] * 0.0008230244121557939 + input[228] * 0.00037393648580904046 + input[229] * 0.00003014786407218246 + input[230] * -0.0013672957327152998 + input[231] * -0.00038648094668373154 + input[232] * -0.0003591215933128049 + input[233] * 0.000980976691208478 + input[234] * 0.0002851249864044041 + input[235] * 0.00007427227531902673 + input[236] * -0.0013933089317525035 + input[237] * -0.0003945962712733564 + input[238] * -0.0006159161803473361 + input[239] * 0.0006575286338955598 + input[240] * 0.0002171793290682041 + input[241] * 0.00005645272966895624 + input[242] * -0.0014558475714573599 + input[243] * 0.00019172139594195774 + input[244] * -0.0012681513567732667 + input[245] * 0.001306333812670832 + input[246] * 0.000301397937089681 + input[247] * 0.00006286607069772093 + input[248] * -0.0014726589769327421 + input[249] * 0.0006386538692813033 + input[250] * -0.001450710601614214
    var39 = input[251] * 0.0011580060636384325
    return [var8 + var9 + input[252] * 0.004479648844503058 + input[253] * 0.000831350815453052 + input[254] * 0.0020896252432474932 + input[255] * 0.0067175730401792125 + input[256] * 0.0019758416665444836 + input[257] * 0.010797294552234264 + input[258] * 0.0033378483390031333 + input[259] * 0.0014231096875250582 + input[260] * 0.0014933178758222922 + input[261] * 0.010242277096512098 + input[262] * 0.0026405972154285163 + input[263] * 0.002790107218218655 + input[264] * 0.0024070414230025145 + input[265] * 0.0017844876787020533 + input[266] * 0.0007300802570240362 + input[267] * 0.001642661683140664 + input[268] * -0.0024129501819823425 + input[269] * -0.00861806773859964 + input[270] * 0.0025581329847791847 + input[271] * 0.0008942206471944809 + input[272] * 0.0003066433454270289 + input[273] * 0.004034222628600374 + input[274] * 0.013580379698934004 + input[275] * -0.012050019932370313 + input[276] * 0.0013493479975552646 + input[277] * 0.0006307930439514455 + input[278] * 0.0006357815859310645 + input[279] * -0.0012647415880540204 + input[280] * 0.006364863375067931 + input[281] * -0.006760787348675541 + input[282] * 0.0003798771427981554 + input[283] * 0.0008215957875639856 + input[284] * 0.0003817334050163367 + input[285] * -0.001396322302059775 + input[286] * -0.0104782354512501 + input[287] * -0.002944625067860209 + input[288] * 0.00045583202587940033 + input[289] * 0.0018080167257420823 + input[290] * 0.001137169265694348 + input[291] * 0.009310450536522559 + input[292] * -0.016474028683216003 + input[293] * 0.003098483478049564 + input[294] * 0.0015506182256278182 + input[295] * 0.0011840729448157681 + input[296] * 0.0008978218328678441 + input[297] * 0.027053193343209745 + input[298] * -0.014688802259335377 + input[299] * -0.014442164108392937 + input[300] * -0.0008239940475603786 + input[301] * 0.0016826623155981278 + input[302] * 0.00022416534417086032 + input[303] * 0.03092273526046945 + input[304] * -0.0052939427506870414 + input[305] * -0.017416772338290337, var18 + var19 + input[252] * -0.006681033000750641 + input[253] * -0.001022585437712741 + input[254] * 0.00006142837418563458 + input[255] * 0.0011520115874438068 + input[256] * -0.0015382888120328445 + input[257] * -0.019052147432874235 + input[258] * -0.005351145837596891 + input[259] * -0.0019072584721192868 + input[260] * 0.0004820370223715499 + input[261] * 0.0012391595383136513 + input[262] * -0.0033998725464094047 + input[263] * -0.003271272329260628 + input[264] * -0.004355040155856881 + input[265] * -0.0019262608237696442 + input[266] * 0.0007287387003662015 + input[267] * 0.002651749124612191 + input[268] * -0.0067490359573212574 + input[269] * 0.014336248433132593 + input[270] * -0.0038237096181225386 + input[271] * -0.0014661063139628867 + input[272] * 0.0007874717474892587 + input[273] * -0.001020309001420039 + input[274] * -0.017805575826688947 + input[275] * 0.01946522093379909 + input[276] * -0.0025575620714110097 + input[277] * -0.0008748120715451022 + input[278] * 0.0004608586255426302 + input[279] * 0.0008778589023944978 + input[280] * -0.012857991376839866 + input[281] * 0.013178469655066251 + input[282] * -0.0021208460689906873 + input[283] * -0.0009657764748456428 + input[284] * 0.0006029291639907844 + input[285] * -0.0011476329953127482 + input[286] * -0.0013675910551353108 + input[287] * 0.01089349103351221 + input[288] * -0.001737342469526726 + input[289] * -0.0012936761433749975 + input[290] * 0.0002698403799506467 + input[291] * -0.008948116192846292 + input[292] * -0.0008147699697446631 + input[293] * 0.004136633873760134 + input[294] * -0.0008298918878875981 + input[295] * -0.0008744957942799861 + input[296] * 0.00043245056054591857 + input[297] * -0.01782612992417714 + input[298] * 0.00034608050051275133 + input[299] * 0.004790546597215534 + input[300] * -0.0009949044276505203 + input[301] * -0.0012234477064202536 + input[302] * 0.0009467353173936618 + input[303] * -0.014959480562390862 + input[304] * -0.004721272056522059 + input[305] * 0.014621794271762821, var28 + var29 + input[252] * 0.0019528706619833247 + input[253] * 0.00017982594018499512 + input[254] * -0.0005766286386189838 + input[255] * -0.008621339260009582 + input[256] * 0.0010882561601599382 + input[257] * 0.00785451215523289 + input[258] * 0.001789945088386815 + input[259] * 0.0004499707542036674 + input[260] * -0.000308974094268981 + input[261] * -0.01229007303210099 + input[262] * 0.0015408290952316952 + input[263] * -0.0002762508978718973 + input[264] * 0.0017407268880860697 + input[265] * 0.0001568711980352179 + input[266] * 0.00030078453993876233 + input[267] * -0.005381584641623391 + input[268] * 0.008662353753389097 + input[269] * -0.00620424695732945 + input[270] * 0.0011415089487882366 + input[271] * 0.0005541978957276953 + input[272] * 0.0006770253949945879 + input[273] * -0.0037227743772925434 + input[274] * 0.003706952756790395 + input[275] * -0.007296280884594972 + input[276] * 0.0011100531347593462 + input[277] * 0.00022241740341209386 + input[278] * 0.0006724574051692593 + input[279] * -0.00028071197544606735 + input[280] * 0.005732799811869445 + input[281] * -0.005947086170058965 + input[282] * 0.0016706573594977563 + input[283] * 0.00010560958181075934 + input[284] * 0.0007581063100945384 + input[285] * 0.0026413405293361997 + input[286] * 0.01102741077923921 + input[287] * -0.007508503579583945 + input[288] * 0.001266759426167571 + input[289] * -0.0005555834611981966 + input[290] * 0.00029678341134115635 + input[291] * 0.0006139395861622712 + input[292] * 0.01711638748926126 + input[293] * -0.006906477207034324 + input[294] * -0.0007308200441437201 + input[295] * -0.0003350614259334987 + input[296] * 0.0003511226245038306 + input[297] * -0.007573287237446498 + input[298] * 0.015257197924677491 + input[299] * 0.009834728003997328 + input[300] * 0.0017829245142854443 + input[301] * -0.0004846112417866017 + input[302] * 0.00044160669106143403 + input[303] * -0.015027815693301024 + input[304] * 0.010459638773306633 + input[305] * 0.0031292607315566946, var38 + var39 + input[252] * 0.00024851349426080883 + input[253] * 0.000011408682073553302 + input[254] * -0.0015744249787915893 + input[255] * 0.0007517546323645524 + input[256] * -0.001525809014633017 + input[257] * 0.00040034072537808345 + input[258] * 0.00022335241020515856 + input[259] * 0.00003417803038930221 + input[260] * -0.001666380803903666 + input[261] * 0.0008086363972411377 + input[262] * -0.0007815537642085449 + input[263] * 0.0007574160088879718 + input[264] * 0.00020727184476881472 + input[265] * -0.000015098052968350167 + input[266] * -0.001759603497306661 + input[267] * 0.0010871738338470486 + input[268] * 0.0004996323859556944 + input[269] * 0.0004860662627780109 + input[270] * 0.0001240676845559134 + input[271] * 0.000017687771039223827 + input[272] * -0.0017711404878880507 + input[273] * 0.0007088607500979202 + input[274] * 0.0005182433709855736 + input[275] * -0.00011892011684513804 + input[276] * 0.00009816093909748412 + input[277] * 0.000021601624180551387 + input[278] * -0.001769097616619928 + input[279] * 0.0006675946611113853 + input[280] * 0.0007603281899012028 + input[281] * -0.00047059613636302096 + input[282] * 0.00007031156669470769 + input[283] * 0.00003857110546948123 + input[284] * -0.0017427688790806978 + input[285] * -0.00009738523195132908 + input[286] * 0.0008184157271171126 + input[287] * -0.0004403623860950325 + input[288] * 0.000014751017479958883 + input[289] * 0.000041242878829587244 + input[290] * -0.0017037930569654821 + input[291] * -0.0009762739298306577 + input[292] * 0.00017241116368312627 + input[293] * -0.00032864014479807294 + input[294] * 0.000010093706404647386 + input[295] * 0.00002548427539732285 + input[296] * -0.0016813950178971825 + input[297] * -0.0016537761815855862 + input[298] * -0.0009144761658559766 + input[299] * -0.00018311049284072813 + input[300] * 0.00003597396092625954 + input[301] * 0.000025396632608693374 + input[302] * -0.0016125073526056003 + input[303] * -0.0009354390047954116 + input[304] * -0.00044442396607372617 + input[305] * -0.0003342826650623819]
