def score(input):
    var0 = 7.06700713873327 + input[0] * -0.001917515675083973 + input[1] * -0.017338589018416752 + input[2] * -0.004716666888428246 + input[3] * -0.01366108057139698 + input[4] * -0.010630031911984788 + input[5] * -0.03509917889088657 + input[6] * -0.0006127563216062911 + input[7] * -0.021140060054623683 + input[8] * -0.0058788630270443926 + input[9] * 0.04022348047260915 + input[10] * 0.028966871870077977
    var1 = input[11] * 0.014470885004440291
    var2 = 1.0526182947939808 + input[0] * -0.0025293714607087237 + input[1] * -0.007815250428214359 + input[2] * -0.004008976175599809 + input[3] * -0.009170352822896771 + input[4] * 0.030679842465110428 + input[5] * 0.032602529817222246 + input[6] * -0.0005430806883405301 + input[7] * -0.013256166882378745 + input[8] * -0.0044907213608985095 + input[9] * -0.01799070638981734 + input[10] * 0.003941486903860954
    var3 = input[11] * 0.00806935156932255
    var4 = 0.7737164440543445 + input[0] * 0.004534765283266836 + input[1] * 0.024925162712199286 + input[2] * 0.006185429231264148 + input[3] * 0.023049972594504007 + input[4] * -0.021188770140107345 + input[5] * 0.005026343707350446 + input[6] * 0.003609878142789237 + input[7] * 0.033992900793417165 + input[8] * 0.008212630398835909 + input[9] * -0.01844587840123494 + input[10] * -0.03517713090898451
    var5 = input[11] * -0.025271374433342226
    var6 = -8.893341877635153 + input[0] * -0.000087878147473275 + input[1] * 0.00022867673443022982 + input[2] * 0.0025402138327003253 + input[3] * -0.00021853920015095746 + input[4] * 0.0011389595869586496 + input[5] * -0.0025296946336065486 + input[6] * -0.002454041132838549 + input[7] * 0.00040332614358686535 + input[8] * 0.0021569539890479244 + input[9] * -0.0037868956815352377 + input[10] * 0.002268772135057966
    var7 = input[11] * 0.0027311378596487647
    return [var0 + var1 + input[12] * -0.009152620056536016 + input[13] * -0.02180393137963103 + input[14] * -0.010903414541704563 + input[15] * -0.04033075441913511 + input[16] * 0.017363638137433777 + input[17] * 0.014948077288570113 + input[18] * -0.01605323034510902 + input[19] * -0.0997924756823078 + input[20] * -0.01045662395850784 + input[21] * 0.004939760847592738 + input[22] * -0.045827080311853424 + input[23] * -0.02764974736944564 + input[24] * -0.3071983483415467 + input[25] * -0.23973858765863648 + input[26] * 0.006683222485444482 + input[27] * -0.006024453310976001 + input[28] * -0.006809206508498006 + input[29] * -0.01399553875974056 + input[30] * -0.06658820135907773 + input[31] * 0.05538811928406365 + input[32] * 0.01981988530396403 + input[33] * -0.06175869071302061 + input[34] * -0.0074254645037692595 + input[35] * 0.01629382921978559 + input[36] * 0.17343391358547508 + input[37] * 0.27399746938561303 + input[38] * 0.03759191795128553 + input[39] * 0.03920581325884678 + input[40] * 0.0055963218381148965 + input[41] * 0.0359494144610539 + input[42] * 0.18085052171716973 + input[43] * 0.1082638465407747 + input[44] * 0.013086471796272882 + input[45] * 0.027446841282727074 + input[46] * -0.05508644294745325 + input[47] * -0.028748924528955666 + input[48] * 0.08108263796185382 + input[49] * 0.035106302157792195 + input[50] * 0.003015328514258808 + input[51] * -0.0006198725637908569 + input[52] * 0.02923523380724923 + input[53] * 0.07396528634766794 + input[54] * 0.025190298507807834 + input[55] * -0.009403025715324259 + input[56] * 0.007037201481503791 + input[57] * -0.015208875586801908 + input[58] * 0.009986582517321057 + input[59] * 0.0008527115664920868 + input[60] * -0.002159760417665656 + input[61] * 0.010155244644825003 + input[62] * -0.0014978017029476328 + input[63] * 0.08742363719958567 + input[64] * -0.03678863752726747 + input[65] * -0.05892848719229483, var2 + var3 + input[12] * 0.0035261021684420625 + input[13] * -0.008565974691471382 + input[14] * -0.0010947350613402167 + input[15] * 0.0111483378100562 + input[16] * 0.005589585965426072 + input[17] * -0.026097066144291824 + input[18] * 0.037468411476176265 + input[19] * -0.049250288599962784 + input[20] * -0.0009420708581653456 + input[21] * -0.042026320159630884 + input[22] * 0.05693301510510345 + input[23] * 0.007547698040011682 + input[24] * 0.3566561332091647 + input[25] * -0.06514506781112049 + input[26] * 0.015104433156443416 + input[27] * -0.0008163681657446519 + input[28] * 0.012871458836075288 + input[29] * 0.0035824444029725695 + input[30] * 0.04580341885614526 + input[31] * -0.014289732328366448 + input[32] * -0.01653213947528567 + input[33] * 0.020037811498976838 + input[34] * -0.0024612494582474673 + input[35] * 0.010224155061449022 + input[36] * -0.2926689666183901 + input[37] * 0.03625749618612031 + input[38] * -0.029477845439436774 + input[39] * -0.03711605770347715 + input[40] * -0.002069585101303272 + input[41] * 0.008677664584627114 + input[42] * -0.22166425606722814 + input[43] * 0.04909021247231007 + input[44] * -0.020158898355472018 + input[45] * -0.02402584665652646 + input[46] * 0.007785299143512873 + input[47] * -0.011344726257127772 + input[48] * -0.09057889133571041 + input[49] * -0.009269753000882053 + input[50] * -0.0026726644546223757 + input[51] * -0.005199404254874712 + input[52] * -0.03710390979124636 + input[53] * -0.07968456016649204 + input[54] * -0.03412647798974105 + input[55] * -0.003105793623934606 + input[56] * -0.004040286491456116 + input[57] * 0.007043166315994947 + input[58] * -0.02523360170864963 + input[59] * 0.029182637064358984 + input[60] * -0.008042666144914919 + input[61] * -0.0028011047083113805 + input[62] * 0.001838743090446366 + input[63] * -0.06444233716031744 + input[64] * 0.0167152125876999 + input[65] * 0.03159516292880989, var4 + var5 + input[12] * 0.006884896285279726 + input[13] * 0.030004713136310764 + input[14] * 0.00651923538653114 + input[15] * 0.041282483495581786 + input[16] * -0.021340734495633083 + input[17] * -0.036502370303204676 + input[18] * -0.026775616369476528 + input[19] * 0.1515885900928997 + input[20] * 0.008564325090987139 + input[21] * -0.010546769106925698 + input[22] * 0.035890252161141584 + input[23] * -0.0030431160848931335 + input[24] * -0.051961063503356004 + input[25] * 0.30824911103264774 + input[26] * -0.018446495261327404 + input[27] * 0.022565422823860468 + input[28] * 0.0170616000552376 + input[29] * 0.059114983355000934 + input[30] * 0.025411560470569357 + input[31] * -0.041311047388691964 + input[32] * -0.004236185830397026 + input[33] * 0.08259111514026629 + input[34] * -0.014122344835271009 + input[35] * 0.01063338455975368 + input[36] * 0.11936760551303505 + input[37] * -0.3106659130935468 + input[38] * -0.012317928307221223 + input[39] * 0.01597414094601101 + input[40] * -0.011278835784589214 + input[41] * -0.05207671610837769 + input[42] * 0.04003914575673363 + input[43] * -0.15743506908134713 + input[44] * 0.003917092915205141 + input[45] * 0.008237616936123814 + input[46] * 0.034606526358747565 + input[47] * 0.03465595459688971 + input[48] * 0.009139779491528598 + input[49] * -0.026093667457027996 + input[50] * -0.003952429350278299 + input[51] * 0.006910085531646173 + input[52] * 0.00490828053616662 + input[53] * 0.0018545488419055803 + input[54] * 0.008376067736900313 + input[55] * 0.012356135370230567 + input[56] * -0.005543114467788051 + input[57] * 0.002441099334395777 + input[58] * 0.01355537825812948 + input[59] * -0.030934955724625526 + input[60] * 0.010167843542487766 + input[61] * -0.007507285393506667 + input[62] * -0.002690518996607144 + input[63] * -0.02318724160037995 + input[64] * 0.020359951081725555 + input[65] * 0.0272625057050638, var6 + var7 + input[12] * -0.001258378397164028 + input[13] * 0.000365192934789035 + input[14] * 0.005478914216437909 + input[15] * -0.012100066886343025 + input[16] * -0.001612489607249804 + input[17] * 0.04765135915877631 + input[18] * 0.0053604352383818474 + input[19] * -0.0025458258106192703 + input[20] * 0.002834369725620435 + input[21] * 0.04763332841870501 + input[22] * -0.04699618695426823 + input[23] * 0.02314516541429714 + input[24] * 0.0025032786356948694 + input[25] * -0.003365455562851786 + input[26] * -0.003341160380607175 + input[27] * -0.015724601347189785 + input[28] * -0.0231238523826518 + input[29] * -0.04870188899791718 + input[30] * -0.004626777967609322 + input[31] * 0.00021266043296212222 + input[32] * 0.0009484400016815468 + input[33] * -0.040870235926033706 + input[34] * 0.024009058797219287 + input[35] * -0.0371513688403705 + input[36] * -0.000132552480067908 + input[37] * 0.00041094752182662666 + input[38] * 0.004203855795305455 + input[39] * -0.018063896501236357 + input[40] * 0.0077520990477906 + input[41] * 0.007449637062825698 + input[42] * 0.0007745885933590367 + input[43] * 0.00008101006825653414 + input[44] * 0.0031553336439178285 + input[45] * -0.011658611562253545 + input[46] * 0.012694617445176812 + input[47] * 0.005437696189338215 + input[48] * 0.0003564738823375016 + input[49] * 0.000257118300117942 + input[50] * 0.00360976529057555 + input[51] * -0.0010908087129753669 + input[52] * 0.0029603954478233945 + input[53] * 0.0038647249771398143 + input[54] * 0.0005601117450320228 + input[55] * 0.00015268396902852612 + input[56] * 0.0025461994776765106 + input[57] * 0.005724609936426348 + input[58] * 0.0016916409331687884 + input[59] * 0.0008996070940019664 + input[60] * 0.00003458302009126161 + input[61] * 0.0001531454569906752 + input[62] * 0.002349577609046156 + input[63] * 0.00020594156117579302 + input[64] * -0.0002865261421884882 + input[65] * 0.000070818558672108]
