def score(input):
    var0 = 7.983294784949534 + input[0] * -0.0013669245190067107 + input[1] * -0.0035772846942837304 + input[2] * 0.0004812468353227251 + input[3] * 0.004995771073893639 + input[4] * 0.0012162434453907784 + input[5] * -0.01217586945678558 + input[6] * -0.0038307846837019118 + input[7] * -0.0023584756088060235 + input[8] * 0.0007225411954145712 + input[9] * -0.0014130159147853069 + input[10] * 0.02073383162566906 + input[11] * -0.003898192418744757 + input[12] * -0.00014583403075658024 + input[13] * -0.0013706937164345346 + input[14] * -0.0032611868715086943 + input[15] * 0.02648880354171764 + input[16] * 0.006897179747540881 + input[17] * 0.00446315003391461 + input[18] * -0.002775024882289883 + input[19] * -0.002012435780779437 + input[20] * -0.0008840013461287945 + input[21] * 0.013233805344575147 + input[22] * -0.007065601651025317 + input[23] * -0.011019299004362425 + input[24] * -0.0020827394220109432 + input[25] * -0.004103702321322572 + input[26] * -0.0007438807840623565 + input[27] * 0.005880937567224829 + input[28] * 0.016724650395025232 + input[29] * 0.011455035774059564 + input[30] * -0.0021519850019060542 + input[31] * -0.00682490381216633 + input[32] * -0.0023750679173669504 + input[33] * -0.008547267527603531 + input[34] * 0.0035851664422448144 + input[35] * 0.004172325411274285 + input[36] * -0.004336875249402121 + input[37] * -0.007439383546163292 + input[38] * -0.0016830281736131662 + input[39] * -0.009927545536426517 + input[40] * -0.03177855789403126 + input[41] * -0.003100004716289 + input[42] * -0.00666317642519181 + input[43] * -0.009443891831926746 + input[44] * -0.0041081926051092345 + input[45] * -0.005796646725335274
    var1 = input[46] * -0.011105598699375293
    var2 = var0 + var1 + input[47] * -0.017919835038226688 + input[48] * -0.011668829786364424 + input[49] * -0.04759507476330014 + input[50] * -0.0016214935865698217 + input[51] * -0.012718416503762285 + input[52] * 0.0009035260336397516 + input[53] * -0.0028196912870513016 + input[54] * -0.07418787803949586 + input[55] * -0.09786058486108724 + input[56] * -0.005686186482924947 + input[57] * -0.02580160704930436 + input[58] * 0.010408549454587131 + input[59] * 0.013469212521329219 + input[60] * -0.0964172259366727 + input[61] * -0.10303411700900825 + input[62] * -0.0011481573061530987 + input[63] * -0.000771895774818284 + input[64] * -0.0031162935579804986 + input[65] * 0.022533078714914567 + input[66] * -0.08845512287000049 + input[67] * -0.04546467738738715 + input[68] * -0.004064635752790369 + input[69] * -0.01675850646164259 + input[70] * 0.0005265639835723815 + input[71] * -0.03233336253006958 + input[72] * -0.03553921736902798 + input[73] * -0.00866743163336719 + input[74] * -0.012336299923114911 + input[75] * -0.01828519056683879 + input[76] * 0.006131465327275396 + input[77] * -0.02648813499053344 + input[78] * -0.0027675982078247145 + input[79] * 0.02579129750450327 + input[80] * -0.0004705579186781265 + input[81] * -0.019833282187208062 + input[82] * 0.018350106569134696 + input[83] * 0.0309909850379169 + input[84] * 0.06510771661256642 + input[85] * 0.11005998275670423 + input[86] * 0.012258697212789752 + input[87] * 0.0029483662117859998 + input[88] * -0.019934870289122837 + input[89] * 0.0036954635760184187 + input[90] * 0.09514171381438756 + input[91] * 0.12757897588685807 + input[92] * 0.00660345325254889 + input[93] * 0.0022010194408105224 + input[94] * 0.002236262052187584 + input[95] * 0.030803688471168277 + input[96] * 0.08261561196233982 + input[97] * 0.06723440154424276 + input[98] * 0.003369681995050635 + input[99] * 0.018044766154182965 + input[100] * -0.007717500794345408
    var3 = input[101] * 0.00129928570533075
    var4 = 0.08964496759040465 + input[0] * -0.0007937744455624573 + input[1] * -0.0026133912502803 + input[2] * -0.0015806247160519938 + input[3] * -0.003606713140243232 + input[4] * 0.0045204937482207445 + input[5] * 0.012854546071229387 + input[6] * 0.0012519471602747785 + input[7] * -0.00419143029372502 + input[8] * -0.002207935060884393 + input[9] * 0.0002718613479114583 + input[10] * -0.005480065680202769 + input[11] * 0.008941798093399721 + input[12] * -0.000015028068987897459 + input[13] * -0.004302369352879351 + input[14] * -0.0005695424926013581 + input[15] * -0.014505507907984924 + input[16] * -0.0009184688192118519 + input[17] * -0.0024239446131698737 + input[18] * 0.0019994576630197585 + input[19] * -0.004112771054447898 + input[20] * -0.0005925465634833258 + input[21] * -0.005922682473486259 + input[22] * 0.012156932897791493 + input[23] * 0.0020926090709668934 + input[24] * 0.0019429220792225473 + input[25] * -0.004029663167724507 + input[26] * -0.0010573313933056176 + input[27] * 0.0033346892390571374 + input[28] * 0.0011430752147084844 + input[29] * -0.010477556219182097 + input[30] * 0.0007167980914633572 + input[31] * -0.0031084069468970206 + input[32] * -0.0010928868922480404 + input[33] * 0.0025068849999914347 + input[34] * 0.00294097323355948 + input[35] * -0.004622350183969589 + input[36] * 0.0007567810682222433 + input[37] * -0.001968951613793821 + input[38] * -0.0011889195513774984 + input[39] * 0.000031518377527801324 + input[40] * 0.027443081028966913 + input[41] * 0.003246512547807256 + input[42] * 0.006685936023812222 + input[43] * -0.0039319135475022245 + input[44] * 0.00019644156159290998 + input[45] * -0.016252228934877207
    var5 = input[46] * 0.020396635355824137
    var6 = var4 + var5 + input[47] * 0.009054261449977227 + input[48] * 0.01541989175156529 + input[49] * -0.009489544449918558 + input[50] * 0.000612160558140241 + input[51] * -0.003535675504679338 + input[52] * 0.012234419282758644 + input[53] * 0.03701378776200369 + input[54] * 0.06244899773782901 + input[55] * -0.019017807758024512 + input[56] * 0.0029939289509790514 + input[57] * 0.010296644261095243 + input[58] * 0.00913018924719551 + input[59] * -0.042909989203947535 + input[60] * 0.11303702148552701 + input[61] * -0.02006378575033325 + input[62] * 0.0027244399604228506 + input[63] * -0.004757220682519995 + input[64] * 0.0059507574012193885 + input[65] * -0.030458309980483548 + input[66] * 0.13528527050983116 + input[67] * -0.027831619872732045 + input[68] * 0.009224146561638627 + input[69] * 0.0001871452421651136 + input[70] * -0.010008360428292994 + input[71] * 0.02995071465723988 + input[72] * 0.07657635480096708 + input[73] * -0.012930549121611718 + input[74] * 0.011555605946499533 + input[75] * 0.009117635394430544 + input[76] * -0.03057758227064075 + input[77] * 0.02381177965836642 + input[78] * -0.006179273305946801 + input[79] * 0.007110115171871031 + input[80] * -0.0024005768189519646 + input[81] * -0.01673319582085797 + input[82] * -0.01071683822620403 + input[83] * -0.03763255533026067 + input[84] * -0.08279787522889734 + input[85] * 0.0236528283992569 + input[86] * -0.006604789117613968 + input[87] * -0.0040664969075143095 + input[88] * -0.01025626692960213 + input[89] * 0.006126054689417785 + input[90] * -0.1140464989090825 + input[91] * 0.0061712295564862706 + input[92] * -0.0049047695729347585 + input[93] * -0.013583441661644114 + input[94] * -0.012885289427311854 + input[95] * 0.00758155132175789 + input[96] * -0.11430788238806523 + input[97] * 0.011235961782671078 + input[98] * -0.005588615746851385 + input[99] * 0.0007829746909722914 + input[100] * 0.0004852700643115552
    var7 = input[101] * 0.03503398841665113
    var8 = 0.35897556737398406 + input[0] * 0.002194495476615828 + input[1] * 0.006135078678248429 + input[2] * -0.00012719562638969606 + input[3] * -0.0013286645352605737 + input[4] * -0.006008514163212862 + input[5] * 0.000019911269651044806 + input[6] * 0.002695814584958486 + input[7] * 0.006502915315245711 + input[8] * 0.0002714837196999846 + input[9] * 0.0011528709394968484 + input[10] * -0.015269937182728292 + input[11] * -0.004485663814412231 + input[12] * 0.0006315587503764678 + input[13] * 0.0056236815500780675 + input[14] * 0.0026861043915733175 + input[15] * -0.012136219881123525 + input[16] * -0.0059388736624386654 + input[17] * -0.0026456392649153978 + input[18] * 0.001827938950910046 + input[19] * 0.005962681752877462 + input[20] * 0.000274245520939749 + input[21] * -0.005277773794975394 + input[22] * -0.006225934139163617 + input[23] * 0.004760896663262811 + input[24] * 0.0016033468691177089 + input[25] * 0.0077074595180843045 + input[26] * 0.0001247772327064965 + input[27] * -0.0042074873291436 + input[28] * -0.02058390752590493 + input[29] * -0.009882436592976721 + input[30] * 0.0023373574585761605 + input[31] * 0.009431994174906805 + input[32] * 0.001247055967116296 + input[33] * 0.009219723947507944 + input[34] * -0.006862951274540599 + input[35] * -0.015233051580633601 + input[36] * 0.0032130410355620345 + input[37] * 0.009299322588818918 + input[38] * 0.00038592895267314427 + input[39] * 0.003295673022817215 + input[40] * 0.00717450997981632 + input[41] * -0.01910025479162483 + input[42] * -0.0014749825951298533 + input[43] * 0.014026120619206654 + input[44] * 0.00153557539269645 + input[45] * 0.0018176530024012617
    var9 = input[46] * -0.001485431661520734
    var10 = var8 + var9 + input[47] * -0.010183990129991825 + input[48] * -0.005976067773443728 + input[49] * 0.058015596556461616 + input[50] * -0.00017244662385273353 + input[51] * -0.002674605285347899 + input[52] * 0.002245120107988287 + input[53] * -0.04318135916881241 + input[54] * 0.009389818978471586 + input[55] * 0.11797035855655205 + input[56] * 0.0028923567062944366 + input[57] * 0.008846929018839106 + input[58] * -0.0002815365764619227 + input[59] * 0.03297451114453027 + input[60] * -0.01828223562140927 + input[61] * 0.1244991369601994 + input[62] * -0.000942030845269632 + input[63] * 0.011314559302013751 + input[64] * 0.008096089726273578 + input[65] * 0.023369347989593153 + input[66] * -0.04671556169698612 + input[67] * 0.07465694869368672 + input[68] * -0.004391155013255591 + input[69] * 0.021553418790150547 + input[70] * 0.015178174372129196 + input[71] * 0.02431531255561837 + input[72] * -0.039827062721836816 + input[73] * 0.022099578092724927 + input[74] * 0.000818339819465347 + input[75] * 0.01925473803717857 + input[76] * 0.01920651425048843 + input[77] * 0.02524241232947169 + input[78] * 0.010867427915646235 + input[79] * -0.03333595637730366 + input[80] * 0.0020191723704960506 + input[81] * 0.04810789399040323 + input[82] * -0.01240021293402967 + input[83] * 0.018326360126210542 + input[84] * 0.018818494463897262 + input[85] * -0.1340747225140031 + input[86] * -0.006786112109409464 + input[87] * 0.015219660932435364 + input[88] * 0.026400753340130513 + input[89] * -0.00854631129130167 + input[90] * 0.019143446510850835 + input[91] * -0.13391939704194677 + input[92] * -0.0031492274771228713 + input[93] * 0.01748071312298532 + input[94] * 0.008762496504553801 + input[95] * -0.0399292068889732 + input[96] * 0.031812270815090644 + input[97] * -0.07833735350647043 + input[98] * 0.0006283874177887174 + input[99] * -0.013788025838260535 + input[100] * 0.004995649757540365
    var11 = input[101] * -0.03854343039522114
    var12 = -8.431915319916051 + input[0] * -0.00003379651204463006 + input[1] * 0.00005559726631502548 + input[2] * 0.0012265735071071288 + input[3] * -0.00006039339835320689 + input[4] * 0.00027177696955907245 + input[5] * -0.0006985878841559131 + input[6] * -0.00011697706153112338 + input[7] * 0.000046990587286206505 + input[8] * 0.001213910145758043 + input[9] * -0.000011716372608726569 + input[10] * 0.000016171237245318217 + input[11] * -0.000557941860318147 + input[12] * -0.0004706966506401801 + input[13] * 0.000049381519236835095 + input[14] * 0.0011446249725232268 + input[15] * 0.00015292424740726614 + input[16] * -0.000039837265811007806 + input[17] * 0.0006064338441325003 + input[18] * -0.001052371731658215 + input[19] * 0.0001625250823505825 + input[20] * 0.0012023023886547158 + input[21] * -0.0020333490762287167 + input[22] * 0.001134602892374174 + input[23] * 0.004165793270148588 + input[24] * -0.001463529526349758 + input[25] * 0.0004259059709653182 + input[26] * 0.0016764349446568806 + input[27] * -0.005008139477352063 + input[28] * 0.0027161819161021644 + input[29] * 0.008904957038198085 + input[30] * -0.0009021705481504745 + input[31] * 0.0005013165841505024 + input[32] * 0.002220898842505062 + input[33] * -0.0031793414200023185 + input[34] * 0.0003368115986590411 + input[35] * 0.015683076353508997 + input[36] * 0.00036705314562489154 + input[37] * 0.0001090125711217612 + input[38] * 0.0024860187723210504 + input[39] * 0.0066003541361725265 + input[40] * -0.0028390331148418304 + input[41] * 0.01895374696030093 + input[42] * 0.0014522229965336125 + input[43] * -0.0006503152397981373 + input[44] * 0.0023761756508206586 + input[45] * 0.02023122265812924
    var13 = input[46] * -0.0078056049950168006
    var14 = var12 + var13 + input[47] * 0.019049563718337235 + input[48] * 0.002225005808276059 + input[49] * -0.0009309773432585317 + input[50] * 0.001181779652261185 + input[51] * 0.018928697294040186 + input[52] * -0.015383065424591037 + input[53] * 0.008987262693793543 + input[54] * 0.0023490613232203714 + input[55] * -0.0010919659374561185 + input[56] * -0.00020009917438506568 + input[57] * 0.006658033769382549 + input[58] * -0.019257202125517788 + input[59] * -0.0035337344622006625 + input[60] * 0.0016624400725559476 + input[61] * -0.001401234200872386 + input[62] * -0.000634251809041004 + input[63] * -0.0057854428448072485 + input[64] * -0.010930553569630193 + input[65] * -0.015444116724382539 + input[66] * -0.00011458594287011239 + input[67] * -0.0013606514335884091 + input[68] * -0.0007683557956331241 + input[69] * -0.004982057570831158 + input[70] * -0.005696377927461397 + input[71] * -0.021932664683140122 + input[72] * -0.001210074710117235 + input[73] * -0.0005015973377563485 + input[74] * -0.000037645842881974865 + input[75] * -0.010087182865050183 + input[76] * 0.005239602692880272 + input[77] * -0.022566056997455678 + input[78] * -0.0019205564018695122 + input[79] * 0.00043454370092721966 + input[80] * 0.0008519623671081536 + input[81] * -0.011541415982598098 + input[82] * 0.004766944591135833 + input[83] * -0.011684789833943924 + input[84] * -0.0011283358475753758 + input[85] * 0.0003619113580531768 + input[86] * 0.0011322040142113642 + input[87] * -0.014101530236929102 + input[88] * 0.0037903838787102604 + input[89] * -0.0012752069741086703 + input[90] * -0.00023866141615428864 + input[91] * 0.0001691915986170389 + input[92] * 0.001450543797518685 + input[93] * -0.006098290902324093 + input[94] * 0.0018865308706112647 + input[95] * 0.0015439670962268987 + input[96] * -0.00012000038933606743 + input[97] * -0.00013300982043392573 + input[98] * 0.001590546334015473 + input[99] * -0.0050397150071107965 + input[100] * 0.0022365809724913662
    var15 = input[101] * 0.0022101562732118403
    return [var2 + var3 + input[102] * 0.06929266804722414 + input[103] * 0.04139142505133427 + input[104] * 0.00031265589554418775 + input[105] * 0.006515042022123751 + input[106] * 0.006831933740090507 + input[107] * -0.0388453500474866 + input[108] * 0.04549217415137398 + input[109] * 0.02468478882426802 + input[110] * 0.00030424626216621 + input[111] * -0.00021845867657916944 + input[112] * 0.00935847122440386 + input[113] * -0.04108579062601152 + input[114] * 0.03242059191128086 + input[115] * 0.008112230005824726 + input[116] * -0.0006096271265363626 + input[117] * -0.00981245672094572 + input[118] * -0.012539274625825228 + input[119] * 0.03153198197543838 + input[120] * 0.019512242377994222 + input[121] * 0.009304213549622317 + input[122] * -0.0008893352044720338 + input[123] * -0.01983411283043946 + input[124] * 0.020701802431633835 + input[125] * 0.05105253377899642 + input[126] * 0.008911958504647724 + input[127] * 0.0008906874819329111 + input[128] * 0.0009352995123155263 + input[129] * 0.014749425867770073 + input[130] * 0.013482445967181346 + input[131] * 0.027821676749894938 + input[132] * 0.004120668650284668 + input[133] * 0.003746443989336738 + input[134] * -0.001559499152034493 + input[135] * 0.003216200145850957 + input[136] * -0.0029267082315022363 + input[137] * -0.02232548979051798 + input[138] * 0.002547314209004225 + input[139] * 0.0012740447859425636 + input[140] * -0.001462965336053984 + input[141] * -0.00416173636440372 + input[142] * 0.009828454245778632 + input[143] * -0.015433611810460037 + input[144] * 0.0012806650905295828 + input[145] * 0.0032652469774629347 + input[146] * -0.0008965775672610627 + input[147] * 0.01774260344399044 + input[148] * -0.03077933536236119 + input[149] * 0.005943401055414742 + input[150] * -0.0007063886132149055 + input[151] * 0.0033780645198365935 + input[152] * -0.0028906543826209843 + input[153] * 0.04874867085019445 + input[154] * -0.009254212443985365 + input[155] * -0.02846223246076447, var6 + var7 + input[102] * -0.08486467747761292 + input[103] * 0.015235972227320359 + input[104] * -0.0026183890226822827 + input[105] * -0.0028971649996944165 + input[106] * -0.00858034592249043 + input[107] * -0.0023429448659815235 + input[108] * -0.05474346052809072 + input[109] * 0.007967620294194963 + input[110] * -0.0020993555267550257 + input[111] * 0.0011584927240768166 + input[112] * -0.0037125074459162417 + input[113] * 0.011214596424823496 + input[114] * -0.035968305953262926 + input[115] * 0.007183501042202465 + input[116] * -0.0016794596731657288 + input[117] * 0.009352103120739738 + input[118] * 0.00257496691424572 + input[119] * -0.026300055717088426 + input[120] * -0.022299970068756152 + input[121] * -0.001240722783049812 + input[122] * -0.0005262824524838699 + input[123] * 0.012296059536523357 + input[124] * -0.022409458355768127 + input[125] * -0.05804006109612551 + input[126] * -0.012486467383880982 + input[127] * -0.0010932210615299442 + input[128] * -0.0009875563696629026 + input[129] * -0.0018820382143671034 + input[130] * -0.01001729478222335 + input[131] * -0.0376826608066659 + input[132] * -0.007678447742568896 + input[133] * -0.003814110663584775 + input[134] * 0.00025075064704175307 + input[135] * 0.003129592469726775 + input[136] * -0.010687915319785605 + input[137] * 0.03004198475443161 + input[138] * -0.004526828202059876 + input[139] * -0.0018438802451837318 + input[140] * -0.00011088555260273414 + input[141] * 0.005374514122285212 + input[142] * -0.021871733851275124 + input[143] * 0.022698038378857283 + input[144] * -0.0028840099497361524 + input[145] * -0.002018528888147512 + input[146] * -0.0004495129053859865 + input[147] * -0.014571957640910653 + input[148] * -0.002359063286802149 + input[149] * 0.0059658922172896095 + input[150] * -0.001607001888331628 + input[151] * -0.0024899273580259954 + input[152] * 0.001459022221243292 + input[153] * -0.02420322511608717 + input[154] * -0.008831606197304408 + input[155] * 0.02190627821693631, var10 + var11 + input[102] * 0.015572266695608617 + input[103] * -0.05662992176025026 + input[104] * 0.0008531891585746268 + input[105] * 0.001848790183521844 + input[106] * -0.0018367025614972965 + input[107] * 0.038750924028186515 + input[108] * 0.009298317195192415 + input[109] * -0.032779802906507914 + input[110] * 0.00011021860455176151 + input[111] * 0.003497797867795196 + input[112] * -0.00972557698950238 + input[113] * 0.028995298168921588 + input[114] * 0.003446316251433442 + input[115] * -0.015389443747444274 + input[116] * 0.0005388576142373519 + input[117] * 0.002081769248694851 + input[118] * 0.00878523988630103 + input[119] * -0.006391078153408338 + input[120] * 0.0025851060133505158 + input[121] * -0.008091040120891497 + input[122] * -0.00023936165396945 + input[123] * 0.008282280211532853 + input[124] * 0.0016154769421198498 + input[125] * 0.00614975762184993 + input[126] * 0.0032477314899296782 + input[127] * 0.00019652027664189884 + input[128] * -0.0014514502387021641 + input[129] * -0.01461310999293528 + input[130] * -0.0033559817744748116 + input[131] * 0.009275473234898683 + input[132] * 0.003235985195480709 + input[133] * 0.000007969676166576678 + input[134] * 0.00012386078872961937 + input[135] * -0.0094383541950946 + input[136] * 0.013019997279211923 + input[137] * -0.007836883364358798 + input[138] * 0.001791846317285982 + input[139] * 0.0004966443975845927 + input[140] * 0.0004696426629962974 + input[141] * -0.0028297097678927226 + input[142] * 0.010641064212134376 + input[143] * -0.006398121299687696 + input[144] * 0.0015515701573000967 + input[145] * -0.0013052277789358418 + input[146] * 0.0001769614119438252 + input[147] * -0.002608683243912912 + input[148] * 0.03217953751968337 + input[149] * -0.010897568827331219 + input[150] * 0.0022873488754251337 + input[151] * -0.000976001092725293 + input[152] * 0.00022436514362532767 + input[153] * -0.02435450289724882 + input[154] * 0.017502204277650528 + input[155] * 0.006887330146793237, var14 + var15 + input[102] * -0.0000002572652118546535 + input[103] * 0.0000025244815862906315 + input[104] * 0.0014525439685656018 + input[105] * -0.005466667206066372 + input[106] * 0.003585114743853891 + input[107] * 0.002437370885342864 + input[108] * -0.000047030818463084825 + input[109] * 0.00012739378803790276 + input[110] * 0.0016848906600296937 + input[111] * -0.0044378319153361104 + input[112] * 0.004079613211011944 + input[113] * 0.00087589603225557 + input[114] * 0.00010139779056222585 + input[115] * 0.00009371269940735519 + input[116] * 0.0017502291854556388 + input[117] * -0.0016214156484750946 + input[118] * 0.001179067825325845 + input[119] * 0.001159151894985668 + input[120] * 0.00020262167741930318 + input[121] * 0.000027549354312748845 + input[122] * 0.0016549793109129846 + input[123] * -0.0007442269176104187 + input[124] * 0.00009217898204350378 + input[125] * 0.0008377696951733358 + input[126] * 0.0003267773893068733 + input[127] * 0.000006013302953488871 + input[128] * 0.0015037070960384374 + input[129] * 0.001745722339511812 + input[130] * -0.00010916941050540423 + input[131] * 0.0005855108217955818 + input[132] * 0.00032179389680538284 + input[133] * 0.0000596969980807573 + input[134] * 0.00118488771625206 + input[135] * 0.0030925615794853752 + input[136] * 0.0005946262721294723 + input[137] * 0.00012038840039110826 + input[138] * 0.00018766767576998267 + input[139] * 0.00007319106165602521 + input[140] * 0.001104208225648619 + input[141] * 0.001616932009978849 + input[142] * 0.001402215393416386 + input[143] * -0.0008663052687752997 + input[144] * 0.00005177470190380897 + input[145] * 0.00005850968961860245 + input[146] * 0.0011691290606937043 + input[147] * -0.0005619625591638042 + input[148] * 0.0009588611294895362 + input[149] * -0.0010117244453889118 + input[150] * 0.000026041626120477775 + input[151] * 0.00008786393091365692 + input[152] * 0.001207267017742432 + input[153] * -0.0001909428368658781 + input[154] * 0.0005836143636622941 + input[155] * -0.0003313759030134796]
