def score(input):
    var0 = 7.902129982460384 + input[0] * -0.0006569502558565197
    var1 = input[1] * -0.00001449522157835735
    var2 = var0 + var1 + input[2] * -0.0003249153570315923 + input[3] * 0.0022934535156674384 + input[4] * -0.0019552258386498545 + input[5] * -0.007421585157640467 + input[6] * -0.00014363407613858392 + input[7] * 0.00008201808215419794 + input[8] * -0.00014276419331958577 + input[9] * 0.0021845002766536854 + input[10] * 0.00026951133410963016 + input[11] * -0.005429976746741869 + input[12] * -0.0007618394810853846 + input[13] * 0.00022249785349608476 + input[14] * -0.00023719848414501156 + input[15] * -0.0015741448310195936 + input[16] * -0.0009542815317233625 + input[17] * -0.004935647721888518 + input[18] * -0.0002460806787475096 + input[19] * 0.00015204701710306852 + input[20] * -0.0007683768632869035 + input[21] * 0.0013705112567547603 + input[22] * 0.0025531610723722423 + input[23] * -0.004664434375129019 + input[24] * -0.0008462249531675487 + input[25] * 0.00015436938365487172 + input[26] * -0.0003725310579123915 + input[27] * -0.0011949960770077847 + input[28] * 0.004901149019872083 + input[29] * -0.0008682197830684112 + input[30] * -0.0010362107618507542 + input[31] * 0.00008269719935300312 + input[32] * -0.0003996952151284347 + input[33] * 0.004480780624043855 + input[34] * 0.00782121837242229 + input[35] * 0.0002805096363007176 + input[36] * -0.0009431007638996339 + input[37] * 0.00003716069896693422 + input[38] * -0.0007423854263315635 + input[39] * 0.005864458662337613 + input[40] * 0.002929636226419187 + input[41] * -0.0004738683201097144 + input[42] * -0.0006096565496678006 + input[43] * 0.00012041123750332108 + input[44] * -0.0009999874100380477 + input[45] * 0.007647329742521868 + input[46] * -0.004729923101329534 + input[47] * 0.0017826147555574687 + input[48] * -0.0005442212623665891 + input[49] * -0.0000866251790626135 + input[50] * -0.0010093724240694206 + input[51] * 0.007737169980593978 + input[52] * -0.0023492384668466525 + input[53] * 0.001370761428482928 + input[54] * -0.00046938792817879704 + input[55] * -0.0003173193532545996
    var3 = input[56] * -0.000850183775137397
    var4 = var2 + var3 + input[57] * 0.006116323036968987 + input[58] * 0.0033995522556567194 + input[59] * 0.003509843344491815 + input[60] * -0.0009593944561835608 + input[61] * 0.0002065712783575232 + input[62] * -0.0007538873114036057 + input[63] * 0.004172450992620632 + input[64] * 0.005530524127148017 + input[65] * 0.00030476768234628533 + input[66] * -0.0009322446284823333 + input[67] * 0.000035534006464119905 + input[68] * -0.0006135053032187412 + input[69] * 0.005677831048629494 + input[70] * 0.003292330177746613 + input[71] * 0.0005954162050650909 + input[72] * -0.0005954036423204362 + input[73] * -0.00028234938014124454 + input[74] * -0.000960598246452159 + input[75] * 0.007919035262016061 + input[76] * -0.0018423219987424026 + input[77] * 0.0005543734257605355 + input[78] * -0.0004775322301310759 + input[79] * -0.0003789418585150478 + input[80] * -0.0012008855145069115 + input[81] * 0.007178674882202371 + input[82] * -0.0023418814584913825 + input[83] * 0.002775379630092351 + input[84] * -0.0009292304750277969 + input[85] * -0.00011420702011312311 + input[86] * -0.000964215825432002 + input[87] * 0.0028938588057135254 + input[88] * -0.0025470990966167196 + input[89] * 0.0016095798115932447 + input[90] * -0.000704415546561711 + input[91] * -0.0005224612427551993 + input[92] * -0.0007277527409775419 + input[93] * 0.0050925872880908775 + input[94] * 0.0005574020432150544 + input[95] * 0.0003609527965343151 + input[96] * -0.00046321624621358296 + input[97] * -0.0005989263577586476 + input[98] * -0.001075478658561604 + input[99] * 0.00469523945783359 + input[100] * 0.0023938481564930096 + input[101] * 0.0015828773144610786 + input[102] * -0.0003014131889066322 + input[103] * -0.0009056738096922576 + input[104] * -0.0013783967429825484 + input[105] * 0.004449189081427277 + input[106] * 0.0013399504321911942 + input[107] * 0.0038420677121156163 + input[108] * -0.0006070019722594987 + input[109] * -0.0006136023752012925 + input[110] * -0.0012061480122665072
    var5 = input[111] * 0.002944566900599617
    var6 = var4 + var5 + input[112] * 0.0007908533248614749 + input[113] * 0.007437371739609485 + input[114] * -0.0005419170724614229 + input[115] * 0.000167043155734627 + input[116] * -0.002114027876006266 + input[117] * -0.00917352051982249 + input[118] * 0.0010501049232349363 + input[119] * 0.007566325840580199 + input[120] * -0.001094437429887404 + input[121] * -0.0013616876573717257 + input[122] * -0.0016249875688901549 + input[123] * -0.001867650673644296 + input[124] * -0.0017058638833365714 + input[125] * 0.0035564876405729242 + input[126] * -0.0011639697658765936 + input[127] * -0.0015579399590460793 + input[128] * -0.0015986671214140724 + input[129] * -0.002156261759093561 + input[130] * -0.005942568187097425 + input[131] * 0.006338994869427927 + input[132] * -0.0012688735113604423 + input[133] * -0.0014059103470517003 + input[134] * -0.0012498111110061324 + input[135] * -0.003185227821300933 + input[136] * -0.003658754755268089 + input[137] * 0.007597217718783307 + input[138] * -0.0011656431550185308 + input[139] * -0.0013580334454220797 + input[140] * -0.0011228840488990166 + input[141] * -0.0030661546320040877 + input[142] * -0.005173566401020843 + input[143] * 0.006942614019721731 + input[144] * -0.0011849055781063946 + input[145] * -0.0012426460869309547 + input[146] * -0.0008969026809285274 + input[147] * -0.003150146912184051 + input[148] * -0.010988128036670073 + input[149] * 0.0045518288704606965 + input[150] * -0.0009041946836840173 + input[151] * -0.0012223874261224487 + input[152] * -0.0012219526135448507 + input[153] * -0.001002637740882465 + input[154] * -0.012453811116228362 + input[155] * -0.00012460921110015493 + input[156] * -0.0008790633966010622 + input[157] * -0.0012193518640842207 + input[158] * -0.0008442916970675503 + input[159] * -0.0015829518976268559 + input[160] * -0.007857627663121544 + input[161] * -0.005763371374127437 + input[162] * -0.0013637983465584111 + input[163] * -0.001598123052628788 + input[164] * -0.0003416772280919625 + input[165] * 0.0028718706897733334
    var7 = input[166] * -0.004446021174360842
    var8 = var6 + var7 + input[167] * -0.007610058384633806 + input[168] * -0.00146050397330293 + input[169] * -0.0016135151650307558 + input[170] * -0.0009349717449271329 + input[171] * 0.0015396708930496294 + input[172] * -0.002699230677148872 + input[173] * -0.011283385384757339 + input[174] * -0.0016779181716011795 + input[175] * -0.0015786397859057332 + input[176] * 0.000043447338639808224 + input[177] * 0.0032888949878512198 + input[178] * -0.0009944975849465597 + input[179] * -0.011210609149650221 + input[180] * -0.0019644622129061737 + input[181] * -0.0013657639268403693 + input[182] * -0.00045457589585541793 + input[183] * 0.00006612149840134694 + input[184] * 0.0011406658429065782 + input[185] * -0.011196883584207902 + input[186] * -0.002069861894343316 + input[187] * -0.0016679867053380048 + input[188] * -0.00048744843482358716 + input[189] * -0.00011976251826855216 + input[190] * 0.0020582457912849622 + input[191] * -0.009635431661471322 + input[192] * -0.0021753243930838816 + input[193] * -0.0016602767095786324 + input[194] * -0.0004683959512883598 + input[195] * -0.0005780870469331592 + input[196] * 0.003209054397875366 + input[197] * -0.005203662288335031 + input[198] * -0.002340992513478506 + input[199] * -0.0017986613858203791 + input[200] * -0.000054039016332294304 + input[201] * -0.0017730049515353341 + input[202] * 0.004371150203900202 + input[203] * -0.00531797057225961 + input[204] * -0.0025564052982735724 + input[205] * -0.0024274270853237813 + input[206] * -0.000015089867792258932 + input[207] * -0.0033774098958509915 + input[208] * 0.003575143477648001 + input[209] * -0.002060498957877864 + input[210] * -0.0025088436712261963 + input[211] * -0.002452693439776932 + input[212] * -0.00024078854959592023 + input[213] * -0.005269906540842026 + input[214] * 0.0008985001667061854 + input[215] * -0.0015424688833741932 + input[216] * -0.0024328576984323424 + input[217] * -0.002293488090263863 + input[218] * -0.0000427726161615061 + input[219] * -0.005258535699012937 + input[220] * -0.0015634989446646653
    var9 = input[221] * -0.003016810483271622
    var10 = var8 + var9 + input[222] * -0.0015382147349650129 + input[223] * -0.001834017059927564 + input[224] * 0.00010669365812906363 + input[225] * -0.004568564812232928 + input[226] * -0.004702857656038678 + input[227] * 0.0025641792197745677 + input[228] * -0.0016332954258565819 + input[229] * -0.0013730047133824717 + input[230] * -0.00025106622936144535 + input[231] * -0.003331309680464615 + input[232] * -0.002544644940653748 + input[233] * 0.004830233193893619 + input[234] * -0.0017428416751214734 + input[235] * -0.0015068112021586796 + input[236] * 0.0007164359578241686 + input[237] * -0.0046110911015662575 + input[238] * 0.00038815146656070857 + input[239] * -0.000976566027981148 + input[240] * -0.002312967020477319 + input[241] * -0.0015692640700688907 + input[242] * 0.0005870950585115873 + input[243] * -0.0014726623131237839 + input[244] * -0.002488228153854941 + input[245] * -0.002567663216855875 + input[246] * -0.0021247661621669606 + input[247] * -0.0016247707718115869 + input[248] * -0.00025016059015929885 + input[249] * -0.0030142587670856234 + input[250] * -0.0026288442069310244 + input[251] * -0.003368482900665666 + input[252] * -0.002310963467203958 + input[253] * -0.001890852211754903 + input[254] * -0.00013939340694938548 + input[255] * -0.0029586733214724517 + input[256] * -0.0012156843383933267 + input[257] * -0.0007072356868393021 + input[258] * -0.0025438481142652956 + input[259] * -0.002252248985173982 + input[260] * -0.00012091856183890905 + input[261] * -0.003248957790378484 + input[262] * -0.0027295390905778144 + input[263] * -0.0012189521844662608 + input[264] * -0.0024729010817304276 + input[265] * -0.0020897486180867287 + input[266] * 0.0003060624634704415 + input[267] * -0.0008972648017184845 + input[268] * 0.005279826400769951 + input[269] * -0.002164298527567983 + input[270] * -0.0032167751791423427 + input[271] * -0.00323211941527682 + input[272] * 0.00008013458520276177 + input[273] * -0.0005970138157621628 + input[274] * 0.002084421682812338 + input[275] * -0.0020081866442810056
    var11 = input[276] * -0.003761217557827689
    var12 = var10 + var11 + input[277] * -0.004545535793200244 + input[278] * -0.00013712415281039956 + input[279] * 0.000019491610295113206 + input[280] * -0.0005849676099319715 + input[281] * 0.0029032274148108553 + input[282] * -0.0034795524781565516 + input[283] * -0.00821813810868575 + input[284] * -0.0001104940845113567 + input[285] * -0.00016495166067979555 + input[286] * -0.005308471424023264 + input[287] * 0.0026373809468593474 + input[288] * -0.00255565019214745 + input[289] * -0.011192133506419464 + input[290] * -0.0007521143762812476 + input[291] * -0.0005637977098991846 + input[292] * -0.0038755212760225033 + input[293] * 0.010038138401075215 + input[294] * -0.0017779532829480076 + input[295] * -0.01527270508390601 + input[296] * 0.00010572620191404202 + input[297] * -0.005551838864521935 + input[298] * 0.003793741628289963 + input[299] * 0.019504925435177078 + input[300] * -0.002353362624740302 + input[301] * -0.02052690861659525 + input[302] * -0.0006562707500362996 + input[303] * -0.004987493126984692 + input[304] * 0.00023189025665954976 + input[305] * 0.012446407459198465 + input[306] * -0.005462526068850726 + input[307] * -0.02498592803695202 + input[308] * -0.0005169584222389136 + input[309] * -0.005623149141584182 + input[310] * -0.0021102096974478417 + input[311] * 0.003864133588088518 + input[312] * -0.011107036053792397 + input[313] * -0.029498925643276476 + input[314] * -0.00018968655573960082 + input[315] * -0.005677871773170315 + input[316] * -0.0011115812423557164 + input[317] * -0.004113991524375957 + input[318] * -0.015517669399645584 + input[319] * -0.03270202672953178 + input[320] * -0.00041309428830364953 + input[321] * -0.005606948804608267 + input[322] * 0.00042115253279159605 + input[323] * -0.006873908412203025 + input[324] * -0.020179050540060774 + input[325] * -0.034676193832982816 + input[326] * 0.0016942256750577672 + input[327] * -0.006321840504297199 + input[328] * -0.008619230693578724 + input[329] * -0.00020194665911941917 + input[330] * -0.025420209963953617
    var13 = input[331] * -0.03677512937706359
    var14 = var12 + var13 + input[332] * 0.00039416034852955077 + input[333] * -0.004985318421891806 + input[334] * -0.009145372883916036 + input[335] * 0.0010356896048117057 + input[336] * -0.02604604403331561 + input[337] * -0.03664317848558825 + input[338] * 0.0005915372352522219 + input[339] * 0.00044669299316717925 + input[340] * -0.009979677670208997 + input[341] * 0.01047060573635722 + input[342] * -0.02626488687667915 + input[343] * -0.03375002817640918 + input[344] * 0.0008082621409879834 + input[345] * -0.0005633365874394013 + input[346] * -0.013978950968048496 + input[347] * 0.005111056434509362 + input[348] * -0.024701738823027168 + input[349] * -0.029965859587692708 + input[350] * -0.0010802138002518407 + input[351] * -0.0002599327623678821 + input[352] * -0.0011172361252841391 + input[353] * -0.0061996205169298785 + input[354] * -0.024390074221897005 + input[355] * -0.026544653042962878 + input[356] * 0.00026092892870070624 + input[357] * 0.001532934427603933 + input[358] * -0.004501677555398415 + input[359] * -0.00136323951851786 + input[360] * -0.024076596042309245 + input[361] * -0.0213677007091373 + input[362] * -0.0003018281701231215 + input[363] * 0.0016042350488972787 + input[364] * -0.003962454220730393 + input[365] * 0.00046481372288231185 + input[366] * -0.02443198784235882 + input[367] * -0.019252289341876887 + input[368] * -0.00042026583580630255 + input[369] * -0.0007771587881568908 + input[370] * -0.007899085993931226 + input[371] * -0.007853506297742825 + input[372] * -0.022869560720448462 + input[373] * -0.01655416962504811 + input[374] * 0.0002703614770725084 + input[375] * 0.00037760039393726065 + input[376] * 0.0012118921805757618 + input[377] * -0.001444983703642809 + input[378] * -0.020330367326033622 + input[379] * -0.012457567190639158 + input[380] * -0.0020852559250610155 + input[381] * -0.0011954938631757023 + input[382] * -0.004267210906784249 + input[383] * -0.0025694635485321274 + input[384] * -0.016563575726462578 + input[385] * -0.007888367737535347
    var15 = input[386] * -0.001501672751733184
    var16 = var14 + var15 + input[387] * 0.002566495782015914 + input[388] * 0.003875959020442646 + input[389] * -0.0057108083093407366 + input[390] * -0.01887121065392478 + input[391] * -0.0042216799477702415 + input[392] * -0.00007261785583598953 + input[393] * -0.00012932072641925438 + input[394] * 0.003494538811124466 + input[395] * 0.007627045434209328 + input[396] * -0.013878296950943999 + input[397] * -0.00005784418195256144 + input[398] * -0.00204012710887742 + input[399] * 0.0038251263909510045 + input[400] * -0.0005969238324675044 + input[401] * -0.016662431067702682 + input[402] * -0.01698938917044886 + input[403] * -0.0005169440501560412 + input[404] * 0.0031039424638297257 + input[405] * 0.0031611740182524105 + input[406] * -0.001940005961467763 + input[407] * 0.004026712495333027 + input[408] * -0.010226819954150508 + input[409] * 0.004330532242764433 + input[410] * -0.000043532762786109025 + input[411] * 0.0007302608086010472 + input[412] * 0.01019098639073201 + input[413] * 0.00897765203315046 + input[414] * -0.006329321233476989 + input[415] * 0.007719367603713677 + input[416] * 0.0007677285395609445 + input[417] * -0.0009870576993902622 + input[418] * 0.003951598979976289 + input[419] * -0.005460489252869543 + input[420] * 0.0012055156296202996 + input[421] * 0.010604482048484734 + input[422] * 0.00037929010753972496 + input[423] * 0.00351184079833583 + input[424] * -0.003487851010287963 + input[425] * -0.005278137104083415 + input[426] * 0.00528765463877678 + input[427] * 0.01977230170554366 + input[428] * 0.0005011931909920434 + input[429] * 0.0047794278904023145 + input[430] * 0.010136722377229533 + input[431] * 0.002972141749703494 + input[432] * 0.009446709410301414 + input[433] * 0.02692571614924612 + input[434] * 0.0004950150073280241 + input[435] * -0.0025156599077233947 + input[436] * 0.0035877322020263155 + input[437] * -0.0036856068461022075 + input[438] * 0.014370585553275401 + input[439] * 0.028070646895718834 + input[440] * 0.001870470132262846
    var17 = input[441] * 0.00035556021750826253
    var18 = var16 + var17 + input[442] * -0.0005555385164867807 + input[443] * -0.005888428523008583 + input[444] * 0.021739275083794203 + input[445] * 0.030127385168202854 + input[446] * -0.002664221823067544 + input[447] * -0.0040151147990564896 + input[448] * 0.006355434226561795 + input[449] * 0.0002260475775638718 + input[450] * 0.023885049066673526 + input[451] * 0.031165807005541647 + input[452] * -0.0022411936134597776 + input[453] * -0.00041044133630598924 + input[454] * -0.004990993879418832 + input[455] * 0.010300382860859783 + input[456] * 0.021143464327568286 + input[457] * 0.03344922318214887 + input[458] * 0.002028606743048745 + input[459] * -0.0031962494181021883 + input[460] * -0.008983171386224354 + input[461] * 0.007437897343298288 + input[462] * 0.024321966808196024 + input[463] * 0.03341793421373106 + input[464] * 0.0004174537956663371 + input[465] * -0.005506568636192168 + input[466] * 0.005457691711438842 + input[467] * 0.01466611057126057 + input[468] * 0.02387177984350382 + input[469] * 0.02769716296578305 + input[470] * 0.0009337091403897151 + input[471] * -0.0065184021068831095 + input[472] * -0.0006128207134502858 + input[473] * 0.0028875208533511764 + input[474] * 0.022021086492662482 + input[475] * 0.02583794967765407 + input[476] * 0.0007849547152371684 + input[477] * -0.004850118750755467 + input[478] * 0.0030299610790249735 + input[479] * -0.0089268497264157 + input[480] * 0.02162570600174168 + input[481] * 0.022104709013192277 + input[482] * -0.0007062134956082294 + input[483] * -0.006051404081214103 + input[484] * 0.004504980260212274 + input[485] * 0.002723958850178521 + input[486] * 0.022798836913575517 + input[487] * 0.018913035036358897 + input[488] * -0.0008931726194515238 + input[489] * -0.003928801680308124 + input[490] * 0.0037556982481136594 + input[491] * -0.00214666701513144 + input[492] * 0.019939230847560767 + input[493] * 0.018175859804968407 + input[494] * -0.0005706783263130087 + input[495] * -0.003644654056982907
    var19 = input[496] * -0.003514558322753742
    var20 = var18 + var19 + input[497] * 0.0022281928052282937 + input[498] * 0.017964895197556077 + input[499] * 0.016996273499168477 + input[500] * 0.0016655038943832704 + input[501] * -0.0008514856451663994 + input[502] * -0.007206728680291868 + input[503] * -0.0006200098282467423 + input[504] * 0.015703883934703008 + input[505] * 0.015925303084435242 + input[506] * 0.003059039069245396 + input[507] * 0.004221464663182478 + input[508] * 0.005867168089419603 + input[509] * 0.006677561811063549 + input[510] * 0.01766163248619985 + input[511] * 0.014876461883501247 + input[512] * 0.00005332003664433502 + input[513] * 0.00418684476213818 + input[514] * 0.008836425876219193 + input[515] * -0.004142589862796161 + input[516] * 0.01645330161863597 + input[517] * 0.012909896304594328 + input[518] * 0.001105500088701134 + input[519] * 0.009835782223561065 + input[520] * 0.005742807172398091 + input[521] * -0.015432826119903202 + input[522] * 0.015533573655049877 + input[523] * 0.0106651341574447 + input[524] * -0.0006882055098216665 + input[525] * 0.0005092744431616108 + input[526] * -0.005708444763197357 + input[527] * -0.017884335808178664 + input[528] * 0.013070961587361617 + input[529] * 0.010047530074406223 + input[530] * 0.0003711073983072342 + input[531] * -0.004431230795568444 + input[532] * -0.001441422271896323 + input[533] * -0.01783231959965528 + input[534] * 0.011684901031879838 + input[535] * 0.008850553280666276 + input[536] * 0.0013596835715953416 + input[537] * -0.004876946691844481 + input[538] * 0.002351640421848478 + input[539] * -0.017187665620675176 + input[540] * 0.010833888865498964 + input[541] * 0.006315094183852137 + input[542] * 0.00048635208769615455 + input[543] * -0.007867043856544067 + input[544] * -0.004078517371549494 + input[545] * -0.008275427007654358 + input[546] * 0.010245010720354388 + input[547] * 0.004875549252277207 + input[548] * 0.00044924339113688834 + input[549] * -0.004581872855392109 + input[550] * -0.00595370153139262
    var21 = input[551] * -0.004512678122191137
    var22 = -1.7291840958158708 + input[0] * 0.00002669820330730295
    var23 = input[1] * -0.0008523483614374216
    var24 = var22 + var23 + input[2] * 0.00021580045767266462 + input[3] * -0.000047063703823282336 + input[4] * -0.0023028899608817785 + input[5] * 0.00228855658013417 + input[6] * -0.00035134892507752264 + input[7] * -0.0008516611466206983 + input[8] * 0.0001611657259555298 + input[9] * -0.0004882611629417165 + input[10] * -0.002025889809377303 + input[11] * 0.000828604164660791 + input[12] * 0.00008959744803147173 + input[13] * -0.0009333281781078735 + input[14] * 0.000056711118250210906 + input[15] * 0.0005512969210281613 + input[16] * -0.0003639636564357064 + input[17] * -0.00014165039822760242 + input[18] * -0.000551605061414982 + input[19] * -0.000831059131048209 + input[20] * 0.00016759008074428958 + input[21] * -0.000863340892179313 + input[22] * -0.002036924684824466 + input[23] * -0.0007046223229895317 + input[24] * -0.00017389576156180098 + input[25] * -0.0008562073327637213 + input[26] * 0.00011686359279469394 + input[27] * 0.0002555217567774329 + input[28] * -0.0033625028797774014 + input[29] * -0.003540954210404503 + input[30] * -0.00010336352894009094 + input[31] * -0.0007754789304125994 + input[32] * 0.0001916567199519764 + input[33] * -0.002892710187827071 + input[34] * -0.003249606277603076 + input[35] * -0.002991782681112455 + input[36] * 0.000016775612191768753 + input[37] * -0.0009545841053725251 + input[38] * 0.0003394930384187606 + input[39] * -0.002998862116085205 + input[40] * 0.0009344705495375992 + input[41] * -0.002245331880676839 + input[42] * -0.00029472566449306823 + input[43] * -0.000777269553872199 + input[44] * 0.0005156720348755402 + input[45] * -0.003970794141210021 + input[46] * 0.0058802747194353746 + input[47] * -0.002487940299747335 + input[48] * -0.0002323375904232859 + input[49] * -0.000905230137752429 + input[50] * 0.0004566327157256039 + input[51] * -0.003968376481743152 + input[52] * 0.0030956072936718575 + input[53] * -0.0017703292480970975 + input[54] * -0.00043356399744589024 + input[55] * -0.0006902399416679995
    var25 = input[56] * 0.0003782082630144967
    var26 = var24 + var25 + input[57] * -0.0027037792349080127 + input[58] * -0.0002715113358186488 + input[59] * -0.0033254013296122893 + input[60] * -0.00010715861459683776 + input[61] * -0.0010265387375195973 + input[62] * 0.00045168896879303234 + input[63] * -0.001196935736710586 + input[64] * -0.002455406617274625 + input[65] * -0.00028749102158398136 + input[66] * 0.000022071780152279217 + input[67] * -0.0009847938061701594 + input[68] * 0.00034059653564671863 + input[69] * -0.0014559399292841046 + input[70] * -0.001022218184598178 + input[71] * 0.0007553865955022975 + input[72] * 0.000018992041613303217 + input[73] * -0.0009234722262133517 + input[74] * 0.0004837635875116955 + input[75] * -0.003065885889281352 + input[76] * 0.0032060830045541455 + input[77] * -0.0005719448588079997 + input[78] * -0.000018914947478344485 + input[79] * -0.0009195331745476767 + input[80] * 0.0005158184644367558 + input[81] * -0.0026246703988909654 + input[82] * 0.0022591351769082166 + input[83] * -0.0021339650435746745 + input[84] * -0.00012492754159125512 + input[85] * -0.0010517053803964548 + input[86] * 0.0005665650205179625 + input[87] * -0.0002644956929167979 + input[88] * 0.001510686708135607 + input[89] * -0.0000783381915275512 + input[90] * 0.00007702776656436345 + input[91] * -0.0007016233745142133 + input[92] * 0.00046167076199151726 + input[93] * -0.001344368454041835 + input[94] * 0.0012623613582515257 + input[95] * 0.00044310810952983556 + input[96] * -0.0001925052329098268 + input[97] * -0.0009145754515345086 + input[98] * 0.0006154000829353297 + input[99] * -0.0007614318663373138 + input[100] * -0.0019043947876804222 + input[101] * 0.00020775509859566205 + input[102] * -0.000020598278759678292 + input[103] * -0.0010462939882630257 + input[104] * 0.0006973410226155853 + input[105] * -0.0009407051459498345 + input[106] * -0.0008706451098022124 + input[107] * -0.001022956624980921 + input[108] * 0.00014388015819129203 + input[109] * -0.0010729056355675132 + input[110] * 0.0007056928309351194
    var27 = input[111] * -0.00013936788774642555
    var28 = var26 + var27 + input[112] * 0.00010840097144703995 + input[113] * -0.002110860463439055 + input[114] * -0.000054393963865889615 + input[115] * -0.0022134972599108836 + input[116] * 0.001489801247140276 + input[117] * 0.010680023399610654 + input[118] * -0.00003347129918922776 + input[119] * -0.0010329795946143316 + input[120] * 0.00032724029380652936 + input[121] * -0.0009704894007574668 + input[122] * 0.0008415700749244421 + input[123] * 0.00223824279840401 + input[124] * 0.000834919492330318 + input[125] * 0.002320379130575024 + input[126] * 0.00060021035467926 + input[127] * -0.0010115688245606405 + input[128] * 0.0005866529471297045 + input[129] * 0.0006861662369235466 + input[130] * 0.003127492518832181 + input[131] * -0.00017268738012904376 + input[132] * 0.0007759983300357096 + input[133] * -0.0010724440569323194 + input[134] * 0.0007190560438076793 + input[135] * 0.0012274938276869063 + input[136] * 0.0029998296198724406 + input[137] * -0.0019754031956135606 + input[138] * 0.0006395163186677435 + input[139] * -0.0009066149408009108 + input[140] * 0.0005876102721630989 + input[141] * 0.00012800400574122618 + input[142] * 0.003104354485565907 + input[143] * -0.0034642808854401376 + input[144] * 0.000676807817803836 + input[145] * -0.0007974230948380258 + input[146] * 0.000520069562775306 + input[147] * 0.0002848745802623205 + input[148] * 0.004807929695647391 + input[149] * -0.0021087649705812633 + input[150] * 0.0005849738673602145 + input[151] * -0.0010055422025592319 + input[152] * 0.0006240618452871624 + input[153] * -0.0009025221191567584 + input[154] * 0.005632850829274431 + input[155] * -0.0008834168150073037 + input[156] * 0.0003856318796418697 + input[157] * -0.001152153108765626 + input[158] * 0.0005784837614891528 + input[159] * 0.0006813679149723805 + input[160] * 0.0035085663181558886 + input[161] * 0.0006832653471174541 + input[162] * 0.0009324538364524848 + input[163] * -0.0010899827696539425 + input[164] * 0.00017962512986765367 + input[165] * -0.0010051406256499859
    var29 = input[166] * 0.0019495656803350731
    var30 = var28 + var29 + input[167] * 0.00014125966761584466 + input[168] * 0.0009981021316142118 + input[169] * -0.0010104511143648519 + input[170] * 0.0006535360487509817 + input[171] * -0.0005044772792268278 + input[172] * 0.001356743483094522 + input[173] * 0.0015630539445246794 + input[174] * 0.001159578733969791 + input[175] * -0.00099790249034227 + input[176] * 0.00022882554604059804 + input[177] * -0.0005382468514675828 + input[178] * 0.0012897824256056377 + input[179] * 0.0021553195749994974 + input[180] * 0.0011885355813719843 + input[181] * -0.0011531731863449442 + input[182] * 0.0004607950762682801 + input[183] * 0.00044733738056788506 + input[184] * 0.0004484332105596779 + input[185] * 0.002312857288181635 + input[186] * 0.0014943748852116923 + input[187] * -0.0009317833307205636 + input[188] * 0.0004321903057749211 + input[189] * -0.000173277049730829 + input[190] * 0.0006197904659047159 + input[191] * 0.0007127774833406059 + input[192] * 0.0016285426443389305 + input[193] * -0.0009779421053665253 + input[194] * 0.00045977163892379596 + input[195] * -0.0009072940321679327 + input[196] * 0.0001976082613029081 + input[197] * -0.001818912574901676 + input[198] * 0.00147406804359867 + input[199] * -0.00108787856166046 + input[200] * 0.00031921876524865423 + input[201] * -0.0008919727926959725 + input[202] * 0.00005883389874012278 + input[203] * -0.0006329421181317686 + input[204] * 0.0016537491848162924 + input[205] * -0.001114665746458972 + input[206] * 0.0003680915498026005 + input[207] * -0.0007901307719723635 + input[208] * 0.0007528440863163133 + input[209] * -0.0022026262495474314 + input[210] * 0.0013369934180870549 + input[211] * -0.0010710314098618587 + input[212] * 0.0005467660755412632 + input[213] * 0.00006220833072767073 + input[214] * 0.0021463557921628453 + input[215] * -0.00047800416907066244 + input[216] * 0.0010227022204849449 + input[217] * -0.000977347658681657 + input[218] * 0.00046758374316767083 + input[219] * 0.00034786548261919796 + input[220] * 0.0033474922829102244
    var31 = input[221] * 0.0035241152425037163
    var32 = var30 + var31 + input[222] * 0.0004924924399246219 + input[223] * -0.0011552268221860717 + input[224] * 0.00032530775902909993 + input[225] * -0.0000009149988491404518 + input[226] * 0.004563218544721247 + input[227] * 0.00009732277186122748 + input[228] * 0.0005214052217308911 + input[229] * -0.0007663479178103749 + input[230] * 0.0006611235561997268 + input[231] * -0.0002886369115465078 + input[232] * 0.0032032161712074775 + input[233] * -0.0008491379617812284 + input[234] * 0.001015873624434712 + input[235] * -0.0006683459370651403 + input[236] * 0.0002129628923850461 + input[237] * 0.0009806247741314957 + input[238] * 0.002286074718347767 + input[239] * 0.005383094280076005 + input[240] * 0.0015792408192999753 + input[241] * -0.0008489986008773536 + input[242] * 0.00020349340012055847 + input[243] * -0.0011226859672488073 + input[244] * 0.003514363157685519 + input[245] * 0.005451651108014722 + input[246] * 0.0007784698292728115 + input[247] * -0.0009058978751564701 + input[248] * 0.0007509582882221112 + input[249] * 0.0008262957825145944 + input[250] * 0.0023101005012543543 + input[251] * 0.010319492202250034 + input[252] * 0.0017341075492361612 + input[253] * -0.0010839985182822338 + input[254] * 0.0004986589586709827 + input[255] * 0.000643911914681799 + input[256] * 0.0036645719902368475 + input[257] * 0.004190443617604315 + input[258] * 0.001858111776652893 + input[259] * -0.0011122332009803695 + input[260] * 0.0004635597575468203 + input[261] * 0.0010540854257267778 + input[262] * 0.0028234782395695425 + input[263] * 0.004502383924817719 + input[264] * 0.002199269700694351 + input[265] * -0.001081451488485465 + input[266] * 0.0004623322244155312 + input[267] * 0.000635926223624712 + input[268] * 0.00006414135410891275 + input[269] * 0.006932659311754028 + input[270] * 0.0031495274053726253 + input[271] * -0.001212243739219604 + input[272] * 0.0005660574577457371 + input[273] * 0.0009722833576733605 + input[274] * 0.001886845116972333 + input[275] * 0.008717668411009193
    var33 = input[276] * 0.0037722341611893316
    var34 = var32 + var33 + input[277] * -0.0012674269171981077 + input[278] * 0.0006502765638050589 + input[279] * 0.0003391556882350778 + input[280] * 0.0031753350007356074 + input[281] * 0.005361250329244828 + input[282] * 0.00503240392235954 + input[283] * -0.0012986657645520949 + input[284] * 0.0005587675579597378 + input[285] * -0.00006775888348326807 + input[286] * 0.005180277483581845 + input[287] * 0.005633193820267529 + input[288] * 0.004966066391396841 + input[289] * -0.0015993049144844233 + input[290] * 0.000978383543579295 + input[291] * 0.00006310428800976163 + input[292] * 0.005560288205651706 + input[293] * 0.004392650698665851 + input[294] * 0.005427238132853656 + input[295] * -0.002235410858267138 + input[296] * 0.0005964584534060417 + input[297] * 0.0038392255677415143 + input[298] * 0.00038827511134993924 + input[299] * -0.002650412759737929 + input[300] * 0.006945811872651587 + input[301] * -0.001634315286642279 + input[302] * 0.0010058402739809226 + input[303] * 0.003182880724561265 + input[304] * 0.0031091242509652364 + input[305] * -0.0003700580509344798 + input[306] * 0.009458175930754646 + input[307] * -0.002098185785930354 + input[308] * 0.001238794702547039 + input[309] * 0.00459255995527457 + input[310] * 0.002360908411109579 + input[311] * -0.0049932930171399555 + input[312] * 0.012776079665263288 + input[313] * -0.0027236587554426745 + input[314] * 0.0007235055116699957 + input[315] * 0.004688591144172246 + input[316] * 0.0026392522186221485 + input[317] * -0.004456846307194987 + input[318] * 0.01592239067016933 + input[319] * -0.0030271078765822493 + input[320] * 0.0006804707102378439 + input[321] * 0.0051470202000828335 + input[322] * -0.0005435685830270176 + input[323] * -0.004950168707169652 + input[324] * 0.018611555887003507 + input[325] * -0.0029247738370813347 + input[326] * 0.0002750376715702247 + input[327] * 0.006086680856319794 + input[328] * 0.00429991786013123 + input[329] * -0.007060224813166603 + input[330] * 0.024292929292539473
    var35 = input[331] * -0.0026236906145438253
    var36 = var34 + var35 + input[332] * 0.00040219992533858083 + input[333] * 0.0037290652870638516 + input[334] * 0.004226585721244964 + input[335] * -0.006060178263694438 + input[336] * 0.026725089586992504 + input[337] * -0.0023801061589831867 + input[338] * 0.0001367894798453117 + input[339] * -0.0002459993856395346 + input[340] * 0.0032068471644457475 + input[341] * -0.015431594872218653 + input[342] * 0.029603208284176022 + input[343] * -0.002040747288938927 + input[344] * 0.0004082633645677467 + input[345] * 0.00047961145098910285 + input[346] * 0.006556155471749052 + input[347] * -0.008494947335915942 + input[348] * 0.0329305997013905 + input[349] * -0.002834275748523987 + input[350] * 0.0007905356162159157 + input[351] * -0.0007459436437197907 + input[352] * -0.001963474893671156 + input[353] * 0.0032106928871673485 + input[354] * 0.03601356538390152 + input[355] * -0.005103324765953808 + input[356] * 0.0012529880518092125 + input[357] * -0.0023583041233234195 + input[358] * -0.0010048975731889083 + input[359] * 0.002314188072570084 + input[360] * 0.039179217857986594 + input[361] * -0.006088154779956503 + input[362] * 0.0008550171981738915 + input[363] * -0.00344031039154731 + input[364] * -0.002276228364619963 + input[365] * 0.001470512010213046 + input[366] * 0.041167968385899985 + input[367] * -0.00590224049162088 + input[368] * 0.001380028954811304 + input[369] * -0.0026286235858694264 + input[370] * 0.006338412102984247 + input[371] * -0.01074540701844273 + input[372] * 0.03954904510325398 + input[373] * -0.00679512796597445 + input[374] * 0.0015128161345415454 + input[375] * -0.006216581725363771 + input[376] * -0.0010513914225174187 + input[377] * -0.004957673044335487 + input[378] * 0.03759376996089786 + input[379] * -0.00795673512753737 + input[380] * 0.0023630501901098985 + input[381] * 0.00027383863844397785 + input[382] * 0.0014102925500237603 + input[383] * 0.004595677522965486 + input[384] * 0.03250208947812913 + input[385] * -0.00757985822819547
    var37 = input[386] * 0.001899739730119245
    var38 = var36 + var37 + input[387] * -0.002302344796235725 + input[388] * -0.008001097037572312 + input[389] * 0.004398452106124297 + input[390] * 0.030836459092484347 + input[391] * -0.007621706909060527 + input[392] * 0.001146291342403786 + input[393] * 0.0003455121855142564 + input[394] * -0.005795641241820306 + input[395] * -0.012852823717124434 + input[396] * 0.023729487092659048 + input[397] * -0.00794857177431853 + input[398] * 0.0013975572125708134 + input[399] * -0.0031696526396137108 + input[400] * -0.002581529838390271 + input[401] * 0.01290509582371538 + input[402] * 0.017540043849804527 + input[403] * -0.006606762803808049 + input[404] * 0.0006629018071455563 + input[405] * -0.002967727524892796 + input[406] * 0.0014077258327009287 + input[407] * -0.004973932003009379 + input[408] * 0.009390338784106722 + input[409] * -0.004060996856436502 + input[410] * -0.0016672578781043467 + input[411] * -0.0037555610832702285 + input[412] * -0.01181008083684484 + input[413] * -0.005188564930387144 + input[414] * 0.0008443929214321961 + input[415] * -0.003517799253732888 + input[416] * -0.0015280666008206057 + input[417] * -0.002966179888238224 + input[418] * -0.002637814451944456 + input[419] * 0.0066221807342282425 + input[420] * -0.009412103751871959 + input[421] * 0.0017989886767273604 + input[422] * -0.0005824088408878334 + input[423] * -0.006392709687089619 + input[424] * -0.003280462785309712 + input[425] * 0.0076220801114891545 + input[426] * -0.01444435487189021 + input[427] * 0.0010823286459326288 + input[428] * -0.001649264254093167 + input[429] * -0.006343529356849209 + input[430] * -0.007016433039527961 + input[431] * -0.00732763608921653 + input[432] * -0.022078275851383996 + input[433] * 0.0026396056257255956 + input[434] * -0.0008880630518213706 + input[435] * 0.000957523749347358 + input[436] * -0.00006956540587631245 + input[437] * -0.0028212019916316338 + input[438] * -0.026443092813847963 + input[439] * 0.0034636199574031843 + input[440] * -0.0005726406812153086
    var39 = input[441] * -0.0024985585115008544
    var40 = var38 + var39 + input[442] * -0.0006606220384948814 + input[443] * 0.00007307280023019937 + input[444] * -0.02971959440655662 + input[445] * 0.002365165375938165 + input[446] * -0.00032827078405994796 + input[447] * -0.000996461007654475 + input[448] * -0.003710717980164571 + input[449] * 0.003960083024970102 + input[450] * -0.03186852633374032 + input[451] * 0.0031856209284433046 + input[452] * 0.00001782254168999545 + input[453] * -0.0016764218906688518 + input[454] * 0.004218066012827974 + input[455] * -0.001423751189532263 + input[456] * -0.02876994424558625 + input[457] * 0.0009023089732109777 + input[458] * -0.002441094922909439 + input[459] * -0.00045567235913261656 + input[460] * 0.006754870993038211 + input[461] * -0.004704658557785952 + input[462] * -0.03445469763796749 + input[463] * 0.0015686825982281236 + input[464] * 0.0005610292001596768 + input[465] * 0.00038472276680314235 + input[466] * -0.005250338878504365 + input[467] * -0.005106280966896486 + input[468] * -0.03321338926152046 + input[469] * 0.0026736786452928006 + input[470] * -0.0000327238791229096 + input[471] * 0.003641039516466796 + input[472] * 0.0017092892988088803 + input[473] * 0.012546386897343947 + input[474] * -0.03136068404065628 + input[475] * 0.0020773011710813415 + input[476] * -0.0020313365021256257 + input[477] * -0.0002785655657816103 + input[478] * 0.002395989134724656 + input[479] * 0.024696392540464743 + input[480] * -0.029834008562362478 + input[481] * 0.0029495635242411363 + input[482] * -0.001921810703299832 + input[483] * 0.0024944494341877874 + input[484] * 0.0003727008172516779 + input[485] * 0.006854657394642642 + input[486] * -0.03090420465350896 + input[487] * 0.003127901132084251 + input[488] * 0.0002526050244921304 + input[489] * -0.0008673146829606106 + input[490] * -0.0007122669307979663 + input[491] * 0.011792784187551147 + input[492] * -0.027536939761404512 + input[493] * 0.002649349615432082 + input[494] * 0.0005015715672319215 + input[495] * -0.000574705656363941
    var41 = input[496] * 0.0015106739682806641
    var42 = var40 + var41 + input[497] * 0.007487975820020833 + input[498] * -0.024819998474113578 + input[499] * 0.0025519758643082983 + input[500] * -0.0010972658037706267 + input[501] * -0.0023510265391107166 + input[502] * 0.0013508150657857048 + input[503] * 0.006465269638008762 + input[504] * -0.020400721065337937 + input[505] * 0.0030184724289424713 + input[506] * -0.0014463955126284213 + input[507] * -0.0022012323716951053 + input[508] * -0.007663708184690811 + input[509] * -0.006232838203614481 + input[510] * -0.02055495772768257 + input[511] * 0.0037472792949681533 + input[512] * -0.0007322679103543873 + input[513] * -0.0016293805993607693 + input[514] * -0.00737316829008777 + input[515] * -0.00440722874814649 + input[516] * -0.018616073940004658 + input[517] * 0.003474181360493132 + input[518] * -0.0010744398711257127 + input[519] * -0.00586127366012946 + input[520] * -0.0049263813615500725 + input[521] * 0.005979828909720036 + input[522] * -0.017208894545199603 + input[523] * 0.0032886084545043584 + input[524] * 0.000032693744500446346 + input[525] * -0.0022650855586836115 + input[526] * 0.003441497258162136 + input[527] * 0.002224073057556332 + input[528] * -0.014314062414049705 + input[529] * 0.0026398678035053536 + input[530] * -0.00021343284791861368 + input[531] * 0.00018396635615672903 + input[532] * 0.0033561205989950417 + input[533] * 0.004021792831990728 + input[534] * -0.012476995677220782 + input[535] * 0.0025638485964035026 + input[536] * -0.0008655912405512842 + input[537] * 0.0012254575396511422 + input[538] * 0.0011221650438544674 + input[539] * 0.005497761748697508 + input[540] * -0.011385602630971296 + input[541] * 0.0024542499129736797 + input[542] * -0.00013376514718546018 + input[543] * 0.0037263657799442903 + input[544] * 0.0053457430767915 + input[545] * 0.000473915868902551 + input[546] * -0.010617437672310036 + input[547] * 0.002922491523920089 + input[548] * -0.0002384480096005062 + input[549] * -0.00007145548543296248 + input[550] * 0.005577851060052242
    var43 = input[551] * -0.00007673392134582545
    var44 = -1.6902302657595965 + input[0] * 0.0006170131953533303
    var45 = input[1] * 0.000870237212238205
    var46 = var44 + var45 + input[2] * 0.0009620396462856031 + input[3] * -0.0027759458163125112 + input[4] * 0.004502154057134861 + input[5] * 0.005736494743824765 + input[6] * 0.0004912526327482071 + input[7] * 0.0007711369708926335 + input[8] * 0.0008385852794298532 + input[9] * -0.0021748323004520138 + input[10] * 0.0018594523133681937 + input[11] * 0.005266168209476115 + input[12] * 0.0006697748162412627 + input[13] * 0.0007172541480798177 + input[14] * 0.0010467313829434469 + input[15] * 0.0006002593377794993 + input[16] * 0.0013372129153557547 + input[17] * 0.005724719768507256 + input[18] * 0.0008019328956275268 + input[19] * 0.0006800552891694626 + input[20] * 0.0014724979214367424 + input[21] * -0.0007859498495842828 + input[22] * -0.0005514179347867159 + input[23] * 0.006001507650267309 + input[24] * 0.0010330677585833018 + input[25] * 0.000700919481913659 + input[26] * 0.0011335145029207718 + input[27] * 0.0007558835472698286 + input[28] * -0.0015276724226490658 + input[29] * 0.005155293209280155 + input[30] * 0.001166901682518867 + input[31] * 0.0006869761139593983 + input[32] * 0.001084825261910061 + input[33] * -0.0016110930085602114 + input[34] * -0.004503691603808491 + input[35] * 0.00356832039059842 + input[36] * 0.0009634235302286237 + input[37] * 0.0009137800584938536 + input[38] * 0.0012785684354037652 + input[39] * -0.002821176749920726 + input[40] * -0.004017427575257562 + input[41] * 0.003595184421182373 + input[42] * 0.0009713463804043178 + input[43] * 0.0006502954496429686 + input[44] * 0.0013462183529643619 + input[45] * -0.0035641173374788187 + input[46] * -0.0015961050690393827 + input[47] * 0.0015087060823590237 + input[48] * 0.000876459282326189 + input[49] * 0.000982686387375468 + input[50] * 0.001415132499722916 + input[51] * -0.0035862410176972052 + input[52] * -0.0011364597401414523 + input[53] * 0.001034168299677343 + input[54] * 0.001046869550171266 + input[55] * 0.0009887488857095222
    var47 = input[56] * 0.0013350166979926447
    var48 = var46 + var47 + input[57] * -0.003263382743845149 + input[58] * -0.0033414071142390694 + input[59] * 0.0003110560456825905 + input[60] * 0.0012558562665683278 + input[61] * 0.0007892301737663777 + input[62] * 0.0011617327816346725 + input[63] * -0.0028828890730830514 + input[64] * -0.0031144188011923927 + input[65] * 0.00034936651775797754 + input[66] * 0.0011376107922495171 + input[67] * 0.0009095291951937482 + input[68] * 0.0011269743319297387 + input[69] * -0.004138050366995002 + input[70] * -0.0023112730168551327 + input[71] * -0.0011438263692888295 + input[72] * 0.0008508092619171164 + input[73] * 0.00115570960917449 + input[74] * 0.0013128524924012122 + input[75] * -0.004678720775908378 + input[76] * -0.0015551806223719222 + input[77] * -0.0000641276385415207 + input[78] * 0.0008073695593999328 + input[79] * 0.0012365957524294625 + input[80] * 0.0014840859009535785 + input[81] * -0.004284355002972784 + input[82] * 0.000013105528739765891 + input[83] * -0.0010994198205100364 + input[84] * 0.0013788700276728594 + input[85] * 0.0010915700053109568 + input[86] * 0.0011651884114194041 + input[87] * -0.002169896903485217 + input[88] * 0.0009675674005946595 + input[89] * -0.0023897499615819456 + input[90] * 0.0009659100564565691 + input[91] * 0.0011481439914722508 + input[92] * 0.0010052691951661125 + input[93] * -0.0029645460794277836 + input[94] * -0.001969109915729318 + input[95] * -0.002059553947089393 + input[96] * 0.0010014416226015062 + input[97] * 0.0014403413631423748 + input[98] * 0.0011660513506892235 + input[99] * -0.0028520312027228833 + input[100] * -0.0006344519313305956 + input[101] * -0.00349527996480864 + input[102] * 0.0006415208271580129 + input[103] * 0.0019007391555845683 + input[104] * 0.0013432397161946463 + input[105] * -0.0022606626359630393 + input[106] * -0.0005137841505495146 + input[107] * -0.004971339842831636 + input[108] * 0.0007237586887991484 + input[109] * 0.001657052498985428 + input[110] * 0.001153269499129174
    var49 = input[111] * -0.0015475370034370146
    var50 = var48 + var49 + input[112] * -0.000700433284233802 + input[113] * -0.007872667301067693 + input[114] * 0.0007740006918416894 + input[115] * 0.0020363856280304704 + input[116] * 0.0012659851877492845 + input[117] * -0.0005083638335855291 + input[118] * -0.00041547781468347306 + input[119] * -0.009422635810140337 + input[120] * 0.0008485383796695386 + input[121] * 0.0023426097227072016 + input[122] * 0.0014093150381859704 + input[123] * 0.00010198532428673063 + input[124] * 0.0016249378952372193 + input[125] * -0.009087270349675122 + input[126] * 0.0005603844038900403 + input[127] * 0.0025876169299206427 + input[128] * 0.0016288584196794502 + input[129] * 0.0012754201677118143 + input[130] * 0.0035648538692556703 + input[131] * -0.009665358579937099 + input[132] * 0.0003968168380410587 + input[133] * 0.0024998450788372866 + input[134] * 0.0011225419905015043 + input[135] * 0.0011033295682449675 + input[136] * 0.001371569003138206 + input[137] * -0.00931514997595617 + input[138] * 0.00034630962966314844 + input[139] * 0.002287411235454319 + input[140] * 0.001100596811780649 + input[141] * 0.0014520915346926968 + input[142] * 0.002747953090611371 + input[143] * -0.0072714166266716 + input[144] * 0.0002679786903840879 + input[145] * 0.002066912612913202 + input[146] * 0.0009161526305865765 + input[147] * 0.0007339105447907542 + input[148] * 0.007030451483280186 + input[149] * -0.006212106260854143 + input[150] * 0.000028976985276189356 + input[151] * 0.0022751268589990717 + input[152] * 0.0011187160165044142 + input[153] * -0.0006124843142809805 + input[154] * 0.00800844092841808 + input[155] * -0.002742623750198077 + input[156] * 0.00016639216689138135 + input[157] * 0.002439302282804945 + input[158] * 0.0007646226376565606 + input[159] * -0.001906426452884234 + input[160] * 0.006070213091914481 + input[161] * 0.001516424605562041 + input[162] * 0.00006947688783823575 + input[163] * 0.002790444830581769 + input[164] * 0.0006590185327866607 + input[165] * -0.004807431985769648
    var51 = input[166] * 0.0048294214177882
    var52 = var50 + var51 + input[167] * 0.0041107263673733135 + input[168] * 0.00006647182289506624 + input[169] * 0.0027694573750697594 + input[170] * 0.000837637519296499 + input[171] * -0.004122240519574796 + input[172] * 0.0042945737297556364 + input[173] * 0.006586164081471874 + input[174] * 0.00009851203618146419 + input[175] * 0.0027454482041480237 + input[176] * 0.00035976316162349516 + input[177] * -0.0058966596613775225 + input[178] * 0.0031097980577921595 + input[179] * 0.006278396353348423 + input[180] * 0.0003347580506311793 + input[181] * 0.0026996382626612915 + input[182] * 0.0006824021448337818 + input[183] * -0.003680983892551089 + input[184] * 0.002082424975141633 + input[185] * 0.006616302936924522 + input[186] * 0.00010628208463937577 + input[187] * 0.002774207560938556 + input[188] * 0.0007928312266031121 + input[189] * -0.0027652795016147387 + input[190] * 0.0011696543237441868 + input[191] * 0.007316119220546478 + input[192] * 0.00004992463229025933 + input[193] * 0.002816921325655786 + input[194] * 0.0008046308064265065 + input[195] * -0.0014567086432128679 + input[196] * 0.0005121221920503049 + input[197] * 0.0061118220884114035 + input[198] * 0.0003624755808355638 + input[199] * 0.0030712802090980995 + input[200] * 0.0005905624465297857 + input[201] * -0.00023178628616038404 + input[202] * -0.00044803075226896536 + input[203] * 0.005686429404210198 + input[204] * 0.0004006647711947505 + input[205] * 0.003732580434678151 + input[206] * 0.0005574724593025659 + input[207] * 0.0012193200036137283 + input[208] * -0.0003326753919875794 + input[209] * 0.004588406253904071 + input[210] * 0.000672486777642816 + input[211] * 0.0037140828111130895 + input[212] * 0.0006536092334030047 + input[213] * 0.002231602070528679 + input[214] * 0.0007850680268762697 + input[215] * 0.0028100109435417126 + input[216] * 0.0009313475846469631 + input[217] * 0.0034702717483956896 + input[218] * 0.0005941896691845256 + input[219] * 0.0020926539853786995 + input[220] * 0.0017230892015729457
    var53 = input[221] * 0.0006492009624347528
    var54 = var52 + var53 + input[222] * 0.000589765955861103 + input[223] * 0.0031945749594365015 + input[224] * 0.0006417876241339482 + input[225] * 0.002024994084339816 + input[226] * 0.003223826410646243 + input[227] * -0.0011845689701676522 + input[228] * 0.0006972167017925794 + input[229] * 0.0023484496816547685 + input[230] * 0.000715218869518193 + input[231] * 0.001476921632321074 + input[232] * 0.0021542620697603525 + input[233] * -0.0022097526108109536 + input[234] * 0.0003264685658481077 + input[235] * 0.0024082807836847057 + input[236] * 0.0002516114795435707 + input[237] * 0.0017848089673708058 + input[238] * -0.00004387844967876887 + input[239] * -0.0023595106925911975 + input[240] * 0.00034638780301436407 + input[241] * 0.002656534118540821 + input[242] * 0.0004158495827184285 + input[243] * 0.0011050872015022153 + input[244] * 0.001293239043708635 + input[245] * -0.0005388778015601078 + input[246] * 0.000999205571028987 + input[247] * 0.0027731468881230007 + input[248] * 0.0007254242113722682 + input[249] * 0.0009757286642497168 + input[250] * 0.0026208347891536637 + input[251] * -0.0042161979806193736 + input[252] * 0.00027679471830179616 + input[253] * 0.0032258692595471946 + input[254] * 0.0008999540135568952 + input[255] * 0.0014671616551401433 + input[256] * -0.00019426249725235505 + input[257] * -0.00040316957459556095 + input[258] * 0.0004473922122156571 + input[259] * 0.0036279869020829835 + input[260] * 0.0009430094155216618 + input[261] * 0.0017418465966222447 + input[262] * 0.0021217127436043795 + input[263] * 0.00009376090759811531 + input[264] * 0.00011012177647201548 + input[265] * 0.0034455101332964574 + input[266] * 0.0005383145828642776 + input[267] * 0.00020039768747737855 + input[268] * -0.003212227244845408 + input[269] * -0.0011559425112882505 + input[270] * -0.000012189630238481387 + input[271] * 0.004711584131623647 + input[272] * 0.0006757428777556313 + input[273] * -0.000009059842716588842 + input[274] * -0.0021329509518542523 + input[275] * -0.0030156655826550447
    var55 = input[276] * -0.00001848135445386318
    var56 = var54 + var55 + input[277] * 0.0060812088291573654 + input[278] * 0.0008036394172037522 + input[279] * 0.00044363871910577563 + input[280] * -0.001181474037113254 + input[281] * -0.004633220294481351 + input[282] * -0.0014898314776824345 + input[283] * 0.009798973610958585 + input[284] * 0.0008423142772176137 + input[285] * 0.0013986750361570045 + input[286] * 0.0009551718225689002 + input[287] * -0.004725658236984565 + input[288] * -0.0022952694308115864 + input[289] * 0.013069572824949381 + input[290] * 0.001032440750565245 + input[291] * 0.001951788433034729 + input[292] * -0.0015614072679333642 + input[293] * -0.010950275375228902 + input[294] * -0.003479633043128009 + input[295] * 0.017753803991146618 + input[296] * 0.0005337093777278231 + input[297] * 0.003432460578480213 + input[298] * -0.004676785239284884 + input[299] * -0.013454461268868602 + input[300] * -0.004360543827136388 + input[301] * 0.022382125297625288 + input[302] * 0.0008291172140072111 + input[303] * 0.0038768580639232664 + input[304] * -0.004382545000271395 + input[305] * -0.008827202710122323 + input[306] * -0.003713294626656859 + input[307] * 0.027286953852069064 + input[308] * 0.0004126949637638423 + input[309] * 0.0033483898506618233 + input[310] * -0.0016244062090240141 + input[311] * 0.004169077247451666 + input[312] * -0.0013288378968976452 + input[313] * 0.032407085471964754 + input[314] * 0.0005266248674972996 + input[315] * 0.0033958420696085724 + input[316] * -0.0029555926007506354 + input[317] * 0.01140202841664212 + input[318] * -0.00001383991703918638 + input[319] * 0.03589882000451213 + input[320] * 0.0007189901346413368 + input[321] * 0.0029175774603066784 + input[322] * -0.001179861017513752 + input[323] * 0.014403835946272769 + input[324] * 0.002008412637087791 + input[325] * 0.0377534216482782 + input[326] * -0.0010352880602081372 + input[327] * 0.002746219621695839 + input[328] * 0.0032329121739211337 + input[329] * 0.009563176943783832 + input[330] * 0.0015670830489181449
    var57 = input[331] * 0.03955468760723367
    var58 = var56 + var57 + input[332] * 0.00010936952131260616 + input[333] * 0.003909797852458383 + input[334] * 0.003958749745561097 + input[335] * 0.007088583605110715 + input[336] * -0.00022880393166688201 + input[337] * 0.03917044939828254 + input[338] * 0.00016056002533737474 + input[339] * 0.0026822093759657365 + input[340] * 0.005885094949962738 + input[341] * 0.006894090588476838 + input[342] * -0.00287982342270764 + input[343] * 0.035924686047698315 + input[344] * -0.0003533235688122486 + input[345] * 0.0032528449301988957 + input[346] * 0.006493910257688983 + input[347] * 0.005167493159241674 + input[348] * -0.007792963348240194 + input[349] * 0.03292539893015599 + input[350] * 0.0011328051922019908 + input[351] * 0.004465601857679272 + input[352] * 0.0022912591215597583 + input[353] * 0.0045364645010392965 + input[354] * -0.011228630133350577 + input[355] * 0.0317855316253445 + input[356] * -0.0006807312827106033 + input[357] * 0.004365098499424829 + input[358] * 0.004699212154959887 + input[359] * 0.00030661653886142993 + input[360] * -0.014720108187573737 + input[361] * 0.027610830752914227 + input[362] * 0.0002686994611351295 + input[363] * 0.005151990025626726 + input[364] * 0.0052818822100799325 + input[365] * -0.0009172336892376147 + input[366] * -0.016359156850891045 + input[367] * 0.025304119440146614 + input[368] * -0.00013415193469710948 + input[369] * 0.006359763631861136 + input[370] * 0.0004426767306994403 + input[371] * 0.019391700930029274 + input[372] * -0.016339665680823852 + input[373] * 0.0234807400847513 + input[374] * -0.0009696020336289496 + input[375] * 0.008332855475293771 + input[376] * -0.0014751075544137881 + input[377] * 0.006816907924395546 + input[378] * -0.01697409237952827 + input[379] * 0.020524576083221877 + input[380] * 0.000509029187182637 + input[381] * 0.0031790307194023326 + input[382] * 0.0013349896848900565 + input[383] * -0.001857237207327944 + input[384] * -0.015690296588666764 + input[385] * 0.015551811026073684
    var59 = input[386] * 0.0003840058676999012
    var60 = var58 + var59 + input[387] * 0.0017548131523792527 + input[388] * 0.002443360677698297 + input[389] * 0.001356247577054555 + input[390] * -0.011758203575746574 + input[391] * 0.01189438955810459 + input[392] * -0.0002947852148487341 + input[393] * 0.001515458607717931 + input[394] * 0.0005507297192398324 + input[395] * 0.0051852415383423145 + input[396] * -0.009682077117810751 + input[397] * 0.007998082138951054 + input[398] * 0.001424579064022296 + input[399] * 0.0009525446607206564 + input[400] * 0.0017463237416077489 + input[401] * 0.003592530098997777 + input[402] * -0.00042024928283544325 + input[403] * 0.007100725878743829 + input[404] * -0.0029708409444650107 + input[405] * 0.0013458806838604186 + input[406] * -0.000700718899640167 + input[407] * 0.000642815218367329 + input[408] * 0.000918052360249818 + input[409] * -0.000308868351178912 + input[410] * 0.002520607422227295 + input[411] * 0.004432071068741178 + input[412] * 0.00025336558855028053 + input[413] * -0.004230224899576629 + input[414] * 0.005519461743841258 + input[415] * -0.004263351265138657 + input[416] * 0.001554852425483288 + input[417] * 0.005284577311035358 + input[418] * -0.0029657566371831265 + input[419] * -0.0015589348917654676 + input[420] * 0.008234039378564447 + input[421] * -0.012495548753319987 + input[422] * 0.000971284335292269 + input[423] * 0.004273570380307845 + input[424] * 0.0051163586266865565 + input[425] * -0.002681958463763255 + input[426] * 0.009202458723640351 + input[427] * -0.020970584048840668 + input[428] * 0.0018913638784331056 + input[429] * 0.0030795646371408448 + input[430] * -0.004494328477093116 + input[431] * 0.003999263085450134 + input[432] * 0.012662313807417804 + input[433] * -0.029709709082503068 + input[434] * 0.0011219039333950002 + input[435] * 0.0030910743222727455 + input[436] * -0.004791228537102354 + input[437] * 0.006142578054743405 + input[438] * 0.012112097264799117 + input[439] * -0.03169023478806975 + input[440] * -0.0005901683203043617
    var61 = input[441] * 0.0036056759968288612
    var62 = var60 + var61 + input[442] * 0.00009746077629066241 + input[443] * 0.005372873946253109 + input[444] * 0.007986180949128563 + input[445] * -0.03265210935985637 + input[446] * 0.0037114827111882224 + input[447] * 0.006454969379621798 + input[448] * -0.0038316491578697922 + input[449] * -0.004742120618082803 + input[450] * 0.00797992323778665 + input[451] * -0.03451157931773381 + input[452] * 0.0029143990523833752 + input[453] * 0.0035617741482991162 + input[454] * -0.0005129912072443925 + input[455] * -0.00949132375795744 + input[456] * 0.007607256669964652 + input[457] * -0.034514111953783434 + input[458] * 0.0010888927470924243 + input[459] * 0.005003369953167204 + input[460] * 0.0010166798156242384 + input[461] * -0.0033474759598328342 + input[462] * 0.01011428697567209 + input[463] * -0.03516209350971187 + input[464] * -0.00031736969665646723 + input[465] * 0.006167081458002018 + input[466] * -0.0011708185311193667 + input[467] * -0.010187695388301755 + input[468] * 0.009321099624836019 + input[469] * -0.030547175338184813 + input[470] * -0.0002516119701756883 + input[471] * 0.0037201366573966594 + input[472] * -0.001872486755587513 + input[473] * -0.015979319546953318 + input[474] * 0.00932547441828674 + input[475] * -0.028093924182250044 + input[476] * 0.00189838816256888 + input[477] * 0.005801406139817949 + input[478] * -0.005982280370647971 + input[479] * -0.01631820158033909 + input[480] * 0.008217343167193435 + input[481] * -0.025201539943702736 + input[482] * 0.0032866770774729395 + input[483] * 0.003885092194716588 + input[484] * -0.004994527739827546 + input[485] * -0.010400379402377775 + input[486] * 0.008102298458642685 + input[487] * -0.022161900823895034 + input[488] * 0.0012909292850433692 + input[489] * 0.004822123685716437 + input[490] * -0.002979586442417429 + input[491] * -0.01079872082626103 + input[492] * 0.007397280815077876 + input[493] * -0.02092185054952757 + input[494] * 0.0007317617014715149 + input[495] * 0.004519031211681532
    var63 = input[496] * 0.0020951085140149014
    var64 = var62 + var63 + input[497] * -0.01034738517653283 + input[498] * 0.006588052836689035 + input[499] * -0.019622578804356455 + input[500] * 0.00012669811387770836 + input[501] * 0.003615941595649865 + input[502] * 0.005787411883653496 + input[503] * -0.005512592615983796 + input[504] * 0.004484115437788501 + input[505] * -0.019003036851361586 + input[506] * -0.0008525308034334836 + input[507] * -0.0007389336460605484 + input[508] * 0.0022215334666365653 + input[509] * 0.0004747386509408908 + input[510] * 0.0026750684672580444 + input[511] * -0.018692163557237396 + input[512] * 0.0013975160247071542 + input[513] * -0.0015681432808460102 + input[514] * -0.0009075676899525775 + input[515] * 0.009423714981016853 + input[516] * 0.001962951111709578 + input[517] * -0.016425176463386506 + input[518] * 0.0006574842606818816 + input[519] * -0.0030440713035209954 + input[520] * -0.0007381912953882006 + input[521] * 0.010100998647891051 + input[522] * 0.0014367665666635192 + input[523] * -0.013969671817714543 + input[524] * 0.00134971234334 + input[525] * 0.002419218929490228 + input[526] * 0.002358412759647511 + input[527] * 0.01605179617696652 + input[528] * 0.0010178130695116072 + input[529] * -0.01266796190229045 + input[530] * 0.0005335419541808193 + input[531] * 0.0046651836413932985 + input[532] * -0.0017119256177778033 + input[533] * 0.014128409419583153 + input[534] * 0.0005987619827882385 + input[535] * -0.011388988758309222 + input[536] * 0.0002337026236104472 + input[537] * 0.0038390383407114225 + input[538] * -0.0031827301336937517 + input[539] * 0.011902268672538947 + input[540] * 0.0003669321480940263 + input[541] * -0.008755420003643221 + input[542] * 0.00039490888548718056 + input[543] * 0.004179923339086995 + input[544] * -0.0011247028298658898 + input[545] * 0.007956959193003278 + input[546] * 0.0001846384797004483 + input[547] * -0.007778130486758351 + input[548] * 0.0005677109529294554 + input[549] * 0.004364132729271277 + input[550] * 0.0004310196519274885
    var65 = input[551] * 0.004827884825738588
    var66 = -4.482715620881315 + input[0] * 0.000013238857196029443
    var67 = input[1] * -0.0000033936292219056743
    var68 = var66 + var67 + input[2] * -0.0008529247469248631 + input[3] * 0.0005295560044754506 + input[4] * -0.00024403825760616348 + input[5] * -0.0006034661663428876 + input[6] * 0.0000037303684684069255 + input[7] * -0.0000014939064257675473 + input[8] * -0.0008569868120636314 + input[9] * 0.00047859318674933277 + input[10] * -0.00010307383810038146 + input[11] * -0.0006647956274214126 + input[12] * 0.000002467216813134784 + input[13] * -0.000006423823468101653 + input[14] * -0.0008662440170473212 + input[15] * 0.00042258857223160536 + input[16] * -0.000018967727198292712 + input[17] * -0.0006474216484198439 + input[18] * -0.000004247155465186638 + input[19] * -0.0000010431752238728683 + input[20] * -0.000871711138892557 + input[21] * 0.00027877948502129287 + input[22] * 0.00003518154723590993 + input[23] * -0.0006324509521745211 + input[24] * -0.00001294704385469218 + input[25] * 0.0000009184671963103872 + input[26] * -0.0008778470378007604 + input[27] * 0.00018359077296310408 + input[28] * -0.00001097371744640075 + input[29] * -0.000746119215829614 + input[30] * -0.00002732739172766758 + input[31] * 0.000005805617100909139 + input[32] * -0.0008767867667313307 + input[33] * 0.000023022572347515645 + input[34] * -0.00006792049100179703 + input[35] * -0.0008570473458144158 + input[36] * -0.00003709837852130354 + input[37] * 0.000003643347911818126 + input[38] * -0.0008756760474891121 + input[39] * -0.00004441979633468799 + input[40] * 0.00015332079932043442 + input[41] * -0.000875984220429982 + input[42] * -0.00006696416624422579 + input[43] * 0.000006562866726780898 + input[44] * -0.0008619029778006376 + input[45] * -0.00011241826382706572 + input[46] * 0.00044575345095462744 + input[47] * -0.000803380538201928 + input[48] * -0.00009990042953867086 + input[49] * 0.000009168929440224582 + input[50] * -0.0008623927913772763 + input[51] * -0.00018255248114737414 + input[52] * 0.00039009091333145533 + input[53] * -0.0006346004800974169 + input[54] * -0.00014391762454948 + input[55] * 0.00001881040921416244
    var69 = input[56] * -0.0008630411858685894
    var70 = var68 + var69 + input[57] * -0.0001491610582066048 + input[58] * 0.00021336619441715017 + input[59] * -0.0004954980605994226 + input[60] * -0.000189303195790679 + input[61] * 0.000030737285397111984 + input[62] * -0.0008595344390232298 + input[63] * -0.00009262618282102318 + input[64] * 0.000039301291338482726 + input[65] * -0.00036664317855454424 + input[66] * -0.0002274379439230585 + input[67] * 0.00003973060451364584 + input[68] * -0.0008540655643564175 + input[69] * -0.00008384075235188195 + input[70] * 0.00004116102372472749 + input[71] * -0.00020697643130769604 + input[72] * -0.0002743976612143903 + input[73] * 0.00005011199718151022 + input[74] * -0.0008360178334596511 + input[75] * -0.0001744285968389829 + input[76] * 0.00019141961656929973 + input[77] * 0.0000816990715661119 + input[78] * -0.0003109223817950247 + input[79] * 0.00006187928063508264 + input[80] * -0.0007990188508823723 + input[81] * -0.00026964948036514036 + input[82] * 0.00006964075284642542 + input[83] * 0.0004580052339755616 + input[84] * -0.0003247120110588213 + input[85] * 0.00007434239520060297 + input[86] * -0.0007675376065040027 + input[87] * -0.0004594662093528412 + input[88] * 0.00006884498788244483 + input[89] * 0.0008585083415050994 + input[90] * -0.00033852227646432545 + input[91] * 0.00007594062579932938 + input[92] * -0.0007391872161776126 + input[93] * -0.0007836727546738503 + input[94] * 0.00014934651425646035 + input[95] * 0.0012554930410220882 + input[96] * -0.00034572014348323874 + input[97] * 0.00007316044615275132 + input[98] * -0.0007059727750593257 + input[99] * -0.0010817763888334988 + input[100] * 0.0001449985625106594 + input[101] * 0.0017046475517590173 + input[102] * -0.00031950935949595616 + input[103] * 0.00005122864237226339 + input[104] * -0.0006621839958228031 + input[105] * -0.0012478212995757228 + input[106] * 0.000044478828148591854 + input[107] * 0.0021522287557148396 + input[108] * -0.00026063687473421954 + input[109] * 0.00002945551178443227 + input[110] * -0.0006528143177913882
    var71 = input[111] * -0.0012576620094689175
    var72 = var70 + var71 + input[112] * -0.0001988210120927419 + input[113] * 0.0025461560249214784 + input[114] * -0.00017768965551634398 + input[115] * 0.00001006847614674281 + input[116] * -0.0006417585588772623 + input[117] * -0.0009981390462373836 + input[118] * -0.0006011558093850655 + input[119] * 0.0028892895642011153 + input[120] * -0.0000813412435896002 + input[121] * -0.00001043266457719332 + input[122] * -0.0006258975442139256 + input[123] * -0.00047257744906837614 + input[124] * -0.0007539935042597432 + input[125] * 0.003210403578554063 + input[126] * 0.0000033750073075887915 + input[127] * -0.000018108146313533636 + input[128] * -0.0006168442453886179 + input[129] * 0.00019467535445409276 + input[130] * -0.0007497782010213845 + input[131] * 0.003499051090663793 + input[132] * 0.00009605834328505425 + input[133] * -0.00002149067485357669 + input[134] * -0.0005917869232963807 + input[135] * 0.0008544044253841802 + input[136] * -0.0007126438677742457 + input[137] * 0.003693335452810201 + input[138] * 0.00017981720669080426 + input[139] * -0.000022762849232284704 + input[140] * -0.0005653230350371961 + input[141] * 0.0014860590916148993 + input[142] * -0.0006787411751811195 + input[143] * 0.0037930834924142743 + input[144] * 0.00024011906992324567 + input[145] * -0.000026843431146032003 + input[146] * -0.000539319512426898 + input[147] * 0.0021313617872051496 + input[148] * -0.000850253142278298 + input[149] * 0.003769042360996206 + input[150] * 0.0002902438310528536 + input[151] * -0.000047197230319242474 + input[152] * -0.0005208252482406193 + input[153] * 0.0025176441744094637 + input[154] * -0.0011874806414902813 + input[155] * 0.0037506497763212638 + input[156] * 0.00032703935007321537 + input[157] * -0.00006779730995718653 + input[158] * -0.0004988147020716172 + input[159] * 0.0028080104356344613 + input[160] * -0.00172115174697929 + input[161] * 0.0035636814214598882 + input[162] * 0.000361867622273405 + input[163] * -0.0001023390083012042 + input[164] * -0.0004969664345572789 + input[165] * 0.00294070192174035
    var73 = input[166] * -0.0023329659237921476
    var74 = var72 + var73 + input[167] * 0.003358072349653794 + input[168] * 0.0003959300188000752 + input[169] * -0.00014549109567718116 + input[170] * -0.0005562018231155395 + input[171] * 0.0030870469058474214 + input[172] * -0.0029520865357394034 + input[173] * 0.003134167358764104 + input[174] * 0.0004198274014566687 + input[175] * -0.00016890592790338253 + input[176] * -0.0006320360462997653 + input[177] * 0.0031460115250848343 + input[178] * -0.0034050828984970175 + input[179] * 0.0027768932212982518 + input[180] * 0.000441168580909875 + input[181] * -0.0001807011494787854 + input[182] * -0.0006886213252447467 + input[183] * 0.0031675250136568435 + input[184] * -0.003671524028659718 + input[185] * 0.002267723359089082 + input[186] * 0.00046920492449903064 + input[187] * -0.00017443752488283668 + input[188] * -0.0007375730975540171 + input[189] * 0.003058319069679169 + input[190] * -0.0038476905809947453 + input[191] * 0.0016065349575659874 + input[192] * 0.000496857116461585 + input[193] * -0.00017870251071313187 + input[194] * -0.0007960064940626961 + input[195] * 0.0029420897223674256 + input[196] * -0.003918784851296858 + input[197] * 0.0009107527748020597 + input[198] * 0.0005044488890513802 + input[199] * -0.00018474026161947245 + input[200] * -0.0008557421954472948 + input[201] * 0.0028967640304348105 + input[202] * -0.003981953350443215 + input[203] * 0.0002644832861516588 + input[204] * 0.0005019913422695916 + input[205] * -0.00019048760289753274 + input[206] * -0.0009104741413145349 + input[207] * 0.0029482206642457375 + input[208] * -0.003995312172047817 + input[209] * -0.00032528104651500167 + input[210] * 0.0004993634755034104 + input[211] * -0.0001903579614766091 + input[212] * -0.0009595867593507844 + input[213] * 0.002976096139615663 + input[214] * -0.0038299239858117246 + input[215] * -0.0007895378911401236 + input[216] * 0.00047880789330779247 + input[217] * -0.00019943599945284075 + input[218] * -0.0010190007961942782 + input[219] * 0.0028180162310387272 + input[220] * -0.0035070825398710935
    var75 = input[221] * -0.0011565057217175
    var76 = var74 + var75 + input[222] * 0.00045595633918661086 + input[223] * -0.00020533107732582053 + input[224] * -0.001073789041296238 + input[225] * 0.002544485726760756 + input[226] * -0.003084187299360355 + input[227] * -0.0014769330215255699 + input[228] * 0.00041467350233903355 + input[229] * -0.0002090970504647987 + input[230] * -0.0011252761963615543 + input[231] * 0.0021430249597001725 + input[232] * -0.002812833300327544 + input[233] * -0.0017713426213607588 + input[234] * 0.0004004994848433587 + input[235] * -0.00023312364446371553 + input[236] * -0.001181010329757482 + input[237] * 0.0018456573600602716 + input[238] * -0.0026303477352324677 + input[239] * -0.0020470175595623846 + input[240] * 0.0003873383981665564 + input[241] * -0.00023827144759850708 + input[242] * -0.0012064380413535916 + input[243] * 0.0014902610788700868 + input[244] * -0.002319374047540188 + input[245] * -0.002345110089660961 + input[246] * 0.00034709076186818035 + input[247] * -0.0002424782411582926 + input[248] * -0.0012262219094390848 + input[249] * 0.0012122343203150017 + input[250] * -0.0023020910834674097 + input[251] * -0.0027348113210323216 + input[252] * 0.0003000611996682243 + input[253] * -0.0002510185295134896 + input[254] * -0.0012592195652813612 + input[255] * 0.0008475997516433229 + input[256] * -0.002254625154583574 + input[257] * -0.0030800383562467745 + input[258] * 0.0002383441253976031 + input[259] * -0.0002635047159318059 + input[260] * -0.0012856506112323654 + input[261] * 0.0004530257680214951 + input[262] * -0.002215651892590171 + input[263] * -0.0033771926480361133 + input[264] * 0.00016350960456312747 + input[265] * -0.00027431002672687456 + input[266] * -0.0013067092707545 + input[267] * 0.00006094089060009133 + input[268] * -0.002131740510032529 + input[269] * -0.003612418272990144 + input[270] * 0.0000794374040056148 + input[271] * -0.0002672209771295963 + input[272] * -0.0013219349207074544 + input[273] * -0.0003662096992126294 + input[274] * -0.0018383158479347956 + input[275] * -0.003693816184167142
    var77 = input[276] * 0.0000074647510885397765
    var78 = var76 + var77 + input[277] * -0.0002682461187610611 + input[278] * -0.0013167918282018958 + input[279] * -0.0008022860176533597 + input[280] * -0.0014088933537045201 + input[281] * -0.0036312574496691697 + input[282] * -0.00006301996652441751 + input[283] * -0.00028216973772173995 + input[284] * -0.0012905877506686476 + input[285] * -0.001165964492009056 + input[286] * -0.0008269778821436065 + input[287] * -0.0035449165302368756 + input[288] * -0.00011514676844193439 + input[289] * -0.0002781344040446277 + input[290] * -0.0012587099178662851 + input[291] * -0.001451095011155479 + input[292] * -0.0001233596616985161 + input[293] * -0.0034805137246036334 + input[294] * -0.0001696518067835206 + input[295] * -0.0002456880489704161 + input[296] * -0.0012358940330490342 + input[297] * -0.0017198472817180062 + input[298] * 0.0004947684996712242 + input[299] * -0.0034000514066598016 + input[300] * -0.00023190542078104528 + input[301] * -0.0002209013943836967 + input[302] * -0.0011786867379531437 + input[303] * -0.0020722456615192416 + input[304] * 0.0010415304926747982 + input[305] * -0.0032491466982235615 + input[306] * -0.00028235523525451615 + input[307] * -0.00020284002918123116 + input[308] * -0.001134531244072346 + input[309] * -0.0023178006643769563 + input[310] * 0.0013737074954074588 + input[311] * -0.0030399178184591998 + input[312] * -0.00034020571458037014 + input[313] * -0.0001845010732392171 + input[314] * -0.001060443823427349 + input[315] * -0.002406561440642573 + input[316] * 0.001427921624531278 + input[317] * -0.002831190585114276 + input[318] * -0.0003908813534923601 + input[319] * -0.00016968539839140367 + input[320] * -0.0009863665565749463 + input[321] * -0.0024576488558218433 + input[322] * 0.0013022770677847616 + input[323] * -0.0025797588269307558 + input[324] * -0.0004409179840367075 + input[325] * -0.0001524539782076397 + input[326] * -0.0009339752864194937 + input[327] * -0.002511059973764867 + input[328] * 0.0010864006595533017 + input[329] * -0.0023010054715232797 + input[330] * -0.0004398023775088881
    var79 = input[331] * -0.00015586761562072374
    var80 = var78 + var79 + input[332] * -0.0009057297951789938 + input[333] * -0.0026535447176804445 + input[334] * 0.0009600374171390537 + input[335] * -0.00206409494624746 + input[336] * -0.00045024162201418857 + input[337] * -0.0001471647537068524 + input[338] * -0.0008888867404323328 + input[339] * -0.0028829029835404493 + input[340] * 0.0008877355558258766 + input[341] * -0.0019331014526336404 + input[342] * -0.0004584979847912749 + input[343] * -0.00013391058234745918 + input[344] * -0.0008632019367415337 + input[345] * -0.0031691197937991824 + input[346] * 0.0009288852386378608 + input[347] * -0.001783602257855487 + input[348] * -0.000435897530124186 + input[349] * -0.00012526359393881393 + input[350] * -0.0008431270081627781 + input[351] * -0.003459725451642612 + input[352] * 0.000789451897421226 + input[353] * -0.0015475368713049587 + input[354] * -0.0003948610286566216 + input[355] * -0.00013755381642915397 + input[356] * -0.0008331856977959336 + input[357] * -0.003539728803753884 + input[358] * 0.0008073629736443141 + input[359] * -0.0012575650929331677 + input[360] * -0.0003825136281070888 + input[361] * -0.00015497526382562873 + input[362] * -0.0008218884891804576 + input[363] * -0.0033159146830190073 + input[364] * 0.0009568003752879004 + input[365] * -0.0010180920438686819 + input[366] * -0.0003768236926532143 + input[367] * -0.00014958960665514216 + input[368] * -0.0008256111843024135 + input[369] * -0.002953981257871347 + input[370] * 0.0011179971602656683 + input[371] * -0.000792787613852128 + input[372] * -0.00033981870198449655 + input[373] * -0.00013144249373550485 + input[374] * -0.0008135755779799847 + input[375] * -0.0024938741439001644 + input[376] * 0.001314606796373296 + input[377] * -0.0004142511764335891 + input[378] * -0.00028931025533900106 + input[379] * -0.00011027376505224954 + input[380] * -0.0007868234522261662 + input[381] * -0.0022573754947005044 + input[382] * 0.0015219286718865515 + input[383] * -0.00016897676713543972 + input[384] * -0.00024821716300164935 + input[385] * -0.00008358506034859389
    var81 = input[386] * -0.0007820728460800381
    var82 = var80 + var81 + input[387] * -0.00201896413818679 + input[388] * 0.0016817773394463228 + input[389] * -0.00004389137387611345 + input[390] * -0.00020704486281186336 + input[391] * -0.00005100270127839649 + input[392] * -0.0007788882717150844 + input[393] * -0.0017316500668409101 + input[394] * 0.00175037271147079 + input[395] * 0.00004053674453420724 + input[396] * -0.00016911302390415226 + input[397] * 0.000008333817315704615 + input[398] * -0.0007820091677104417 + input[399] * -0.0016080184120790635 + input[400] * 0.0014321299292628367 + input[401] * 0.00016480514495913095 + input[402] * -0.0001304053965196635 + input[403] * 0.000022980975217030564 + input[404] * -0.0007960033265043754 + input[405] * -0.0015393271772337058 + input[406] * 0.001232999028418353 + input[407] * 0.00030440428928522976 + input[408] * -0.00008157119020502763 + input[409] * 0.00003933296484887077 + input[410] * -0.0008098167813306667 + input[411] * -0.0014067707940830009 + input[412] * 0.0013657288575696462 + input[413] * 0.00044113779679663304 + input[414] * -0.00003453343179588244 + input[415] * 0.00006178291515575569 + input[416] * -0.0007945143642180237 + input[417] * -0.00133133972341432 + input[418] * 0.0016519721091568216 + input[419] * 0.0003972434103887765 + input[420] * -0.000027451256311863276 + input[421] * 0.00009207802810788467 + input[422] * -0.000768165601940361 + input[423] * -0.001392701491553791 + input[424] * 0.0016519551689208045 + input[425] * 0.0003380154563313936 + input[426] * -0.00004575849052658593 + input[427] * 0.00011595369736583087 + input[428] * -0.0007432928153282141 + input[429] * -0.0015154631706914563 + input[430] * 0.0013740391393961052 + input[431] * 0.0003562312540209432 + input[432] * -0.00003074736633722199 + input[433] * 0.00014438730753444932 + input[434] * -0.000728855888897088 + input[435] * -0.0015329381638873511 + input[436] * 0.0012730617409574517 + input[437] * 0.0003642307829386991 + input[438] * -0.000039590004227006364 + input[439] * 0.00015596793495111798 + input[440] * -0.0007076611307396555
    var83 = input[441] * -0.0014626777028235905
    var84 = var82 + var83 + input[442] * 0.0011186997786931856 + input[443] * 0.00044248177647835817 + input[444] * -0.000005861626366427531 + input[445] * 0.0001595588157191843 + input[446] * -0.000718990104057149 + input[447] * -0.001443393572896367 + input[448] * 0.001186932911475271 + input[449] * 0.0005559900154953894 + input[450] * 0.000003554029280301157 + input[451] * 0.00016015138375312434 + input[452] * -0.0006910279806105072 + input[453] * -0.001474910921308279 + input[454] * 0.0012859190738298343 + input[455] * 0.0006146920865720616 + input[456] * 0.000019223248054019967 + input[457] * 0.00016257979842882822 + input[458] * -0.0006764045672289861 + input[459] * -0.0013514481759134482 + input[460] * 0.0012116205775485533 + input[461] * 0.0006142371742597694 + input[462] * 0.00001844385410028104 + input[463] * 0.00017547669775755091 + input[464] * -0.0006611132991674161 + input[465] * -0.0010452355885924313 + input[466] * 0.0009634656981692479 + input[467] * 0.0006278657838713704 + input[468] * 0.000020509793180897563 + input[469] * 0.00017633372711280454 + input[470] * -0.0006493732910887592 + input[471] * -0.0008427740669629453 + input[472] * 0.000776018170219953 + input[473] * 0.0005454117961869603 + input[474] * 0.000014123129707456778 + input[475] * 0.00017867333351713775 + input[476] * -0.0006520063756778882 + input[477] * -0.0006727218232680537 + input[478] * 0.0005563301569062127 + input[479] * 0.0005486587662173559 + input[480] * -0.0000090406065722268 + input[481] * 0.0001472674062712041 + input[482] * -0.0006586528785624893 + input[483] * -0.00032813754768069067 + input[484] * 0.00011684666238156064 + input[485] * 0.0008217631574830534 + input[486] * 0.000003069281291294641 + input[487] * 0.00012096465545218794 + input[488] * -0.0006503616900816101 + input[489] * -0.000026007322438387412 + input[490] * -0.0000638448748727515 + input[491] * 0.0011526036537741278 + input[492] * 0.00020042809876695444 + input[493] * 0.00009664112912717667 + input[494] * -0.0006626549423863496 + input[495] * -0.00029967149834828587
    var85 = input[496] * -0.00009122415953704978
    var86 = var84 + var85 + input[497] * 0.000631216551215452 + input[498] * 0.0002670504398705276 + input[499] * 0.00007432944087939568 + input[500] * -0.0006949362044890797 + input[501] * -0.0004134294113890938 + input[502] * 0.00006850173088519864 + input[503] * -0.00033266719384843517 + input[504] * 0.00021272169285018272 + input[505] * 0.000059261337982756176 + input[506] * -0.000760112753184188 + input[507] * -0.0012812986454576402 + input[508] * -0.00042499337133732724 + input[509] * -0.0009194622584526995 + input[510] * 0.0002182567742282035 + input[511] * 0.00006842237876674406 + input[512] * -0.0007185681509972179 + input[513] * -0.0009893208819439481 + input[514] * -0.00055568989616825 + input[515] * -0.0008738963701304812 + input[516] * 0.00019982120966216275 + input[517] * 0.00004109879829988149 + input[518] * -0.0006885444782536891 + input[519] * -0.0009304372598919285 + input[520] * -0.00007823451545879744 + input[521] * -0.0006480014377552758 + input[522] * 0.00023855432348635108 + input[523] * 0.00001592920576451727 + input[524] * -0.0006942005780157862 + input[525] * -0.0006634078139745375 + input[526] * -0.00009146525464448515 + input[527] * -0.00039153342639193105 + input[528] * 0.00022528775717805565 + input[529] * -0.000019435975622155515 + input[530] * -0.0006912165045682508 + input[531] * -0.0004179192019848835 + input[532] * -0.0002027727093365706 + input[533] * -0.0003178826519708623 + input[534] * 0.00019333266255434304 + input[535] * -0.000025413118761696002 + input[536] * -0.000727794954653389 + input[537] * -0.0001875491885157841 + input[538] * -0.0002910753320083828 + input[539] * -0.00021236480061086156 + input[540] * 0.00018478161737947859 + input[541] * -0.000013924093183095205 + input[542] * -0.0007474958259953963 + input[543] * -0.00003924526249476681 + input[544] * -0.00014252287538190898 + input[545] * -0.00015544805430252605 + input[546] * 0.0001877884722555474 + input[547] * -0.00001991028943923803 + input[548] * -0.0007785063344635759 + input[549] * 0.00028919561154266445 + input[550] * -0.00005516918060419253
    var87 = input[551] * -0.0002384727822498083
    return [var20 + var21 + input[552] * 0.007558805511846994 + input[553] * 0.0046488316883553605 + input[554] * 0.0017338545311579455 + input[555] * -0.005971710361252172 + input[556] * -0.0036653785290835677 + input[557] * 0.006227656753133603 + input[558] * 0.006713168209050339 + input[559] * 0.0033730152604610456 + input[560] * 0.000693479395906032 + input[561] * -0.0052221278072098086 + input[562] * -0.005579769874036469 + input[563] * 0.002528558868667402 + input[564] * 0.005006128680909137 + input[565] * 0.004007925354407858 + input[566] * 0.00043027180264222837 + input[567] * -0.003860844200547495 + input[568] * -0.007939522623028307 + input[569] * 0.00303606440671544 + input[570] * 0.0037484674559583432 + input[571] * 0.003701030342286148 + input[572] * 0.0011763936950819063 + input[573] * 0.0007007663915298817 + input[574] * -0.006118990051820274 + input[575] * 0.011792844130768332 + input[576] * 0.0031966216810142304 + input[577] * 0.0033253244609467783 + input[578] * 0.000812775084910901 + input[579] * 0.007550464204173011 + input[580] * -0.003150688778107602 + input[581] * 0.015194975644850612 + input[582] * 0.003049836392795965 + input[583] * 0.0028981144271327127 + input[584] * 0.0004405287931565677 + input[585] * 0.015905008235820826 + input[586] * -0.00204276471477526 + input[587] * 0.01598543197717417 + input[588] * 0.0014594405381745611 + input[589] * 0.0015358273928464568 + input[590] * 0.0008706915251233427 + input[591] * 0.021973798841696597 + input[592] * -0.003917655786754421 + input[593] * 0.00948282923684597 + input[594] * 0.0013215700203272063 + input[595] * 0.0012253175382178484 + input[596] * 0.0010292873588867962 + input[597] * 0.02411980462979069 + input[598] * 0.002570120160053285 + input[599] * 0.0028589825411035885 + input[600] * 0.0010663784150487928 + input[601] * 0.0012515511088002414 + input[602] * -0.0007798403192326404 + input[603] * 0.012346798820532435 + input[604] * -0.002326980036431287 + input[605] * -0.0029187858717735376, var42 + var43 + input[552] * -0.008731580667544503 + input[553] * 0.0020129968300064624 + input[554] * -0.0008032817499964542 + input[555] * 0.0006070478482818256 + input[556] * 0.00371407946603042 + input[557] * -0.006883435117650877 + input[558] * -0.007639970972727068 + input[559] * 0.002196566613877727 + input[560] * -0.00007290471698245062 + input[561] * 0.0004721226417881924 + input[562] * 0.004047844175445965 + input[563] * -0.001002615368823809 + input[564] * -0.005880663921392435 + input[565] * 0.0008883352196609935 + input[566] * 0.00009851983908145475 + input[567] * 0.0018821473367678018 + input[568] * 0.00448138935418239 + input[569] * -0.0018567036682625242 + input[570] * -0.004942014363533735 + input[571] * 0.0003966536467928584 + input[572] * -0.0003973775515132414 + input[573] * 0.0006742701892303947 + input[574] * 0.003315131457447022 + input[575] * -0.008180496413231297 + input[576] * -0.004346572083647429 + input[577] * 0.0003857860211565748 + input[578] * -0.00017571952762491236 + input[579] * -0.001626431666627357 + input[580] * 0.0030006498774874843 + input[581] * -0.01109442410840456 + input[582] * -0.0042283324843453065 + input[583] * -0.0004592140819308465 + input[584] * 0.00015148008256089172 + input[585] * -0.004776095161494845 + input[586] * 0.0021207358825731507 + input[587] * -0.012034906509860279 + input[588] * -0.0028856426854806487 + input[589] * -0.0004538944047944932 + input[590] * -0.000004871113818295928 + input[591] * -0.00639743333780664 + input[592] * 0.002676974295181587 + input[593] * -0.008626890458023275 + input[594] * -0.002504663246498881 + input[595] * -0.001114846699480692 + input[596] * -0.00010810112478375406 + input[597] * -0.007314790642255655 + input[598] * -0.0014745356076470665 + input[599] * -0.005133976384428016 + input[600] * -0.002151246125433625 + input[601] * -0.0011424725527944349 + input[602] * 0.0005585862639422708 + input[603] * -0.004235817491307441 + input[604] * -0.0018202653039437625 + input[605] * 0.0002796254456912895, var64 + var65 + input[552] * 0.0010000257337523808 + input[553] * -0.0066390865594091 + input[554] * -0.00010695570071700263 + input[555] * 0.004841921179653614 + input[556] * -0.000004741953610839195 + input[557] * 0.0008273125912984637 + input[558] * 0.0007658083561631707 + input[559] * -0.005551968838264646 + input[560] * 0.00023002293131644288 + input[561] * 0.004048524224728853 + input[562] * 0.0014335480188295432 + input[563] * -0.0015589584506956109 + input[564] * 0.0007298274624176837 + input[565] * -0.004871785557382359 + input[566] * 0.0003510055862942071 + input[567] * 0.001304208085780695 + input[568] * 0.0034532924261379307 + input[569] * -0.001337158601933268 + input[570] * 0.0010607349014756194 + input[571] * -0.00406009886622346 + input[572] * 0.00012064531213151654 + input[573] * -0.00192948271276787 + input[574] * 0.0030758848598963387 + input[575] * -0.0037108181532663855 + input[576] * 0.0010414583977978395 + input[577] * -0.0036818110790205268 + input[578] * 0.0002772369344948552 + input[579] * -0.006194813790934099 + input[580] * 0.0007365315451381997 + input[581] * -0.0041082091186789805 + input[582] * 0.001089386914272959 + input[583] * -0.0024048948366701775 + input[584] * 0.0003281458476663043 + input[585] * -0.011066398879783473 + input[586] * 0.0007185825111423002 + input[587] * -0.0039763040839927415 + input[588] * 0.0013447349286853404 + input[589] * -0.0010434262296048578 + input[590] * 0.00006026347630581944 + input[591] * -0.015205297842330665 + input[592] * 0.002040919874712162 + input[593] * -0.0008951878063228781 + input[594] * 0.0011153620533266365 + input[595] * -0.00007836276080134776 + input[596] * 0.0000063834767297505065 + input[597] * -0.016331721045971734 + input[598] * -0.0004455347329841942 + input[599] * 0.002197042813174853 + input[600] * 0.0010047172095699645 + input[601] * -0.00006869252577777563 + input[602] * 0.0010550850043999753 + input[603] * -0.008750134808257978 + input[604] * 0.0038531917761012047 + input[605] * 0.0024927513115487374, var86 + var87 + input[552] * 0.00017274942194598088 + input[553] * -0.000022741958952881547 + input[554] * -0.0008236170804427502 + input[555] * 0.0005227413332996206 + input[556] * -0.00004395898334635525 + input[557] * -0.00017153422682483768 + input[558] * 0.0001609944075142869 + input[559] * -0.000017613036073896415 + input[560] * -0.000850597610237539 + input[561] * 0.0007014809406747931 + input[562] * 0.00009837767976149401 + input[563] * 0.00003301495081095539 + input[564] * 0.00014470777806639486 + input[565] * -0.000024475016686247296 + input[566] * -0.0008797972280153341 + input[567] * 0.0006744887779810506 + input[568] * 0.000004840842709779578 + input[569] * 0.00015779786343863618 + input[570] * 0.00013281200610059304 + input[571] * -0.00003758512285510153 + input[572] * -0.0008996614556976089 + input[573] * 0.000554446131987603 + input[574] * -0.00027202626552211436 + input[575] * 0.00009847043568428818 + input[576] * 0.00010849200483584763 + input[577] * -0.0000292994030823324 + input[578] * -0.0009142924917780245 + input[579] * 0.00027078125336612717 + input[580] * -0.000586492644517244 + input[581] * 0.00000765758218544531 + input[582] * 0.0000891091772766121 + input[583] * -0.000034005508531336355 + input[584] * -0.0009201547233806594 + input[585] * -0.00006251419456544532 + input[586] * -0.0007965536789431647 + input[587] * 0.000025778616629932465 + input[588] * 0.00008146721862047223 + input[589] * -0.0000385067584467904 + input[590] * -0.0009260838876073736 + input[591] * -0.0003710676615796441 + input[592] * -0.0008002383831476921 + input[593] * 0.00003924902745179021 + input[594] * 0.00006773117284444732 + input[595] * -0.0000321080779354901 + input[596] * -0.0009275697108291501 + input[597] * -0.0004732929415778066 + input[598] * -0.0006500498194395793 + input[599] * 0.00007795103010295576 + input[600] * 0.00008015050081447802 + input[601] * -0.00004038603022799537 + input[602] * -0.0008338309491058521 + input[603] * 0.0006391534790283832 + input[604] * 0.00029405356425099723 + input[605] * 0.00014640911448895056]
