def score(input):
    var0 = 8.202682312005262 + input[0] * -0.0024556707496603404 + input[1] * -0.0006416122407697907 + input[2] * -0.0019322607845486557 + input[3] * 0.009416823050261026 + input[4] * -0.010857380149143182 + input[5] * -0.02137424126533737 + input[6] * -0.0033599387283717586 + input[7] * 0.0010443275918853776 + input[8] * -0.0020180360038767786 + input[9] * -0.0018374068199154036 + input[10] * 0.024044115810630713 + input[11] * -0.005476013883747456 + input[12] * -0.0020092273685218716 + input[13] * -0.00011466277341933748 + input[14] * -0.004339765203186507 + input[15] * 0.030194289453466666 + input[16] * -0.0020415163194093017 + input[17] * 0.00317939985768287 + input[18] * -0.0027949637084157208 + input[19] * -0.0011322901387984124 + input[20] * -0.004361925503322329 + input[21] * 0.01821847755192187 + input[22] * -0.002743457264782723 + input[23] * 0.0017166579736187558 + input[24] * -0.0014129104462685831 + input[25] * -0.002267565124013031 + input[26] * -0.004381801376831111 + input[27] * 0.015116714437594301 + input[28] * 0.0022106220242697084 + input[29] * 0.01146618325966399 + input[30] * -0.004352776291101683 + input[31] * -0.005002631445077274 + input[32] * -0.006310987733021146 + input[33] * -0.006648717444390765 + input[34] * -0.000901590391925005 + input[35] * 0.01580785027430233 + input[36] * -0.004846477356503888 + input[37] * -0.0048503993344942925 + input[38] * -0.0040178711998606394 + input[39] * -0.011364373302029216 + input[40] * -0.03891195757265588 + input[41] * 0.022610157476904827 + input[42] * -0.006126975850985576 + input[43] * -0.006708909596188873 + input[44] * -0.004797465149792836 + input[45] * 0.007203000709241993
    var1 = input[46] * -0.013841256622529599
    var2 = var0 + var1 + input[47] * -0.038005830962084604 + input[48] * -0.008883922290491076 + input[49] * -0.006793725729320918 + input[50] * -0.0034191954417231865 + input[51] * 0.0005986480328912062 + input[52] * 0.009487062132855339 + input[53] * -0.02236091256954752 + input[54] * -0.009614270564784358 + input[55] * -0.0090549666166522 + input[56] * -0.002270423197115774 + input[57] * -0.02267530115104216 + input[58] * -0.003109636305265198 + input[59] * -0.008291050575213708 + input[60] * -0.008777462089628424 + input[61] * -0.006516199070301324 + input[62] * 0.00034863565701667476 + input[63] * -0.014351159733251179 + input[64] * -0.015307021206793553 + input[65] * 0.00013919378491803274 + input[66] * -0.009451285406375689 + input[67] * -0.008756503187042505 + input[68] * 0.00045440859015409227 + input[69] * -0.008824269762281813 + input[70] * 0.013510960755491954 + input[71] * -0.005013959491103024 + input[72] * -0.010104476259133084 + input[73] * -0.038594906423986136 + input[74] * -0.004887221359190312 + input[75] * 0.0006586679189945825 + input[76] * -0.013549476488238678 + input[77] * 0.0395992105776298 + input[78] * -0.03865212899810282 + input[79] * -0.0995748959187439 + input[80] * -0.0023107361742109936 + input[81] * -0.02328999498923608 + input[82] * -0.0010360510047978083 + input[83] * -0.011259161108836532 + input[84] * -0.09434774620312678 + input[85] * -0.12601230508380812 + input[86] * 0.0019974671112557023 + input[87] * -0.0017245511170682149 + input[88] * -0.04282149211818498 + input[89] * 0.025370787279257838 + input[90] * -0.09386105870637758 + input[91] * -0.06941573346676516 + input[92] * -0.0022280868228439408 + input[93] * -0.003321071378091182 + input[94] * -0.011757845188728468 + input[95] * -0.012943259416337602 + input[96] * -0.062387782932169365 + input[97] * -0.025159319622433302 + input[98] * -0.005925515362219574 + input[99] * 0.006701111359054941 + input[100] * 0.009003057875098003
    var3 = input[101] * -0.02297879978845944
    var4 = 0.4526419122778355 + input[0] * 0.00014613275762394182 + input[1] * -0.003004380990616699 + input[2] * -0.000879053138943604 + input[3] * -0.0039105689564365494 + input[4] * -0.007843413406809992 + input[5] * 0.00795137341842815 + input[6] * -0.000452492186706971 + input[7] * -0.0035626447406347937 + input[8] * -0.001170233433716657 + input[9] * -0.0007460897216226704 + input[10] * -0.014504544539930652 + input[11] * -0.007297759233677935 + input[12] * -0.0011133814203774977 + input[13] * -0.0037660104792954984 + input[14] * -0.00007560080913697172 + input[15] * -0.016052250193249927 + input[16] * 0.0033584722907324415 + input[17] * -0.004060733839132406 + input[18] * 0.0006456763390945226 + input[19] * -0.003442266698446221 + input[20] * 0.00011371843933121215 + input[21] * -0.005906218783788288 + input[22] * 0.006421747127210451 + input[23] * -0.0013048724595087536 + input[24] * -0.0009250598066781315 + input[25] * -0.003293790118386865 + input[26] * 0.0002935041781114681 + input[27] * -0.002287519079751494 + input[28] * -0.0020680420552041867 + input[29] * -0.007479180676600693 + input[30] * 0.001614732669691543 + input[31] * -0.003649757746486436 + input[32] * 0.0012854358868294973 + input[33] * 0.008493232947611245 + input[34] * 0.00007402109833150613 + input[35] * 0.0012843486316044712 + input[36] * 0.003142698818297912 + input[37] * -0.002917066187550218 + input[38] * 0.00000010290750743423104 + input[39] * 0.0008012843981027872 + input[40] * 0.018702709646045132 + input[41] * -0.014716503885346344 + input[42] * 0.004278088068914214 + input[43] * -0.0033783458879997844 + input[44] * 0.0007991090001436019 + input[45] * -0.0036762053755490624
    var5 = input[46] * 0.008279418341052324
    var6 = var4 + var5 + input[47] * 0.003840992902203273 + input[48] * 0.00685164996876831 + input[49] * -0.003490247233655011 + input[50] * 0.0002430411039829251 + input[51] * -0.006464733223822796 + input[52] * 0.000487462662793465 + input[53] * -0.006274623103814532 + input[54] * 0.004244300026056659 + input[55] * -0.003599365825024733 + input[56] * 0.0004597057215180455 + input[57] * 0.0046661140833972525 + input[58] * 0.01138295257633585 + input[59] * 0.009015294593140145 + input[60] * 0.006083994873778369 + input[61] * -0.0030615726888588383 + input[62] * -0.0005292905173012859 + input[63] * 0.003430871397991561 + input[64] * 0.015886016802006464 + input[65] * 0.014398196759987616 + input[66] * 0.008232590713419032 + input[67] * -0.0037731508485160906 + input[68] * -0.0004901856620832167 + input[69] * 0.00645280477314974 + input[70] * -0.00025592553105607276 + input[71] * 0.022489397963241016 + input[72] * 0.018432087198108293 + input[73] * -0.006394250452708977 + input[74] * 0.0021104702121364596 + input[75] * -0.0021633751551555806 + input[76] * 0.01851360213575379 + input[77] * 0.01981887831586527 + input[78] * 0.04729104285945234 + input[79] * -0.011263338421115009 + input[80] * 0.0011205908719078591 + input[81] * 0.01956504781695172 + input[82] * 0.0059726992359203455 + input[83] * -0.010668823479568757 + input[84] * 0.09900777328219049 + input[85] * -0.009501964115780687 + input[86] * -0.0018282550506165025 + input[87] * 0.0024850751570857925 + input[88] * 0.017995967602516344 + input[89] * -0.04025832921900915 + input[90] * 0.14529260413471756 + input[91] * -0.028938228156203668 + input[92] * 0.0010585030062684449 + input[93] * -0.007900202370382156 + input[94] * -0.00882232138640108 + input[95] * -0.0001606544595196122 + input[96] * 0.11379984255729382 + input[97] * -0.033937865469018016 + input[98] * 0.00573231700489292 + input[99] * -0.0053538947174319946 + input[100] * -0.022321730968819162
    var7 = input[101] * 0.009761786586825937
    var8 = -0.06398563415733555 + input[0] * 0.0023041925744411054 + input[1] * 0.0035893571687882772 + input[2] * 0.0015947919603070792 + input[3] * -0.005349466115810193 + input[4] * 0.01838996728901299 + input[5] * 0.014238604126306084 + input[6] * 0.00389685132005293 + input[7] * 0.0024675520374173162 + input[8] * 0.00201172255497071 + input[9] * 0.002707720737867076 + input[10] * -0.0100941657034042 + input[11] * 0.013544744485667812 + input[12] * 0.003550632197154933 + input[13] * 0.00378164245354967 + input[14] * 0.003280789488321573 + input[15] * -0.013942517056090415 + input[16] * -0.002369006340566106 + input[17] * 0.0013356327989953452 + input[18] * 0.003184366880872219 + input[19] * 0.004328339052580541 + input[20] * 0.0030370103914089627 + input[21] * -0.01092490317782319 + input[22] * -0.004550081732208964 + input[23] * -0.0029925301806965556 + input[24] * 0.0035992027620294956 + input[25] * 0.005279205840018768 + input[26] * 0.002438004902879834 + input[27] * -0.007285394603634928 + input[28] * -0.00004995925203445909 + input[29] * -0.012541831067602767 + input[30] * 0.0031218124514168504 + input[31] * 0.008601160783008632 + input[32] * 0.0030344981374169715 + input[33] * 0.0003517624980258319 + input[34] * 0.0037199450182839647 + input[35] * -0.031426067178599484 + input[36] * 0.0010110591677999154 + input[37] * 0.007841238583811716 + input[38] * 0.0017006977846171145 + input[39] * 0.002751175462515523 + input[40] * 0.02483292192949158 + input[41] * -0.02411524074769205 + input[42] * 0.00046897767557014283 + input[43] * 0.010578771245797761 + input[44] * 0.001724682415730476 + input[45] * -0.015467710205413876
    var9 = input[46] * 0.017373859732596683
    var10 = var8 + var9 + input[47] * 0.020648129889255237 + input[48] * 0.00020612407134993016 + input[49] * 0.010863486449969819 + input[50] * 0.001758545683227921 + input[51] * -0.00648586682424972 + input[52] * 0.005224217916824174 + input[53] * 0.023117792525583613 + input[54] * 0.0034700413819643092 + input[55] * 0.013328447504869808 + input[56] * 0.0012263634261565708 + input[57] * 0.006662663073851655 + input[58] * 0.006335202924447071 + input[59] * 0.0019249426682016537 + input[60] * 0.0011160629387628807 + input[61] * 0.010350430967843645 + input[62] * 0.00023612385212403271 + input[63] * 0.004317788716414458 + input[64] * 0.009375839403453132 + input[65] * -0.00474552180488426 + input[66] * 0.00048468788064445393 + input[67] * 0.013391829218548264 + input[68] * 0.0005425771089437643 + input[69] * 0.0018886600862693026 + input[70] * -0.004328782203386511 + input[71] * -0.00163523418954977 + input[72] * -0.008069273373532589 + input[73] * 0.04575151409522165 + input[74] * 0.0031393169165119562 + input[75] * 0.006649207981339178 + input[76] * -0.004500923684298479 + input[77] * -0.04210074551233703 + input[78] * -0.0074865245916091215 + input[79] * 0.11116093957422464 + input[80] * 0.0009010021678942367 + input[81] * 0.013433150774174953 + input[82] * -0.009125500769261165 + input[83] * 0.036532134840930236 + input[84] * -0.0032081322934981353 + input[85] * 0.1354877798987746 + input[86] * -0.0009936936247002444 + input[87] * 0.01087531623315182 + input[88] * 0.022052862506079733 + input[89] * 0.024556961189583972 + input[90] * -0.050271555470057974 + input[91] * 0.09825872491489264 + input[92] * 0.00008013993615342479 + input[93] * 0.02357428301118305 + input[94] * 0.01661540729623298 + input[95] * 0.01800772159702003 + input[96] * -0.0506350640210791 + input[97] * 0.059088917846336304 + input[98] * -0.0011807948233761463 + input[99] * 0.006161706744085612 + input[100] * 0.006880309600107315
    var11 = input[101] * 0.013185549396164373
    var12 = -8.591338590118601 + input[0] * 0.000005345417595676152 + input[1] * 0.00005663606259822273 + input[2] * 0.001216521963182101 + input[3] * -0.00015678797802497346 + input[4] * 0.0003108262669369938 + input[5] * -0.0008157362794070198 + input[6] * -0.00008442040497445837 + input[7] * 0.00005076511133167408 + input[8] * 0.0011765468826208634 + input[9] * -0.00012422419632779398 + input[10] * 0.0005545944326833278 + input[11] * -0.0007709713682419012 + input[12] * -0.0004280234082520115 + input[13] * 0.00009903079916579252 + input[14] * 0.001134576523998632 + input[15] * -0.00019952220411817556 + input[16] * 0.0010520503692818231 + input[17] * -0.00045429881754826103 + input[18] * -0.0010350795115472854 + input[19] * 0.00024621778466318053 + input[20] * 0.0012111966725781333 + input[21] * -0.0013873555903048606 + input[22] * 0.000871791869763175 + input[23] * 0.0025807446665900157 + input[24] * -0.0012612325090769626 + input[25] * 0.0002821494023803292 + input[26] * 0.001650292295835174 + input[27] * -0.005543800754202917 + input[28] * -0.0000926207170034636 + input[29] * 0.008554828484515503 + input[30] * -0.0003837688300036008 + input[31] * 0.00005122840855481485 + input[32] * 0.0019910537087682373 + input[33] * -0.0021962780012456623 + input[34] * -0.0028923757246791253 + input[35] * 0.014333868272642753 + input[36] * 0.0006927193704050889 + input[37] * -0.00007377306176642033 + input[38] * 0.0023170705077290004 + input[39] * 0.007811913441381434 + input[40] * -0.004623674002843514 + input[41] * 0.016221587156063887 + input[42] * 0.0013799101064988853 + input[43] * -0.0004915157616078219 + input[44] * 0.0022736737339132266 + input[45] * 0.011940914871689086
    var13 = input[46] * -0.011812021451055381
    var14 = var12 + var13 + input[47] * 0.013516708170557182 + input[48] * 0.0018261482503675176 + input[49] * -0.0005795134869922016 + input[50] * 0.0014176086545107079 + input[51] * 0.012351952015157142 + input[52] * -0.01519874271241356 + input[53] * 0.0055177431477381805 + input[54] * 0.0018999291567587235 + input[55] * -0.000674115063190524 + input[56] * 0.0005843540494419642 + input[57] * 0.0113465239937795 + input[58] * -0.01460851919547982 + input[59] * -0.0026491866861344314 + input[60] * 0.0015774042770832868 + input[61] * -0.000772659208679484 + input[62] * -0.000055468991838814006 + input[63] * 0.006602499618823022 + input[64] * -0.00995483499865302 + input[65] * -0.00979186873997165 + input[66] * 0.0007340068123112058 + input[67] * -0.0008621751829859877 + input[68] * -0.0005068000370129015 + input[69] * 0.00048280490286628763 + input[70] * -0.008926253021031613 + input[71] * -0.01584020428252601 + input[72] * -0.0002583375654414427 + input[73] * -0.0007623572185253629 + input[74] * -0.00036256576945373626 + input[75] * -0.005144500745156713 + input[76] * -0.00046320196322379294 + input[77] * -0.017317343381085357 + input[78] * -0.0011523892697380403 + input[79] * -0.0003227052343628865 + input[80] * 0.00028914313440746384 + input[81] * -0.00970820360183136 + input[82] * 0.00418885253814529 + input[83] * -0.01460415025247014 + input[84] * -0.0014518947855670266 + input[85] * 0.000026489300818192354 + input[86] * 0.000824481564056714 + input[87] * -0.01163584027311327 + input[88] * 0.002772662009597665 + input[89] * -0.009669419249828455 + input[90] * -0.0011599899582817738 + input[91] * 0.00009523670807711638 + input[92] * 0.0010894438804174395 + input[93] * -0.012353009262681028 + input[94] * 0.003964759278880601 + input[95] * -0.0049038077211912435 + input[96] * -0.0007769956040452772 + input[97] * 0.000008267245103680564 + input[98] * 0.0013739931806972855 + input[99] * -0.007508923385703779 + input[100] * 0.006438363493605934
    var15 = input[101] * 0.0000314638055093569
    return [var2 + var3 + input[102] * -0.04249398599005541 + input[103] * 0.011640431879538289 + input[104] * -0.00025020344927888726 + input[105] * 0.011813015831805584 + input[106] * 0.02220516289651026 + input[107] * 0.015402786958239179 + input[108] * 0.041859243213524966 + input[109] * 0.08604901499234335 + input[110] * 0.001788024316260259 + input[111] * -0.0011916772026644446 + input[112] * 0.004122076355264565 + input[113] * -0.01723805865438659 + input[114] * 0.0830236056315338 + input[115] * 0.11213418717205585 + input[116] * 0.007642328383757746 + input[117] * -0.015908935858307917 + input[118] * -0.018922899967302533 + input[119] * 0.04052310241528653 + input[120] * 0.08531436651958352 + input[121] * 0.07773276061147953 + input[122] * -0.0031694004690082413 + input[123] * -0.02620301055356878 + input[124] * 0.00993366556027776 + input[125] * -0.016309438937676154 + input[126] * 0.05657099860340645 + input[127] * 0.05763911614303937 + input[128] * 0.011440459826322807 + input[129] * 0.019202859211134984 + input[130] * 0.024259769219909848 + input[131] * 0.00774017791988554 + input[132] * 0.05021878757549766 + input[133] * 0.0377169312759135 + input[134] * 0.0000624129105246591 + input[135] * -0.017074511247112303 + input[136] * -0.0029343238720146428 + input[137] * -0.06542885742222962 + input[138] * 0.028495603005029565 + input[139] * 0.0175947045958245 + input[140] * 0.006144634944714361 + input[141] * -0.019421632280623866 + input[142] * -0.021413951223260338 + input[143] * 0.011833811466857748 + input[144] * 0.011945884768019433 + input[145] * 0.010950905782129717 + input[146] * 0.0023770796580899326 + input[147] * 0.03701866202633016 + input[148] * -0.017074005695005407 + input[149] * 0.04893260726608112 + input[150] * 0.004439683112522612 + input[151] * 0.004423391393688437 + input[152] * -0.004558385892185976 + input[153] * 0.0472176028353614 + input[154] * 0.0013996133894451706 + input[155] * -0.010484563225447933, var6 + var7 + input[102] * 0.03950258779100751 + input[103] * -0.012525277250017295 + input[104] * -0.008132595286270123 + input[105] * -0.020630327473342307 + input[106] * -0.03484603400141592 + input[107] * -0.016144324605703163 + input[108] * -0.0843038520719074 + input[109] * 0.012283534073285501 + input[110] * -0.005652557226429409 + input[111] * -0.0036541615402934814 + input[112] * 0.004222011860892554 + input[113] * 0.00407079275575714 + input[114] * -0.10729069052639127 + input[115] * 0.007844675849909938 + input[116] * -0.01183715066756391 + input[117] * 0.004602823377778871 + input[118] * 0.012632351400436947 + input[119] * -0.007321861801327566 + input[120] * -0.111481411801184 + input[121] * 0.01425658586741304 + input[122] * -0.008877872499324877 + input[123] * 0.008010423851455714 + input[124] * 0.003417111107020444 + input[125] * 0.05630547885425398 + input[126] * -0.07308218382691077 + input[127] * 0.01136265796106027 + input[128] * -0.007827715370587752 + input[129] * -0.013573850367120392 + input[130] * -0.027536296908482215 + input[131] * -0.006484468490617681 + input[132] * -0.05386990492894122 + input[133] * 0.008835782758286363 + input[134] * -0.0021446008766411733 + input[135] * 0.0012513922543461484 + input[136] * 0.010926221225367096 + input[137] * 0.015183822503278327 + input[138] * -0.03223895694646178 + input[139] * 0.006116456312191485 + input[140] * -0.004758293793917917 + input[141] * 0.004937503684110593 + input[142] * 0.018711591634841086 + input[143] * -0.019967313659379517 + input[144] * -0.016317220558284377 + input[145] * 0.0019419874633394027 + input[146] * -0.00232234205043564 + input[147] * -0.006389244555132905 + input[148] * 0.015909803009464634 + input[149] * -0.033716752940120366 + input[150] * -0.008043601344268287 + input[151] * -0.004154128262363494 + input[152] * 0.0009979835666246379 + input[153] * -0.01820876487452384 + input[154] * -0.009826629439853492 + input[155] * 0.006807901732742553, var10 + var11 + input[102] * 0.003350960855219724 + input[103] * 0.0008360578291782077 + input[104] * 0.006962376356587289 + input[105] * 0.014370104887992922 + input[106] * 0.00421151189017967 + input[107] * -0.002124750071266314 + input[108] * 0.04271263336235371 + input[109] * -0.09856482606378492 + input[110] * 0.0022382813871060295 + input[111] * 0.011617487951251369 + input[112] * -0.01619275425751877 + input[113] * 0.01015859554620006 + input[114] * 0.024362947807902487 + input[115] * -0.12026658178453621 + input[116] * 0.002363924933682365 + input[117] * 0.016302104065653196 + input[118] * 0.0007173435657533801 + input[119] * -0.037130649256534656 + input[120] * 0.0262100140692247 + input[121] * -0.09228029156599477 + input[122] * 0.010105747755111883 + input[123] * 0.02099069760660637 + input[124] * -0.01612109494308733 + input[125] * -0.04375526470571002 + input[126] * 0.016085410953941986 + input[127] * -0.06904959323018062 + input[128] * -0.005459760607282967 + input[129] * -0.0031223242797828246 + input[130] * 0.0029234343644375356 + input[131] * -0.002618925248535918 + input[132] * 0.0030297548323218446 + input[133] * -0.046431876493738665 + input[134] * 0.00021173933955079534 + input[135] * 0.01593828232032919 + input[136] * -0.007039354805352965 + input[137] * 0.049125215673651405 + input[138] * 0.0031231842222380337 + input[139] * -0.02358639156323582 + input[140] * -0.0028049386428584547 + input[141] * 0.011133776749137311 + input[142] * 0.003429598646695863 + input[143] * 0.00769647125832263 + input[144] * 0.003979955694764503 + input[145] * -0.012788997333155845 + input[146] * -0.0011510027016278408 + input[147] * -0.03400326374812544 + input[148] * 0.002281201173137398 + input[149] * -0.013942709790108717 + input[150] * 0.003387705531143174 + input[151] * -0.00028116674286164683 + input[152] * 0.0025182030375328762 + input[153] * -0.032058942101656766 + input[154] * 0.008423827591536015 + input[155] * 0.005563521407097177, var14 + var15 + input[102] * -0.00035956265616122844 + input[103] * 0.000048787541287942324 + input[104] * 0.0014204223789555492 + input[105] * -0.005552793246461509 + input[106] * 0.008429359214740213 + input[107] * 0.002866287718735005 + input[108] * -0.0002680245039659933 + input[109] * 0.00023227699814900562 + input[110] * 0.0016262515230566542 + input[111] * -0.006771649208298807 + input[112] * 0.007848666041369726 + input[113] * 0.0030086703524515013 + input[114] * -0.00009586291304379408 + input[115] * 0.0002877187625774972 + input[116] * 0.0018308973501176815 + input[117] * -0.00499599158511187 + input[118] * 0.00557320500110457 + input[119] * 0.003929408642594778 + input[120] * -0.0000429687876293225 + input[121] * 0.00029094508711309926 + input[122] * 0.0019415252132162048 + input[123] * -0.0027981109044617923 + input[124] * 0.00277031827581378 + input[125] * 0.0037592247891272148 + input[126] * 0.00042577426955897976 + input[127] * 0.00004781912608664401 + input[128] * 0.001847016151541108 + input[129] * -0.002506684564245817 + input[130] * 0.00035309332415128867 + input[131] * 0.0013632158192621053 + input[132] * 0.0006213625211180209 + input[133] * -0.00012083754045878547 + input[134] * 0.0018704486265618706 + input[135] * -0.00011516332759095092 + input[136] * -0.0009525425480181232 + input[137] * 0.0011198192453082683 + input[138] * 0.0006201697191922808 + input[139] * -0.00012476934478007276 + input[140] * 0.0014185974920583502 + input[141] * 0.003350351847366049 + input[142] * -0.0007272390582779986 + input[143] * 0.00043703093420697576 + input[144] * 0.0003913800954990679 + input[145] * -0.00010389591231306069 + input[146] * 0.0010962650939691852 + input[147] * 0.003373846276915821 + input[148] * -0.0011169984876081155 + input[149] * -0.0012731445358297117 + input[150] * 0.00021621270060202932 + input[151] * 0.000011903611536191458 + input[152] * 0.0010421992880245252 + input[153] * 0.0030501041408084475 + input[154] * 0.0000031884588415086324 + input[155] * -0.0018868599143713476]
