def score(input):
    var0 = 9.073682796431967 + input[0] * -0.025394215521087362 + input[1] * -0.0748078018505777 + input[2] * -0.06649951244996505 + input[3] * -0.011287967174394592 + input[4] * -0.010327673948188579 + input[5] * 0.00037652429926828424 + input[6] * -0.07517873806558277 + input[7] * -0.10471476382477107 + input[8] * -0.06036180905407999 + input[9] * 0.013163320924263398 + input[10] * 0.027989790047116582
    var1 = input[11] * 0.007447751128942702
    var2 = 2.5679916875704767 + input[0] * -0.005983934521240171 + input[1] * -0.008838311477842696 + input[2] * -0.01401506708656291 + input[3] * 0.009454140537034653 + input[4] * 0.013335605287096547 + input[5] * 0.013464459833241295 + input[6] * 0.037816843353324456 + input[7] * -0.021469094811044625 + input[8] * -0.003052369783776175 + input[9] * 0.019785986038365313 + input[10] * -0.018710273206835003
    var3 = input[11] * -0.03162239416982037
    var4 = -3.8938405149053104 + input[0] * 0.03147380530239043 + input[1] * 0.08357902034194456 + input[2] * 0.0831906565973273 + input[3] * 0.0037224033866207935 + input[4] * 0.0015462295072526337 + input[5] * 0.005007538285285645 + input[6] * 0.04204317643671616 + input[7] * 0.1253889724666093 + input[8] * 0.06556980246958219 + input[9] * -0.03081294188284329 + input[10] * -0.01155792941519047
    var5 = input[11] * 0.028513394561405944
    var6 = -7.747833968956961 + input[0] * -0.00009565526006224183 + input[1] * 0.00006709298647634542 + input[2] * -0.0026760770607859178 + input[3] * -0.0018885767492345948 + input[4] * -0.004554160846117353 + input[5] * -0.018848522417769013 + input[6] * -0.004681281724458515 + input[7] * 0.0007948861692051495 + input[8] * -0.002155623631715607 + input[9] * -0.002136365079771279 + input[10] * 0.0022784125749951457
    var7 = input[11] * -0.004338751520523713
    return [var0 + var1 + input[12] * -0.04554531155304831 + input[13] * -0.10109009966526362 + input[14] * -0.046342025210396647 + input[15] * -0.02773906992646749 + input[16] * 0.02394246914286305 + input[17] * 0.0003028302534679206 + input[18] * -0.14452070658845503 + input[19] * -0.6837982640772347 + input[20] * 0.02534714105842699 + input[21] * -0.02571136341981635 + input[22] * 0.030004516992688725 + input[23] * -0.018849230372261144 + input[24] * -0.5753820649499831 + input[25] * -0.41007382877131426 + input[26] * 0.011466993729004107 + input[27] * -0.026201657165799246 + input[28] * 0.03407546495583536 + input[29] * -0.011439299304468242 + input[30] * -0.1753996403066293 + input[31] * -0.17022323565964323 + input[32] * -0.05723006034422425 + input[33] * -0.0514182675460885 + input[34] * 0.005427328813832878 + input[35] * 0.008820853570694953 + input[36] * -0.021600753786458496 + input[37] * 0.04081888888753975 + input[38] * -0.006835975790891553 + input[39] * -0.03682397857757959 + input[40] * -0.0034862665493353524 + input[41] * -0.018915895939261698 + input[42] * 0.053580117535294035 + input[43] * 0.1944103875934007 + input[44] * -0.033634836156978216 + input[45] * -0.007333524112891002 + input[46] * 0.0060120177893735844 + input[47] * 0.005691918586941878 + input[48] * 0.250633629211885 + input[49] * 0.4825507945305798 + input[50] * -0.00768630528646016 + input[51] * -0.01891781702853666 + input[52] * 0.02479924831466871 + input[53] * 0.022349202139174663 + input[54] * 0.4807384306862908 + input[55] * 0.243012832368193 + input[56] * 0.10594519717376963 + input[57] * -0.03546547936193585 + input[58] * -0.003759711526831801 + input[59] * -0.027748105772599202 + input[60] * 0.20717119862011532 + input[61] * 0.09419829484763323 + input[62] * -0.03001921042786529 + input[63] * 0.04949177506320864 + input[64] * 0.009053004227272059 + input[65] * -0.000052023158816094424, var2 + var3 + input[12] * 0.001068328029488169 + input[13] * -0.015550035532072355 + input[14] * 0.0010318034515012671 + input[15] * -0.015481611310163047 + input[16] * 0.007042785865589609 + input[17] * 0.01102912564390046 + input[18] * 0.23521945647444817 + input[19] * -0.10046717338270485 + input[20] * -0.012127197334761058 + input[21] * -0.002244665071350202 + input[22] * 0.02833242489609386 + input[23] * 0.00738001646343893 + input[24] * 0.746821401486402 + input[25] * -0.09901408807056357 + input[26] * 0.000039160461806812196 + input[27] * -0.0028860658085207076 + input[28] * 0.006441699849281205 + input[29] * -0.00238425770878265 + input[30] * 0.21288329647167503 + input[31] * -0.010001495121134792 + input[32] * -0.0001599131889636488 + input[33] * 0.010388863522556028 + input[34] * -0.026056033164218784 + input[35] * 0.012103284536581157 + input[36] * 0.066977016979894 + input[37] * -0.005342815129826994 + input[38] * -0.011400117506154663 + input[39] * 0.009203820421556258 + input[40] * -0.038530947102428305 + input[41] * 0.010311618207684352 + input[42] * -0.15365474635115292 + input[43] * 0.06372016341184701 + input[44] * -0.041430987593198916 + input[45] * 0.011050676783639768 + input[46] * -0.031543691725933125 + input[47] * 0.0012123708905847088 + input[48] * -0.3945206193985536 + input[49] * 0.10455027831413405 + input[50] * -0.07000082202208868 + input[51] * 0.00494086329826426 + input[52] * -0.029815362362547056 + input[53] * 0.005162171581938079 + input[54] * -0.5988787950692531 + input[55] * 0.07553630337716073 + input[56] * -0.08718893696337904 + input[57] * 0.04453317691799839 + input[58] * -0.0010782701414338658 + input[59] * 0.013703892952166166 + input[60] * -0.27505729651397653 + input[61] * -0.062138027551784256 + input[62] * -0.004459766300736877 + input[63] * -0.053280223746702715 + input[64] * -0.01425497934196965 + input[65] * -0.026175687918193268, var4 + var5 + input[12] * 0.043663925762599386 + input[13] * 0.11630530304037953 + input[14] * 0.043683927054437736 + input[15] * 0.038229011059238587 + input[16] * -0.025503027912871623 + input[17] * -0.06943872563033394 + input[18] * -0.09817655844860625 + input[19] * 0.7874982491152483 + input[20] * -0.011645615365128122 + input[21] * -0.008533010917570437 + input[22] * 0.0031612576568482873 + input[23] * -0.006009493332426166 + input[24] * -0.17590299788501573 + input[25] * 0.5134119278770284 + input[26] * -0.0010024329656359771 + input[27] * 0.031398332281679445 + input[28] * -0.006666877301489753 + input[29] * 0.04547884342489922 + input[30] * -0.032155446527481965 + input[31] * 0.18101403801489352 + input[32] * 0.06381117007426233 + input[33] * 0.062379248515961126 + input[34] * 0.008150058557594144 + input[35] * 0.016107489155755477 + input[36] * -0.041500305955875665 + input[37] * -0.0349647523449569 + input[38] * 0.02008740487936518 + input[39] * 0.06794963701989308 + input[40] * 0.038244708108309204 + input[41] * 0.009709277039980924 + input[42] * 0.10075960241241105 + input[43] * -0.25771443053000065 + input[44] * 0.07684493349102457 + input[45] * 0.025920584366869275 + input[46] * 0.0008808900535792706 + input[47] * -0.01090599971010196 + input[48] * 0.1449899798968047 + input[49] * -0.5885127852220859 + input[50] * 0.07680505517748461 + input[51] * 0.01872080567458773 + input[52] * -0.011449250453258768 + input[53] * -0.037749356173878285 + input[54] * 0.11558602087311767 + input[55] * -0.3184797698939306 + input[56] * -0.01776382834396883 + input[57] * -0.01708563080233931 + input[58] * 0.0031919013090659877 + input[59] * 0.01011208131551255 + input[60] * 0.06724250735853056 + input[61] * -0.03138963549894185 + input[62] * 0.037308871975256765 + input[63] * -0.01245403692626143 + input[64] * -0.006023544453506099 + input[65] * 0.016758319935203485, var6 + var7 + input[12] * 0.0008130577609587218 + input[13] * 0.000334832156956782 + input[14] * 0.0016262947044702939 + input[15] * 0.004991670177349748 + input[16] * -0.005482227095570665 + input[17] * 0.058106769732985654 + input[18] * 0.007477808562611893 + input[19] * -0.0032328116552973597 + input[20] * -0.0015743283585221458 + input[21] * 0.03648903940874345 + input[22] * -0.06149819954563762 + input[23] * 0.017478707241303303 + input[24] * 0.0044636613486041905 + input[25] * -0.004324011035155599 + input[26] * -0.010503721225163931 + input[27] * -0.002310609307353763 + input[28] * -0.033850287503659725 + input[29] * -0.03165528641165961 + input[30] * -0.005328209637558966 + input[31] * -0.0007893072341145684 + input[32] * -0.0064211965410621704 + input[33] * -0.02134984449238592 + input[34] * 0.01247864579277251 + input[35] * -0.03703162726303671 + input[36] * -0.0038759572375667694 + input[37] * -0.0005113214127593529 + input[38] * -0.0018513115823093436 + input[39] * -0.040329478863887956 + input[40] * 0.003772505543443358 + input[41] * -0.0011049993084029969 + input[42] * -0.0006849735965554502 + input[43] * -0.00041612047524408526 + input[44] * -0.0017791097408364864 + input[45] * -0.02963773703761389 + input[46] * 0.02465078388295411 + input[47] * 0.00400171023263679 + input[48] * -0.0011029897101267256 + input[49] * 0.0014117123773734431 + input[50] * 0.000882072131079068 + input[51] * -0.004743851944341927 + input[52] * 0.016465364501210233 + input[53] * 0.010237982452784278 + input[54] * 0.0025543435098383475 + input[55] * -0.00006936585142424408 + input[56] * -0.00099243186640742 + input[57] * 0.00801793324625035 + input[58] * 0.0016460803592048413 + input[59] * 0.003932131504948543 + input[60] * 0.0006435905353340842 + input[61] * -0.0006706317969067861 + input[62] * -0.0028298952466423066 + input[63] * 0.01624248560973296 + input[64] * 0.01122551956822281 + input[65] * 0.009469391141818122]
