def score(input):
    var0 = 6.6774519897438305 + input[0] * -0.005413541008119224 + input[1] * -0.007441764473594913 + input[2] * 0.002304113546752399 + input[3] * -0.01864194863784201 + input[4] * -0.011799169763417739 + input[5] * -0.008671311421729546 + input[6] * -0.008964716894936942 + input[7] * -0.005190308227282882 + input[8] * 0.005229322004150486 + input[9] * -0.01577382629336788 + input[10] * -0.019889185805633414 + input[11] * -0.013079445653336297 + input[12] * -0.011358531165182964 + input[13] * -0.006073668346889235 + input[14] * 0.009787089113669665 + input[15] * 0.017770724423879267 + input[16] * -0.013290506499982877 + input[17] * -0.0010328258851536657 + input[18] * -0.0059395116568230835 + input[19] * -0.011469933112076783 + input[20] * 0.0003828953537959688 + input[21] * 0.05968876587003672 + input[22] * -0.0014913222850003512 + input[23] * 0.014785284712180229 + input[24] * -0.008309445583062177 + input[25] * -0.007969622501681749 + input[26] * 0.0015709708956182264 + input[27] * 0.03973974313409446 + input[28] * -0.03473353944747593 + input[29] * 0.03551716368366874 + input[30] * -0.0051685712304547216
    var1 = input[31] * -0.00623054811430886
    var2 = var0 + var1 + input[32] * 0.0009332294698184797 + input[33] * -0.0027483536595539616 + input[34] * 0.03506456671948297 + input[35] * 0.0066926789701517875 + input[36] * -0.005236136765016636 + input[37] * -0.007972573287817381 + input[38] * 0.000764170565647126 + input[39] * 0.017149941917833096 + input[40] * -0.003922577329500887 + input[41] * -0.010468843171126991 + input[42] * -0.009470401108935007 + input[43] * -0.003793253273321137 + input[44] * 0.004985041244912901 + input[45] * -0.02500466107110999 + input[46] * 0.011353394480768523 + input[47] * -0.017462697130677496 + input[48] * -0.007564176660065333 + input[49] * -0.009482697012532609 + input[50] * 0.005735360445727941 + input[51] * 0.015544255353894493 + input[52] * 0.010303833587458485 + input[53] * 0.00027815630739253113 + input[54] * -0.0071012185383647255 + input[55] * -0.011802561889713086 + input[56] * -0.000545560314025101 + input[57] * 0.011402197679976956 + input[58] * 0.00367926640727861 + input[59] * 0.007875425268461448 + input[60] * -0.006947142691983546 + input[61] * -0.014708890451378822 + input[62] * 0.00036039184929814917 + input[63] * -0.021014317303552174 + input[64] * -0.0055764294562375555 + input[65] * -0.0012220104437195057 + input[66] * -0.007150252567261654 + input[67] * -0.022126487772381714 + input[68] * -0.00044917513922844465 + input[69] * -0.019589541148873575 + input[70] * -0.025339015620838748 + input[71] * 0.01386883380681169 + input[72] * -0.012903511410228333 + input[73] * -0.0304606217762548 + input[74] * 0.0011450921974556706 + input[75] * -0.034567160197114255 + input[76] * -0.035918680941870666 + input[77] * 0.0035403784105074486 + input[78] * -0.012564307002467294 + input[79] * -0.04158067952717255 + input[80] * 0.0017886455378194103 + input[81] * -0.005708253975172813 + input[82] * -0.0075510464690715685 + input[83] * -0.0050693919699689675 + input[84] * -0.013645025824520271 + input[85] * -0.0710746165248639
    var3 = input[86] * 0.001944970346347381
    var4 = var2 + var3 + input[87] * 0.022185877833362202 + input[88] * 0.005357468530545208 + input[89] * -0.0007928615643658793 + input[90] * -0.032835663515725824 + input[91] * -0.10123616913559944 + input[92] * 0.005074561514042004 + input[93] * 0.015885579880433546 + input[94] * 0.030642415542830852 + input[95] * -0.02960232188438346 + input[96] * -0.05811228887011987 + input[97] * -0.12031193396604652 + input[98] * 0.007553400855423531 + input[99] * 0.015491768808866055 + input[100] * 0.0379666467756574 + input[101] * -0.02726412683142981 + input[102] * -0.09197075459389784 + input[103] * -0.13288348712000372 + input[104] * 0.003998223023768314 + input[105] * -0.013502898242798577 + input[106] * 0.011910483473492859 + input[107] * 0.010616553582878644 + input[108] * -0.10629042875584384 + input[109] * -0.11848253564243208 + input[110] * -0.0006647384845647263 + input[111] * -0.0367202543916137 + input[112] * -0.013330849547855902 + input[113] * -0.003660367904090844 + input[114] * -0.09889856102713315 + input[115] * -0.08256873182771073 + input[116] * -0.0037181478399026355 + input[117] * -0.005080165627808879 + input[118] * 0.012997339621968532 + input[119] * -0.010559776783050045 + input[120] * -0.09964770173111875 + input[121] * -0.06328346204847876 + input[122] * 0.008505861666491246 + input[123] * 0.014254015912354902 + input[124] * -0.0032691977088717857 + input[125] * -0.009812256385564445 + input[126] * -0.08582228027921779 + input[127] * -0.053871961357134714 + input[128] * 0.001277955484905951 + input[129] * -0.01587168046139582 + input[130] * 0.01311512159936098 + input[131] * -0.007714619214358217 + input[132] * -0.08315365839261625 + input[133] * -0.040608581667930785 + input[134] * 0.0057768284696851505 + input[135] * -0.010677184492381114 + input[136] * 0.04071156655715887 + input[137] * -0.003925442113378087 + input[138] * -0.0726347680507055 + input[139] * -0.03435505681900652 + input[140] * -0.004653570838699116
    var5 = input[141] * -0.020026383970362535
    var6 = var4 + var5 + input[142] * 0.009911339939795453 + input[143] * 0.004167189666697822 + input[144] * -0.04929930710908621 + input[145] * -0.03167412861663444 + input[146] * -0.002657326712822528 + input[147] * 0.03128455095508232 + input[148] * -0.0299893977556571 + input[149] * -0.009551175750054446 + input[150] * -0.024443853614849975 + input[151] * -0.030714027566746897 + input[152] * -0.0007350177506817318 + input[153] * -0.022118439597769855 + input[154] * -0.015373701971738334 + input[155] * 0.025729837262923747 + input[156] * -0.00557313241080876 + input[157] * -0.02193096584133027 + input[158] * 0.0012811102769552914 + input[159] * -0.02036087815919471 + input[160] * 0.023979662449685725 + input[161] * -0.01306960425485765 + input[162] * -0.0037663831636479185 + input[163] * -0.0023456390861065573 + input[164] * 0.0016551899642186399 + input[165] * -0.010657481790228336 + input[166] * -0.013101187419659793 + input[167] * 0.00912994039607235 + input[168] * -0.014314333691908453 + input[169] * 0.002603613646458269 + input[170] * -0.0021805877516901514 + input[171] * -0.027457199024235435 + input[172] * -0.032123737905581866 + input[173] * 0.006771280186094453 + input[174] * -0.021065430880697223 + input[175] * 0.018229943842737902 + input[176] * 0.004194780459044371 + input[177] * -0.04381238314170173 + input[178] * 0.0029939668533070203 + input[179] * -0.0025078147851133573 + input[180] * -0.00026243290798972697 + input[181] * 0.04037595398299682 + input[182] * -0.002469584070932989 + input[183] * -0.014311295880755205 + input[184] * -0.012511548507434416 + input[185] * -0.000454957224965338 + input[186] * 0.009821034634300115 + input[187] * 0.021807008950831073 + input[188] * -0.00200128929628315 + input[189] * -0.016350803246781915 + input[190] * 0.002223952543003501 + input[191] * 0.0001494299721627549 + input[192] * 0.017150118039079874 + input[193] * 0.02920729867349351 + input[194] * -0.002631261619205526 + input[195] * 0.023916964164174596
    var7 = input[196] * -0.0009994054618295666
    var8 = var6 + var7 + input[197] * -0.010890413499826881 + input[198] * -0.00024022003573916952 + input[199] * 0.039563765093698626 + input[200] * -0.0043367001625116185 + input[201] * 0.015244341274679708 + input[202] * -0.02057830050946492 + input[203] * -0.01424656838207032 + input[204] * 0.014367163739863091 + input[205] * 0.047187393641018406 + input[206] * -0.002569104895886855 + input[207] * 0.00490944416627571 + input[208] * 0.03071876116013811 + input[209] * 0.02636059362423718 + input[210] * 0.028871601152860422 + input[211] * 0.05647696199840274 + input[212] * -0.004979061571142498 + input[213] * -0.009678322679178463 + input[214] * -0.02182888075731628 + input[215] * -0.01728161449155048 + input[216] * 0.04028290492778237 + input[217] * 0.10046319120861219 + input[218] * 0.0006408720534997334 + input[219] * -0.0179370770528816 + input[220] * 0.005517872344574113 + input[221] * -0.018311125158870928 + input[222] * 0.06210737707664606 + input[223] * 0.1101974595109172 + input[224] * -0.00930738774743325 + input[225] * -0.026617275693553016 + input[226] * -0.00025788869018028446 + input[227] * 0.02225925788826135 + input[228] * 0.054198116908162106 + input[229] * 0.11007143952470005 + input[230] * 0.006981989784100634 + input[231] * -0.03432256185997357 + input[232] * -0.021223255949246504 + input[233] * 0.02272875724967764 + input[234] * 0.06654452671192468 + input[235] * 0.09149293139638931 + input[236] * 0.007848390903092996 + input[237] * -0.015752210470774023 + input[238] * 0.0069133689473075445 + input[239] * 0.014617503804173496 + input[240] * 0.06372603475757782 + input[241] * 0.07496468287974414 + input[242] * -0.0016107079466768585 + input[243] * -0.03539763246278575 + input[244] * 0.05284559943959345 + input[245] * 0.015104840192163023 + input[246] * 0.0606806390407072 + input[247] * 0.06285814139107654 + input[248] * -0.002219805537986782 + input[249] * -0.0059452607904057235 + input[250] * -0.028024974191930237
    var9 = input[251] * -0.004308234157509273
    var10 = 0.6559695830478819 + input[0] * -0.000015100549201633006 + input[1] * -0.006175515627189865 + input[2] * -0.003445886567095988 + input[3] * 0.005802782622180652 + input[4] * 0.01109299605458423 + input[5] * 0.009558745099975544 + input[6] * 0.002154563389616489 + input[7] * -0.0062119832515020856 + input[8] * -0.0031178353451522876 + input[9] * 0.012480499192932386 + input[10] * 0.011438740229608599 + input[11] * 0.010839679546212507 + input[12] * 0.0022855287150308047 + input[13] * -0.00521191529382874 + input[14] * -0.00435663359198377 + input[15] * -0.010058874531022307 + input[16] * 0.005665241935937588 + input[17] * -0.004188900943779218 + input[18] * 0.0011614991987124801 + input[19] * -0.004817600547197588 + input[20] * -0.0017626739592100852 + input[21] * -0.03223990858967339 + input[22] * 0.002723165826027777 + input[23] * -0.0075210052364724535 + input[24] * 0.001669555476279137 + input[25] * -0.006275446729017688 + input[26] * -0.002499323560277459 + input[27] * -0.015968279480717107 + input[28] * 0.02200816474606036 + input[29] * -0.008774457113330717 + input[30] * 0.0006253925011313953
    var11 = input[31] * -0.0073059733729680006
    var12 = var10 + var11 + input[32] * -0.0025052481347563786 + input[33] * 0.013389798008248441 + input[34] * -0.015528906720009294 + input[35] * -0.0027643644062607274 + input[36] * 0.0009532726230316065 + input[37] * -0.006279577927068939 + input[38] * -0.003243128623000346 + input[39] * -0.0005090522304848046 + input[40] * 0.014851195582014542 + input[41] * -0.006409330314170781 + input[42] * 0.0024592503006029697 + input[43] * -0.0075277372925847425 + input[44] * -0.005400665032158367 + input[45] * 0.020670550777014303 + input[46] * 0.003139653949870526 + input[47] * 0.010225902980481412 + input[48] * 0.0011887108510419354 + input[49] * -0.004516968077262891 + input[50] * -0.0038041660984439785 + input[51] * -0.011654310237478139 + input[52] * 0.003229037557931729 + input[53] * -0.00014452603250679298 + input[54] * 0.002475629685066667 + input[55] * -0.005213846386059945 + input[56] * -0.000665720612169921 + input[57] * -0.006690631593370812 + input[58] * 0.0006564903046668158 + input[59] * 0.003292149523776775 + input[60] * 0.0006661925460410501 + input[61] * -0.005843541639047878 + input[62] * -0.0007940707594391791 + input[63] * 0.006439675656810101 + input[64] * 0.0040599286685177385 + input[65] * 0.009300849732671763 + input[66] * 0.004146245742408268 + input[67] * -0.006645952162275677 + input[68] * -0.00024159120700796634 + input[69] * -0.0056440296505796995 + input[70] * 0.028453073944792254 + input[71] * -0.019604316939625367 + input[72] * 0.00786850234337051 + input[73] * -0.006096802329624216 + input[74] * -0.0006629079525525747 + input[75] * 0.011662478449553608 + input[76] * 0.025737634586493995 + input[77] * -0.017547295653398597 + input[78] * 0.014431769743781037 + input[79] * -0.01164394041251313 + input[80] * -0.00119066960904839 + input[81] * 0.004381276156590025 + input[82] * 0.012323310572824356 + input[83] * 0.007743959080587843 + input[84] * 0.025339039066728398 + input[85] * -0.013261461196360583
    var13 = input[86] * -0.001457567614837953
    var14 = var12 + var13 + input[87] * -0.01802960188203413 + input[88] * 0.010351036361333107 + input[89] * 0.018480905845022728 + input[90] * 0.04081538954028514 + input[91] * -0.021423590426185416 + input[92] * -0.0014827206469447296 + input[93] * -0.010683984742810326 + input[94] * -0.005482747922370861 + input[95] * 0.015229493924312778 + input[96] * 0.059979293724591626 + input[97] * -0.02476176639206157 + input[98] * -0.00045667853659839405 + input[99] * -0.01394314651419616 + input[100] * -0.011904722978371763 + input[101] * 0.020368797180349285 + input[102] * 0.09026632434599646 + input[103] * -0.02354098879264711 + input[104] * -0.0005093976935053731 + input[105] * -0.00781469462514492 + input[106] * 0.006200866636254478 + input[107] * -0.04224339530661691 + input[108] * 0.11471555797886743 + input[109] * -0.02347248400329032 + input[110] * 0.0007618470683101425 + input[111] * 0.003434014866562027 + input[112] * 0.01455470706879912 + input[113] * -0.0064734083634262855 + input[114] * 0.1340367812476294 + input[115] * -0.027406838851218935 + input[116] * 0.004026378907855153 + input[117] * -0.01136613991482188 + input[118] * -0.0006112543762009851 + input[119] * 0.018709297302413636 + input[120] * 0.14731073748593013 + input[121] * -0.028307094117887583 + input[122] * 0.0008647313729762996 + input[123] * -0.003931812684893407 + input[124] * -0.004400317432838206 + input[125] * -0.012214533773523733 + input[126] * 0.1342437897472798 + input[127] * -0.027626296376498015 + input[128] * 0.0035591322399538827 + input[129] * 0.013353512854341347 + input[130] * -0.01890154343028553 + input[131] * 0.013178291478966967 + input[132] * 0.11904702084004848 + input[133] * -0.028767204118884324 + input[134] * 0.00020431793138265617 + input[135] * 0.0008487319138912085 + input[136] * -0.013809899492185774 + input[137] * -0.00005160073143535752 + input[138] * 0.0892733131219604 + input[139] * -0.021119838735633552 + input[140] * 0.0005916997797174278
    var15 = input[141] * -0.001254057479104654
    var16 = var14 + var15 + input[142] * -0.011999550182550696 + input[143] * 0.0014029895114556414 + input[144] * 0.06398099094414444 + input[145] * -0.013159885115388622 + input[146] * 0.002150510329203544 + input[147] * -0.02688570620870977 + input[148] * 0.008402019607311509 + input[149] * 0.003223992776330879 + input[150] * 0.04165790466896295 + input[151] * -0.0019912832451796556 + input[152] * 0.00025418975362362844 + input[153] * -0.00017832198470424103 + input[154] * 0.0032542107034503544 + input[155] * -0.0044621086473888025 + input[156] * 0.00938102293144151 + input[157] * 0.001667664677766601 + input[158] * 0.0009119968264257603 + input[159] * 0.016661020269190953 + input[160] * -0.01692708935012571 + input[161] * 0.014681471205192531 + input[162] * 0.00014796665971350485 + input[163] * -0.009455334274587921 + input[164] * -0.003416757390351957 + input[165] * 0.013195542202730727 + input[166] * 0.0007413493057554671 + input[167] * -0.02039897034593844 + input[168] * -0.00579989055004127 + input[169] * -0.014327895647671866 + input[170] * -0.0035581541920876674 + input[171] * 0.015785260769606364 + input[172] * 0.006261892343600746 + input[173] * -0.00418007184624885 + input[174] * 0.0014514162751917542 + input[175] * -0.010231480438116891 + input[176] * -0.002914810064827508 + input[177] * 0.01979361421346788 + input[178] * -0.004816501771665366 + input[179] * 0.014817976412765905 + input[180] * 0.004981901882485967 + input[181] * -0.011143907740073082 + input[182] * 0.0009771270174080639 + input[183] * 0.0019569919381088744 + input[184] * -0.012372505843276189 + input[185] * 0.0158003751296021 + input[186] * 0.00925527602791328 + input[187] * -0.003693459599316008 + input[188] * -0.0027289134342886896 + input[189] * 0.0035712908238086246 + input[190] * -0.015086487183198443 + input[191] * -0.01900245294616829 + input[192] * -0.007620077513439678 + input[193] * -0.0024889762838251174 + input[194] * -0.00037077368243885767 + input[195] * -0.007309370349884849
    var17 = input[196] * -0.017839534720709746
    var18 = var16 + var17 + input[197] * 0.01867282673748089 + input[198] * -0.009633953780089155 + input[199] * 0.0003413330219869052 + input[200] * -0.0018845847259460395 + input[201] * 0.0010573607363620226 + input[202] * 0.014193310170645347 + input[203] * -0.0002472891724257848 + input[204] * -0.02981458423581057 + input[205] * 0.0003435598794639197 + input[206] * -0.007793629123078754 + input[207] * -0.00979011960037513 + input[208] * -0.042425779303854265 + input[209] * -0.029696315828931154 + input[210] * -0.05452283355359694 + input[211] * 0.010136406522020277 + input[212] * -0.004552275760663713 + input[213] * -0.005609970652651682 + input[214] * 0.01169662627510426 + input[215] * 0.03742795298504638 + input[216] * -0.07065254291833156 + input[217] * 0.009995966838169721 + input[218] * -0.005103252003876915 + input[219] * 0.009801318323469902 + input[220] * -0.009851277512536907 + input[221] * 0.01449799766442146 + input[222] * -0.08200039765403404 + input[223] * 0.006629615246419171 + input[224] * 0.0007565563383638156 + input[225] * 0.007874487226727152 + input[226] * -0.0038979867756514545 + input[227] * -0.023929685998769743 + input[228] * -0.07406684096392475 + input[229] * 0.006773033786985858 + input[230] * -0.008207532574772585 + input[231] * 0.022544049201430234 + input[232] * 0.009654193741418968 + input[233] * -0.014902176510520176 + input[234] * -0.09011910247871649 + input[235] * 0.015938549675862727 + input[236] * -0.006029549518323656 + input[237] * 0.010435381979547815 + input[238] * -0.0017753074869030572 + input[239] * 0.015523813942636027 + input[240] * -0.09033740905167754 + input[241] * 0.02111192715978806 + input[242] * -0.006890899254625166 + input[243] * 0.01663161722660412 + input[244] * -0.03415154717170958 + input[245] * -0.008432366781354655 + input[246] * -0.08935798886301227 + input[247] * 0.01919200072873013 + input[248] * 0.0009549190068997241 + input[249] * -0.0004738848290740706 + input[250] * 0.007960377932549922
    var19 = input[251] * 0.017505092122168116
    var20 = -1.6575555405164137 + input[0] * 0.00533923237235771 + input[1] * 0.013631535746898708 + input[2] * 0.003119023773705363 + input[3] * 0.01365145951017869 + input[4] * 0.001829614472981713 + input[5] * 0.00513790916480716 + input[6] * 0.006814088633837754 + input[7] * 0.0114604530356842 + input[8] * -0.00012850668789445648 + input[9] * 0.0036567430992135923 + input[10] * 0.009897306471241126 + input[11] * 0.008498450169674888 + input[12] * 0.009114984809605185 + input[13] * 0.011312397874177716 + input[14] * -0.003471562713532569 + input[15] * -0.007281437558823115 + input[16] * 0.009622936957837636 + input[17] * 0.011004322337706736 + input[18] * 0.004925303261762978 + input[19] * 0.01630733328950331 + input[20] * 0.003296473310656044 + input[21] * -0.027165680951030075 + input[22] * 0.0006045103906234407 + input[23] * -0.0013543291093780037 + input[24] * 0.007041941313966873 + input[25] * 0.014212808587283436 + input[26] * 0.002854737334910297 + input[27] * -0.02428026795289649 + input[28] * 0.013241203836977081 + input[29] * -0.021451481268736933 + input[30] * 0.0052872226880472705
    var21 = input[31] * 0.01346667008802174
    var22 = var20 + var21 + input[32] * 0.003487069364030737 + input[33] * -0.01191943782851271 + input[34] * -0.019608020390430008 + input[35] * -0.0007545495119369536 + input[36] * 0.005389122964981583 + input[37] * 0.014125583482665585 + input[38] * 0.004278408358515479 + input[39] * -0.0181170653305247 + input[40] * -0.011078087986943265 + input[41] * 0.016581020665888554 + input[42] * 0.008069081321027578 + input[43] * 0.011197619813017829 + input[44] * 0.002425303734612065 + input[45] * 0.004531582109725426 + input[46] * -0.014185568604736649 + input[47] * 0.0034275299378204475 + input[48] * 0.007635010929212608 + input[49] * 0.013672262072668315 + input[50] * -0.0002473598931829752 + input[51] * 0.0007467228064775994 + input[52] * -0.01295664741771767 + input[53] * -0.007129412954347815 + input[54] * 0.005528709452896113 + input[55] * 0.016672559180297773 + input[56] * 0.0025968141235618238 + input[57] * -0.0009393069292487362 + input[58] * -0.0011604945371522216 + input[59] * -0.02175328071884298 + input[60] * 0.006653513341192356 + input[61] * 0.0201424660798321 + input[62] * 0.001650779115215221 + input[63] * 0.017011645000084053 + input[64] * 0.00570817181060684 + input[65] * -0.02043240349751761 + input[66] * 0.00273737684877879 + input[67] * 0.028656570384075458 + input[68] * 0.0017893838950631858 + input[69] * 0.024761462628726628 + input[70] * 0.0016890014522320442 + input[71] * -0.007307883262872442 + input[72] * 0.004120341451606749 + input[73] * 0.036771672486223705 + input[74] * 0.0005111534320392907 + input[75] * 0.018264751669957266 + input[76] * 0.016260022434077932 + input[77] * 0.0004070073668075415 + input[78] * -0.003404645485923363 + input[79] * 0.053775641025805475 + input[80] * 0.0003606661715083128 + input[81] * -0.006717214968022841 + input[82] * 0.004305906280683526 + input[83] * -0.015359260051265436 + input[84] * -0.013385600318402587 + input[85] * 0.08513015499924904
    var23 = input[86] * 0.0009187088723839375
    var24 = var22 + var23 + input[87] * -0.013594495730470415 + input[88] * -0.004126353384677121 + input[89] * -0.027680548781386875 + input[90] * -0.009848513490743154 + input[91] * 0.12379568064216293 + input[92] * -0.0017914314199810116 + input[93] * -0.016451176301623932 + input[94] * -0.014547177943165556 + input[95] * 0.00823779739778517 + input[96] * -0.0037043766081115517 + input[97] * 0.1463666863232178 + input[98] * -0.005013889939697716 + input[99] * -0.013261761110432075 + input[100] * -0.016061335377197998 + input[101] * 0.006233336831595378 + input[102] * 0.00000755747778782453 + input[103] * 0.1578655188328456 + input[104] * -0.0012238976037419478 + input[105] * 0.010417650053336508 + input[106] * -0.010289951921998457 + input[107] * 0.034824528499163704 + input[108] * -0.009918378934510048 + input[109] * 0.14357922795454428 + input[110] * 0.0023660186550118253 + input[111] * 0.023727952519699547 + input[112] * 0.0041195528834571645 + input[113] * 0.016430128181832152 + input[114] * -0.03610302114262465 + input[115] * 0.11142369222304709 + input[116] * 0.0025103355032852605 + input[117] * 0.008793217436433689 + input[118] * -0.006647493609499594 + input[119] * -0.0006623966420313803 + input[120] * -0.04821316799671836 + input[121] * 0.09275025411659465 + input[122] * -0.006066274215507044 + input[123] * -0.01568076700976503 + input[124] * 0.01346592184601202 + input[125] * 0.02984661783190616 + input[126] * -0.04845786132917539 + input[127] * 0.0825322965693584 + input[128] * -0.0012106633618621555 + input[129] * -0.0006569420167161297 + input[130] * 0.009956455073302518 + input[131] * 0.0030804450035181326 + input[132] * -0.035499206852785944 + input[133] * 0.07017480600988427 + input[134] * -0.002133120577838941 + input[135] * 0.008548034777817454 + input[136] * -0.025110762826523053 + input[137] * 0.013067921313264352 + input[138] * -0.01591655432456843 + input[139] * 0.05601506082657534 + input[140] * 0.007950188691001921
    var25 = input[141] * 0.02307233968354708
    var26 = var24 + var25 + input[142] * -0.0004789223613433848 + input[143] * 0.0033084242315989487 + input[144] * -0.01362562910571735 + input[145] * 0.04504200504142635 + input[146] * 0.004062694553072018 + input[147] * -0.00015193791716948963 + input[148] * 0.017507815790869997 + input[149] * 0.015047505719839094 + input[150] * -0.01597613678401669 + input[151] * 0.032582710782790625 + input[152] * 0.00380249818443018 + input[153] * 0.028771739088083236 + input[154] * 0.008245005806553173 + input[155] * -0.013895867439943458 + input[156] * -0.0025009876225890295 + input[157] * 0.020038849032317358 + input[158] * 0.0007083621272345699 + input[159] * 0.01279386282697967 + input[160] * -0.009364867188018364 + input[161] * 0.004350979220495254 + input[162] * 0.004913050903934929 + input[163] * 0.011553134385538354 + input[164] * 0.004170507720255439 + input[165] * 0.008041916513478933 + input[166] * 0.010256968468305164 + input[167] * 0.015978840378212195 + input[168] * 0.02137465582080032 + input[169] * 0.011579771705496381 + input[170] * 0.007788410403771644 + input[171] * 0.023419194192967795 + input[172] * 0.023306007910803127 + input[173] * -0.0000898456645530862 + input[174] * 0.02073681315921901 + input[175] * -0.008113374181034243 + input[176] * 0.0006264196158260402 + input[177] * 0.03577541380219624 + input[178] * -0.000016866467476079315 + input[179] * -0.01196148337595619 + input[180] * -0.00386823051930468 + input[181] * -0.029358262003829936 + input[182] * 0.0031851478137120363 + input[183] * 0.022277324612679526 + input[184] * 0.023547616356461507 + input[185] * -0.016292907958419894 + input[186] * -0.018634687847259235 + input[187] * -0.018171381834986212 + input[188] * 0.0062264820293584456 + input[189] * 0.01994109776808071 + input[190] * 0.009733825706723513 + input[191] * 0.018171420733417543 + input[192] * -0.009218992738786104 + input[193] * -0.026778969496949717 + input[194] * 0.004456784069451128 + input[195] * -0.01212964489726893
    var27 = input[196] * 0.01584583305145522
    var28 = var26 + var27 + input[197] * -0.008332617510744288 + input[198] * 0.010108747456949563 + input[199] * -0.039950977160452095 + input[200] * 0.007506027851435979 + input[201] * -0.012943969575294359 + input[202] * 0.004120126618371123 + input[203] * 0.01378021400692327 + input[204] * 0.01573356724356842 + input[205] * -0.04762256976942483 + input[206] * 0.011729094691065336 + input[207] * 0.008237577746802616 + input[208] * 0.010664481346510815 + input[209] * 0.0018735391942354747 + input[210] * 0.025886990269898737 + input[211] * -0.06671133047137028 + input[212] * 0.010974835870264077 + input[213] * 0.01828234465445275 + input[214] * 0.009917870814828735 + input[215] * -0.022390910216992393 + input[216] * 0.030602869175160415 + input[217] * -0.11064489311046845 + input[218] * 0.005995589296338741 + input[219] * 0.01035265861888909 + input[220] * 0.004003755028451961 + input[221] * 0.001140325022644129 + input[222] * 0.019996111390710433 + input[223] * -0.11702644899054791 + input[224] * 0.010046313678831981 + input[225] * 0.019372981311123957 + input[226] * 0.0044099389411522555 + input[227] * -0.0013573973910854585 + input[228] * 0.019697726137399858 + input[229] * -0.11701276672944494 + input[230] * 0.002729232382765019 + input[231] * 0.012023162567749886 + input[232] * 0.01226329163606646 + input[233] * -0.011658014299452412 + input[234] * 0.023148516146157084 + input[235] * -0.10757926549606786 + input[236] * -0.0002673293312211412 + input[237] * 0.005634194155621599 + input[238] * -0.004263846278110568 + input[239] * -0.033507910174256264 + input[240] * 0.02606891714868248 + input[241] * -0.09615517683308161 + input[242] * 0.010164653642180131 + input[243] * 0.018226065446274562 + input[244] * -0.017933561642339342 + input[245] * -0.008882941391124699 + input[246] * 0.0280028706060486 + input[247] * -0.08209061484882818 + input[248] * 0.0030351066284623122 + input[249] * 0.0064275007696108334 + input[250] * 0.018551608021656122
    var29 = input[251] * -0.014168640513726738
    var30 = -5.675866032293184 + input[0] * 0.00008940918496069004 + input[1] * -0.000014255646116327805 + input[2] * -0.00197725075337351 + input[3] * -0.0008122934945520004 + input[4] * -0.0011234407642092626 + input[5] * -0.0060253428430243824 + input[6] * -0.000003935128520099961 + input[7] * -0.000058161556903015044 + input[8] * -0.0019829799711128166 + input[9] * -0.0003634159987936605 + input[10] * -0.001446860895315343 + input[11] * -0.006258684062527848 + input[12] * -0.000041982359459249915 + input[13] * -0.000026814233462990826 + input[14] * -0.001958892808157343 + input[15] * -0.0004304123340181791 + input[16] * -0.001997672393949982 + input[17] * -0.005782595508723648 + input[18] * -0.00014729080364964475 + input[19] * -0.000019799630235986562 + input[20] * -0.0019166947052541951 + input[21] * -0.00028317632938820026 + input[22] * -0.0018363539316816554 + input[23] * -0.005909950366382406 + input[24] * -0.0004020512071771742 + input[25] * 0.00003226064341611656 + input[26] * -0.001926384670259617 + input[27] * 0.0005088042995262717 + input[28] * -0.0005158291355255295 + input[29] * -0.005291225301684991 + input[30] * -0.000744043958721985
    var31 = input[31] * 0.00006985139925423504
    var32 = var30 + var31 + input[32] * -0.0019150506991069554 + input[33] * 0.0012779934798180842 + input[34] * 0.00007236039087169988 + input[35] * -0.0031737650520160523 + input[36] * -0.001106258822997819 + input[37] * 0.00012656773221725936 + input[38] * -0.0017994503011786213 + input[39] * 0.0014761756431918027 + input[40] * 0.0001494697343839172 + input[41] * 0.00029715281934992245 + input[42] * -0.0010579305126958783 + input[43] * 0.00012337075288693385 + input[44] * -0.0020096799473825126 + input[45] * -0.00019747181562749058 + input[46] * -0.00030747982592185883 + input[47] * 0.0038092642123161487 + input[48] * -0.0012595451201883317 + input[49] * 0.00032740301712590343 + input[50] * -0.0016838344541180085 + input[51] * -0.00463666792290818 + input[52] * -0.0005762237276685774 + input[53] * 0.00699578267941527 + input[54] * -0.0009031205995947572 + input[55] * 0.00034384909547434476 + input[56] * -0.0013855331973856165 + input[57] * -0.0037722591574190275 + input[58] * -0.0031752621748237335 + input[59] * 0.010585705926558091 + input[60] * -0.000372563195249591 + input[61] * 0.0004099660105931637 + input[62] * -0.0012171002050915519 + input[63] * -0.002437003353445519 + input[64] * -0.0041916710229359996 + input[65] * 0.012353564208513258 + input[66] * 0.0002666299760720351 + input[67] * 0.00011586955057920092 + input[68] * -0.0010986175488424993 + input[69] * 0.00047210817061461163 + input[70] * -0.004803059776265126 + input[71] * 0.013043366395663029 + input[72] * 0.0009146676152475575 + input[73] * -0.00021424838035066952 + input[74] * -0.0009933376769585291 + input[75] * 0.004639930077621947 + input[76] * -0.006078976078700928 + input[77] * 0.01359990987609694 + input[78] * 0.0015371827446055669 + input[79] * -0.0005510210861226089 + input[80] * -0.0009586421002932323 + input[81] * 0.008044192786624 + input[82] * -0.009078170384475686 + input[83] * 0.012684692940662422 + input[84] * 0.0016915870761909366 + input[85] * -0.0007940772780307179
    var33 = input[86] * -0.0014061116039041795
    var34 = var32 + var33 + input[87] * 0.009438219779187443 + input[88] * -0.01158215150723224 + input[89] * 0.00999250450075873 + input[90] * 0.0018687874661806837 + input[91] * -0.001135921080384643 + input[92] * -0.0018004094471268254 + input[93] * 0.011249581164034385 + input[94] * -0.01061248967731631 + input[95] * 0.00613503056231517 + input[96] * 0.0018373717536413839 + input[97] * -0.0012929859651183732 + input[98] * -0.002082832379138003 + input[99] * 0.011713138815790392 + input[100] * -0.010000588420049911 + input[101] * 0.0006619928195372052 + input[102] * 0.0016968727701156096 + input[103] * -0.0014410429202066667 + input[104] * -0.002264927726531778 + input[105] * 0.010899942814625332 + input[106] * -0.007821398187693408 + input[107] * -0.003197686775383941 + input[108] * 0.0014932497114886712 + input[109] * -0.001624208308837942 + input[110] * -0.0024631272387683474 + input[111] * 0.009558287005380877 + input[112] * -0.005343410404355168 + input[113] * -0.006296351914297031 + input[114] * 0.0009648009221314622 + input[115] * -0.0014481215441358363 + input[116] * -0.0028185665712474545 + input[117] * 0.007653088106227121 + input[118] * -0.005738591636230542 + input[119] * -0.007487123877341021 + input[120] * 0.0005501322419121275 + input[121] * -0.0011596979502415978 + input[122] * -0.0033043188239687783 + input[123] * 0.005358563782358588 + input[124] * -0.005796406704266876 + input[125] * -0.007819827672878362 + input[126] * 0.00003635186112038706 + input[127] * -0.0010340388357332336 + input[128] * -0.0036264243630054253 + input[129] * 0.003175109623869391 + input[130] * -0.004170033242360452 + input[131] * -0.008544117268185072 + input[132] * -0.0003941555946388915 + input[133] * -0.0007990202230706484 + input[134] * -0.0038480258232345002 + input[135] * 0.0012804178008074027 + input[136] * -0.001790904238462682 + input[137] * -0.00909087846850028 + input[138] * -0.0007219907466751688 + input[139] * -0.000540165271926543 + input[140] * -0.0038883176320270696
    var35 = input[141] * -0.0017918982339384846
    var36 = var34 + var35 + input[142] * 0.002567132604079582 + input[143] * -0.008878603409787826 + input[144] * -0.0010560547293273766 + input[145] * -0.00020799130938974606 + input[146] * -0.0035558781694616194 + input[147] * -0.004246906829096711 + input[148] * 0.004079562357409311 + input[149] * -0.008720322746177176 + input[150] * -0.0012379142700807808 + input[151] * 0.00012260002915099195 + input[152] * -0.003321670187382027 + input[153] * -0.006474977505521258 + input[154] * 0.003874485461679286 + input[155] * -0.007371861175686303 + input[156] * -0.0013069028980300622 + input[157] * 0.00022445213125972448 + input[158] * -0.0029014692306320155 + input[159] * -0.009094004936883346 + input[160] * 0.002312294088417762 + input[161] * -0.0059628461709635245 + input[162] * -0.0012946343999951995 + input[163] * 0.0002478389751663191 + input[164] * -0.002408940294143303 + input[165] * -0.010579976925902543 + input[166] * 0.002102869645569168 + input[167] * -0.0047098104285111155 + input[168] * -0.0012604315788531646 + input[169] * 0.00014451029572357297 + input[170] * -0.002049668460014695 + input[171] * -0.01174725593827828 + input[172] * 0.0025558376511995813 + input[173] * -0.0025013626754722606 + input[174] * -0.0011227985537226193 + input[175] * 0.00011491077641649712 + input[176] * -0.0019063900100643196 + input[177] * -0.011756644873927694 + input[178] * 0.0018394013858953604 + input[179] * -0.00034867825190223507 + input[180] * -0.0008512384552055377 + input[181] * 0.000126215760908352 + input[182] * -0.0016926907602095886 + input[183] * -0.009923020670051833 + input[184] * 0.0013364379943095871 + input[185] * 0.0009474900535655103 + input[186] * -0.0004416228149703238 + input[187] * 0.00005783248346922458 + input[188] * -0.0014962792988063693 + input[189] * -0.007161585345176324 + input[190] * 0.0031287089335183672 + input[191] * 0.0006816022403378651 + input[192] * -0.0003110477868679363 + input[193] * 0.000060647107282044824 + input[194] * -0.0014547487678257516 + input[195] * -0.004477948917142734
    var37 = input[196] * 0.0029931071311107937
    var38 = var36 + var37 + input[197] * 0.0005502042728299244 + input[198] * -0.00023457364113310398 + input[199] * 0.000045879044769903814 + input[200] * -0.0012847429629914446 + input[201] * -0.0033577324358951333 + input[202] * 0.002264863720441804 + input[203] * 0.0007136435473301017 + input[204] * -0.00028614674762594475 + input[205] * 0.00009161624894680632 + input[206] * -0.0013663606721100094 + input[207] * -0.0033569023128673676 + input[208] * 0.0010425367972004172 + input[209] * 0.0014621830102442886 + input[210] * -0.00023575786917104448 + input[211] * 0.00009796195095153524 + input[212] * -0.0014434985384728302 + input[213] * -0.0029940513227561263 + input[214] * 0.00021438366734725174 + input[215] * 0.0022445717232885878 + input[216] * -0.0002332311846164705 + input[217] * 0.00018573506369322875 + input[218] * -0.0015332093459737796 + input[219] * -0.0022168998895114186 + input[220] * 0.00032965013945063595 + input[221] * 0.0026728024716163126 + input[222] * -0.00010309081332108032 + input[223] * 0.00019937423321583571 + input[224] * -0.0014954822697744222 + input[225] * -0.0006301928443007835 + input[226] * -0.0002540634753697977 + input[227] * 0.003027825501411164 + input[228] * 0.00017099791836428915 + input[229] * 0.0001682934177599383 + input[230] * -0.0015036895921018195 + input[231] * -0.0002446499091898956 + input[232] * -0.0006942294282838369 + input[233] * 0.0038314335601392943 + input[234] * 0.00042605962063876847 + input[235] * 0.00014778442381741276 + input[236] * -0.0015515120535535452 + input[237] * -0.00031736566435910967 + input[238] * -0.0008742151822965116 + input[239] * 0.0033665924272494358 + input[240] * 0.0005424571454222191 + input[241] * 0.00007856679354512824 + input[242] * -0.0016630464408882155 + input[243] * 0.0005399497899400971 + input[244] * -0.0007604906254660505 + input[245] * 0.0022104679801037207 + input[246] * 0.0006744792162580539 + input[247] * 0.000040472729014969385 + input[248] * -0.0017702200973900763 + input[249] * -0.000008355150081709746 + input[250] * 0.00151298823780841
    var39 = input[251] * 0.0009717825488553358
    return [var8 + var9 + input[252] * 0.04779661944764768 + input[253] * 0.055418948902380985 + input[254] * 0.00890230006552634 + input[255] * 0.03494581879294388 + input[256] * -0.012546430459699623 + input[257] * -0.0009183051595883274 + input[258] * 0.05951261513862364 + input[259] * 0.042714481707570716 + input[260] * 0.006511657688982591 + input[261] * 0.052240335108962116 + input[262] * 0.01870152641549027 + input[263] * -0.022101269459827575 + input[264] * 0.0585691017897015 + input[265] * 0.03501380652871046 + input[266] * 0.000728642290288873 + input[267] * 0.01925449328004319 + input[268] * 0.010259550717857044 + input[269] * -0.06681855550906816 + input[270] * 0.056886815282486965 + input[271] * 0.022069972902320253 + input[272] * 0.0004240973485303449 + input[273] * -0.015777757464220044 + input[274] * -0.02076099090082123 + input[275] * -0.017730422968540195 + input[276] * 0.05382160874691085 + input[277] * 0.013527204080016246 + input[278] * 0.0065632496153984225 + input[279] * -0.027447486973168667 + input[280] * -0.012521733976147186 + input[281] * 0.05677630233602454 + input[282] * 0.043350451307134955 + input[283] * 0.011726922564810872 + input[284] * -0.0005937834833345131 + input[285] * -0.001488213495193495 + input[286] * -0.04744109642749935 + input[287] * 0.013318087951254592 + input[288] * 0.028156515902323678 + input[289] * 0.011644516658062657 + input[290] * 0.0003699865070887384 + input[291] * 0.022949317208006605 + input[292] * -0.02333535877236723 + input[293] * 0.03381912966333672 + input[294] * 0.017918343870629058 + input[295] * 0.004850631157879237 + input[296] * 0.004166153010644504 + input[297] * 0.06577402470157752 + input[298] * -0.02754320222761806 + input[299] * 0.008964719900942343 + input[300] * 0.011273910196603771 + input[301] * 0.004916156385374389 + input[302] * -0.0010854391015482918 + input[303] * 0.053317997292190285 + input[304] * 0.01603869099856329 + input[305] * -0.046098166943415834, var18 + var19 + input[252] * -0.07148661157798475 + input[253] * 0.01771167533878479 + input[254] * -0.005498180628713237 + input[255] * -0.022167870784047226 + input[256] * -0.013525857935472074 + input[257] * -0.021730967303662037 + input[258] * -0.08002517987919487 + input[259] * 0.01923150142408513 + input[260] * -0.007002731090729346 + input[261] * -0.03785939568418844 + input[262] * -0.01921845199413483 + input[263] * -0.008044649164027282 + input[264] * -0.07785662076511485 + input[265] * 0.013408560180424406 + input[266] * -0.003168991588944825 + input[267] * 0.00007273378354632878 + input[268] * -0.0021609294743363443 + input[269] * 0.051706670053944664 + input[270] * -0.07483297111971662 + input[271] * 0.012007601457391694 + input[272] * -0.0043745188777102725 + input[273] * 0.015762427543970704 + input[274] * 0.019230818266625743 + input[275] * 0.0310120337617042 + input[276] * -0.07438181768588356 + input[277] * 0.00822083956148939 + input[278] * -0.005970148947063656 + input[279] * 0.01612244891039543 + input[280] * -0.005199610519946324 + input[281] * -0.059074727076540705 + input[282] * -0.06069470539285168 + input[283] * 0.0014846688560202657 + input[284] * -0.0013060778109075751 + input[285] * -0.0026507409046744677 + input[286] * 0.027837312220106082 + input[287] * -0.024773687788588124 + input[288] * -0.04910629842377504 + input[289] * 0.0007291157352072082 + input[290] * -0.0008416493673377045 + input[291] * -0.015402744883834833 + input[292] * 0.003826611042129974 + input[293] * -0.033215437926454434 + input[294] * -0.0343871399431809 + input[295] * -0.0029192576949394985 + input[296] * -0.0028999993370702414 + input[297] * -0.03164108619177674 + input[298] * 0.013572061388278238 + input[299] * -0.005333052800975993 + input[300] * -0.02517626922636975 + input[301] * -0.005228003758599916 + input[302] * -0.00014820665915453866 + input[303] * -0.02792422863473754 + input[304] * -0.03447018550064099 + input[305] * 0.035032505848592174, var28 + var29 + input[252] * 0.023039983755810158 + input[253] * -0.07308059880883551 + input[254] * -0.001565869193695235 + input[255] * -0.014854011133747567 + input[256] * 0.024802230421712364 + input[257] * 0.02415575323298018 + input[258] * 0.020002319152470055 + input[259] * -0.06183112277769572 + input[260] * 0.0022996170674588904 + input[261] * -0.01831696295694382 + input[262] * -0.002056573270135557 + input[263] * 0.03205618247869332 + input[264] * 0.018886312052239472 + input[265] * -0.048323458544340045 + input[266] * 0.0043296457374225805 + input[267] * -0.022953880414531606 + input[268] * -0.011407168551083957 + input[269] * 0.01646262118845555 + input[270] * 0.01771161442447248 + input[271] * -0.03406505958745513 + input[272] * 0.005956143189929679 + input[273] * -0.002266556704600796 + input[274] * -0.0009610320812220365 + input[275] * -0.012730508561423617 + input[276] * 0.02042594232309601 + input[277] * -0.021802596371378533 + input[278] * 0.0015051234129730632 + input[279] * 0.010609110613872605 + input[280] * 0.0168360351950635 + input[281] * 0.0016961855472315424 + input[282] * 0.01721138473067756 + input[283] * -0.013283507287640713 + input[284] * 0.003984893327437015 + input[285] * 0.0057437378989189875 + input[286] * 0.0175508649637018 + input[287] * 0.009220476858639469 + input[288] * 0.020867439812691443 + input[289] * -0.012437729702743677 + input[290] * 0.0025851623621171342 + input[291] * -0.0056967298307978795 + input[292] * 0.017765244836621088 + input[293] * -0.004056214548395179 + input[294] * 0.01642273834253193 + input[295] * -0.001970776448927944 + input[296] * 0.0008095198657715653 + input[297] * -0.033669336920561774 + input[298] * 0.01301809889602963 + input[299] * -0.007757853271831574 + input[300] * 0.013915429084436865 + input[301] * 0.00028922954495441537 + input[302] * 0.0032153886642667605 + input[303] * -0.02715862179031183 + input[304] * 0.015290568535819053 + input[305] * 0.0073525995217285384, var38 + var39 + input[252] * 0.0006500083745274085 + input[253] * -0.000050025432335205094 + input[254] * -0.0018382502431285377 + input[255] * 0.0020760631249193587 + input[256] * 0.0012700579735385922 + input[257] * -0.0015064807699263728 + input[258] * 0.0005102455881038124 + input[259] * -0.00011486035396398468 + input[260] * -0.0018085436657237755 + input[261] * 0.003936023532220389 + input[262] * 0.0025734988488271262 + input[263] * -0.0019102638550316494 + input[264] * 0.00040120692317475705 + input[265] * -0.00009890816479743316 + input[266] * -0.0018892964387820384 + input[267] * 0.0036266533509743794 + input[268] * 0.0033085473076124782 + input[269] * -0.0013507357335203083 + input[270] * 0.0002345414127573544 + input[271] * -0.000012514772258853547 + input[272] * -0.0020057216607599205 + input[273] * 0.0022818866248306164 + input[274] * 0.002491204715440191 + input[275] * -0.0005511022319388554 + input[276] * 0.00013426661587627084 + input[277] * 0.000054552729870896674 + input[278] * -0.002098224081317368 + input[279] * 0.0007159274488888222 + input[280] * 0.0008853093010386913 + input[281] * 0.0006022391930806229 + input[282] * 0.00013286935503674027 + input[283] * 0.00007191586680815316 + input[284] * -0.0020850320332055105 + input[285] * -0.0016047834990481225 + input[286] * 0.0020529192436831985 + input[287] * 0.0022351229784794415 + input[288] * 0.00008234270875697269 + input[289] * 0.00006409730947307878 + input[290] * -0.00211349950188014 + input[291] * -0.0018498424933777566 + input[292] * 0.0017435028936000896 + input[293] * 0.003452522811306917 + input[294] * 0.00004605773001881876 + input[295] * 0.00003940298598863637 + input[296] * -0.0020756735393576207 + input[297] * -0.0004636015892671049 + input[298] * 0.00095304194327361 + input[299] * 0.004126186171651808 + input[300] * -0.000013070054670346074 + input[301] * 0.000022617828271967587 + input[302] * -0.0019817429035795535 + input[303] * 0.0017648531327890216 + input[304] * 0.003140925966206557 + input[305] * 0.0037130615728756394]
