def score(input):
    var0 = 7.360143769786363 + input[0] * -0.00301085585578343
    var1 = input[1] * -0.00410764448103837
    var2 = var0 + var1 + input[2] * 0.0003395623147485122 + input[3] * -0.011150331983627547 + input[4] * -0.0062954496917336025 + input[5] * -0.0067959475345601515 + input[6] * -0.0038682522051778274 + input[7] * -0.00339229454864631 + input[8] * 0.003086805946478296 + input[9] * -0.01571903669640753 + input[10] * -0.012228889862816944 + input[11] * -0.0012562940874581954 + input[12] * -0.004265957788261476 + input[13] * -0.0029652293361877567 + input[14] * 0.0017715908927702377 + input[15] * -0.011618696603949862 + input[16] * -0.013504072253558522 + input[17] * -0.006242932550282679 + input[18] * -0.0036964594815609097 + input[19] * -0.0029904006745519614 + input[20] * 0.0005508352881854819 + input[21] * -0.0002539953597872405 + input[22] * -0.010012040160635845 + input[23] * -0.005685660117629096 + input[24] * -0.005359979993926998 + input[25] * -0.003645207301265155 + input[26] * 0.0033934030566665965 + input[27] * 0.008822902633413801 + input[28] * -0.009467746929618678 + input[29] * 0.0008654712391418945 + input[30] * -0.005581033289623796 + input[31] * -0.0036250820859252777 + input[32] * -0.000025636148195750125 + input[33] * 0.019404374219266437 + input[34] * -0.005739305251718266 + input[35] * 0.008047029088468601 + input[36] * -0.002620213362956932 + input[37] * -0.006261022119301625 + input[38] * -0.000056756291321810164 + input[39] * 0.03264637372562024 + input[40] * -0.0063328710515678415 + input[41] * 0.01040922196079544 + input[42] * -0.002848024827472839 + input[43] * -0.0034620833243177293 + input[44] * 0.0006558356006244027 + input[45] * 0.04076914378724109 + input[46] * -0.015992384749442735 + input[47] * 0.014678501396345542 + input[48] * -0.003554815131650555 + input[49] * -0.004514065681243559 + input[50] * -0.0003841504017007833 + input[51] * 0.015890295505357598 + input[52] * -0.009397756994523974 + input[53] * 0.01781882147895226 + input[54] * -0.0018969112196748881 + input[55] * -0.004517313269824729
    var3 = input[56] * -0.001287729196139346
    var4 = var2 + var3 + input[57] * 0.0013284502063926767 + input[58] * 0.011952863453097338 + input[59] * 0.01734416388959173 + input[60] * -0.00281760025503842 + input[61] * -0.0034989931467611056 + input[62] * 0.00024289132864249567 + input[63] * -0.005517848592251014 + input[64] * 0.017715685838012637 + input[65] * 0.0022194410489562604 + input[66] * -0.003324802801075263 + input[67] * -0.0038077778065021537 + input[68] * 0.000725541635133039 + input[69] * 0.0035187260701194933 + input[70] * 0.007596655272174499 + input[71] * -0.0030220267915257296 + input[72] * -0.0023067949688175067 + input[73] * -0.0046968729957042685 + input[74] * -0.00035319497747419114 + input[75] * 0.007515911476298727 + input[76] * -0.0008287658265773437 + input[77] * -0.006345330680272782 + input[78] * -0.0023824345243354285 + input[79] * -0.004220351494600218 + input[80] * 0.00027400784209349833 + input[81] * 0.0041449016284686065 + input[82] * -0.00028944833874205197 + input[83] * -0.004244430430009289 + input[84] * -0.005116731902847094 + input[85] * -0.0022737326527285263 + input[86] * 0.002367520419619614 + input[87] * -0.017511865594798254 + input[88] * 0.0063434956788083 + input[89] * -0.00991366034993102 + input[90] * -0.0033731205148103283 + input[91] * -0.0034201195964287923 + input[92] * 0.0032840525017637386 + input[93] * 0.002274921989742309 + input[94] * 0.010653800057584872 + input[95] * -0.005432454803090411 + input[96] * -0.003910571173864558 + input[97] * -0.005501307940902611 + input[98] * 0.0022924722637017825 + input[99] * 0.007628272291508122 + input[100] * 0.0049948998347926 + input[101] * -0.0019436511189413511 + input[102] * -0.004057887622784261 + input[103] * -0.006282411691473149 + input[104] * 0.00019167149653182908 + input[105] * 0.01076510449712137 + input[106] * 0.0025321379305561172 + input[107] * -0.0010441333911916527 + input[108] * -0.0036297170859651267 + input[109] * -0.006462115075683672 + input[110] * -0.0006853619083199898
    var5 = input[111] * 0.0055104657747418314
    var6 = var4 + var5 + input[112] * 0.00010698505131341637 + input[113] * 0.0003837820698055576 + input[114] * -0.002258802595028389 + input[115] * -0.004899156169795122 + input[116] * -0.0007693471537614848 + input[117] * -0.030893894849756524 + input[118] * 0.007471892318913348 + input[119] * 0.0006706627077341487 + input[120] * -0.0034159936106078364 + input[121] * -0.008067005881937464 + input[122] * -0.0005378271434727744 + input[123] * -0.007369525254206967 + input[124] * -0.00640220685030632 + input[125] * -0.0017306311702888493 + input[126] * -0.00431768175556917 + input[127] * -0.01006854316472563 + input[128] * -0.001086968485501525 + input[129] * -0.008100594195258017 + input[130] * -0.012557616078081448 + input[131] * 0.007275211492325505 + input[132] * -0.003441565102969865 + input[133] * -0.012072757417044902 + input[134] * -0.0005059593325535664 + input[135] * -0.010010652080843773 + input[136] * -0.014311520625017341 + input[137] * 0.004079332898126691 + input[138] * -0.0056492157752870845 + input[139] * -0.014742355073748745 + input[140] * -0.0008460240348512383 + input[141] * -0.018594031424264912 + input[142] * -0.0013796961236970898 + input[143] * -0.0024604268614799997 + input[144] * -0.006467446552158505 + input[145] * -0.016277976770884158 + input[146] * -0.00018790803641501963 + input[147] * -0.018016606729777784 + input[148] * -0.02122663757270704 + input[149] * -0.0007528127212637446 + input[150] * -0.0051177125168740175 + input[151] * -0.017644180582754874 + input[152] * -0.0004261743013823558 + input[153] * -0.007882016044747357 + input[154] * -0.020063288541392034 + input[155] * -0.00214125402834858 + input[156] * -0.006964498629337077 + input[157] * -0.02188662296548516 + input[158] * 0.0004884165333788753 + input[159] * -0.002210130054843314 + input[160] * -0.005242598690065219 + input[161] * -0.004951500314889735 + input[162] * -0.005970341765367729 + input[163] * -0.028237976369387553 + input[164] * 0.0013095194007421002 + input[165] * 0.006845722637428493
    var7 = input[166] * -0.0022878554636996482
    var8 = var6 + var7 + input[167] * 0.004459170709139298 + input[168] * -0.007190070704858158 + input[169] * -0.03749558562738401 + input[170] * 0.0009258067292061483 + input[171] * 0.012056521768797967 + input[172] * 0.003334330770724743 + input[173] * -0.0005930421624197465 + input[174] * -0.009407042352243504 + input[175] * -0.04602746796056952 + input[176] * 0.0025469328831995083 + input[177] * 0.01570506230625695 + input[178] * 0.012823376207507209 + input[179] * -0.0035323965954785776 + input[180] * -0.01785740649092553 + input[181] * -0.0535222642597634 + input[182] * 0.002480517404567069 + input[183] * 0.003756925748776196 + input[184] * 0.016021599947645234 + input[185] * -0.015322987709959013 + input[186] * -0.024229322805161917 + input[187] * -0.05945009700041443 + input[188] * 0.0018841852109374505 + input[189] * 0.0069800240890589334 + input[190] * 0.019658981211283323 + input[191] * -0.01528021135554231 + input[192] * -0.03083116783843475 + input[193] * -0.06409259308009765 + input[194] * 0.0034737477821697874 + input[195] * 0.006420190780060209 + input[196] * 0.02085033792742884 + input[197] * -0.011598171557945024 + input[198] * -0.04077892813454114 + input[199] * -0.06989053253575071 + input[200] * 0.002927573153163938 + input[201] * 0.003323050033699954 + input[202] * 0.019247782377909174 + input[203] * -0.007885258026346457 + input[204] * -0.04743432605621902 + input[205] * -0.07143549483153538 + input[206] * 0.0014605676539380615 + input[207] * -0.006595997055124973 + input[208] * 0.007549290085427552 + input[209] * 0.009021771600402805 + input[210] * -0.05350162643335245 + input[211] * -0.07152758562308136 + input[212] * 0.0011939818171602071 + input[213] * -0.019845790447843962 + input[214] * -0.0027995600619070914 + input[215] * 0.0032068364762078932 + input[216] * -0.055507203422391974 + input[217] * -0.06378285748621454 + input[218] * -0.00024002378897407532 + input[219] * -0.018600376183825273 + input[220] * -0.007672081522173742
    var9 = input[221] * -0.00464189572085901
    var10 = var8 + var9 + input[222] * -0.054807775935473355 + input[223] * -0.05722076669123435 + input[224] * 0.0019532014607311263 + input[225] * -0.008697172975802542 + input[226] * -0.011298618108912908 + input[227] * 0.002919987228200967 + input[228] * -0.05227126931237075 + input[229] * -0.04532608755555282 + input[230] * -0.0009299443460868569 + input[231] * 0.0014399238251053938 + input[232] * 0.008204507340774832 + input[233] * -0.0034045075233519947 + input[234] * -0.05168005455351713 + input[235] * -0.038159031708263534 + input[236] * 0.003157331060698417 + input[237] * -0.0037969606812971054 + input[238] * 0.014159168777720443 + input[239] * -0.012576928113564471 + input[240] * -0.05139816582669529 + input[241] * -0.03413250027616973 + input[242] * 0.004128384461440819 + input[243] * 0.012297511248404173 + input[244] * -0.00034118455009676736 + input[245] * -0.0016682974543307798 + input[246] * -0.04484161130410674 + input[247] * -0.030143911193710703 + input[248] * -0.0023617198197258943 + input[249] * -0.0003812663044365751 + input[250] * 0.006075731792255734 + input[251] * -0.007593049065247492 + input[252] * -0.045049401620924016 + input[253] * -0.028017548090951694 + input[254] * 0.000686466406510569 + input[255] * -0.0026626525630291313 + input[256] * 0.006580251498020095 + input[257] * -0.003117600681544076 + input[258] * -0.046932403800117595 + input[259] * -0.02420674193653039 + input[260] * 0.0008089799467372663 + input[261] * -0.013265594505076198 + input[262] * 0.023015608272968342 + input[263] * 0.0017715906483448296 + input[264] * -0.04236585498959266 + input[265] * -0.021211463724720422 + input[266] * 0.0020578205538499075 + input[267] * -0.0069909290989155545 + input[268] * 0.024674914414081105 + input[269] * -0.005487269793129572 + input[270] * -0.0452086066777323 + input[271] * -0.01957370102631705 + input[272] * -0.0010171576591557244 + input[273] * -0.01558606347803167 + input[274] * 0.004286995339656844 + input[275] * 0.002625819588497949
    var11 = input[276] * -0.0364484343766383
    var12 = var10 + var11 + input[277] * -0.01875871578303682 + input[278] * -0.002067932505789728 + input[279] * -0.009964517059140211 + input[280] * 0.011049083050906383 + input[281] * 0.0021460635394391103 + input[282] * -0.03167798963770879 + input[283] * -0.0195532029451574 + input[284] * 0.003016889238495116 + input[285] * 0.0003452335731581804 + input[286] * -0.021578958967185542 + input[287] * -0.007472227025308029 + input[288] * -0.02459568431771286 + input[289] * -0.01823758488287794 + input[290] * -0.001144322669541837 + input[291] * 0.015268298752210283 + input[292] * -0.02059278738403113 + input[293] * -0.0038197187382908917 + input[294] * -0.02127099155879999 + input[295] * -0.01526694940256147 + input[296] * 0.0030712429187321963 + input[297] * -0.005969404044324654 + input[298] * 0.004470051874763449 + input[299] * -0.000687904181012601 + input[300] * -0.011251482767583643 + input[301] * -0.017417588541273066 + input[302] * -0.000580829556578817 + input[303] * -0.012195030484166192 + input[304] * -0.008320936401265024 + input[305] * 0.021508495353530704 + input[306] * -0.007022894807198015 + input[307] * -0.013022406693327632 + input[308] * 0.00308970388706772 + input[309] * -0.0135487023867384 + input[310] * 0.005727826568605422 + input[311] * 0.007653909805923153 + input[312] * -0.0026656311585500562 + input[313] * -0.012373522548111075 + input[314] * 0.0004297539656557581 + input[315] * -0.010723139323602617 + input[316] * 0.01739451408786983 + input[317] * -0.011032012631463979 + input[318] * 0.0002887924521829478 + input[319] * -0.010089652121528793 + input[320] * -0.00044212582021890004 + input[321] * -0.0031391015996376963 + input[322] * 0.0027518428589495525 + input[323] * -0.0022140419906499682 + input[324] * -0.002510102480804131 + input[325] * -0.0014885544655052346 + input[326] * 0.0009403179394017457 + input[327] * -0.006024804041056757 + input[328] * -0.009826013546953 + input[329] * 0.003573452331140747 + input[330] * -0.00846413848429483
    var13 = input[331] * 0.000902712431387156
    var14 = var12 + var13 + input[332] * 0.002698000369947889 + input[333] * -0.01208377347673677 + input[334] * 0.00002225925869749679 + input[335] * 0.006913782337240826 + input[336] * -0.008134143796635233 + input[337] * 0.001341065262045456 + input[338] * -0.0012904173463456512 + input[339] * -0.01190570764096306 + input[340] * -0.018795094784974976 + input[341] * 0.010063765350058698 + input[342] * -0.012843110130487181 + input[343] * 0.004877065173837138 + input[344] * -0.00014581263990944354 + input[345] * -0.018727179219607686 + input[346] * -0.014953431514687393 + input[347] * -0.012049503942991754 + input[348] * -0.012521597242341214 + input[349] * 0.011068179952972854 + input[350] * 0.0016177930123365996 + input[351] * -0.023778103108552693 + input[352] * 0.004759471642965098 + input[353] * 0.0010564000458306542 + input[354] * -0.003287523206406436 + input[355] * 0.015160008311053573 + input[356] * -0.006162517186253001 + input[357] * -0.015763705954235062 + input[358] * 0.0007185513749506737 + input[359] * 0.006070342530353816 + input[360] * -0.0008488655334063333 + input[361] * 0.021872542950421996 + input[362] * -0.001675617483210546 + input[363] * -0.0057294305690244705 + input[364] * -0.0012691922873000895 + input[365] * -0.004713071118965449 + input[366] * 0.00025607479000976297 + input[367] * 0.016302655846762104 + input[368] * 0.0017443338943984414 + input[369] * -0.006007337097324419 + input[370] * -0.010226448953426746 + input[371] * 0.005978077207228498 + input[372] * 0.0048598091585844334 + input[373] * 0.012312650648450293 + input[374] * -0.0015010262496145473 + input[375] * -0.007523459938413176 + input[376] * 0.01129010721336927 + input[377] * -0.0026457194754859214 + input[378] * 0.009499570763389222 + input[379] * 0.012554041345163788 + input[380] * -0.00711190289756925 + input[381] * -0.007430172958325769 + input[382] * -0.00573049436124078 + input[383] * -0.00469225906836448 + input[384] * 0.010303074798250081 + input[385] * 0.01634519892577164
    var15 = input[386] * -0.0024152238584534526
    var16 = var14 + var15 + input[387] * 0.012131359820468217 + input[388] * -0.00023679175254365974 + input[389] * -0.011794785978874745 + input[390] * 0.003700462674188073 + input[391] * 0.02163195743692176 + input[392] * -0.002132832400379016 + input[393] * 0.0023776390505051543 + input[394] * -0.0070413718957997315 + input[395] * 0.0008526987986054872 + input[396] * 0.0032636021759349845 + input[397] * 0.021223596398028385 + input[398] * -0.0018286755047444635 + input[399] * 0.010568063753322487 + input[400] * -0.010639949511625555 + input[401] * -0.010190671931848245 + input[402] * 0.001542612389820505 + input[403] * 0.021588706005188685 + input[404] * 0.003405931773683407 + input[405] * 0.011632465914149617 + input[406] * -0.003078253726577675 + input[407] * 0.005470583707651901 + input[408] * 0.010710153397109142 + input[409] * 0.025375111263139512 + input[410] * -0.0008218347259959084 + input[411] * 0.003980039019620661 + input[412] * 0.014937251986312806 + input[413] * 0.02317937422345408 + input[414] * 0.015656547633656266 + input[415] * 0.02390194015409213 + input[416] * -0.0015812420745546527 + input[417] * -0.006545324474397539 + input[418] * 0.004665684071887781 + input[419] * -0.023876030982448143 + input[420] * 0.01851020929607103 + input[421] * 0.030209362860205653 + input[422] * -0.0028240117491772857 + input[423] * -0.00369580021916209 + input[424] * -0.013064826629469726 + input[425] * 0.005802490031517713 + input[426] * 0.020114652133750913 + input[427] * 0.0395866596356127 + input[428] * -0.0027338774008814804 + input[429] * -0.0065257085677666565 + input[430] * 0.008476256630480326 + input[431] * -0.009519055485967319 + input[432] * 0.022492948287083654 + input[433] * 0.054306638502037846 + input[434] * 0.00021937156855255993 + input[435] * -0.010213973177692284 + input[436] * 0.005089891535805221 + input[437] * -0.0065649293352912285 + input[438] * 0.028172057799999952 + input[439] * 0.05624547419869516 + input[440] * 0.0008722179024512747
    var17 = input[441] * -0.006580995969397646
    var18 = var16 + var17 + input[442] * -0.007044594385582224 + input[443] * -0.011303942847693696 + input[444] * 0.03404999610386035 + input[445] * 0.05855726987899267 + input[446] * -0.0054804949345290165 + input[447] * -0.017570557431313576 + input[448] * 0.000471512451001028 + input[449] * 0.009446359436832927 + input[450] * 0.033998370995362764 + input[451] * 0.0567912227616013 + input[452] * -0.003857808530807271 + input[453] * -0.008312599537770093 + input[454] * -0.005425992223565243 + input[455] * 0.025754610637230817 + input[456] * 0.029764512638234517 + input[457] * 0.05913147559437501 + input[458] * 0.0028797816897041684 + input[459] * -0.022226239292626866 + input[460] * -0.014303561485347177 + input[461] * 0.005072319518270712 + input[462] * 0.03386512576671379 + input[463] * 0.058155039948316445 + input[464] * 0.0031076812398323278 + input[465] * -0.010418949680575882 + input[466] * 0.020785685544046653 + input[467] * 0.019822316718492366 + input[468] * 0.03572176893266261 + input[469] * 0.04863589006679296 + input[470] * 0.003625657731691539 + input[471] * -0.009224925988990246 + input[472] * 0.0021430814349181577 + input[473] * 0.010167112146419244 + input[474] * 0.03138699118789558 + input[475] * 0.04729213313080694 + input[476] * 0.0018462311133911802 + input[477] * -0.01863160618260173 + input[478] * 0.012464560890180982 + input[479] * -0.0040173549166163496 + input[480] * 0.03435903379034935 + input[481] * 0.03913814662398197 + input[482] * -0.0011259288834418533 + input[483] * -0.01951068748222708 + input[484] * 0.02792144124449438 + input[485] * 0.01505541237195213 + input[486] * 0.03484379104121407 + input[487] * 0.03512829440773528 + input[488] * -0.0016666594910427727 + input[489] * -0.011863086000816996 + input[490] * 0.010062238320715436 + input[491] * 0.0002846257482500811 + input[492] * 0.033721696679371284 + input[493] * 0.03266467498857613 + input[494] * -0.00212219863314838 + input[495] * -0.0027268096853865715
    var19 = input[496] * -0.014960317165592475
    var20 = var18 + var19 + input[497] * -0.0016176975441025772 + input[498] * 0.03131159150466737 + input[499] * 0.029604252769376234 + input[500] * -0.00004657868105089103 + input[501] * 0.008504474457888803 + input[502] * -0.011959722582206324 + input[503] * -0.010903194104398621 + input[504] * 0.027220035706124277 + input[505] * 0.02784157834568282 + input[506] * 0.0042731367950003775 + input[507] * 0.01807133594913219 + input[508] * -0.0057887757028205625 + input[509] * -0.002266513315551597 + input[510] * 0.02978770331356245 + input[511] * 0.0257257909365423 + input[512] * 0.00011294206485572655 + input[513] * 0.023127757137750445 + input[514] * 0.0037345858270135864 + input[515] * -0.0001386159802888516 + input[516] * 0.03146398628785548 + input[517] * 0.021132421975724992 + input[518] * 0.0028785830151345742 + input[519] * 0.029248070584997052 + input[520] * 0.0074520612074022155 + input[521] * -0.012619502269215726 + input[522] * 0.03364474915330586 + input[523] * 0.018630024279698995 + input[524] * -0.0009224851780566613 + input[525] * 0.01948329380501125 + input[526] * 0.0010230070564083275 + input[527] * -0.03672343593852464 + input[528] * 0.03033774944142726 + input[529] * 0.016582263062073464 + input[530] * -0.0002169049804219649 + input[531] * 0.00928214711179545 + input[532] * 0.004712197331087535 + input[533] * -0.027473364376074467 + input[534] * 0.029811451189010598 + input[535] * 0.014196236200610819 + input[536] * 0.0014331574568263769 + input[537] * 0.008311656063298587 + input[538] * 0.007174029703483377 + input[539] * -0.02638461063347302 + input[540] * 0.028178558711178303 + input[541] * 0.010005957542362024 + input[542] * 0.0004020713829139927 + input[543] * -0.012539158281168446 + input[544] * -0.011549311827275257 + input[545] * -0.00007656643656805003 + input[546] * 0.03038588003039671 + input[547] * 0.005995086300542802 + input[548] * 0.0022338595069497816 + input[549] * -0.007939433143570129 + input[550] * -0.018108267152359393
    var21 = input[551] * 0.010923029264598174
    var22 = 0.27370208676475294 + input[0] * 0.00028736295119319945
    var23 = input[1] * -0.0033423037280449876
    var24 = var22 + var23 + input[2] * -0.0016125786892069469 + input[3] * 0.003100009655721331 + input[4] * 0.00585167352233712 + input[5] * 0.005850938141118313 + input[6] * -0.00043402453015696616 + input[7] * -0.0036903321486651585 + input[8] * -0.0008786837880502518 + input[9] * 0.008307647624042682 + input[10] * 0.006309358005018089 + input[11] * 0.002673963185217626 + input[12] * 0.0008185282779196382 + input[13] * -0.0031464140999122917 + input[14] * -0.0011448691418711036 + input[15] * 0.00742960098848957 + input[16] * 0.006960468268809141 + input[17] * 0.006455479647182813 + input[18] * 0.0003670916044462351 + input[19] * -0.002892799346784064 + input[20] * -0.001027430179667789 + input[21] * 0.00032788998744922313 + input[22] * 0.0047353130580539025 + input[23] * 0.003457952572401983 + input[24] * 0.000781251764814559 + input[25] * -0.0025144830423924854 + input[26] * -0.0017621720781283248 + input[27] * -0.003958269394117443 + input[28] * 0.0038378787382646776 + input[29] * -0.0018890848096936878 + input[30] * 0.0011458748517205726 + input[31] * -0.002786195851356024 + input[32] * -0.0004183247850211921 + input[33] * -0.009854395308165393 + input[34] * 0.0036096587601625275 + input[35] * -0.006638264974819281 + input[36] * 0.0005513924708826411 + input[37] * -0.002467710296993387 + input[38] * -0.0008156199728686297 + input[39] * -0.016614327185304457 + input[40] * 0.004058132638057274 + input[41] * -0.004369443616354936 + input[42] * -0.00008224069945132878 + input[43] * -0.00255105240633785 + input[44] * -0.0009996576277735765 + input[45] * -0.020683499602179405 + input[46] * 0.010214673999399787 + input[47] * -0.002182034786470949 + input[48] * 0.00046821037979849245 + input[49] * -0.0032602851547338827 + input[50] * -0.0007069615156565355 + input[51] * -0.004634139347456336 + input[52] * 0.006105676200784759 + input[53] * -0.0033004419466241726 + input[54] * -0.00006254017189910576 + input[55] * -0.003844631519052997
    var25 = input[56] * -0.0003288994503872802
    var26 = var24 + var25 + input[57] * 0.0057711292144521165 + input[58] * -0.005821355118042742 + input[59] * -0.009320373608696525 + input[60] * 0.0004670276949446253 + input[61] * -0.003778558298495669 + input[62] * -0.0012569963157865979 + input[63] * 0.009886147525971962 + input[64] * -0.008844328467750372 + input[65] * -0.0013672843161102151 + input[66] * 0.0013205280864899177 + input[67] * -0.0033706844197645357 + input[68] * -0.0019029323870605559 + input[69] * 0.00463489153731452 + input[70] * -0.0022671378510043545 + input[71] * -0.0009649676622174967 + input[72] * 0.0005175936584896355 + input[73] * -0.0030483968524777825 + input[74] * -0.0013871044429412157 + input[75] * 0.0010370474300093891 + input[76] * 0.006481956042951782 + input[77] * -0.003474808596312991 + input[78] * 0.0001936936302696435 + input[79] * -0.0028786268334069047 + input[80] * -0.00185840496421648 + input[81] * 0.0012767933184959573 + input[82] * 0.006132774659302082 + input[83] * -0.004647438822352786 + input[84] * 0.0016978112546745885 + input[85] * -0.003872036405631741 + input[86] * -0.0030472007320108273 + input[87] * 0.014621055233597177 + input[88] * -0.000224232654066924 + input[89] * 0.005092886388113983 + input[90] * 0.0017051720913245794 + input[91] * -0.0028763364368841254 + input[92] * -0.0027385252219819735 + input[93] * -0.0038747910772074447 + input[94] * 0.004805032729531904 + input[95] * 0.003512280295361861 + input[96] * 0.000712691543541817 + input[97] * -0.0019265796489130915 + input[98] * -0.0017952527007130017 + input[99] * -0.005845636775574634 + input[100] * 0.0003384405099522899 + input[101] * 0.0006327200758753449 + input[102] * 0.0013269928970589665 + input[103] * -0.0026390961326390235 + input[104] * -0.0008303090958046688 + input[105] * -0.0076071468406238435 + input[106] * -0.0011343671210759748 + input[107] * -0.0003056992018448603 + input[108] * 0.0014084491417999953 + input[109] * -0.0025026609896515047 + input[110] * -0.00030614399641964383
    var27 = input[111] * -0.002745897587547204
    var28 = var26 + var27 + input[112] * 0.00032502558237986487 + input[113] * 0.004533196441998784 + input[114] * 0.00014636621649092348 + input[115] * -0.004607587701363981 + input[116] * 0.0006695373015469505 + input[117] * 0.020127831299386254 + input[118] * -0.002420744169220577 + input[119] * 0.006397499629445805 + input[120] * 0.0003239216028761852 + input[121] * -0.0027515259617938827 + input[122] * -0.000112855947120668 + input[123] * 0.0012044222240744148 + input[124] * 0.00376238251409417 + input[125] * 0.007162747105393177 + input[126] * 0.0023278121516367677 + input[127] * -0.0028995503352305203 + input[128] * -0.0004101282359781751 + input[129] * -0.002203187040476573 + input[130] * 0.009413066259260054 + input[131] * -0.0036640854516415363 + input[132] * 0.0021277319617320897 + input[133] * -0.0031574053605717043 + input[134] * -0.00003805003290503125 + input[135] * -0.0025362475912677996 + input[136] * 0.015918328476646697 + input[137] * -0.006636236094767216 + input[138] * 0.003826710971951724 + input[139] * -0.0030184777566521544 + input[140] * 0.00033405094365944796 + input[141] * 0.00321113965090965 + input[142] * 0.005863714427973625 + input[143] * -0.007030845592230981 + input[144] * 0.004244028410517105 + input[145] * -0.0030067670763827417 + input[146] * -0.00008061240130356706 + input[147] * 0.006163010734504985 + input[148] * 0.014881219379535323 + input[149] * -0.006771958983488342 + input[150] * 0.005399343556623781 + input[151] * -0.004600916066960523 + input[152] * 0.0000398513960115067 + input[153] * 0.003099832096256307 + input[154] * 0.012974667562117412 + input[155] * -0.00627169642779095 + input[156] * 0.008095416193133956 + input[157] * -0.005946691207104444 + input[158] * -0.0005117412258727352 + input[159] * 0.002728021141246071 + input[160] * 0.007202506979350722 + input[161] * 0.00408304439844561 + input[162] * 0.008709046676720893 + input[163] * -0.007747374891508901 + input[164] * -0.0013476111394455314 + input[165] * -0.0022419904082121808
    var29 = input[166] * 0.006530443803960965
    var30 = var28 + var29 + input[167] * 0.009763775964880064 + input[168] * 0.013195928177318704 + input[169] * -0.006774001437631881 + input[170] * -0.0009266151364702283 + input[171] * -0.009716972747418534 + input[172] * 0.005573829228089919 + input[173] * 0.008401226412996975 + input[174] * 0.0159399516902981 + input[175] * -0.008834184197287024 + input[176] * -0.0010846840918534563 + input[177] * -0.009452358758816438 + input[178] * -0.00019861552401295645 + input[179] * 0.007842818893494703 + input[180] * 0.02157884481644061 + input[181] * -0.01126243514255819 + input[182] * -0.0009868697416695992 + input[183] * -0.003055605740344963 + input[184] * -0.0029370414233327695 + input[185] * 0.006341845410709824 + input[186] * 0.02700266150602461 + input[187] * -0.012430813714155053 + input[188] * -0.0007895623628153672 + input[189] * -0.006211513541090339 + input[190] * -0.008037867455319115 + input[191] * 0.011722434111087896 + input[192] * 0.03159192913244791 + input[193] * -0.012586678237462554 + input[194] * -0.00030455790609095834 + input[195] * -0.0060738962557502696 + input[196] * -0.00700427014495151 + input[197] * 0.009354924950496573 + input[198] * 0.03919140910671323 + input[199] * -0.012466072606862062 + input[200] * 0.00033878287461437364 + input[201] * -0.007860470561772128 + input[202] * -0.003731579279984626 + input[203] * -0.005971462987726887 + input[204] * 0.04661694573646785 + input[205] * -0.012389900575261143 + input[206] * -0.00009042810244909862 + input[207] * -0.004117509081227366 + input[208] * 0.0024909817318530063 + input[209] * -0.024132311901625545 + input[210] * 0.054193442151187196 + input[211] * -0.01182094987565028 + input[212] * 0.001121180368299756 + input[213] * 0.002555211524407135 + input[214] * 0.003719051154037385 + input[215] * -0.013605164586981308 + input[216] * 0.05988131144700796 + input[217] * -0.01249003520898023 + input[218] * 0.0003973154842754156 + input[219] * 0.0017477906523191027 + input[220] * 0.007664186373954233
    var31 = input[221] * -0.002150015510015499
    var32 = var30 + var31 + input[222] * 0.06400630630157671 + input[223] * -0.012876687832582712 + input[224] * 0.0010704846870311028 + input[225] * -0.005005830169336027 + input[226] * 0.012886174018470312 + input[227] * 0.002738277908050082 + input[228] * 0.07039375952728204 + input[229] * -0.014320269572351283 + input[230] * 0.001763013621541205 + input[231] * -0.007914333261112162 + input[232] * -0.0033024092011842933 + input[233] * 0.009208949669152826 + input[234] * 0.07528075543458515 + input[235] * -0.013672006565744691 + input[236] * -0.0008762437432920134 + input[237] * -0.0005292230494121752 + input[238] * -0.0002629147360331726 + input[239] * 0.002869558459639811 + input[240] * 0.07642812696465864 + input[241] * -0.01473577359992236 + input[242] * 0.0003801719166993245 + input[243] * -0.003997036361692793 + input[244] * -0.006503883683395703 + input[245] * -0.008659701148210776 + input[246] * 0.0723937068710635 + input[247] * -0.013745006910328603 + input[248] * 0.002625642383689022 + input[249] * 0.0014847441974853287 + input[250] * -0.0031139821830109314 + input[251] * 0.008123554562007978 + input[252] * 0.07103495155510815 + input[253] * -0.014613555897160273 + input[254] * 0.0017078531966040838 + input[255] * 0.0036269471112434643 + input[256] * -0.010164508536362664 + input[257] * 0.006080239505369637 + input[258] * 0.06832565528615481 + input[259] * -0.017322537252757293 + input[260] * 0.002312370631072692 + input[261] * 0.008776333991156533 + input[262] * -0.011643605878125577 + input[263] * -0.006850381338576208 + input[264] * 0.061131693418633545 + input[265] * -0.015498359871119223 + input[266] * 0.001035633578479566 + input[267] * 0.0019662129601942737 + input[268] * -0.00991759036592087 + input[269] * 0.0032898334893309185 + input[270] * 0.05820491421581328 + input[271] * -0.014692243523508343 + input[272] * 0.0021488137128700597 + input[273] * 0.005727723498773049 + input[274] * 0.003358712358390521 + input[275] * 0.0024144052342648143
    var33 = input[276] * 0.045995841537667184
    var34 = var32 + var33 + input[277] * -0.01132457328728926 + input[278] * 0.00012705119676570447 + input[279] * 0.0006782841511168375 + input[280] * -0.01194054109512744 + input[281] * 0.001794968059694875 + input[282] * 0.0382269877396095 + input[283] * -0.008942168052335763 + input[284] * -0.0004940416251573506 + input[285] * -0.0013651867494082644 + input[286] * 0.009979814474350136 + input[287] * 0.0011238769996102303 + input[288] * 0.03298147936846728 + input[289] * -0.006475934413726712 + input[290] * 0.0008453883406113227 + input[291] * -0.01282428506051661 + input[292] * 0.004829078519379872 + input[293] * -0.005679458061622003 + input[294] * 0.028122758339864773 + input[295] * -0.002125505289712231 + input[296] * -0.0009965630401939378 + input[297] * -0.00788777949550185 + input[298] * -0.0018985577619703728 + input[299] * 0.017099248233311756 + input[300] * 0.020743378555345148 + input[301] * -0.0005508761877053106 + input[302] * 0.00014390596412355814 + input[303] * 0.0004095275328574754 + input[304] * 0.00015468254784951015 + input[305] * -0.00752534830133435 + input[306] * 0.011645918066909549 + input[307] * -0.0004571221607869576 + input[308] * -0.0012785346353411519 + input[309] * 0.007299868361966966 + input[310] * -0.004796409632863962 + input[311] * -0.012078854670917613 + input[312] * 0.004789099174141236 + input[313] * 0.0008062009389728634 + input[314] * 0.00048358574559614176 + input[315] * 0.009645353500960543 + input[316] * -0.013692120493118364 + input[317] * 0.014118056938343549 + input[318] * 0.0017276534046284761 + input[319] * 0.0002085627045426349 + input[320] * 0.002079207300909717 + input[321] * 0.003163803564365003 + input[322] * -0.00863993820240773 + input[323] * 0.0032604844884468282 + input[324] * 0.00009323655796970684 + input[325] * -0.0051925004105862795 + input[326] * -0.0025346114075193733 + input[327] * 0.009071540603853762 + input[328] * 0.004172414008440404 + input[329] * -0.012402408073407721 + input[330] * -0.002211058234510613
    var35 = input[331] * -0.006825073979302147
    var36 = var34 + var35 + input[332] * -0.0011173546171626438 + input[333] * 0.008898699033505514 + input[334] * -0.006574515128189717 + input[335] * -0.008254947025034822 + input[336] * -0.0030415805883669085 + input[337] * -0.008087611568506648 + input[338] * -0.002041655999440421 + input[339] * 0.005560598398911972 + input[340] * 0.005074604461265565 + input[341] * -0.010805385211697657 + input[342] * -0.0013657410091760843 + input[343] * -0.005483669869564637 + input[344] * -0.00031620597073197024 + input[345] * 0.007705264842415949 + input[346] * 0.012787099993897799 + input[347] * 0.014092808067910814 + input[348] * 0.001257305772302654 + input[349] * -0.00660317476913397 + input[350] * -0.0013644901887739105 + input[351] * 0.01040905576150441 + input[352] * -0.006464181866141196 + input[353] * 0.006530991113460092 + input[354] * 0.0004689135278817234 + input[355] * -0.006886404945151683 + input[356] * 0.001356606873234774 + input[357] * 0.0008071029788671123 + input[358] * -0.003534854938670936 + input[359] * 0.004147136169356874 + input[360] * 0.001959551049832365 + input[361] * -0.005195153629168446 + input[362] * 0.00143377918509069 + input[363] * -0.001129408874268665 + input[364] * -0.013728572430331678 + input[365] * 0.016619896170113613 + input[366] * 0.00882052017911381 + input[367] * -0.0028304842928891594 + input[368] * -0.0007165949701699403 + input[369] * 0.0007699914068319148 + input[370] * 0.004977365695675461 + input[371] * -0.019292482896949244 + input[372] * 0.004781805658656952 + input[373] * -0.002709749417254802 + input[374] * -0.0012191892637807467 + input[375] * 0.0015120749654526306 + input[376] * -0.016481940251072098 + input[377] * -0.008142521727515947 + input[378] * -0.0018585528204755229 + input[379] * -0.0016176689656383703 + input[380] * 0.0033137875201312015 + input[381] * 0.008605541783693268 + input[382] * -0.009084750034394476 + input[383] * 0.013903362057626885 + input[384] * -0.0066619787233773336 + input[385] * -0.0018091014403170621
    var37 = input[386] * 0.00042345434993303104
    var38 = var36 + var37 + input[387] * -0.0036911024697897773 + input[388] * -0.009601127391587253 + input[389] * 0.01333618165359102 + input[390] * -0.007035400568332548 + input[391] * -0.0010983850996538938 + input[392] * 0.0010000456448483236 + input[393] * 0.006092127079449804 + input[394] * -0.0015430040723144374 + input[395] * -0.00799912737709619 + input[396] * -0.009036973530382481 + input[397] * 0.00017748635430961122 + input[398] * -0.001512608229719219 + input[399] * 0.00020731957077459124 + input[400] * 0.0070937639462556115 + input[401] * 0.003863390150105786 + input[402] * -0.014229573874892458 + input[403] * -0.002069620115328085 + input[404] * -0.000296220494459162 + input[405] * -0.002211968463146767 + input[406] * -0.0029105724108152973 + input[407] * -0.015559845120432026 + input[408] * -0.01786010976881511 + input[409] * -0.00024884704500650575 + input[410] * -0.004349076462493209 + input[411] * -0.006174273414709135 + input[412] * -0.023850794739825088 + input[413] * -0.022169657083319635 + input[414] * -0.026549351825644666 + input[415] * 0.0002710513440340818 + input[416] * -0.0026275741555642066 + input[417] * -0.0018532946927354726 + input[418] * 0.0016729149555444701 + input[419] * 0.02622694501302064 + input[420] * -0.030227765977832454 + input[421] * 0.004552132212148297 + input[422] * -0.0023221822452732187 + input[423] * -0.004946042700005868 + input[424] * 0.0026530800110086427 + input[425] * 0.012307570018766392 + input[426] * -0.034438085867814605 + input[427] * 0.006105073331085279 + input[428] * -0.002451357956226823 + input[429] * -0.00254479595180904 + input[430] * -0.004831942797628457 + input[431] * 0.008983395566344199 + input[432] * -0.03772047750218616 + input[433] * 0.00446882171983252 + input[434] * -0.0025742678064848055 + input[435] * 0.006003582764544659 + input[436] * -0.010871970991777214 + input[437] * 0.005600446584555842 + input[438] * -0.043303098741816155 + input[439] * 0.004620031445659543 + input[440] * -0.00012257128682240649
    var39 = input[441] * 0.002083440181045046
    var40 = var38 + var39 + input[442] * 0.005804347473819595 + input[443] * 0.010435120841726762 + input[444] * -0.043442328825499324 + input[445] * 0.003598451605371307 + input[446] * 0.0008722449300294787 + input[447] * 0.008325982191126348 + input[448] * -0.00406601664260968 + input[449] * -0.014977687053100708 + input[450] * -0.04314832358509366 + input[451] * 0.0053420530026406865 + input[452] * -0.0008011866812128646 + input[453] * 0.0021015128247333834 + input[454] * 0.0005062373139038482 + input[455] * -0.01901295049663986 + input[456] * -0.039417354983432094 + input[457] * 0.002843817961906599 + input[458] * -0.0035628153210259753 + input[459] * 0.01610405647451843 + input[460] * 0.008823785227467927 + input[461] * -0.0010409003787030136 + input[462] * -0.04701846511578426 + input[463] * 0.0029516041144471744 + input[464] * -0.0008099771288031428 + input[465] * 0.0008661933258019999 + input[466] * -0.01915890151335248 + input[467] * -0.005210889687882433 + input[468] * -0.04777119342260424 + input[469] * 0.007989241444019012 + input[470] * -0.002752308138378901 + input[471] * 0.00761466658788398 + input[472] * 0.0011523037735683176 + input[473] * 0.0066329936693996 + input[474] * -0.04350110486086008 + input[475] * 0.007782525674250709 + input[476] * -0.005510687668398525 + input[477] * 0.007832506597213464 + input[478] * 0.0014532453010823374 + input[479] * 0.008722437370491385 + input[480] * -0.04888689097798185 + input[481] * 0.010747936875582769 + input[482] * -0.003476280780602029 + input[483] * 0.009877221033410289 + input[484] * -0.019536237649382796 + input[485] * -0.00970291176212349 + input[486] * -0.04947447381687827 + input[487] * 0.010219654332829549 + input[488] * 0.000059090315467849047 + input[489] * 0.003147608700054313 + input[490] * -0.0036964911935517576 + input[491] * 0.007909645334853424 + input[492] * -0.04879466167192463 + input[493] * 0.009608632175387882 + input[494] * 0.0012338824959589247 + input[495] * -0.0005320916949308212
    var41 = input[496] * 0.006214351966573398
    var42 = var40 + var41 + input[497] * 0.010327131705223017 + input[498] * -0.04458530534877969 + input[499] * 0.011426797156075072 + input[500] * -0.0006874758470323614 + input[501] * -0.010248802794812804 + input[502] * -0.006527652632966181 + input[503] * 0.007507328201194204 + input[504] * -0.03987929388170674 + input[505] * 0.00976475474634175 + input[506] * -0.002757621866616508 + input[507] * -0.011174788275997218 + input[508] * -0.005653470417999574 + input[509] * -0.010028532480360088 + input[510] * -0.04105983530321215 + input[511] * 0.009676064167698837 + input[512] * -0.0025397803851994047 + input[513] * -0.014509375891983346 + input[514] * -0.01036539483935056 + input[515] * -0.020267551061461647 + input[516] * -0.04220333696712872 + input[517] * 0.010864503179482888 + input[518] * -0.0032916991944803935 + input[519] * -0.018213557754214238 + input[520] * -0.008054240812191207 + input[521] * -0.00311347155485779 + input[522] * -0.04496674889200746 + input[523] * 0.008345671274485615 + input[524] * -0.0006862399036581811 + input[525] * -0.013733114326121851 + input[526] * -0.005323980793715123 + input[527] * 0.027616972578408214 + input[528] * -0.040240198640001 + input[529] * 0.00784211155243062 + input[530] * -0.0015382363862135688 + input[531] * 0.0002727671342224057 + input[532] * 0.00017346459455831468 + input[533] * 0.018568939606176116 + input[534] * -0.03927133777212868 + input[535] * 0.008128352548164791 + input[536] * -0.0028068984257137723 + input[537] * -0.0010027674986310953 + input[538] * -0.0022741321956442732 + input[539] * 0.02302979995831057 + input[540] * -0.03743243915774153 + input[541] * 0.0070492328805408355 + input[542] * -0.002366838904542336 + input[543] * 0.010876683007484579 + input[544] * 0.011457301454774887 + input[545] * 0.007768041680059968 + input[546] * -0.039157990886502965 + input[547] * 0.006528405501375188 + input[548] * -0.0033167951350435956 + input[549] * 0.0013409645946236112 + input[550] * 0.012559010800220012
    var43 = input[551] * -0.0015943932712449487
    var44 = -1.5822993748182839 + input[0] * 0.002676449299981178
    var45 = input[1] * 0.00745575104737697
    var46 = var44 + var45 + input[2] * 0.0021752001957275197 + input[3] * 0.00852374261985269 + input[4] * 0.001070251943007384 + input[5] * 0.004026982474740091 + input[6] * 0.004269697985987172 + input[7] * 0.007096281246675628 + input[8] * -0.001304338917037688 + input[9] * 0.007814556813000613 + input[10] * 0.0065301100951774115 + input[11] * 0.001906462442669522 + input[12] * 0.0034511797362451004 + input[13] * 0.006134504570330794 + input[14] * 0.0002743095095619499 + input[15] * 0.004435672420726873 + input[16] * 0.007293450768796116 + input[17] * 0.0030266825068155506 + input[18] * 0.0033413401630055877 + input[19] * 0.005903168151179593 + input[20] * 0.0013721502824766195 + input[21] * 0.00010774954515989645 + input[22] * 0.00620499109346087 + input[23] * 0.005280299774825344 + input[24] * 0.004599130819320737 + input[25] * 0.006166557920591273 + input[26] * -0.0007432806068064308 + input[27] * -0.004648361931583877 + input[28] * 0.006657326662474748 + input[29] * 0.004055287919800093 + input[30] * 0.004482102206276804 + input[31] * 0.006412739909235128 + input[32] * 0.0013182188766319148 + input[33] * -0.009355466409837726 + input[34] * 0.0032155849860012672 + input[35] * 0.0016903242780137938 + input[36] * 0.002151726285205741 + input[37] * 0.008733426636700244 + input[38] * 0.0017457027308143858 + input[39] * -0.015919500087008376 + input[40] * 0.0032005344493883777 + input[41] * -0.0028932201548412598 + input[42] * 0.00307613946469287 + input[43] * 0.006004252170163407 + input[44] * 0.001209103493590786 + input[45] * -0.020131105223112195 + input[46] * 0.006405157587881439 + input[47] * -0.009416511608849178 + input[48] * 0.003313346340971365 + input[49] * 0.007752724373235627 + input[50] * 0.0019678496272336576 + input[51] * -0.011582491436781474 + input[52] * 0.0035446847080760854 + input[53] * -0.011682264929480485 + input[54] * 0.0022752036192339167 + input[55] * 0.008334609853209768
    var47 = input[56] * 0.002492312425011519
    var48 = var46 + var47 + input[57] * -0.007665127673436407 + input[58] * -0.0061309062005900266 + input[59] * -0.005668891233040284 + input[60] * 0.0027551286195873336 + input[61] * 0.0072366937706753115 + input[62] * 0.0018852027215386763 + input[63] * -0.005108154116461768 + input[64] * -0.008898633990434678 + input[65] * 0.0008339378690311626 + input[66] * 0.0024971546408181972 + input[67] * 0.007127459328253724 + input[68] * 0.0020328357331339656 + input[69] * -0.008977769623012513 + input[70] * -0.005386860016051598 + input[71] * 0.004860705530828881 + input[72] * 0.0023706544291177568 + input[73] * 0.00767515664966998 + input[74] * 0.002557379765063023 + input[75] * -0.009427946907921458 + input[76] * -0.005780623393976791 + input[77] * 0.009708207338210487 + input[78] * 0.002830850374253052 + input[79] * 0.007017984704747793 + input[80] * 0.0024775776515017327 + input[81] * -0.005900731090901302 + input[82] * -0.0062186230193616455 + input[83] * 0.007830034469083222 + input[84] * 0.003965819962819119 + input[85] * 0.00607419135205898 + input[86] * 0.001624888539799365 + input[87] * 0.002865369086725342 + input[88] * -0.005912467699334213 + input[89] * 0.00293252393394509 + input[90] * 0.002271640255528561 + input[91] * 0.006189315912021103 + input[92] * 0.00033927472749882434 + input[93] * 0.0035518284393886105 + input[94] * -0.015515778212932424 + input[95] * -0.0003751427259574909 + input[96] * 0.003851110225728212 + input[97] * 0.007251163028337868 + input[98] * 0.0002845006905827896 + input[99] * 0.0007079215205403504 + input[100] * -0.004997109943683368 + input[101] * -0.002149445259027779 + input[102] * 0.0033007231991541955 + input[103] * 0.008773791726482886 + input[104] * 0.001323516707487374 + input[105] * -0.0005331399308413557 + input[106] * -0.0002280640897443338 + input[107] * -0.003013152119931381 + input[108] * 0.00268462652711841 + input[109] * 0.008799915514842705 + input[110] * 0.0016122419680597545
    var49 = input[111] * -0.0006102608010652347
    var50 = var48 + var49 + input[112] * 0.0011153721354303825 + input[113] * -0.01014667578931734 + input[114] * 0.0024557263994151248 + input[115] * 0.009308941932539342 + input[116] * 0.0006489978241559338 + input[117] * 0.01252921217426456 + input[118] * -0.0032082969231389358 + input[119] * -0.012848459761300128 + input[120] * 0.003281336178349138 + input[121] * 0.010626923394981563 + input[122] * 0.0011721844604292587 + input[123] * 0.007480213100253507 + input[124] * 0.004551058143700734 + input[125] * -0.011606189829582786 + input[126] * 0.002030176177727253 + input[127] * 0.012846860759655737 + input[128] * 0.001982519978593128 + input[129] * 0.010933960974133796 + input[130] * 0.005126494039258281 + input[131] * -0.010114764542644998 + input[132] * 0.0011841834516975005 + input[133] * 0.015181565048097964 + input[134] * 0.0009982491142822819 + input[135] * 0.012166630490547437 + input[136] * 0.0005352653054141467 + input[137] * -0.004070210091430257 + input[138] * 0.0015344305098497363 + input[139] * 0.01778843181207583 + input[140] * 0.0009304905555068017 + input[141] * 0.01396631196239619 + input[142] * -0.0020457634536338704 + input[143] * 0.002650577421581011 + input[144] * 0.001790375492651296 + input[145] * 0.019391752884190573 + input[146] * 0.0006629727786209627 + input[147] * 0.009371818337869216 + input[148] * 0.009226840049508918 + input[149] * 0.00047493664561182693 + input[150] * -0.0008514835048314604 + input[151] * 0.022429847896583838 + input[152] * 0.0007326391636640839 + input[153] * 0.0014803011029576423 + input[154] * 0.010717330451472405 + input[155] * 0.0013096417246604042 + input[156] * -0.0018796226984378556 + input[157] * 0.028117329466994617 + input[158] * 0.0003780748219383566 + input[159] * -0.00451608247167497 + input[160] * 0.0026775873579175337 + input[161] * -0.00577566370810679 + input[162] * -0.0035547571957839953 + input[163] * 0.036343961691916324 + input[164] * 0.0005157299769139766 + input[165] * -0.0090254670587057
    var51 = input[166] * 0.0013283333394479271
    var52 = var50 + var51 + input[167] * -0.02013696938772235 + input[168] * -0.006819660307971135 + input[169] * 0.04468247430240156 + input[170] * 0.0005912555686462243 + input[171] * -0.006948571190666473 + input[172] * -0.002706509513168295 + input[173] * -0.013125241006220001 + input[174] * -0.007353658189961126 + input[175] * 0.05534889689061783 + input[176] * -0.0007883423382187324 + input[177] * -0.011245019503242337 + input[178] * -0.006341620100608581 + input[179] * -0.008962779258240794 + input[180] * -0.0046760624322744965 + input[181] * 0.06537665112479092 + input[182] * -0.0007009065368932673 + input[183] * -0.006325424341533032 + input[184] * -0.0074102103649700485 + input[185] * 0.005588509033523533 + input[186] * -0.0037458968892523253 + input[187] * 0.0725076445001998 + input[188] * -0.0002524029454986996 + input[189] * -0.006710021615019672 + input[190] * -0.006279083874399434 + input[191] * 0.00178898791108227 + input[192] * -0.001698561126866208 + input[193] * 0.07735722991152759 + input[194] * -0.0022220484127537985 + input[195] * -0.006361348819513174 + input[196] * -0.008425398029972962 + input[197] * 0.0018847638144123351 + input[198] * 0.0006710710543033176 + input[199] * 0.08305850266678817 + input[200] * -0.0022905471843483053 + input[201] * -0.00143086452283735 + input[202] * -0.010585252556386277 + input[203] * 0.014529943609143722 + input[204] * -0.00007312126411298079 + input[205] * 0.08456613640437284 + input[206] * -0.00032510432957841805 + input[207] * 0.0049589817713511265 + input[208] * -0.005842491627217656 + input[209] * 0.016679324405500604 + input[210] * -0.0015521638875539675 + input[211] * 0.08416244317151814 + input[212] * -0.0012329217538897886 + input[213] * 0.011868551992544853 + input[214] * 0.002472391083440539 + input[215] * 0.012875142092700796 + input[216] * -0.005178458126104016 + input[217] * 0.07711659247483472 + input[218] * 0.0009958345645471758 + input[219] * 0.011860139367115578 + input[220] * 0.00299037076781102
    var53 = input[221] * 0.010030941821686103
    var54 = var52 + var53 + input[222] * -0.009883937555352815 + input[223] * 0.07092692267499041 + input[224] * -0.0017899308994743749 + input[225] * 0.00920476694121608 + input[226] * 0.0015259289529834575 + input[227] * -0.0019125572657813928 + input[228] * -0.01865848342106251 + input[229] * 0.060403557326330966 + input[230] * 0.0005146449449346587 + input[231] * 0.0025316911891556325 + input[232] * -0.0014818914715253055 + input[233] * -0.0018677233444015378 + input[234] * -0.024044898824207125 + input[235] * 0.05251116912283059 + input[236] * -0.0007766507634865961 + input[237] * 0.0008055787417115022 + input[238] * -0.010236310383563502 + input[239] * 0.013869611973945395 + input[240] * -0.0253537499995276 + input[241] * 0.0494767371908489 + input[242] * -0.002890358628728235 + input[243] * -0.01098627413718807 + input[244] * 0.010365580378796743 + input[245] * 0.014644174363747127 + input[246] * -0.027741068595244094 + input[247] * 0.044457184141338216 + input[248] * 0.0014353378911953901 + input[249] * -0.003077243834946506 + input[250] * 0.00013270854441375178 + input[251] * 0.003953880010694191 + input[252] * -0.02604404404563731 + input[253] * 0.04317474538886529 + input[254] * -0.000602518065031639 + input[255] * -0.0023726486449193182 + input[256] * 0.006263209855228695 + input[257] * 0.0016080555417834193 + input[258] * -0.02130445009684731 + input[259] * 0.042030139534472884 + input[260] * -0.0012678785732935301 + input[261] * 0.0036169429009292138 + input[262] * -0.009156153788503128 + input[263] * 0.009822792220081426 + input[264] * -0.018593692291355837 + input[265] * 0.037134144471362346 + input[266] * -0.0011938467749524797 + input[267] * 0.0047844567334725235 + input[268] * -0.013277009937113128 + input[269] * 0.006992164014778451 + input[270] * -0.012763931382344215 + input[271] * 0.03464254718198576 + input[272] * 0.0007940483586033769 + input[273] * 0.01035022711536636 + input[274] * -0.0074736944832283205 + input[275] * -0.00035419963529512464
    var55 = input[276] * -0.009219201272041332
    var56 = var54 + var55 + input[277] * 0.0303773572317419 + input[278] * 0.0038512729951508643 + input[279] * 0.010813065018755175 + input[280] * -0.00026019915503497484 + input[281] * 0.0007497962719990578 + input[282] * -0.006120991216214375 + input[283] * 0.028697414544637857 + input[284] * -0.0006760391021301758 + input[285] * 0.003552580738034644 + input[286] * 0.009655573983756967 + input[287] * 0.01109344700392387 + input[288] * -0.007884441192443628 + input[289] * 0.024838685960168007 + input[290] * 0.001987911990237921 + input[291] * 0.00016416458901772114 + input[292] * 0.013209975512569933 + input[293] * 0.014109522494786609 + input[294] * -0.006275099687142517 + input[295] * 0.01745009810505218 + input[296] * -0.0003736485679284277 + input[297] * 0.016452495191647955 + input[298] * -0.005343789980452903 + input[299] * -0.012206847358456764 + input[300] * -0.00888764096253796 + input[301] * 0.017908806962652173 + input[302] * 0.002011008695012338 + input[303] * 0.015102265264133592 + input[304] * 0.00586939193654154 + input[305] * -0.010183381369540088 + input[306] * -0.003981493308399508 + input[307] * 0.013374290974445384 + input[308] * -0.00034528183265711894 + input[309] * 0.010409805690510822 + input[310] * -0.0025149818386801743 + input[311] * 0.007783963272546009 + input[312] * -0.0014735035348668998 + input[313] * 0.011462140511855318 + input[314] * 0.00042938810622071127 + input[315] * 0.005533416563656559 + input[316] * -0.004812331195348568 + input[317] * 0.000012150778803150122 + input[318] * -0.0013484211134021879 + input[319] * 0.00977949897333063 + input[320] * -0.00042093214499819217 + input[321] * 0.004677928804944563 + input[322] * 0.004982550635869204 + input[323] * 0.001771007895149993 + input[324] * 0.0030671077591191867 + input[325] * 0.006572757599016732 + input[326] * 0.0027040450374896012 + input[327] * 0.001953811439576956 + input[328] * 0.004679643678556431 + input[329] * 0.011309770825830458 + input[330] * 0.011337354334197353
    var57 = input[331] * 0.005835635341279746
    var58 = var56 + var57 + input[332] * -0.0005516031675904422 + input[333] * 0.008599056659588277 + input[334] * 0.005376043678593783 + input[335] * 0.003315611816798969 + input[336] * 0.011819156371280937 + input[337] * 0.006691642897251465 + input[338] * 0.004269541458636759 + input[339] * 0.011921767637131483 + input[340] * 0.012628122115184458 + input[341] * 0.0021128159124184894 + input[342] * 0.01482422299068427 + input[343] * 0.0005698881029364304 + input[344] * 0.001379740903469901 + input[345] * 0.01662031176351551 + input[346] * 0.0011606258439496367 + input[347] * -0.0012554281514164797 + input[348] * 0.011843846102797394 + input[349] * -0.004497887912322934 + input[350] * 0.0006157186618873546 + input[351] * 0.018922440071895807 + input[352] * 0.0010516060369435175 + input[353] * -0.007366238590740367 + input[354] * 0.003343636430533402 + input[355] * -0.008288929180013558 + input[356] * 0.005632037915313589 + input[357] * 0.020146468627011308 + input[358] * 0.0023167299777185654 + input[359] * -0.010425520494560562 + input[360] * -0.0006740620855566875 + input[361] * -0.01671459184469828 + input[362] * 0.0010148181735923291 + input[363] * 0.011475867642891725 + input[364] * 0.0144867738065078 + input[365] * -0.012376636851085566 + input[366] * -0.008756451200477685 + input[367] * -0.013502120314337717 + input[368] * -0.0002958371575166187 + input[369] * 0.009251213199863354 + input[370] * 0.004279528960776187 + input[371] * 0.01279359878021392 + input[372] * -0.009418449693054456 + input[373] * -0.009608251992906826 + input[374] * 0.003412800484785065 + input[375] * 0.009246776544460772 + input[376] * 0.0037151776438719385 + input[377] * 0.010430656824557715 + input[378] * -0.007467770622055279 + input[379] * -0.010939622935842592 + input[380] * 0.00445863647661512 + input[381] * 0.0012538197366898781 + input[382] * 0.01309849998598357 + input[383] * -0.00943035588301599 + input[384] * -0.003486660967630305 + input[385] * -0.014548122948337999
    var59 = input[386] * 0.00267083532706864
    var60 = var58 + var59 + input[387] * -0.006452789736301043 + input[388] * 0.008395175035675835 + input[389] * -0.0018291648060778873 + input[390] * 0.003463861843138444 + input[391] * -0.020551849770412165 + input[392] * 0.0017753397173581992 + input[393] * -0.006804144383069608 + input[394] * 0.007433394733102244 + input[395] * 0.006791631021382867 + input[396] * 0.005878542799635639 + input[397] * -0.02141104657580481 + input[398] * 0.003954276832315225 + input[399] * -0.009116721040139077 + input[400] * 0.002491982841531506 + input[401] * 0.006005790684353902 + input[402] * 0.01280526303100591 + input[403] * -0.019548094690339607 + input[404] * -0.0024720044042780332 + input[405] * -0.007679358800773206 + input[406] * 0.005076380391979986 + input[407] * 0.009718216208723748 + input[408] * 0.007284724899861026 + input[409] * -0.025170164803462416 + input[410] * 0.005824908755772337 + input[411] * 0.004048526541597459 + input[412] * 0.0083618139064596 + input[413] * -0.0015901282926222256 + input[414] * 0.011033001617037502 + input[415] * -0.024215302949325005 + input[416] * 0.004878511417305067 + input[417] * 0.010277097102693596 + input[418] * -0.0065740221216006815 + input[419] * -0.003217624573821864 + input[420] * 0.011847499294199395 + input[421] * -0.03481269641682189 + input[422] * 0.005825259874704243 + input[423] * 0.01042847041070883 + input[424] * 0.010195833529448448 + input[425] * -0.019140649868132388 + input[426] * 0.014478605707217974 + input[427] * -0.0457680102721886 + input[428] * 0.005868839756297025 + input[429] * 0.010747688248249494 + input[430] * -0.0038081639549894506 + input[431] * -0.0006158535799810243 + input[432] * 0.015369038796412368 + input[433] * -0.058883393229054976 + input[434] * 0.003059587425540504 + input[435] * 0.005666334510740886 + input[436] * 0.005407849515615893 + input[437] * -0.000288588779634699 + input[438] * 0.015267328138694108 + input[439] * -0.0609899915518311 + input[440] * -0.00007127117151258239
    var61 = input[441] * 0.005619772379150147
    var62 = var60 + var61 + input[442] * 0.0009468001330029773 + input[443] * -0.0003898525433292746 + input[444] * 0.009492494735131307 + input[445] * -0.062285640639024274 + input[446] * 0.005267391250374807 + input[447] * 0.010056849598758414 + input[448] * 0.0034006899967933216 + input[449] * 0.004097948477929373 + input[450] * 0.009199972380124984 + input[451] * -0.06225797918863582 + input[452] * 0.005295460778133748 + input[453] * 0.006783873144633945 + input[454] * 0.004833625786639519 + input[455] * -0.008545300330528704 + input[456] * 0.009635825195687082 + input[457] * -0.06209999069693433 + input[458] * 0.0013297038860952046 + input[459] * 0.006626738343262623 + input[460] * 0.00540900764274288 + input[461] * -0.006005143539131509 + input[462] * 0.01308209376280053 + input[463] * -0.06122474038414265 + input[464] * -0.0016458901782410208 + input[465] * 0.010011634209054493 + input[466] * -0.0016566582477086167 + input[467] * -0.016612629710798108 + input[468] * 0.011913474097080578 + input[469] * -0.05672792218818969 + input[470] * -0.0002178219880727868 + input[471] * 0.0020262712927053275 + input[472] * -0.0032107634885020584 + input[473] * -0.018626982793473214 + input[474] * 0.011930187021451044 + input[475] * -0.05516458094901545 + input[476] * 0.004349104471847474 + input[477] * 0.011046957139433945 + input[478] * -0.01367406913256506 + input[479] * -0.006221338499507293 + input[480] * 0.014314966017262922 + input[481] * -0.049938566355182505 + input[482] * 0.00530386593928193 + input[483] * 0.009568508785651198 + input[484] * -0.008050061129864942 + input[485] * -0.006519756937466861 + input[486] * 0.014344573160515857 + input[487] * -0.04537230663998311 + input[488] * 0.0023570560377589333 + input[489] * 0.00841694809672573 + input[490] * -0.006320138125760501 + input[491] * -0.009166710749935124 + input[492] * 0.014763244980785467 + input[493] * -0.04229612382897693 + input[494] * 0.0016791585763195952 + input[495] * 0.003324549287892871
    var63 = input[496] * 0.007708722346984075
    var64 = var62 + var63 + input[497] * -0.009309345854658084 + input[498] * 0.01292280903268759 + input[499] * -0.04103896317538805 + input[500] * 0.0014490151592858997 + input[501] * 0.0011712085567064379 + input[502] * 0.017730487866888293 + input[503] * 0.003390715467718313 + input[504] * 0.012344314608077079 + input[505] * -0.03758504200392568 + input[506] * -0.0007241987878305167 + input[507] * -0.007895466201896946 + input[508] * 0.01062853750836172 + input[509] * 0.012956381737917386 + input[510] * 0.010970919590593474 + input[511] * -0.03536656751259872 + input[512] * 0.0031935576520696033 + input[513] * -0.010119123565876645 + input[514] * 0.0054514908728581935 + input[515] * 0.021236395037116624 + input[516] * 0.010472162493095358 + input[517] * -0.031941448550903424 + input[518] * 0.0011912622975538763 + input[519] * -0.012914680221851715 + input[520] * -0.0008659083574966686 + input[521] * 0.016532302485424834 + input[522] * 0.011062100802958448 + input[523] * -0.02692255489980893 + input[524] * 0.0024123325373645774 + input[525] * -0.007821360950933843 + input[526] * 0.002537504796888581 + input[527] * 0.009814858706811248 + input[528] * 0.00968081700415104 + input[529] * -0.024383778404089784 + input[530] * 0.0025744761268934146 + input[531] * -0.011387134892401332 + input[532] * -0.006746148885744507 + input[533] * 0.009435054167905901 + input[534] * 0.009275091077717689 + input[535] * -0.022292868747172092 + input[536] * 0.0022405613676271243 + input[537] * -0.008830974324990578 + input[538] * -0.006688195886625388 + input[539] * 0.003718349030967982 + input[540] * 0.00911794131909591 + input[541] * -0.017048402069437647 + input[542] * 0.0028480218396797104 + input[543] * 0.0004341221926817688 + input[544] * -0.0013994595291359963 + input[545] * -0.007494967796974428 + input[546] * 0.008671374874494375 + input[547] * -0.01253212339415233 + input[548] * 0.002001821388381129 + input[549] * 0.005690244082475249 + input[550] * 0.00454374130185992
    var65 = input[551] * -0.009318785475073383
    var66 = -6.051546481736596 + input[0] * 0.00004704360461075131
    var67 = input[1] * -0.0000058028382939774045
    var68 = var66 + var67 + input[2] * -0.0009021838212670022 + input[3] * -0.0004734202919644431 + input[4] * -0.0006264757736027401 + input[5] * -0.0030819730813409275 + input[6] * 0.000032578749349026175 + input[7] * -0.000013654549364255597 + input[8] * -0.0009037832413881525 + input[9] * -0.0004031677406555369 + input[10] * -0.00061057823735945 + input[11] * -0.00332413154047735 + input[12] * -0.0000037502259029183665 + input[13] * -0.000022861134230944834 + input[14] * -0.0009010312604603449 + input[15] * -0.0002465768052806774 + input[16] * -0.0007498467840215189 + input[17] * -0.003239229603764384 + input[18] * -0.000011972285891495134 + input[19] * -0.000019968129843355705 + input[20] * -0.0008955553909938147 + input[21] * -0.00018164417284536826 + input[22] * -0.000928263990845494 + input[23] * -0.0030525922296392822 + input[24] * -0.00002040259020856857 + input[25] * -0.000006867576933078078 + input[26] * -0.0008879503717307276 + input[27] * -0.0002162713077457144 + input[28] * -0.0010274584710712887 + input[29] * -0.0030316743492845837 + input[30] * -0.00004694376836998232 + input[31] * -0.0000014619719540084537 + input[32] * -0.0008742579434141425 + input[33] * -0.00019451250129082304 + input[34] * -0.0010859384943754241 + input[35] * -0.00309908839171088 + input[36] * -0.00008290539312647254 + input[37] * -0.0000046942204047934266 + input[38] * -0.0008733264666211662 + input[39] * -0.0001125464533011357 + input[40] * -0.0009257960358271828 + input[41] * -0.0031465581896589797 + input[42] * -0.00014587393776556757 + input[43] * 0.000008883560492607992 + input[44] * -0.0008652814664362689 + input[45] * 0.000045461038086697835 + input[46] * -0.000627446837857528 + input[47] * -0.003079955001089392 + input[48] * -0.00022674158911912412 + input[49] * 0.000021626462739817305 + input[50] * -0.0008767377098720656 + input[51] * 0.0003263352788819719 + input[52] * -0.00025260391437436 + input[53] * -0.002836114602916602 + input[54] * -0.0003157522276555769 + input[55] * 0.000027334935666655825
    var69 = input[56] * -0.0008756837784840029
    var70 = var68 + var69 + input[57] * 0.0005655482526101769 + input[58] * -0.0000006021344609432311 + input[59] * -0.002354899047926704 + input[60] * -0.0004045560594891881 + input[61] * 0.00004085767457962993 + input[62] * -0.0008710977343911976 + input[63] * 0.0007398551827661146 + input[64] * 0.00002727662018621841 + input[65] * -0.0016860946019506549 + input[66] * -0.0004928799262298563 + input[67] * 0.00005100289801119034 + input[68] * -0.0008554449812013327 + input[69] * 0.0008241520156021297 + input[70] * 0.00005734259486694765 + input[71] * -0.000873711077161456 + input[72] * -0.0005814531187863223 + input[73] * 0.00007011319851019148 + input[74] * -0.0008170803446441408 + input[75] * 0.0008749880016364772 + input[76] * 0.0001274331775768435 + input[77] * 0.00011193193829758437 + input[78] * -0.0006421094801833014 + input[79] * 0.00008099362325760536 + input[80] * -0.0008931805293767966 + input[81] * 0.0004790361439610739 + input[82] * 0.000375296698795695 + input[83] * 0.0010618347831973902 + input[84] * -0.0005468993146415153 + input[85] * 0.0000715777062989964 + input[86] * -0.0009452082274080796 + input[87] * 0.000025441274507197364 + input[88] * -0.00020679532540033319 + input[89] * 0.0018882500277824742 + input[90] * -0.0006036918320375854 + input[91] * 0.00010714012128971793 + input[92] * -0.0008848020072809978 + input[93] * -0.001951959351905055 + input[94] * 0.000056945425833979716 + input[95] * 0.0022953172335877436 + input[96] * -0.0006532305954002592 + input[97] * 0.00017672456147628266 + input[98] * -0.0007817202535724941 + input[99] * -0.0024905570364583177 + input[100] * -0.0003362304010350504 + input[101] * 0.0034603763019910557 + input[102] * -0.0005698284734234704 + input[103] * 0.0001477160976271545 + input[104] * -0.0006848791082161634 + input[105] * -0.0026248177256453843 + input[106] * -0.0011697067197077953 + input[107] * 0.004362984712860193 + input[108] * -0.0004633585829482988 + input[109] * 0.0001648605504904337 + input[110] * -0.0006207360633225269
    var71 = input[111] * -0.002154307386120423
    var72 = var70 + var71 + input[112] * -0.0015473827690905264 + input[113] * 0.005229697277395082 + input[114] * -0.0003432900208739189 + input[115] * 0.0001978019386174848 + input[116] * -0.000549187971943531 + input[117] * -0.0017631486238880855 + input[118] * -0.001842851226517277 + input[119] * 0.005780297423993266 + input[120] * -0.00018926417061462808 + input[121] * 0.00019160844874759175 + input[122] * -0.0005215013698375917 + input[123] * -0.0013151100701124258 + input[124] * -0.0019112338074465402 + input[125] * 0.006174073894346141 + input[126] * -0.00004030657379360863 + input[127] * 0.00012123274029889985 + input[128] * -0.0004854232571154259 + input[129] * -0.0006301797383874041 + input[130] * -0.0019819442203917507 + input[131] * 0.006503638501827682 + input[132] * 0.0001296496895399698 + input[133] * 0.0000485977295177539 + input[134] * -0.0004542397488262536 + input[135] * 0.0003802691815781589 + input[136] * -0.002142073157001563 + input[137] * 0.006627113287940953 + input[138] * 0.0002880742934840147 + input[139] * -0.000027598981675166397 + input[140] * -0.00041851746431654423 + input[141] * 0.0014165798109850687 + input[142] * -0.002438254850586382 + input[143] * 0.006840695032004465 + input[144] * 0.00043304264898713906 + input[145] * -0.0001070090369234275 + input[146] * -0.00039445234090654404 + input[147] * 0.0024817776574318417 + input[148] * -0.0028814218562826896 + input[149] * 0.0070498350590188046 + input[150] * 0.0005698524650785565 + input[151] * -0.00018475124686656444 + input[152] * -0.0003463162582973589 + input[153] * 0.003301882845539075 + input[154] * -0.0036287094721546838 + input[155] * 0.0071033087313578805 + input[156] * 0.0007487051346371668 + input[157] * -0.00028401529440252947 + input[158] * -0.00035475012944871496 + input[159] * 0.003998191385249846 + input[160] * -0.004637495647165977 + input[161] * 0.006644119624427063 + input[162] * 0.0008160522844255102 + input[163] * -0.0003586104310167539 + input[164] * -0.000477638238215289 + input[165] * 0.004421734829439157
    var73 = input[166] * -0.005570921679676016
    var74 = var72 + var73 + input[167] * 0.005914022713580669 + input[168] * 0.0008138028355051665 + input[169] * -0.0004128872373827588 + input[170] * -0.0005904471613849489 + input[171] * 0.004609022169226383 + input[172] * -0.006201650485607812 + input[173] * 0.005317056755527212 + input[174] * 0.0008207488519010058 + input[175] * -0.0004872447327581685 + input[176] * -0.0006739064531280582 + input[177] * 0.0049923159557374395 + input[178] * -0.006283140582847031 + input[179] * 0.004652356960115076 + input[180] * 0.000954624106750647 + input[181] * -0.0005919517224648032 + input[182] * -0.0007927411260042763 + input[183] * 0.005624104333035325 + input[184] * -0.0056743481593059236 + input[185] * 0.0033926332656273183 + input[186] * 0.0009725581883801748 + input[187] * -0.0006267337856253231 + input[188] * -0.000842219902622892 + input[189] * 0.005941511066985028 + input[190] * -0.005342029881521885 + input[191] * 0.0017687893332996919 + input[192] * 0.0009377998328443957 + input[193] * -0.0006779585939610777 + input[194] * -0.0009471414633222594 + input[195] * 0.0060150542951442915 + input[196] * -0.0054206697524466965 + input[197] * 0.00035848279297698835 + input[198] * 0.0009164479735160192 + input[199] * -0.000701897524167828 + input[200] * -0.000975808843425668 + input[201] * 0.005968285050858634 + input[202] * -0.004930950541471024 + input[203] * -0.000673222595122928 + input[204] * 0.0008905015838559243 + input[205] * -0.0007407409975676988 + input[206] * -0.0010450352219051144 + input[207] * 0.005754524364959263 + input[208] * -0.0041977801899889065 + input[209] * -0.001568784104319124 + input[210] * 0.0008603481697115947 + input[211] * -0.0008139076727771077 + input[212] * -0.0010822404315633369 + input[213] * 0.005422026930863311 + input[214] * -0.0033918821754885926 + input[215] * -0.0024768139819525206 + input[216] * 0.0008043501014808238 + input[217] * -0.0008436997796302597 + input[218] * -0.0011531262598405974 + input[219] * 0.004992446164379832 + input[220] * -0.0029824756195061535
    var75 = input[221] * -0.003239030590816907
    var76 = var74 + var75 + input[222] * 0.0006854071892432781 + input[223] * -0.0008294681511634025 + input[224] * -0.0012337552482801874 + input[225] * 0.004498236203927555 + input[226] * -0.003113484862460229 + input[227] * -0.0037457078704603865 + input[228] * 0.0005359932061455134 + input[229] * -0.0007572001984161713 + input[230] * -0.0013477142203803787 + input[231] * 0.00394271824686647 + input[232] * -0.0034202066679902745 + input[233] * -0.00393671880136667 + input[234] * 0.0004441979431329097 + input[235] * -0.0006801308488118489 + input[236] * -0.0015044365539111108 + input[237] * 0.003520604989004198 + input[238] * -0.0036599436580541035 + input[239] * -0.00416224231996971 + input[240] * 0.0003237888615596152 + input[241] * -0.0006084633147473631 + input[242] * -0.0016181977494015682 + input[243] * 0.002685799250507593 + input[244] * -0.0035205121452334624 + input[245] * -0.004316175761146873 + input[246] * 0.00018897302828299495 + input[247] * -0.0005682660372902771 + input[248] * -0.0016992604551481856 + input[249] * 0.0019737659419431374 + input[250] * -0.0030944581535916247 + input[251] * -0.004484385507386591 + input[252] * 0.000058494111448239905 + input[253] * -0.0005436414007452022 + input[254] * -0.0017918015380721606 + input[255] * 0.0014083540967595727 + input[256] * -0.002678952816821707 + input[257] * -0.004570694365528879 + input[258] * -0.0000888013891952126 + input[259] * -0.0005008603451767702 + input[260] * -0.001853472004504838 + input[261] * 0.0008723176130532026 + input[262] * -0.0022158486062809524 + input[263] * -0.004744001529753307 + input[264] * -0.00017214613768708374 + input[265] * -0.0004243208755155746 + input[266] * -0.0018996073573654896 + input[267] * 0.0002402594053199602 + input[268] * -0.0014803141110002215 + input[269] * -0.00479472771088368 + input[270] * -0.0002323761557374458 + input[271] * -0.0003766026321543232 + input[272] * -0.001925704412305856 + input[273] * -0.0004918871360316693 + input[274] * -0.00017201321478530732 + input[275] * -0.004686025187365988
    var77 = input[276] * -0.00032820588898700503
    var78 = var76 + var77 + input[277] * -0.00029406816141151797 + input[278] * -0.001910391686115292 + input[279] * -0.0015268321106509187 + input[280] * 0.00115165719927733 + input[281] * -0.004690827871034821 + input[282] * -0.00042800688568378145 + input[283] * -0.00020204354714118734 + input[284] * -0.0018468085111961554 + input[285] * -0.00253262756170242 + input[286] * 0.0019435705090772892 + input[287] * -0.004745096978143869 + input[288] * -0.0005013538583087402 + input[289] * -0.00012516666356198074 + input[290] * -0.00168897766129591 + input[291] * -0.0026081782806397094 + input[292] * 0.0025537333520571086 + input[293] * -0.004610345694792175 + input[294] * -0.0005766670939182511 + input[295] * -0.000057643412778176064 + input[296] * -0.00170103131059839 + input[297] * -0.002595311651763214 + input[298] * 0.002772295867619317 + input[299] * -0.0042044966937680355 + input[300] * -0.0006042548252183908 + input[301] * 0.000059657766324252984 + input[302] * -0.001574085102546211 + input[303] * -0.0033167623127772893 + input[304] * 0.0022968619168262693 + input[305] * -0.0037997656825882304 + input[306] * -0.0006415299513057012 + input[307] * 0.0001052378796645769 + input[308] * -0.0014658874190589474 + input[309] * -0.004160971665695232 + input[310] * 0.0015835649028953162 + input[311] * -0.0033590184074931183 + input[312] * -0.0006499644807176898 + input[313] * 0.00010518109727668792 + input[314] * -0.00134272781746509 + input[315] * -0.004455630740968319 + input[316] * 0.0011099376005510647 + input[317] * -0.003098195085626458 + input[318] * -0.000668024743401673 + input[319] * 0.00010159044364747883 + input[320] * -0.001216149335686059 + input[321] * -0.004702630769618254 + input[322] * 0.0009055447075373697 + input[323] * -0.0028174503929054733 + input[324] * -0.0006502418362761102 + input[325] * 0.00010829727706469102 + input[326] * -0.0011097515693678473 + input[327] * -0.005000548002303782 + input[328] * 0.0009739558598969465 + input[329] * -0.0024808150835328377 + input[330] * -0.0006621576153838025
    var79 = input[331] * 0.00008672620662500002
    var80 = var78 + var79 + input[332] * -0.0010290425851922289 + input[333] * -0.005413982216276954 + input[334] * 0.0011762121908348916 + input[335] * -0.001974447128977424 + input[336] * -0.0006434319862696112 + input[337] * 0.00005490340919922101 + input[338] * -0.0009374681128494067 + input[339] * -0.0055766583949932 + input[340] * 0.001092368208463411 + input[341] * -0.0013711960507658417 + input[342] * -0.000615371851011676 + input[343] * 0.00003671659278046009 + input[344] * -0.0009177222928283529 + input[345] * -0.005598397386239877 + input[346] * 0.0010057056767878833 + input[347] * -0.0007878759735050995 + input[348] * -0.0005795546327503533 + input[349] * 0.000032882728474810715 + input[350] * -0.0008690214854502153 + input[351] * -0.005553392724770919 + input[352] * 0.0006531041861900843 + input[353] * -0.00022115256856813893 + input[354] * -0.0005250267520015765 + input[355] * 0.000015325814104245737 + input[356] * -0.0008261276022958124 + input[357] * -0.005189865651576261 + input[358] * 0.0004995735859654543 + input[359] * 0.00020804179482144811 + input[360] * -0.0004366234308633404 + input[361] * 0.00003720252343775986 + input[362] * -0.0007729798754723432 + input[363] * -0.004617028199537063 + input[364] * 0.0005109909110924457 + input[365] * 0.0004698117999010319 + input[366] * -0.00032014376864195363 + input[367] * 0.00002994876046021474 + input[368] * -0.0007319017667124084 + input[369] * -0.004013867509315492 + input[370] * 0.0009695542969495794 + input[371] * 0.0005208069094570865 + input[372] * -0.00022316512418592727 + input[373] * 0.000005350761707840936 + input[374] * -0.0006925849713901872 + input[375] * -0.0032353915714575386 + input[376] * 0.00147665539380674 + input[377] * 0.000357584378383227 + input[378] * -0.00017324732085833186 + input[379] * 0.0000032505563147121967 + input[380] * -0.0006605210991770616 + input[381] * -0.0024291885620261406 + input[382] * 0.0017167444096306513 + input[383] * 0.00021925289368817443 + input[384] * -0.0001544351072429472 + input[385] * 0.000012025462881068701
    var81 = input[386] * -0.0006790658185455502
    var82 = var80 + var81 + input[387] * -0.001987467614345331 + input[388] * 0.0014427441084361669 + input[389] * 0.0002877691312926426 + input[390] * -0.00012892394899567742 + input[391] * 0.0000182774331440093 + input[392] * -0.0006425529618269583 + input[393] * -0.0016656217468663792 + input[394] * 0.0011509812349960356 + input[395] * 0.00035479755703792226 + input[396] * -0.00010517144519141807 + input[397] * 0.00000996382346723882 + input[398] * -0.0006129930978505893 + input[399] * -0.0016586622839472518 + input[400] * 0.001054202723825434 + input[401] * 0.0003214910973175238 + input[402] * -0.0001183015459353337 + input[403] * 0.00002900880048025968 + input[404] * -0.0006377068749448681 + input[405] * -0.0017411386502224756 + input[406] * 0.0009124457454081143 + input[407] * 0.0003710452039775037 + input[408] * -0.0001347685281563703 + input[409] * 0.00004390058533148006 + input[410] * -0.0006539975672826848 + input[411] * -0.001854292146507757 + input[412] * 0.0005517288470467943 + input[413] * 0.0005804111524054424 + input[414] * -0.0001401974250559211 + input[415] * 0.000042311451202652025 + input[416] * -0.0006696951871849009 + input[417] * -0.0018784779355667392 + input[418] * 0.00023542309414917843 + input[419] * 0.0008667105431816544 + input[420] * -0.00012994261244739724 + input[421] * 0.000051201344472984866 + input[422] * -0.0006790658802545281 + input[423] * -0.0017866274915431495 + input[424] * 0.00021591308898643801 + input[425] * 0.0010305898178103918 + input[426] * -0.00015517197316132177 + input[427] * 0.00007627730549665712 + input[428] * -0.0006836043991876369 + input[429] * -0.0016771837286645168 + input[430] * 0.00016385012211903184 + input[431] * 0.0011515134995858372 + input[432] * -0.00014150958131579815 + input[433] * 0.00010793300718998768 + input[434] * -0.0007046911876087442 + input[435] * -0.001455944097569659 + input[436] * 0.00037422994033656817 + input[437] * 0.0012530715303631969 + input[438] * -0.0001362871968827126 + input[439] * 0.00012448590748100096 + input[440] * -0.0006783754441165703
    var83 = input[441] * -0.0011222165907712515
    var84 = var82 + var83 + input[442] * 0.0002934467787308567 + input[443] * 0.0012586745492968975 + input[444] * -0.00010016201349689222 + input[445] * 0.0001299191546645399 + input[446] * -0.0006591412458744209 + input[447] * -0.0008122743585460031 + input[448] * 0.00019381419477784346 + input[449] * 0.0014333791383404546 + input[450] * -0.000050019790397836174 + input[451] * 0.0001247034243985771 + input[452] * -0.0006364655661129683 + input[453] * -0.0005727864315806452 + input[454] * 0.00008612912298097869 + input[455] * 0.0018036401899462731 + input[456] * 0.000017017149507768826 + input[457] * 0.0001246971406571911 + input[458] * -0.000646670254772326 + input[459] * -0.000504555525148225 + input[460] * 0.00007076861510610744 + input[461] * 0.0019737243995701912 + input[462] * 0.00007124558626804905 + input[463] * 0.00011809632138318339 + input[464] * -0.0006518139327863098 + input[465] * -0.0004588778542892244 + input[466] * 0.00002987421699526123 + input[467] * 0.002001202680185469 + input[468] * 0.00013595039285956882 + input[469] * 0.00010279067738167431 + input[470] * -0.0006555276052368795 + input[471] * -0.0004160118916225083 + input[472] * -0.0000846217199882209 + input[473] * 0.0018268769776370046 + input[474] * 0.00018392665151276225 + input[475] * 0.00008992214396041816 + input[476] * -0.0006846479168365285 + input[477] * -0.0002478575540755808 + input[478] * -0.00024373705868775198 + input[479] * 0.0015162560456051656 + input[480] * 0.00021289117036796178 + input[481] * 0.00005248285561907346 + input[482] * -0.0007016562752342869 + input[483] * 0.00006495766313433762 + input[484] * -0.0003351424652358445 + input[485] * 0.001167256327609125 + input[486] * 0.000286109615146457 + input[487] * 0.000024357899419302705 + input[488] * -0.0007494868621803884 + input[489] * 0.00029852920401138695 + input[490] * -0.000045609001385626914 + input[491] * 0.0009724396668003821 + input[492] * 0.00030972001176517465 + input[493] * 0.000022816665014206425 + input[494] * -0.0007908424391257352 + input[495] * -0.00006564790760568209
    var85 = input[496] * 0.0010372428520630886
    var86 = var84 + var85 + input[497] * 0.000599911693504123 + input[498] * 0.0003509048114225397 + input[499] * 0.000007913249937591493 + input[500] * -0.0007149606311978648 + input[501] * 0.0005731197801992583 + input[502] * 0.000756887348304072 + input[503] * 0.000005150435450107625 + input[504] * 0.0003149435675034678 + input[505] * -0.00002129108809839197 + input[506] * -0.0007913161405494831 + input[507] * 0.0009989185287510914 + input[508] * 0.0008137086124716674 + input[509] * -0.0006613359420430408 + input[510] * 0.0003012123990545584 + input[511] * -0.00003528759164183834 + input[512] * -0.0007667193317216441 + input[513] * 0.0015007423201148441 + input[514] * 0.0011793181394816807 + input[515] * -0.0008302279954055738 + input[516] * 0.00026718818617350003 + input[517] * -0.00005547660430512806 + input[518] * -0.0007781461182053336 + input[519] * 0.001880167391044101 + input[520] * 0.0014680879623093378 + input[521] * -0.0007993286613988906 + input[522] * 0.00025989893574252415 + input[523] * -0.00005314065437345358 + input[524] * -0.0008036074556497149 + input[525] * 0.002071181472034056 + input[526] * 0.0017634689404372348 + input[527] * -0.0007083953467459222 + input[528] * 0.00022163219441928987 + input[529] * -0.00004059621041246635 + input[530] * -0.0008193347602515136 + input[531] * 0.0018322206463366397 + input[532] * 0.001860486960076792 + input[533] * -0.000530629398064582 + input[534] * 0.00018479550539619798 + input[535] * -0.000031720001602069166 + input[536] * -0.0008668203987339373 + input[537] * 0.0015220857602674972 + input[538] * 0.0017882983787489634 + input[539] * -0.00036353835586483586 + input[540] * 0.00013593912746506407 + input[541] * -0.000006788353464711291 + input[542] * -0.0008832543180476619 + input[543] * 0.0012283530809477697 + input[544] * 0.0014914699016059978 + input[545] * -0.0001965074465706538 + input[546] * 0.00010073598160904779 + input[547] * 0.000008631592235051506 + input[548] * -0.0009188857602836605 + input[549] * 0.0009082244664168913 + input[550] * 0.0010055150502530905
    var87 = input[551] * -0.000009850518325791807
    return [var20 + var21 + input[552] * 0.026770760541426998 + input[553] * 0.005763488493900715 + input[554] * 0.003452310387121813 + input[555] * -0.016090170711410022 + input[556] * -0.005830663542529059 + input[557] * 0.0318932361986981 + input[558] * 0.025295339870808415 + input[559] * 0.00294590591950661 + input[560] * 0.001338443326115065 + input[561] * -0.009594800817131632 + input[562] * -0.014359694435609924 + input[563] * 0.015173091126932334 + input[564] * 0.02066102070043125 + input[565] * 0.005189248850850551 + input[566] * -0.0007834659854018576 + input[567] * -0.0006345487365905887 + input[568] * -0.02367045381491362 + input[569] * 0.004136086993944714 + input[570] * 0.016129369212818854 + input[571] * 0.0052816260055363745 + input[572] * 0.0015690948811625425 + input[573] * 0.0050576962612534785 + input[574] * -0.016682408031690705 + input[575] * 0.014229681290433498 + input[576] * 0.01266503717608222 + input[577] * 0.005209784509480902 + input[578] * -0.000015893984738236925 + input[579] * 0.010702154723195322 + input[580] * -0.012721294265686023 + input[581] * 0.01728028587796181 + input[582] * 0.011002108828680295 + input[583] * 0.004958876397264472 + input[584] * 0.0006911082697442966 + input[585] * 0.022049527561614976 + input[586] * -0.019366279720245246 + input[587] * 0.01731814070992423 + input[588] * 0.007900041743946283 + input[589] * 0.002318050310562308 + input[590] * 0.0019777263865891044 + input[591] * 0.03267930349395439 + input[592] * -0.015792317047963945 + input[593] * 0.0024257676923127077 + input[594] * 0.0065080028185512204 + input[595] * 0.0016282589473993528 + input[596] * 0.003100132762535066 + input[597] * 0.03566935385192224 + input[598] * 0.007033383424708255 + input[599] * -0.018235768439550742 + input[600] * 0.005211389714642284 + input[601] * 0.0022672755929005637 + input[602] * -0.0007159932937734567 + input[603] * 0.02896933670974047 + input[604] * 0.012229215817572038 + input[605] * -0.02477533026422252, var42 + var43 + input[552] * -0.036716761336558275 + input[553] * 0.005154834390303223 + input[554] * -0.003138867941832479 + input[555] * 0.009651961591298755 + input[556] * -0.002130477025513803 + input[557] * -0.03300516017619461 + input[558] * -0.034198525115517735 + input[559] * 0.005693711745079358 + input[560] * -0.001785124382386701 + input[561] * 0.004182870688518448 + input[562] * 0.00670060390946788 + input[563] * -0.018242114643790743 + input[564] * -0.02885230065747754 + input[565] * 0.001272847489595746 + input[566] * -0.0004839898447850608 + input[567] * -0.001400382580756814 + input[568] * 0.01401246026922792 + input[569] * -0.009301229097573603 + input[570] * -0.02583971166258444 + input[571] * 0.0008428555338401154 + input[572] * -0.0015597149730718705 + input[573] * -0.004410694115984613 + input[574] * 0.006587658742736573 + input[575] * -0.019688929122796513 + input[576] * -0.022961457549886807 + input[577] * 0.0006695428387452879 + input[578] * -0.000349706011494035 + input[579] * -0.0076340002353046076 + input[580] * 0.0034227092165570057 + input[581] * -0.01742798008486373 + input[582] * -0.02061945201693034 + input[583] * -0.001121409210163343 + input[584] * -0.00048065147839341474 + input[585] * -0.012663459026735284 + input[586] * 0.007129113240616084 + input[587] * -0.01527203288980349 + input[588] * -0.016101082410801795 + input[589] * -0.001581930918031236 + input[590] * -0.0014085168018491165 + input[591] * -0.01763278508802078 + input[592] * 0.006972978671422409 + input[593] * -0.001930203193470006 + input[594] * -0.013680782638353452 + input[595] * -0.0029431022934350783 + input[596] * -0.0016888905512603579 + input[597] * -0.01850396935694431 + input[598] * -0.010894073944975387 + input[599] * 0.014670346501278464 + input[600] * -0.011900607716019 + input[601] * -0.0027819798382041866 + input[602] * 0.00015904459584825166 + input[603] * -0.014592443114805311 + input[604] * -0.018579500389706446 + input[605] * 0.016431306870036425, var64 + var65 + input[552] * 0.009866684601232604 + input[553] * -0.010945298098474799 + input[554] * 0.0006209237959603196 + input[555] * 0.006018940070075948 + input[556] * 0.007262801756544782 + input[557] * 0.0007715950285745185 + input[558] * 0.008818106002718824 + input[559] * -0.008672540377474214 + input[560] * 0.0013699699219851154 + input[561] * 0.005597925730326905 + input[562] * 0.0067224036824886126 + input[563] * 0.0023063410160101758 + input[564] * 0.008108322952733458 + input[565] * -0.0064943667343407745 + input[566] * 0.0022059685076016616 + input[567] * 0.0028163236670808033 + input[568] * 0.008348418071680621 + input[569] * 0.003963848522039178 + input[570] * 0.009656819273878136 + input[571] * -0.006160699416663397 + input[572] * 0.0010087889752831685 + input[573] * 0.0002114679120567956 + input[574] * 0.00880787990689399 + input[575] * 0.003929886412413475 + input[576] * 0.010239151710578704 + input[577] * -0.005912547153404525 + input[578] * 0.001349289610649746 + input[579] * -0.0023255901536238252 + input[580] * 0.008235193843412533 + input[581] * -0.0016346485188565418 + input[582] * 0.00957912189255614 + input[583] * -0.0038613893431334147 + input[584] * 0.0007894613067635819 + input[585] * -0.00905067758516214 + input[586] * 0.011389355218665591 + input[587] * -0.003964376651952049 + input[588] * 0.008173636778641748 + input[589] * -0.0007563625698896804 + input[590] * 0.000405647002536281 + input[591] * -0.015171914082010482 + input[592] * 0.00817696807622506 + input[593] * -0.0026415669088370617 + input[594] * 0.007113758863068704 + input[595] * 0.0012959844655068956 + input[596] * -0.00043806389840484746 + input[597] * -0.01791760608588294 + input[598] * 0.0027769920511634036 + input[599] * 0.0013872098343053099 + input[600] * 0.006704067028371108 + input[601] * 0.0005018395223623291 + input[602] * 0.0014765585533228663 + input[603] * -0.015643033708056666 + input[604] * 0.004626106989593405 + input[605] * 0.0062387120996937944, var86 + var87 + input[552] * 0.00007931619389583992 + input[553] * 0.000026975214271820412 + input[554] * -0.0009343662412455545 + input[555] * 0.00041926904997781507 + input[556] * 0.0006983388114655747 + input[557] * 0.0003403289488802012 + input[558] * 0.00008507924198851628 + input[559] * 0.000032922712888949405 + input[560] * -0.0009232888657092286 + input[561] * -0.00018599560176760425 + input[562] * 0.000936686843624287 + input[563] * 0.0007626825008098374 + input[564] * 0.0000829570043109009 + input[565] * 0.00003227039389505266 + input[566] * -0.0009385126774108673 + input[567] * -0.0007813923497792253 + input[568] * 0.0013095754739834225 + input[569] * 0.001201293581555396 + input[570] * 0.00005352317588583581 + input[571] * 0.0000362178772874513 + input[572] * -0.0010181688833693673 + input[573] * -0.0008584700573677361 + input[574] * 0.0012868693820475986 + input[575] * 0.0015293614199213081 + input[576] * 0.00005726866322436092 + input[577] * 0.000033219805178452126 + input[578] * -0.0009836896144135893 + input[579] * -0.0007425643343090244 + input[580] * 0.0010633912057122642 + input[581] * 0.0017823427257352914 + input[582] * 0.000038221295692303906 + input[583] * 0.000023922156032094054 + input[584] * -0.0009999180981104178 + input[585] * -0.00033539094976268427 + input[586] * 0.0008478112609624631 + input[587] * 0.0019182688318123882 + input[588] * 0.000027403888212633568 + input[589] * 0.000020243177358377844 + input[590] * -0.0009748565872727413 + input[591] * 0.0001253956760340002 + input[592] * 0.0006423703003199297 + input[593] * 0.002146002409974587 + input[594] * 0.000059020956732333474 + input[595] * 0.000018858880528615524 + input[596] * -0.0009731783128668115 + input[597] * 0.0007522215908647179 + input[598] * 0.0010836984691074505 + input[599] * 0.002178212103942361 + input[600] * -0.000014849026995202307 + input[601] * 0.000012864722941246568 + input[602] * -0.000919609855394321 + input[603] * 0.0012661401130827405 + input[604] * 0.0017241775825465756 + input[605] * 0.0021053112944578213]
