def score(input):
    var0 = 7.576172067815303 + input[0] * -0.0004425844014468419
    var1 = input[1] * -0.0007078422849586077
    var2 = var0 + var1 + input[2] * 0.00037635384133118675 + input[3] * 0.00109523328640054 + input[4] * 0.0024741953848273703 + input[5] * -0.0034479074569688474 + input[6] * -0.000373721072524137 + input[7] * -0.0003634525941997024 + input[8] * 0.0004406951635920894 + input[9] * 0.001852451827482176 + input[10] * 0.0015599383536979592 + input[11] * -0.0018075482177173127 + input[12] * -0.0002996782312467087 + input[13] * 0.0011332207610937573 + input[14] * 0.00014509858939632482 + input[15] * -0.0063546902718156694 + input[16] * 0.0007842913748160567 + input[17] * -0.0023492811433297625 + input[18] * -0.00006186497417403182 + input[19] * -0.0006762406393568791 + input[20] * -0.00002147838569605266 + input[21] * 0.0011040636976288674 + input[22] * 0.002992172827362077 + input[23] * -0.003598348158409316 + input[24] * -0.000883478064391075 + input[25] * -0.0010103269078824296 + input[26] * 0.00035699079840636463 + input[27] * -0.002056227238033494 + input[28] * 0.004843189201715104 + input[29] * 0.0006944399242301608 + input[30] * -0.0008144980589046047 + input[31] * -0.0009911071813234274 + input[32] * 0.0001258590200646454 + input[33] * 0.003793790643039387 + input[34] * 0.005958919911504729 + input[35] * 0.0032593238402861134 + input[36] * -0.00048453870240231764 + input[37] * -0.0009518692423899909 + input[38] * -0.000012807546631741836 + input[39] * 0.006441430867006082 + input[40] * 0.00390134471299898 + input[41] * 0.004512846053818283 + input[42] * -0.0003442549690653516 + input[43] * -0.0007788979928640545 + input[44] * -0.0001931907930404176 + input[45] * 0.008895499167116107 + input[46] * 0.00046344933927188196 + input[47] * 0.004240036890604343 + input[48] * 0.00019839386741748668 + input[49] * -0.0006789444261090004 + input[50] * -0.0006823584237244035 + input[51] * 0.008589193910777372 + input[52] * 0.0018652835168309868 + input[53] * 0.0007565637690474696 + input[54] * 0.00010340875877649626 + input[55] * -0.0008055401541266115
    var3 = input[56] * -0.00024188929961536587
    var4 = var2 + var3 + input[57] * 0.0058189649699398275 + input[58] * 0.0027120093190888335 + input[59] * -0.0011210452826730258 + input[60] * -0.0003679997387463941 + input[61] * -0.0007494542663792587 + input[62] * -0.00020451778202947325 + input[63] * 0.0051636029343954774 + input[64] * 0.003304978284718189 + input[65] * -0.002896905172760446 + input[66] * -0.0006213524889788649 + input[67] * -0.0008810575382627722 + input[68] * 0.000020431006276397867 + input[69] * 0.006135180063374406 + input[70] * 0.0008100436666161113 + input[71] * -0.004672767081633395 + input[72] * -0.0006073899573330986 + input[73] * -0.0009440515569812801 + input[74] * -0.00004357807355687307 + input[75] * 0.006176906679646117 + input[76] * -0.005126052327732598 + input[77] * -0.0024937092359605334 + input[78] * -0.0006789948342081243 + input[79] * -0.0010813333321939129 + input[80] * -0.00032565752619162714 + input[81] * 0.0036218141408513177 + input[82] * -0.0020839701047892004 + input[83] * -0.0010948302376545065 + input[84] * -0.0006301499881196441 + input[85] * -0.0011897355393935707 + input[86] * -0.0004186343519415482 + input[87] * -0.0009471279106715375 + input[88] * 0.001369658551298287 + input[89] * -0.0008704883558971052 + input[90] * -0.0005233747081470146 + input[91] * -0.0014340229518126247 + input[92] * -0.0001084741978015464 + input[93] * -0.0015003488382583634 + input[94] * 0.003800680287155841 + input[95] * 0.0009089563542064552 + input[96] * -0.0004529536160487739 + input[97] * -0.0014962290974939916 + input[98] * -0.00015075560772863096 + input[99] * 0.0006578072271997983 + input[100] * 0.005792286247121341 + input[101] * 0.0010549519972836761 + input[102] * -0.0006448699278737824 + input[103] * -0.0020405583727723733 + input[104] * -0.00035769838066504554 + input[105] * -0.0004967156111870584 + input[106] * 0.005264682797322056 + input[107] * 0.001923814236199363 + input[108] * -0.0005304334708533543 + input[109] * -0.002134425676036838 + input[110] * -0.0007827049934973859
    var5 = input[111] * -0.0005561270189457263
    var6 = var4 + var5 + input[112] * 0.00422483581189357 + input[113] * 0.0032083839496444082 + input[114] * -0.0005467279775527777 + input[115] * -0.00210939557518926 + input[116] * -0.0004021894384652921 + input[117] * -0.004867927952295204 + input[118] * 0.005558724889727906 + input[119] * -0.0005938409259084903 + input[120] * -0.0005445357360381301 + input[121] * -0.0020630906466704083 + input[122] * -0.0006914759272285333 + input[123] * -0.0027632405308215665 + input[124] * -0.000507367305497598 + input[125] * -0.001319383399386737 + input[126] * -0.0009355491166065134 + input[127] * -0.001955292759150367 + input[128] * -0.0008133460536564005 + input[129] * -0.0025773088537063113 + input[130] * -0.004390550624700108 + input[131] * 0.0009327550517445336 + input[132] * -0.0006014874241024139 + input[133] * -0.0021984430505014993 + input[134] * -0.0007167943490226068 + input[135] * -0.0034869736916935696 + input[136] * -0.0029504833608033744 + input[137] * 0.0003956587075805324 + input[138] * -0.0011426061208036653 + input[139] * -0.0022201573348286244 + input[140] * -0.00045567335722370464 + input[141] * -0.004470641048601891 + input[142] * -0.005089188760102035 + input[143] * -0.0006896023225503276 + input[144] * -0.0014010142790779763 + input[145] * -0.0022494579038156172 + input[146] * -0.00028354226159404847 + input[147] * -0.0025844080666035086 + input[148] * -0.009939689990304182 + input[149] * -0.0004050122919891399 + input[150] * -0.001418446506832912 + input[151] * -0.0024785366047956896 + input[152] * -0.00041735203502756566 + input[153] * -0.0016857207255903959 + input[154] * -0.00939126206971377 + input[155] * 0.000306902667668473 + input[156] * -0.0015565881365538002 + input[157] * -0.002122524973524295 + input[158] * -0.0005729176689879104 + input[159] * -0.002526958834120826 + input[160] * -0.005588347850619843 + input[161] * -0.0011106189216349717 + input[162] * -0.0016626286505790106 + input[163] * -0.0022552027580350614 + input[164] * 0.00017245791037812872 + input[165] * 0.0007431892164943213
    var7 = input[166] * -0.005165426563747165
    var8 = var6 + var7 + input[167] * -0.0017383817095580367 + input[168] * -0.002087981908863219 + input[169] * -0.0031177309354574402 + input[170] * -0.0007770237795927551 + input[171] * -0.0014325181929357848 + input[172] * -0.0038131010692174475 + input[173] * -0.005045385738644288 + input[174] * -0.0022761133896392447 + input[175] * -0.004743176388447563 + input[176] * 0.00005539990998653178 + input[177] * 0.0005639276802079328 + input[178] * 0.00030009417704133276 + input[179] * -0.0053059894024986565 + input[180] * -0.0027082823834655646 + input[181] * -0.008136037898348153 + input[182] * -0.0005976895984829485 + input[183] * -0.0027163033154694732 + input[184] * 0.0008752696962214693 + input[185] * -0.009615673964953305 + input[186] * -0.003178284943747824 + input[187] * -0.0112721172559449 + input[188] * -0.0005279893170267307 + input[189] * -0.002856150434651584 + input[190] * 0.0008106473400856551 + input[191] * -0.0038656832121735864 + input[192] * -0.0029258585492095 + input[193] * -0.014143376502639094 + input[194] * -0.0001335546168069978 + input[195] * -0.003041797826546805 + input[196] * 0.0023181016803468057 + input[197] * 0.00356316270247752 + input[198] * -0.00463252831889477 + input[199] * -0.019782523270368852 + input[200] * -0.0003365814795617387 + input[201] * -0.004207218629732716 + input[202] * 0.0031669565539705793 + input[203] * 0.0009690688838698677 + input[204] * -0.009164115596151146 + input[205] * -0.02228948415122753 + input[206] * 0.00012938906420202907 + input[207] * -0.006246110396081538 + input[208] * 0.002882444197885568 + input[209] * -0.0018946598849001724 + input[210] * -0.01508982795092092 + input[211] * -0.02570072216421031 + input[212] * 0.0002377763626142412 + input[213] * -0.007479604777917972 + input[214] * 0.001527921938121818 + input[215] * -0.005414211684424864 + input[216] * -0.01902565947208615 + input[217] * -0.028111940680233972 + input[218] * -0.0009197460106151635 + input[219] * -0.006569588547941795 + input[220] * 0.0021932134962915403
    var9 = input[221] * -0.0003486553721018707
    var10 = var8 + var9 + input[222] * -0.02244518673514677 + input[223] * -0.03070617579731259 + input[224] * 0.000520760227641392 + input[225] * -0.005582286660525391 + input[226] * -0.0030470144821052596 + input[227] * 0.011295997195558018 + input[228] * -0.0259719941380997 + input[229] * -0.03158653582709491 + input[230] * -0.0000038206843842095795 + input[231] * -0.001992261333086957 + input[232] * 0.0021133131308141715 + input[233] * 0.011545783771443007 + input[234] * -0.027241680832473088 + input[235] * -0.03031584398107274 + input[236] * 0.0011987066497258507 + input[237] * -0.005140723379205924 + input[238] * 0.00481791421960027 + input[239] * 0.012418793549692787 + input[240] * -0.02686261615910115 + input[241] * -0.027963404942541993 + input[242] * 0.00022388821424276475 + input[243] * 0.0010333072383667556 + input[244] * -0.0016945125106039203 + input[245] * 0.004331783038189777 + input[246] * -0.02569968740545424 + input[247] * -0.023845056707470245 + input[248] * -0.0007803587262083716 + input[249] * -0.00811869420839829 + input[250] * -0.0020993324146491737 + input[251] * -0.005208039888444983 + input[252] * -0.024101411493831812 + input[253] * -0.019631694271948844 + input[254] * -0.00011632400518452676 + input[255] * -0.0019919711585177787 + input[256] * -0.004979616226432979 + input[257] * -0.0044566752093688 + input[258] * -0.02294746937578713 + input[259] * -0.014761404522140602 + input[260] * 0.00017135895976423725 + input[261] * -0.0013450075941976278 + input[262] * 0.0058519394987412805 + input[263] * -0.005677422652135229 + input[264] * -0.02159156442150108 + input[265] * -0.011874919464788055 + input[266] * -0.00038636253989003677 + input[267] * -0.003385697117398006 + input[268] * 0.00249440589278337 + input[269] * -0.012431018389079573 + input[270] * -0.01881308064810106 + input[271] * -0.008103091831031186 + input[272] * -0.0005372835789786005 + input[273] * -0.002916766925177373 + input[274] * 0.008110591255119978 + input[275] * 0.0004976023706961873
    var11 = input[276] * -0.014085960109020822
    var12 = var10 + var11 + input[277] * -0.005028015479899311 + input[278] * -0.0004070786683472104 + input[279] * -0.005303082080677836 + input[280] * 0.0014112567485803668 + input[281] * -0.0023488209930357016 + input[282] * -0.011105007161262163 + input[283] * -0.0034469956742877563 + input[284] * -0.0011870245925822438 + input[285] * 0.000007095294097797909 + input[286] * -0.0024467546540204448 + input[287] * -0.0020465443864636735 + input[288] * -0.01074912186573141 + input[289] * -0.0009023761273063639 + input[290] * -0.0018145465324382094 + input[291] * -0.002400223657193718 + input[292] * 0.005133138245207376 + input[293] * -0.00908261870546322 + input[294] * -0.008319729180850994 + input[295] * 0.00212340393892349 + input[296] * 0.0004855515002142362 + input[297] * -0.01096750116721029 + input[298] * 0.010432547895297763 + input[299] * -0.022454217574262646 + input[300] * -0.012029013564712561 + input[301] * 0.002142641286700924 + input[302] * 0.0018733712350708373 + input[303] * -0.010003495301487298 + input[304] * -0.008389216406637343 + input[305] * 0.006782274757466469 + input[306] * -0.004884568155601462 + input[307] * 0.007252087989216656 + input[308] * -0.001179147194653143 + input[309] * -0.011731635933243233 + input[310] * 0.014128671635173992 + input[311] * 0.017671794389736668 + input[312] * -0.001124748913900752 + input[313] * 0.009732499444543439 + input[314] * 0.0006999379668547252 + input[315] * -0.004284918069752205 + input[316] * 0.007424277491181005 + input[317] * 0.008007298189295173 + input[318] * 0.005884333596523894 + input[319] * 0.013496666447657575 + input[320] * -0.0008245824381879648 + input[321] * -0.005331526824213889 + input[322] * -0.002218659868906718 + input[323] * 0.012436482816262983 + input[324] * 0.00838615843436333 + input[325] * 0.021239090034595644 + input[326] * 0.0014373257803028104 + input[327] * -0.001911002199647925 + input[328] * 0.007688211643131591 + input[329] * 0.007043560803641846 + input[330] * 0.014175089295062728
    var13 = input[331] * 0.03033347910779981
    var14 = var12 + var13 + input[332] * 0.0008915468578787336 + input[333] * -0.004500166569045918 + input[334] * -0.004814457904079967 + input[335] * -0.004000712534046696 + input[336] * 0.018614112485396236 + input[337] * 0.03460478288648809 + input[338] * 0.0039248486002916114 + input[339] * 0.003508400861547995 + input[340] * -0.006363748632553664 + input[341] * -0.007599819998443567 + input[342] * 0.02769264082260686 + input[343] * 0.0364130426560903 + input[344] * -0.0013519271908097735 + input[345] * 0.002277106496608486 + input[346] * -0.00019975146996467394 + input[347] * -0.0017195118028520589 + input[348] * 0.029355057666974674 + input[349] * 0.037342951570081 + input[350] * -0.00027817399591712204 + input[351] * 0.010245428605280294 + input[352] * -0.006712975678284857 + input[353] * 0.010058656416969404 + input[354] * 0.025715402582751564 + input[355] * 0.04150111699219223 + input[356] * 0.001466299489401123 + input[357] * 0.00183082829892944 + input[358] * -0.006581306059831195 + input[359] * 0.008730247703405828 + input[360] * 0.025159410735543692 + input[361] * 0.038765350566111426 + input[362] * 0.002640050333757121 + input[363] * 0.0018757503546668326 + input[364] * 0.0014950376945710472 + input[365] * 0.010405491590345489 + input[366] * 0.022797099416894773 + input[367] * 0.031756175717870073 + input[368] * 0.0025665912191854363 + input[369] * 0.0005378307449519438 + input[370] * 0.001286574318669289 + input[371] * 0.007472259564476581 + input[372] * 0.021970922815549285 + input[373] * 0.027854677460056747 + input[374] * 0.0009662033178927766 + input[375] * 0.004437152133129828 + input[376] * 0.00046006434896518964 + input[377] * -0.0018727303138479645 + input[378] * 0.021641063402584225 + input[379] * 0.024542775788584863 + input[380] * -0.001032593281195705 + input[381] * 0.007861804626918602 + input[382] * 0.005672660081819057 + input[383] * -0.00010016454708186764 + input[384] * 0.021384367349833972 + input[385] * 0.02179822234853271
    var15 = input[386] * 0.000875113458370239
    var16 = var14 + var15 + input[387] * 0.005433158529331863 + input[388] * -0.0025158980130177413 + input[389] * 0.004549154399029932 + input[390] * 0.021111648731340235 + input[391] * 0.021111305172679545 + input[392] * -0.00014736897690128604 + input[393] * 0.0017991848561514378 + input[394] * -0.008202914096260916 + input[395] * 0.0035508927792280674 + input[396] * 0.01987987364043311 + input[397] * 0.01958648139884776 + input[398] * 0.0016141796284080774 + input[399] * 0.002097674965659951 + input[400] * -0.008940427371627346 + input[401] * -0.006635333125011904 + input[402] * 0.01941579101609819 + input[403] * 0.017258823879799948 + input[404] * 0.002778856880872663 + input[405] * 0.0019154948493265134 + input[406] * 0.007430057507160853 + input[407] * -0.009262289756329272 + input[408] * 0.02022953131677162 + input[409] * 0.01503388155715184 + input[410] * 0.0002399289146518573 + input[411] * 0.0018184044471056232 + input[412] * 0.00522737487054689 + input[413] * -0.01718625327729138 + input[414] * 0.018404730339325836 + input[415] * 0.013061392670076022 + input[416] * 0.0013868997476365404 + input[417] * 0.004433534813552783 + input[418] * -0.001265119854689008 + input[419] * -0.02192291926364329 + input[420] * 0.01685375323760368 + input[421] * 0.010844480839637101 + input[422] * 0.0005286113851004992 + input[423] * 0.005452878001661437 + input[424] * -0.0023261158520314178 + input[425] * -0.01302268048497097 + input[426] * 0.015873026667869786 + input[427] * 0.009947624949767666 + input[428] * -0.0005611117683143384 + input[429] * 0.0011030774792866983 + input[430] * 0.004370119507167769 + input[431] * -0.010355031090523338 + input[432] * 0.013476439523707275 + input[433] * 0.009236882638588148 + input[434] * 0.00036814870729049413 + input[435] * -0.0010065810517166434 + input[436] * 0.0033733438677517914 + input[437] * -0.009525853214431971 + input[438] * 0.012467329009821688 + input[439] * 0.007400054099394531 + input[440] * 0.00012950088960695397
    var17 = input[441] * -0.004385174510190171
    var18 = var16 + var17 + input[442] * 0.006459399926267005 + input[443] * -0.004344668818913574 + input[444] * 0.011776068111222813 + input[445] * 0.00581060976337542 + input[446] * -0.00009169641505903175 + input[447] * -0.002611218558430793 + input[448] * 0.0007880118783147148 + input[449] * -0.0002500605660777525 + input[450] * 0.009382996617430443 + input[451] * 0.005303999872129453 + input[452] * 0.000871344539922125 + input[453] * -0.0019277276543984531 + input[454] * -0.0019665048517535366 + input[455] * 0.010053274221321325 + input[456] * 0.009819697255870877 + input[457] * 0.0039869924582851875 + input[458] * 0.00016611555345146274 + input[459] * -0.0003104044494634886 + input[460] * -0.00375119950439949 + input[461] * 0.008805089360855157 + input[462] * 0.0083171598312108 + input[463] * 0.004199805034885211 + input[464] * -0.00016739978680469932 + input[465] * -0.0028010633326353332 + input[466] * -0.00025973444563923733 + input[467] * 0.013238490456668224 + input[468] * 0.006765589756697413 + input[469] * 0.004151851370308231 + input[470] * -0.0000763876009246061 + input[471] * -0.0007722685336888231 + input[472] * 0.007173362005055868 + input[473] * 0.012392898867841996 + input[474] * 0.0062040859399832135 + input[475] * 0.0039038829456029974 + input[476] * -0.00020967631919255198 + input[477] * -0.0017052153406411693 + input[478] * 0.008357404048529757 + input[479] * 0.013674788495160215 + input[480] * 0.0056547459384114936 + input[481] * 0.0032474713356752632 + input[482] * 0.00005258017714872356 + input[483] * -0.006846536931841044 + input[484] * 0.00624126960648335 + input[485] * 0.018400880805433263 + input[486] * 0.0038713564224617755 + input[487] * 0.0017059212001554098 + input[488] * 0.00026985158103166965 + input[489] * -0.005795780557802593 + input[490] * 0.002052544169264149 + input[491] * 0.011331315234254869 + input[492] * 0.002831215185161346 + input[493] * 0.0012231896995493455 + input[494] * 0.0003811919887932603 + input[495] * -0.002377314221321408
    var19 = input[496] * 0.00501755908171888
    var20 = var18 + var19 + input[497] * 0.010895478411755265 + input[498] * 0.0030686148264243087 + input[499] * 0.0007399527423849445 + input[500] * 0.0002868638996750423 + input[501] * -0.0010179100033859477 + input[502] * 0.0014701791630412362 + input[503] * 0.008399412906644378 + input[504] * 0.0025656463963306692 + input[505] * 0.00035460064362021664 + input[506] * 0.0006117597477138549 + input[507] * 0.0033549868746619764 + input[508] * 0.0022242778935518087 + input[509] * 0.006459294788136444 + input[510] * 0.002044027352326465 + input[511] * 0.0005280843602608122 + input[512] * 0.0005873706295816157 + input[513] * 0.0030678210301699886 + input[514] * 0.003238780015221109 + input[515] * 0.007256028152992773 + input[516] * 0.0019812569798989123 + input[517] * 0.000748106189101447 + input[518] * 0.00022307947548051222 + input[519] * 0.004228109101146101 + input[520] * 0.0012826305885694914 + input[521] * 0.0019246608560620324 + input[522] * 0.0014386015421923512 + input[523] * 0.0007805671579072205 + input[524] * -0.00013043142412511458 + input[525] * 0.002185481861291163 + input[526] * -0.001452340453702066 + input[527] * -0.002619253701024469 + input[528] * 0.001329774753789158 + input[529] * 0.0008236364713134791 + input[530] * -0.00021570340545914874 + input[531] * 0.00017069519082654744 + input[532] * -0.0013562496701677571 + input[533] * -0.006081213925824333 + input[534] * 0.0011628700737287094 + input[535] * 0.0010456371155518093 + input[536] * -0.00021175762569377964 + input[537] * 0.002768604513206303 + input[538] * 0.003861609439097671 + input[539] * -0.009261058991103108 + input[540] * 0.001306700501696141 + input[541] * 0.0003678840557002119 + input[542] * -0.0003859261259932839 + input[543] * 0.002590701476175748 + input[544] * 0.0069696121879866835 + input[545] * -0.007487925961537065 + input[546] * 0.0006895492880253657 + input[547] * 0.0002455950806862229 + input[548] * -0.00013522843051330265 + input[549] * 0.0011669419771759598 + input[550] * 0.005554926163111206
    var21 = input[551] * -0.00474543199725481
    var22 = -1.5080156137179328 + input[0] * -0.000300982066928679
    var23 = input[1] * -0.0009435919653335925
    var24 = var22 + var23 + input[2] * -0.000005588336547644908 + input[3] * -0.0019937814265603053 + input[4] * 0.0009228547903058237 + input[5] * 0.004508455119111682 + input[6] * -0.00005356079044180314 + input[7] * -0.0010869147939444124 + input[8] * -0.00005070266154817945 + input[9] * -0.001229574134074386 + input[10] * 0.0011701445439970012 + input[11] * 0.004073483123108691 + input[12] * -0.00035330689137562274 + input[13] * -0.002841376151727244 + input[14] * 0.0002359769457927597 + input[15] * 0.004470924774204267 + input[16] * 0.000335566322000149 + input[17] * 0.004484782160881603 + input[18] * -0.0002192203946061008 + input[19] * -0.0012389633015234762 + input[20] * 0.000018053199506703196 + input[21] * -0.0003038887977297415 + input[22] * -0.0008038842109768577 + input[23] * 0.005057033403796711 + input[24] * 0.0004041852419688217 + input[25] * -0.0011911698913888386 + input[26] * -0.0001993062199788203 + input[27] * 0.0002069365890336541 + input[28] * -0.001527576134170609 + input[29] * 0.003250913745906437 + input[30] * 0.00042427396485640107 + input[31] * -0.0012012307005602294 + input[32] * 0.00004121484081490695 + input[33] * -0.0025235856770757527 + input[34] * -0.0013686944540473168 + input[35] * 0.0015007119935434097 + input[36] * 0.00019423214216387862 + input[37] * -0.0010985704159305536 + input[38] * 0.000009968652787732982 + input[39] * -0.004000721597831547 + input[40] * -0.0004030284522026456 + input[41] * -0.00020857967980091063 + input[42] * 0.000011907123560953291 + input[43] * -0.0010718034862365832 + input[44] * 0.00011062562220283094 + input[45] * -0.00559006530741721 + input[46] * 0.0006576737431956244 + input[47] * 0.00014869293272554864 + input[48] * -0.00009858464231609573 + input[49] * -0.0012926567879684584 + input[50] * 0.00017274092699942557 + input[51] * -0.005344734320675119 + input[52] * 0.0000007386562844360203 + input[53] * 0.0006575222251792416 + input[54] * -0.00018963109794623966 + input[55] * -0.00123046119011148
    var25 = input[56] * 0.00008877527693205264
    var26 = var24 + var25 + input[57] * -0.003286513377438575 + input[58] * 0.0008500604004631112 + input[59] * 0.00044266349047869833 + input[60] * 0.00018401358328599214 + input[61] * -0.001350257748945653 + input[62] * -0.0000739039484411572 + input[63] * -0.0038317140834437644 + input[64] * 0.0021042786570985633 + input[65] * -0.00011027323692539012 + input[66] * 0.0002610165145175408 + input[67] * -0.0013864867877882454 + input[68] * 0.00009591029881270485 + input[69] * -0.004890380675146194 + input[70] * 0.003578120327804751 + input[71] * 0.0012264585465993978 + input[72] * 0.00041507172128362043 + input[73] * -0.0012943676673398004 + input[74] * 0.00020197563505472567 + input[75] * -0.003253642838865421 + input[76] * 0.00499239072372275 + input[77] * 0.0008129639360702569 + input[78] * 0.00040326068755570043 + input[79] * -0.001300611349279402 + input[80] * 0.0002272913629576057 + input[81] * -0.0015436763813470838 + input[82] * 0.005052943532820169 + input[83] * 0.0004494658623767817 + input[84] * 0.000575908398657692 + input[85] * -0.0012444234763894545 + input[86] * 0.00023554204706678614 + input[87] * 0.0011264776797385151 + input[88] * 0.003424875799390075 + input[89] * -0.0002109181257674781 + input[90] * 0.0005125286770960327 + input[91] * -0.0012061849376771563 + input[92] * 0.00008365404246451608 + input[93] * 0.00206583749234341 + input[94] * 0.0017855369456965158 + input[95] * -0.0014764813568517402 + input[96] * 0.0004098979480234827 + input[97] * -0.0013879300693538019 + input[98] * 0.0001120188874484301 + input[99] * 0.0016264282331628559 + input[100] * 0.0007359673145819917 + input[101] * -0.0016143514083702066 + input[102] * 0.0004957900964874876 + input[103] * -0.0012058422193142347 + input[104] * 0.00021253619264993118 + input[105] * 0.0024035543785721506 + input[106] * -0.00026883260397436584 + input[107] * -0.0018543871620628242 + input[108] * 0.00045118602880436223 + input[109] * -0.0011722625023611077 + input[110] * 0.00033754840680861795
    var27 = input[111] * 0.002041180643372237
    var28 = var26 + var27 + input[112] * 0.00008474462939826727 + input[113] * -0.0015794314606833893 + input[114] * 0.0001465029007036995 + input[115] * -0.0009816928283603284 + input[116] * 0.0002540012667075835 + input[117] * 0.002488147605681855 + input[118] * -0.00009453042392066033 + input[119] * 0.0013967751487920486 + input[120] * 0.00006147045391751332 + input[121] * -0.000991375597441984 + input[122] * 0.00020212904431699452 + input[123] * 0.0015156670944659902 + input[124] * 0.0014990949206384343 + input[125] * 0.0011434928737538506 + input[126] * 0.0003040514136981049 + input[127] * -0.0006913159857780711 + input[128] * 0.0001818963733170917 + input[129] * 0.0011924299249906382 + input[130] * 0.003446740971433431 + input[131] * -0.00020661869107694775 + input[132] * 0.00041627415883232615 + input[133] * -0.0005723721485263073 + input[134] * 0.00008985628025569888 + input[135] * 0.001492039181601218 + input[136] * 0.00559840577139772 + input[137] * 0.000100523926970763 + input[138] * 0.0007038073728354567 + input[139] * -0.0005701676788019263 + input[140] * 0.000012782596196116268 + input[141] * 0.0013558286883377805 + input[142] * 0.007280041062147545 + input[143] * 0.0005951781100759603 + input[144] * 0.00009064577298113794 + input[145] * -0.0006667120325192774 + input[146] * 0.00008707167598498043 + input[147] * -0.00023189828713407565 + input[148] * 0.008547843225080388 + input[149] * 0.002018088851257446 + input[150] * 0.0008928381524985764 + input[151] * -0.0010843466699080619 + input[152] * 0.00004757706547129698 + input[153] * -0.002177966142710738 + input[154] * 0.008832096248108708 + input[155] * -0.0015713414410450566 + input[156] * 0.0008093431282351616 + input[157] * -0.0010609269346567173 + input[158] * -0.00008536207079516586 + input[159] * -0.002990776120323079 + input[160] * 0.007733143099074782 + input[161] * -0.0002981177950096491 + input[162] * 0.0010962300581906998 + input[163] * -0.0008724913005027355 + input[164] * 0.00010607850720770907 + input[165] * -0.0049985120949195706
    var29 = input[166] * 0.007414131333168574
    var30 = var28 + var29 + input[167] * 0.0009130090818865292 + input[168] * 0.002005159531495835 + input[169] * -0.0010678624818044411 + input[170] * 0.0004166847143400828 + input[171] * -0.004949475346349771 + input[172] * 0.005983848132404566 + input[173] * 0.005256589176983672 + input[174] * 0.0024115411673890515 + input[175] * -0.0011777480565868237 + input[176] * 0.00007972370701991326 + input[177] * -0.006131915430958291 + input[178] * 0.0033958488237007625 + input[179] * 0.006255066919824409 + input[180] * 0.003947711937140912 + input[181] * -0.0016529194319216153 + input[182] * 0.0004799671127520268 + input[183] * -0.00486935558591953 + input[184] * 0.0027375939615521335 + input[185] * 0.007542859480525032 + input[186] * 0.005005059103494517 + input[187] * -0.0017689744112506472 + input[188] * 0.0005458064553526948 + input[189] * -0.0032931082387621597 + input[190] * 0.003138019053593161 + input[191] * 0.009544679234225837 + input[192] * 0.004703557810976056 + input[193] * -0.0027259887079259565 + input[194] * 0.0005434558599770773 + input[195] * -0.0014541784629209609 + input[196] * 0.0024008419270182403 + input[197] * 0.01816037392106264 + input[198] * 0.009124496296904518 + input[199] * -0.00250281811745669 + input[200] * 0.000758923063746516 + input[201] * -0.0014424829762599652 + input[202] * 0.002884001236624779 + input[203] * 0.005630344376298549 + input[204] * 0.010493082806128597 + input[205] * -0.0037015455952769797 + input[206] * 0.0008447396104841301 + input[207] * 0.0020634559718524666 + input[208] * 0.0020600427035409336 + input[209] * -0.006630439245334455 + input[210] * 0.013940188836588882 + input[211] * -0.003943194267721247 + input[212] * 0.0008098387990579468 + input[213] * 0.0030623968894479417 + input[214] * 0.003860531310365331 + input[215] * -0.00687917804159007 + input[216] * 0.017101336397309295 + input[217] * -0.004540610764405784 + input[218] * 0.0012658518765736285 + input[219] * 0.0028379402611976474 + input[220] * 0.0034965625153427805
    var31 = input[221] * -0.011398030852146085
    var32 = var30 + var31 + input[222] * 0.02008145948705391 + input[223] * -0.0047540092304215594 + input[224] * 0.0011999221503469553 + input[225] * 0.003821643060284875 + input[226] * 0.005510011669968771 + input[227] * -0.013037215130241392 + input[228] * 0.024291024753395937 + input[229] * -0.004452800277280911 + input[230] * 0.001939761591122084 + input[231] * 0.0006066778247969877 + input[232] * 0.0017780962084177389 + input[233] * -0.01063694895217301 + input[234] * 0.027482463785466704 + input[235] * -0.00533752568272269 + input[236] * 0.0011203690746434416 + input[237] * 0.002765131399589611 + input[238] * -0.000673314059852594 + input[239] * -0.01897570743021733 + input[240] * 0.031208772389385943 + input[241] * -0.004391302222176648 + input[242] * 0.0013206231664249913 + input[243] * 0.00026709117022851716 + input[244] * 0.0025399391331340808 + input[245] * -0.008942925979812735 + input[246] * 0.03427863965806987 + input[247] * -0.005581443750015115 + input[248] * 0.0018214646172364467 + input[249] * 0.005013850897817897 + input[250] * 0.0013020074322380854 + input[251] * -0.0025512005562651667 + input[252] * 0.03628150822671459 + input[253] * -0.006420629934260928 + input[254] * 0.001735622104394282 + input[255] * -0.0011080709735739236 + input[256] * 0.00036422166026594567 + input[257] * -0.0020197978889962293 + input[258] * 0.03776108385869434 + input[259] * -0.006163504063300689 + input[260] * 0.0014435213712701309 + input[261] * -0.003553586469810648 + input[262] * -0.007453069652687882 + input[263] * 0.006541691514833608 + input[264] * 0.03800472123845078 + input[265] * -0.006148388289105047 + input[266] * 0.00284318910307339 + input[267] * -0.0014093932336374558 + input[268] * -0.0034683966454637383 + input[269] * 0.006618862815470684 + input[270] * 0.03641418694465098 + input[271] * -0.0069728798844120934 + input[272] * 0.0022240193097211778 + input[273] * -0.005720868503126838 + input[274] * -0.011343895033408201 + input[275] * 0.002035820496840019
    var33 = input[276] * 0.03169790798639742
    var34 = var32 + var33 + input[277] * -0.006120165600093214 + input[278] * 0.0022335414582081593 + input[279] * -0.00022678810574753737 + input[280] * -0.008062042868242407 + input[281] * 0.006707841309148635 + input[282] * 0.02894635559712322 + input[283] * -0.005388809051994175 + input[284] * 0.001212200292894452 + input[285] * -0.005692434638705545 + input[286] * -0.006960862321631596 + input[287] * 0.0006142397259796861 + input[288] * 0.023557732806461368 + input[289] * -0.004896021632671882 + input[290] * 0.003292961886595386 + input[291] * -0.0003717699897494721 + input[292] * -0.010598074343224377 + input[293] * 0.006108207528023296 + input[294] * 0.01788274750035794 + input[295] * -0.0053944841150360785 + input[296] * 0.00023282184002782947 + input[297] * 0.002297136628651461 + input[298] * -0.009479505263183162 + input[299] * 0.023859196625500838 + input[300] * 0.013674795884494087 + input[301] * -0.004590509386545715 + input[302] * 0.0011627554921117206 + input[303] * 0.0025515137298416607 + input[304] * 0.0032565321516031583 + input[305] * -0.0064150145938804345 + input[306] * 0.005152931252768285 + input[307] * -0.0028665894217527847 + input[308] * -0.0000659529206326506 + input[309] * 0.0011157106459773955 + input[310] * -0.0214456745181296 + input[311] * -0.019304163003998686 + input[312] * -0.0007937515139593646 + input[313] * 0.0004670724687351995 + input[314] * -0.0006294376287833951 + input[315] * -0.007375856271398097 + input[316] * -0.002129278908524258 + input[317] * -0.006741317237860198 + input[318] * -0.007833658457718124 + input[319] * 0.0044525940750406836 + input[320] * 0.00031089579750092353 + input[321] * -0.0013522104349239547 + input[322] * -0.000814744092474106 + input[323] * -0.0074947165332583925 + input[324] * -0.011001141582879417 + input[325] * 0.006219603489668411 + input[326] * -0.0019337117761712354 + input[327] * -0.006779098748279674 + input[328] * -0.01103595898691241 + input[329] * -0.014379271840963652 + input[330] * -0.018782562997658517
    var35 = input[331] * 0.006588620426703083
    var36 = var34 + var35 + input[332] * -0.0002198709748877863 + input[333] * -0.00040111001281338315 + input[334] * 0.00405212054894458 + input[335] * -0.0034619699772832457 + input[336] * -0.022139138086860004 + input[337] * 0.006546651548014776 + input[338] * -0.0016423623601292232 + input[339] * -0.003499563738173199 + input[340] * -0.002743642237834525 + input[341] * 0.00607355335339863 + input[342] * -0.028170382819701974 + input[343] * 0.00479687586973911 + input[344] * 0.0008426685718955773 + input[345] * -0.0034462539748382624 + input[346] * -0.003547916176171193 + input[347] * 0.009227362403475157 + input[348] * -0.030316650021075628 + input[349] * 0.004084827792131637 + input[350] * -0.0009077278432546751 + input[351] * -0.008266380516714543 + input[352] * 0.0024431275145581736 + input[353] * 0.0032782003861566156 + input[354] * -0.02877679938065822 + input[355] * 0.0004517134168100962 + input[356] * -0.0013511528542290612 + input[357] * -0.0017943642674696763 + input[358] * 0.0022458024067397815 + input[359] * 0.0025682676801602774 + input[360] * -0.03216118495912319 + input[361] * 0.0012451329954129785 + input[362] * -0.0012439558529399547 + input[363] * -0.005401825793951405 + input[364] * -0.0058556535877987426 + input[365] * 0.0027876269912251095 + input[366] * -0.03164582883605305 + input[367] * 0.0015657042581120968 + input[368] * -0.001453048165014574 + input[369] * 0.0009334074958104228 + input[370] * -0.006392871964719576 + input[371] * 0.006600257174292339 + input[372] * -0.03179793948490167 + input[373] * 0.0032171658982967184 + input[374] * -0.0018842469971677418 + input[375] * -0.005483183105351227 + input[376] * 0.0011614131871728226 + input[377] * 0.0088663328180785 + input[378] * -0.03246908176399178 + input[379] * 0.004014000281578987 + input[380] * -0.0009426713451650122 + input[381] * -0.004294020388158728 + input[382] * -0.0076149317691044435 + input[383] * 0.00885688761196023 + input[384] * -0.0320362499682306 + input[385] * 0.0032156688760167232
    var37 = input[386] * -0.0012822698195457003
    var38 = var36 + var37 + input[387] * 0.00037868757390756264 + input[388] * -0.00019714408524363887 + input[389] * 0.006617557458945191 + input[390] * -0.03115009795718069 + input[391] * 0.0028684520098332285 + input[392] * 0.00034109794664250083 + input[393] * 0.0028404346787532235 + input[394] * 0.0040570599497622645 + input[395] * 0.003211261350375545 + input[396] * -0.027766588904438255 + input[397] * 0.003694080351879774 + input[398] * -0.001044166609673427 + input[399] * 0.0015900996759032014 + input[400] * 0.004677188157859587 + input[401] * 0.007184078335909409 + input[402] * -0.026816485097791963 + input[403] * 0.0039667071693563 + input[404] * -0.001251176339378949 + input[405] * 0.0022189969851759066 + input[406] * -0.005234093291807147 + input[407] * 0.004632332855412699 + input[408] * -0.025301464093285035 + input[409] * 0.004614031695872395 + input[410] * -0.00035565493463292537 + input[411] * -0.00011302720583186127 + input[412] * -0.004279306656909699 + input[413] * 0.005529543490963191 + input[414] * -0.02349118804197274 + input[415] * 0.004114462679696246 + input[416] * -0.0008440680809947493 + input[417] * -0.0033613004884588105 + input[418] * 0.001280685002196572 + input[419] * 0.010126585088163062 + input[420] * -0.02143181073876918 + input[421] * 0.003399964958862187 + input[422] * -0.0008218575150267918 + input[423] * -0.004617163089071254 + input[424] * 0.0008119159613841098 + input[425] * -0.002333048446252724 + input[426] * -0.01990865306884711 + input[427] * 0.0026736952621296164 + input[428] * 0.0005505635325029545 + input[429] * -0.00009920552461589662 + input[430] * 0.0008443369560501789 + input[431] * -0.003880019798297317 + input[432] * -0.0174671293205893 + input[433] * 0.002406046495732985 + input[434] * -0.0002523579483271024 + input[435] * 0.0009766785693310978 + input[436] * 0.00043392143633100587 + input[437] * -0.0036414508463851578 + input[438] * -0.015626178625763334 + input[439] * 0.0019649614467211157 + input[440] * -0.0000749351612601509
    var39 = input[441] * 0.0037548874424425866
    var40 = var38 + var39 + input[442] * -0.004315983708526792 + input[443] * -0.0008039241375425554 + input[444] * -0.014380971283683387 + input[445] * 0.0020779583010270973 + input[446] * 0.00004075646732794442 + input[447] * 0.0025775956486081783 + input[448] * -0.001686233521198187 + input[449] * -0.0035571229960898133 + input[450] * -0.012251750158508644 + input[451] * 0.0015745676742961305 + input[452] * -0.0003595205657884679 + input[453] * 0.0020818697306476705 + input[454] * -0.0011436478140662214 + input[455] * -0.01072696026924978 + input[456] * -0.011475159901482358 + input[457] * 0.0014904013653723514 + input[458] * -0.000021656188071767545 + input[459] * 0.00012799041409069793 + input[460] * 0.001320785846907398 + input[461] * -0.008715285712904338 + input[462] * -0.009299620592953205 + input[463] * 0.0003756331535806055 + input[464] * 0.00038815130171101386 + input[465] * 0.0019789989659178223 + input[466] * -0.0029358881373577474 + input[467] * -0.013017464395625023 + input[468] * -0.00806650941768273 + input[469] * -0.00026933753517287447 + input[470] * 0.0002701878846909716 + input[471] * -0.0006322445183761981 + input[472] * -0.00850467516868895 + input[473] * -0.014229055236343928 + input[474] * -0.007383555748475385 + input[475] * -0.0000944886252877937 + input[476] * 0.0005233116927652396 + input[477] * -0.00032454236152455767 + input[478] * -0.00868549831137438 + input[479] * -0.01657952478870721 + input[480] * -0.006825999447202447 + input[481] * -0.0006150190300989719 + input[482] * 0.0004124745372194122 + input[483] * 0.003907406481749612 + input[484] * -0.0067500504565636745 + input[485] * -0.02076507960005219 + input[486] * -0.005287024865068341 + input[487] * -0.00047050873737423623 + input[488] * 0.0005545486686573944 + input[489] * 0.0041388463025502364 + input[490] * -0.003681999526664247 + input[491] * -0.013349259217246695 + input[492] * -0.004091068216710047 + input[493] * -0.0008401782639968247 + input[494] * 0.0004794047108737363 + input[495] * 0.002492905045992501
    var41 = input[496] * -0.004788169377537034
    var42 = var40 + var41 + input[497] * -0.011841242093569158 + input[498] * -0.004314570730683892 + input[499] * -0.0005410409467861069 + input[500] * 0.0006340521314886612 + input[501] * 0.0036788936586645686 + input[502] * -0.0006481742062896114 + input[503] * -0.010270963167008975 + input[504] * -0.0037287094506433726 + input[505] * -0.0004552426972385019 + input[506] * 0.00039693358616590605 + input[507] * 0.0015451646949726186 + input[508] * -0.0009143716068052437 + input[509] * -0.009886674167693803 + input[510] * -0.0031415125842824123 + input[511] * -0.0008156778571463446 + input[512] * 0.0004171150182360423 + input[513] * 0.0027103814802936525 + input[514] * -0.0019136505354158488 + input[515] * -0.010485755580342515 + input[516] * -0.003101400795808259 + input[517] * -0.001055814244756226 + input[518] * 0.0006485640714224451 + input[519] * 0.0025771218527185537 + input[520] * -0.0016144607434149174 + input[521] * -0.0014647496873182594 + input[522] * -0.0024922528519962244 + input[523] * -0.0009130074666207944 + input[524] * 0.0006528557212394776 + input[525] * 0.002519149055195091 + input[526] * -0.002595073601748815 + input[527] * 0.005314973714781481 + input[528] * -0.0023814274758648824 + input[529] * -0.0009794911948930926 + input[530] * 0.000802804153653572 + input[531] * 0.002085866635276523 + input[532] * -0.003957895910064452 + input[533] * 0.009847586885495406 + input[534] * -0.0020955900065505154 + input[535] * -0.0014698057863626408 + input[536] * 0.0008050184865423758 + input[537] * -0.0002553296570765541 + input[538] * -0.007580050638406885 + input[539] * 0.012923088306351704 + input[540] * -0.0020232059720505674 + input[541] * -0.0007492566446937308 + input[542] * 0.0007971710096200078 + input[543] * -0.0009191148904073139 + input[544] * -0.009634285618686567 + input[545] * 0.011482284527525886 + input[546] * -0.001414860339277048 + input[547] * -0.0005195220740534693 + input[548] * 0.0005021769127037313 + input[549] * -0.00020674741066021722 + input[550] * -0.008743630138651813
    var43 = input[551] * 0.009056467135482846
    var44 = -1.3237601757464077 + input[0] * 0.0007566518395161726
    var45 = input[1] * 0.0016437288307015866
    var46 = var44 + var45 + input[2] * 0.00048493564442678665 + input[3] * 0.0002777386848889379 + input[4] * -0.003565932980345083 + input[5] * -0.00021125833476737528 + input[6] * 0.00044846024141527067 + input[7] * 0.0014474422361585913 + input[8] * 0.0004678343209862006 + input[9] * -0.0012759239552229532 + input[10] * -0.0028184674692577627 + input[11] * -0.0014176595933980875 + input[12] * 0.0006764165869477554 + input[13] * 0.0016915090116305996 + input[14] * 0.00048776157242843204 + input[15] * 0.001283760976652393 + input[16] * -0.0011855400180258455 + input[17] * -0.0013558061165603928 + input[18] * 0.00030963508824509146 + input[19] * 0.0019205441764166982 + input[20] * 0.0008670530003288996 + input[21] * -0.0013661632761125938 + input[22] * -0.002280392573363924 + input[23] * -0.0007873419167533149 + input[24] * 0.0005247667182594071 + input[25] * 0.0022044042192306376 + input[26] * 0.0007036141579074213 + input[27] * 0.0013986537486730323 + input[28] * -0.0033957978731124845 + input[29] * -0.0034071374521910482 + input[30] * 0.0004481192221733631 + input[31] * 0.0021965771551238243 + input[32] * 0.0006909636757903693 + input[33] * -0.001604636801222457 + input[34] * -0.004595392442896983 + input[35] * -0.004313487875670436 + input[36] * 0.0003643153390532905 + input[37] * 0.00204766145462558 + input[38] * 0.0008539333215587235 + input[39] * -0.002754373804165647 + input[40] * -0.003481864132896304 + input[41] * -0.0039368054147698095 + input[42] * 0.00044153600237538935 + input[43] * 0.0018457344080392677 + input[44] * 0.0009390692268294887 + input[45] * -0.0035961837087564144 + input[46] * -0.0011130550820643277 + input[47] * -0.004128547788977442 + input[48] * 0.000027367899302407367 + input[49] * 0.0019695464637003147 + input[50] * 0.0013756738027372846 + input[51] * -0.0034416853307610864 + input[52] * -0.0018218700074940184 + input[53] * -0.001251792052825993 + input[54] * 0.00024244449623367595 + input[55] * 0.002027581597727506
    var47 = input[56] * 0.0010234951531730224
    var48 = var46 + var47 + input[57] * -0.0025809450336014847 + input[58] * -0.0034696455247750645 + input[59] * 0.0007695571947834166 + input[60] * 0.0003878236673683059 + input[61] * 0.00209257602480729 + input[62] * 0.001150371310287248 + input[63] * -0.001266243530646251 + input[64] * -0.005228860399354788 + input[65] * 0.0029821120534792673 + input[66] * 0.0005984810008552251 + input[67] * 0.0022547039080976733 + input[68] * 0.0007657918721744456 + input[69] * -0.0010087733394252112 + input[70] * -0.004335772396918205 + input[71] * 0.00319443989050681 + input[72] * 0.0004659322607373652 + input[73] * 0.0022085381204829503 + input[74] * 0.000714416869758773 + input[75] * -0.002362771294921846 + input[76] * -0.00020763122408966398 + input[77] * 0.0012118895893275944 + input[78] * 0.0005808628697952485 + input[79] * 0.0023361319720700785 + input[80] * 0.0009466073004185236 + input[81] * -0.0013440533964608607 + input[82] * -0.003273577978955426 + input[83] * 0.000017691336062756332 + input[84] * 0.0003839336088555995 + input[85] * 0.002364616385538647 + input[86] * 0.0010226498413783277 + input[87] * 0.0007501515906467806 + input[88] * -0.005258619153335636 + input[89] * 0.00025956025135323894 + input[90] * 0.0003888933261410309 + input[91] * 0.0025445228087727315 + input[92] * 0.000817385046047077 + input[93] * 0.0005621108964114387 + input[94] * -0.006254270063915953 + input[95] * -0.0004994449227371647 + input[96] * 0.0004542027804177175 + input[97] * 0.002762392124255884 + input[98] * 0.0007786995374782684 + input[99] * -0.0010341401903874732 + input[100] * -0.007311343097544635 + input[101] * -0.0008473158544303884 + input[102] * 0.000569389874008608 + input[103] * 0.0031067979819848356 + input[104] * 0.0008247135288831126 + input[105] * -0.0006222348288322935 + input[106] * -0.00575658703182309 + input[107] * -0.001958351754105892 + input[108] * 0.0004915072061628144 + input[109] * 0.0031602482571590784 + input[110] * 0.0010723588396132097
    var49 = input[111] * -0.00024024692372865322
    var50 = var48 + var49 + input[112] * -0.004862109779004233 + input[113] * -0.004026008319351167 + input[114] * 0.0007851976105250332 + input[115] * 0.0029331145938272353 + input[116] * 0.000722800640606369 + input[117] * 0.003573052067476477 + input[118] * -0.005741250027560622 + input[119] * -0.0036937190389149457 + input[120] * 0.0008179538668940045 + input[121] * 0.002878897731104119 + input[122] * 0.001028992545420116 + input[123] * 0.002390436855166263 + input[124] * -0.0010035186069896297 + input[125] * -0.003161119973308665 + input[126] * 0.0008974580162723892 + input[127] * 0.0024706511244879065 + input[128] * 0.0011392308619611192 + input[129] * 0.0023831877834753043 + input[130] * 0.0011421996300588003 + input[131] * -0.004461246447113688 + input[132] * 0.0003713388795839695 + input[133] * 0.0026264572769528417 + input[134] * 0.0011041967742932543 + input[135] * 0.0025947940810797394 + input[136] * -0.0021369657890608373 + input[137] * -0.004612040657174347 + input[138] * 0.0005144886574753749 + input[139] * 0.002694164647266502 + input[140] * 0.0009090178913390377 + input[141] * 0.002979727337048646 + input[142] * -0.0014244639103973913 + input[143] * -0.004369032869722777 + input[144] * 0.0012687788165456186 + input[145] * 0.0028681092478688415 + input[146] * 0.0006568419599223561 + input[147] * 0.0015902631162271299 + input[148] * 0.002251507611958027 + input[149] * -0.006371425008064138 + input[150] * 0.00038607857158161595 + input[151] * 0.003567046127743361 + input[152] * 0.0008291474522948131 + input[153] * 0.0013835958959787056 + input[154] * 0.0014223543646257487 + input[155] * -0.0037968107708980007 + input[156] * 0.0005144439418243774 + input[157] * 0.00325115278790848 + input[158] * 0.0011209622797398876 + input[159] * 0.001761395148502443 + input[160] * -0.0012146355307818912 + input[161] * -0.0038622280149024826 + input[162] * 0.00025364800935221896 + input[163] * 0.0032490455757590193 + input[164] * 0.00018822956192718373 + input[165] * -0.0006005382637898041
    var51 = input[166] * -0.0011129563341058801
    var52 = var50 + var51 + input[167] * -0.004572874991355758 + input[168] * -0.00029381965081890437 + input[169] * 0.004379233674499833 + input[170] * 0.0008372579704302215 + input[171] * 0.0006145724202540717 + input[172] * -0.0006782064019218115 + input[173] * -0.005594148897335279 + input[174] * -0.000581673039353628 + input[175] * 0.006171707979461071 + input[176] * 0.0003682666907360068 + input[177] * -0.0007517386460085543 + input[178] * -0.0016533074721095896 + input[179] * -0.00603153348525846 + input[180] * -0.0017438731499796964 + input[181] * 0.010077783757525225 + input[182] * 0.0007050164478388045 + input[183] * 0.0011104082462188823 + input[184] * -0.000971802148283477 + input[185] * -0.0024767753351409936 + input[186] * -0.002393231778529155 + input[187] * 0.013350426914979127 + input[188] * 0.0006739759333808009 + input[189] * -0.00008773847202584589 + input[190] * -0.0006491811867835319 + input[191] * -0.009539293433982167 + input[192] * -0.00241518465294623 + input[193] * 0.017186934405900616 + input[194] * 0.0003829014331004754 + input[195] * -0.001205202991388411 + input[196] * -0.0008111128206037952 + input[197] * -0.0247668315640485 + input[198] * -0.005135187690108884 + input[199] * 0.02262317772384273 + input[200] * 0.0004719955298056896 + input[201] * 0.0005704021868652004 + input[202] * -0.0015457863992396621 + input[203] * -0.00870583249036795 + input[204] * -0.0019668779711454316 + input[205] * 0.026341991357584495 + input[206] * 0.00005146114517791051 + input[207] * 0.000025879219600146746 + input[208] * 0.00008284522693822267 + input[209] * 0.007292126317361722 + input[210] * 0.0005274815311414992 + input[211] * 0.03002065136982052 + input[212] * 0.00007616903772153764 + input[213] * 0.0012634668324133455 + input[214] * -0.0000870022518811981 + input[215] * 0.011944157929225025 + input[216] * 0.0013104131870107106 + input[217] * 0.03304547162448622 + input[218] * 0.0008783895298792974 + input[219] * 0.0016957371267662404 + input[220] * -0.0005821596156364746
    var53 = input[221] * 0.012334927537605048
    var54 = var52 + var53 + input[222] * 0.0017610745703390206 + input[223] * 0.03589205936184195 + input[224] * -0.00041015266283866395 + input[225] * 0.0010189445533083426 + input[226] * 0.0022467679860902136 + input[227] * 0.003265720843530385 + input[228] * 0.0011309180654358634 + input[229] * 0.03650498879032364 + input[230] * -0.0005850065099438596 + input[231] * 0.0017285747347642185 + input[232] * 0.00021156897909376765 + input[233] * 0.0014824293405168183 + input[234] * -0.0007123615720518701 + input[235] * 0.03614428402757998 + input[236] * -0.0009460516090482892 + input[237] * 0.0035751688006296317 + input[238] * -0.0005897121101827647 + input[239] * 0.009681747324781552 + input[240] * -0.004731110404996768 + input[241] * 0.032884863233862235 + input[242] * -0.00016563939605664078 + input[243] * 0.0004997404051493343 + input[244] * 0.0021079090287563435 + input[245] * 0.008562835287183268 + input[246] * -0.008869577250887588 + input[247] * 0.02999796729903609 + input[248] * 0.000319409931967317 + input[249] * 0.005048731897223966 + input[250] * 0.0031975319781959513 + input[251] * 0.01245668287374274 + input[252] * -0.012352313380362096 + input[253] * 0.0266465975808305 + input[254] * -0.000284351373888273 + input[255] * 0.004653923087815468 + input[256] * 0.006683551204572918 + input[257] * 0.01169025898016844 + input[258] * -0.014850840602516785 + input[259] * 0.02148624145719482 + input[260] * -0.0002597566061792662 + input[261] * 0.006040133038075874 + input[262] * 0.003404390814915265 + input[263] * 0.004429221213919229 + input[264] * -0.016278361589583058 + input[265] * 0.018499424150246992 + input[266] * -0.0010857848138359826 + input[267] * 0.005840932523208278 + input[268] * 0.0026932706671168307 + input[269] * 0.011194583204912588 + input[270] * -0.017305692462081853 + input[271] * 0.015449351051728955 + input[272] * -0.0002697129466562336 + input[273] * 0.009831396226725044 + input[274] * 0.004586458152942788 + input[275] * 0.002787504899207297
    var55 = input[276] * -0.01730418016726789
    var56 = var54 + var55 + input[277] * 0.01142560759190854 + input[278] * -0.00041010979696247613 + input[279] * 0.007105231934592637 + input[280] * 0.007548027260041661 + input[281] * 0.0010880144277916667 + input[282] * -0.017486582765039078 + input[283] * 0.009024101713002627 + input[284] * 0.0013256322785178166 + input[285] * 0.007762706012449399 + input[286] * 0.009483287787527604 + input[287] * 0.006988177875155322 + input[288] * -0.012371509027321266 + input[289] * 0.005890918885091406 + input[290] * -0.0002676482935951313 + input[291] * 0.005395068635494337 + input[292] * 0.004488143087965677 + input[293] * 0.008922773333309526 + input[294] * -0.009074634105972507 + input[295] * 0.0032548436564965306 + input[296] * 0.00040417784811905234 + input[297] * 0.011508198581993348 + input[298] * -0.002664201314662793 + input[299] * 0.004448089128758834 + input[300] * -0.0010946273617148644 + input[301] * 0.00233704274708341 + input[302] * -0.0019993756458327188 + input[303] * 0.010271696177415468 + input[304] * 0.0030995482037779482 + input[305] * 0.004457759473744971 + input[306] * 0.0003047784025550008 + input[307] * -0.004625798937572443 + input[308] * 0.0022557582794133424 + input[309] * 0.01314839821806796 + input[310] * 0.005580421855917655 + input[311] * 0.005237945164194925 + input[312] * 0.002497706067568139 + input[313] * -0.010509840771502958 + input[314] * 0.0009388137863191153 + input[315] * 0.014080573660172862 + input[316] * -0.006381484091505806 + input[317] * 0.0015492828106503226 + input[318] * 0.0025413126409582587 + input[319] * -0.018259456892855262 + input[320] * 0.0015451915033657183 + input[321] * 0.00951648807837108 + input[322] * 0.002051611527116542 + input[323] * -0.0028263179102338016 + input[324] * 0.0031867552930419677 + input[325] * -0.027756376754874405 + input[326] * 0.001488985114956527 + input[327] * 0.011954229549794465 + input[328] * 0.0021151992913628235 + input[329] * 0.008655043525691172 + input[330] * 0.004991592987021299
    var57 = input[331] * -0.03720702325798587
    var58 = var56 + var57 + input[332] * 0.0003154259888898475 + input[333] * 0.008615873004736029 + input[334] * -0.0008742362861177523 + input[335] * 0.008109785253958578 + input[336] * 0.003736314197071345 + input[337] * -0.041484215484792905 + input[338] * -0.0013649983599782628 + input[339] * 0.0036577925629351265 + input[340] * 0.007425999345535408 + input[341] * 0.0017688296057822655 + input[342] * 0.0005425748911211349 + input[343] * -0.041567770700438406 + input[344] * 0.001421783071144285 + input[345] * 0.004732761603610003 + input[346] * 0.0020907524757717774 + input[347] * -0.007662101903395673 + input[348] * 0.0009399362291879333 + input[349] * -0.04181593363640484 + input[350] * 0.002043102624420138 + input[351] * 0.0010710706758952397 + input[352] * 0.003112460757894526 + input[353] * -0.013725527995870825 + input[354] * 0.0030149596961633446 + input[355] * -0.0423702576638295 + input[356] * 0.0006974482176612752 + input[357] * 0.002525132948685625 + input[358] * 0.0035572230158510978 + input[359] * -0.011865281617226045 + input[360] * 0.006930935674852316 + input[361] * -0.04034439573182224 + input[362] * -0.0006237963143982461 + input[363] * 0.0055931811848652395 + input[364] * 0.0036016533063390537 + input[365] * -0.013761864402020998 + input[366] * 0.008776056322416778 + input[367] * -0.033549960415037765 + input[368] * -0.00039712641895413845 + input[369] * 0.00027066629639112895 + input[370] * 0.004449591484051412 + input[371] * -0.014722106586698909 + input[372] * 0.00972535616687935 + input[373] * -0.031229786476640476 + input[374] * 0.0015842349057887696 + input[375] * 0.0026893321432190907 + input[376] * -0.0024046085819755367 + input[377] * -0.007731283315127905 + input[378] * 0.010689544148735172 + input[379] * -0.02866016045162598 + input[380] * 0.0026552253731885024 + input[381] * -0.0018574083514804685 + input[382] * 0.0010039172302738501 + input[383] * -0.009465428257300606 + input[384] * 0.01050263583761965 + input[385] * -0.025083901329129236
    var59 = input[386] * 0.001101210625186101
    var60 = var58 + var59 + input[387] * -0.003923232863855191 + input[388] * 0.0019863771823124387 + input[389] * -0.011881771365428312 + input[390] * 0.009870187853070705 + input[391] * -0.024055776609942608 + input[392] * 0.0005311502360934071 + input[393] * -0.002605890280503877 + input[394] * 0.003555594970513744 + input[395] * -0.007485861577973893 + input[396] * 0.007727953656722691 + input[397] * -0.023355087665749105 + input[398] * 0.00016383093380846207 + input[399] * -0.0016058910038028668 + input[400] * 0.0037924387305700914 + input[401] * -0.001041519805839795 + input[402] * 0.007234968208958146 + input[403] * -0.021302999454433053 + input[404] * -0.0007766628953378512 + input[405] * -0.002230463117386027 + input[406] * -0.0024969501555870645 + input[407] * 0.0042435738635596704 + input[408] * 0.00488454106506738 + input[409] * -0.019713250386946452 + input[410] * 0.0008911314735850344 + input[411] * -0.00021743651079656474 + input[412] * -0.0011968894887314592 + input[413] * 0.011274727508110871 + input[414] * 0.0048404661240504555 + input[415] * -0.017233067975011576 + input[416] * 0.0002004674655656804 + input[417] * -0.000026801221648723863 + input[418] * -0.0004689766552585758 + input[419] * 0.011563156260278538 + input[420] * 0.004308445192066956 + input[421] * -0.014310179400141525 + input[422] * 0.0010054863565466092 + input[423] * 0.00000000003822811166464126 + input[424] * 0.0009613628288859778 + input[425] * 0.015285881618571563 + input[426] * 0.0037962423483740067 + input[427] * -0.012654971145920327 + input[428] * 0.0006981457001167578 + input[429] * -0.0003021079910577907 + input[430] * -0.0055947357410288 + input[431] * 0.014314829765552942 + input[432] * 0.003762585252718984 + input[433] * -0.011674202325152946 + input[434] * 0.0005427364245163176 + input[435] * 0.00046358320615842274 + input[436] * -0.004102345669208542 + input[437] * 0.01319878785336096 + input[438] * 0.0029581494857547895 + input[439] * -0.009408637916903847 + input[440] * 0.0005918342699420144
    var61 = input[441] * 0.0008930337150343666
    var62 = var60 + var61 + input[442] * -0.0021798419996768405 + input[443] * 0.004948692458870949 + input[444] * 0.0024010335888147286 + input[445] * -0.007931725006930419 + input[446] * 0.0007065061952479902 + input[447] * 0.00021224729843632596 + input[448] * 0.0009745338042317037 + input[449] * 0.0033761956643874307 + input[450] * 0.0026585121203614457 + input[451] * -0.006910115698851925 + input[452] * 0.00015711510248544536 + input[453] * 0.000018743267131058332 + input[454] * 0.0032205261306573825 + input[455] * 0.00010920943686432566 + input[456] * 0.001451736067215469 + input[457] * -0.005491854110909396 + input[458] * 0.0005496468641771237 + input[459] * 0.00033821946416005036 + input[460] * 0.0026121445732361147 + input[461] * -0.0005810470177114504 + input[462] * 0.0008029362503409945 + input[463] * -0.004609784237284473 + input[464] * 0.0004812322235291732 + input[465] * 0.0009999936681149193 + input[466] * 0.0033736484875438373 + input[467] * -0.0005770818566873468 + input[468] * 0.001144335690709738 + input[469] * -0.00391997153990094 + input[470] * 0.0005183763431087343 + input[471] * 0.001566510477362267 + input[472] * 0.0016153456416824366 + input[473] * 0.0014240172030395943 + input[474] * 0.0010426234463200637 + input[475] * -0.003838925262861258 + input[476] * 0.0004138468786665874 + input[477] * 0.002104493074208677 + input[478] * 0.0008038937762346684 + input[479] * 0.0023584102445056024 + input[480] * 0.0010487954888441092 + input[481] * -0.0026603049276881967 + input[482] * 0.00027829802932795127 + input[483] * 0.0027477626494512783 + input[484] * 0.0011452267261123873 + input[485] * 0.001640532852770234 + input[486] * 0.0013084982307678566 + input[487] * -0.001271202193733752 + input[488] * -0.00007554120920553003 + input[489] * 0.0012291704053540896 + input[490] * 0.0024065035325048357 + input[491] * 0.0012673314895469343 + input[492] * 0.0011101239134200492 + input[493] * -0.0004192036371779814 + input[494] * -0.00010606765630711648 + input[495] * -0.0005996222503989684
    var63 = input[496] * 0.0005706346533631716
    var64 = var62 + var63 + input[497] * 0.000337890599787678 + input[498] * 0.001096752925198353 + input[499] * -0.000225412637772218 + input[500] * -0.00014812495541254142 + input[501] * -0.003231672389707666 + input[502] * -0.00009312037116182778 + input[503] * 0.0014906129901137055 + input[504] * 0.0010370025179917103 + input[505] * 0.00008979593735654253 + input[506] * -0.0002027975073407878 + input[507] * -0.0054469603726584135 + input[508] * -0.0005079600116855051 + input[509] * 0.0031072633408457716 + input[510] * 0.0009694355670786321 + input[511] * 0.00026625706791308357 + input[512] * -0.0001720735160431149 + input[513] * -0.006414847434810365 + input[514] * -0.0006476785065740713 + input[515] * 0.002790570123242971 + input[516] * 0.0010050224042429156 + input[517] * 0.0002849092953097826 + input[518] * -0.00001316697993735569 + input[519] * -0.007341428856822063 + input[520] * 0.0007433380724591364 + input[521] * -0.0009488732464390341 + input[522] * 0.0009352343641012331 + input[523] * 0.00011543101008846266 + input[524] * 0.0003412617330167126 + input[525] * -0.0052371610639158385 + input[526] * 0.004008318331453195 + input[527] * -0.003146126304992342 + input[528] * 0.0009468822041287131 + input[529] * 0.00015446525746110797 + input[530] * 0.0003175697908840574 + input[531] * -0.0028375355738080293 + input[532] * 0.005032486041236855 + input[533] * -0.004077463038904066 + input[534] * 0.0008574565667526521 + input[535] * 0.00041027245830658365 + input[536] * 0.00032379884298529304 + input[537] * -0.003018973623795044 + input[538] * 0.003429589213820578 + input[539] * -0.0038235188134762045 + input[540] * 0.0006535049898431457 + input[541] * 0.00036715614559236823 + input[542] * 0.0004995664928543994 + input[543] * -0.00207101291590204 + input[544] * 0.002315543260053741 + input[545] * -0.003997930838205741 + input[546] * 0.0006716121335305405 + input[547] * 0.00026243738236114266 + input[548] * 0.0005362181829701586 + input[549] * -0.0013792793325249873 + input[550] * 0.0027583575628776984
    var65 = input[551] * -0.004153667346254089
    var66 = -4.744396278347893 + input[0] * -0.000013085371140669766
    var67 = input[1] * 0.000007705419591449879
    var68 = var66 + var67 + input[2] * -0.0008557011492025955 + input[3] * 0.0006208094552675819 + input[4] * 0.0001688828052128662 + input[5] * -0.0008492893273867191 + input[6] * -0.0000211783784493317 + input[7] * 0.0000029251519860048616 + input[8] * -0.0008578268230220794 + input[9] * 0.0006530462618149612 + input[10] * 0.00008838457156028669 + input[11] * -0.0008482753120034705 + input[12] * -0.000023431464325320136 + input[13] * 0.000016646379002861534 + input[14] * -0.0008688371076096656 + input[15] * 0.0006000045209620527 + input[16] * 0.00006568232120544432 + input[17] * -0.0007796949010018665 + input[18] * -0.00002854971946444582 + input[19] * -0.00000534023553571229 + input[20] * -0.0008636278141318943 + input[21] * 0.0005659883762165329 + input[22] * 0.00009210395697487485 + input[23] * -0.0006713433286454023 + input[24] * -0.00004547389583675838 + input[25] * -0.000002907419958649757 + input[26] * -0.0008612987363268195 + input[27] * 0.0004506369003268682 + input[28] * 0.00008018480556542292 + input[29] * -0.0005382162179578165 + input[30] * -0.00005789512812615743 + input[31] * -0.000004239273239545784 + input[32] * -0.0008580375366618431 + input[33] * 0.0003344318352626389 + input[34] * 0.00000516698543492962 + input[35] * -0.0004465479581665977 + input[36] * -0.00007400877881553797 + input[37] * 0.000002778203695664315 + input[38] * -0.0008510944277066461 + input[39] * 0.0003136645350049516 + input[40] * -0.00001645212790520689 + input[41] * -0.00036746095924604 + input[42] * -0.00010918815687196222 + input[43] * 0.0000049670710617403485 + input[44] * -0.0008565040559837312 + input[45] * 0.00029074984906610587 + input[46] * -0.000008068000401131895 + input[47] * -0.0002601820343457871 + input[48] * -0.0001271771244043659 + input[49] * 0.0000020547503778797776 + input[50] * -0.0008660563060053371 + input[51] * 0.00019722574066913666 + input[52] * -0.00004415216561068955 + input[53] * -0.00016229394139271014 + input[54] * -0.0001562221570648598 + input[55] * 0.000008419746511262564
    var69 = input[56] * -0.0008703811304827246
    var70 = var68 + var69 + input[57] * 0.00004849344110849652 + input[58] * -0.00009242419476480988 + input[59] * -0.00009117540258133527 + input[60] * -0.0002038375119093517 + input[61] * 0.000007135990518582914 + input[62] * -0.0008719495798095951 + input[63] * -0.00006564532030130719 + input[64] * -0.0001803965424539867 + input[65] * 0.000025066356215430905 + input[66] * -0.0002381450263953522 + input[67] * 0.000012840417954604893 + input[68] * -0.0008821331772570802 + input[69] * -0.00023602604880445575 + input[70] * -0.0000523915974935212 + input[71] * 0.00025186864453777166 + input[72] * -0.00027361402468953816 + input[73] * 0.00002988110383948149 + input[74] * -0.000872814431250433 + input[75] * -0.0005604925458703529 + input[76] * 0.00034129282811658343 + input[77] * 0.00046885571057646877 + input[78] * -0.0003051287231448446 + input[79] * 0.00004581270940452267 + input[80] * -0.0008482411371778869 + input[81] * -0.0007340843630625812 + input[82] * 0.00030460455094008163 + input[83] * 0.0006276730392312657 + input[84] * -0.0003296920193962868 + input[85] * 0.0000695426302459264 + input[86] * -0.0008395575364960992 + input[87] * -0.0009295013597441651 + input[88] * 0.0004640848026603423 + input[89] * 0.0008218462303304706 + input[90] * -0.0003780472950927601 + input[91] * 0.00009568508071819869 + input[92] * -0.0007925648907020829 + input[93] * -0.0011275995505253275 + input[94] * 0.0006680528310722344 + input[95] * 0.001066969925403326 + input[96] * -0.00041114711239525825 + input[97] * 0.00012176704259253416 + input[98] * -0.0007399628171893541 + input[99] * -0.0012500952700009243 + input[100] * 0.0007830895358443791 + input[101] * 0.0014067152655380642 + input[102] * -0.0004203100426251932 + input[103] * 0.0001396026101024295 + input[104] * -0.0006795513408590934 + input[105] * -0.001284603938570545 + input[106] * 0.0007607368384796945 + input[107] * 0.0018889246799928632 + input[108] * -0.00041225976411673316 + input[109] * 0.00014643992123976242 + input[110] * -0.0006272022529151733
    var71 = input[111] * -0.001244806700707096
    var72 = var70 + var71 + input[112] * 0.0005525293377184445 + input[113] * 0.0023970558304176608 + input[114] * -0.000384972533678825 + input[115] * 0.0001579738097232312 + input[116] * -0.0005746124688390999 + input[117] * -0.0011932717208636826 + input[118] * 0.0002770555617624361 + input[119] * 0.0028907848160622564 + input[120] * -0.00033488858477603514 + input[121] * 0.00017556851300893673 + input[122] * -0.0005396456624986925 + input[123] * -0.0011428634188063048 + input[124] * 0.00001179099185812545 + input[125] * 0.003337010498974407 + input[126] * -0.00026596031336595193 + input[127] * 0.0001759576204411917 + input[128] * -0.0005077811816121962 + input[129] * -0.0009983088547482594 + input[130] * -0.00019838997678282014 + input[131] * 0.0037351100864791674 + input[132] * -0.00018612561431529282 + input[133] * 0.00014435792207523926 + input[134] * -0.0004772587055168063 + input[135] * -0.0005998595709685301 + input[136] * -0.000510956621526552 + input[137] * 0.004115858022656338 + input[138] * -0.00007568990950802273 + input[139] * 0.0000961603663638311 + input[140] * -0.0004661271303025571 + input[141] * 0.00013508502323268535 + input[142] * -0.0007663883916518299 + input[143] * 0.004463457082231589 + input[144] * 0.000041589689551886766 + input[145] * 0.00004806068846595772 + input[146] * -0.0004603713743031623 + input[147] * 0.0012260432375278104 + input[148] * -0.0008596608467441132 + input[149] * 0.004758348448829223 + input[150] * 0.00013952978275401758 + input[151] * -0.000004162853040188831 + input[152] * -0.00045937248272865115 + input[153] * 0.0024800909723430675 + input[154] * -0.0008631885430289303 + input[155] * 0.005061249544310346 + input[156] * 0.0002328010664964394 + input[157] * -0.00006770087972822591 + input[158] * -0.00046268253994709237 + input[159] * 0.0037563398059636665 + input[160] * -0.0009301597176808785 + input[161] * 0.005270964731581946 + input[162] * 0.0003127505830385779 + input[163] * -0.00012135151722191132 + input[164] * -0.0004667659795038784 + input[165] * 0.004855861142237158
    var73 = input[166] * -0.0011357484353252687
    var74 = var72 + var73 + input[167] * 0.0053982476190606535 + input[168] * 0.00037664202818928056 + input[169] * -0.00019364025723869882 + input[170] * -0.00047691890516955834 + input[171] * 0.0057674211190526705 + input[172] * -0.001492540661279214 + input[173] * 0.005382945459025963 + input[174] * 0.0004462452616071936 + input[175] * -0.0002507835344274392 + input[176] * -0.0005033903077326537 + input[177] * 0.006319726396783321 + input[178] * -0.002042635528650721 + input[179] * 0.005082455967958541 + input[180] * 0.0005044435963074299 + input[181] * -0.00028882642725565615 + input[182] * -0.0005872939620991444 + input[183] * 0.006475250655194188 + input[184] * -0.002641061509511939 + input[185] * 0.004549589819589147 + input[186] * 0.0005664576187857808 + input[187] * -0.00030933524778333367 + input[188] * -0.000691793071698534 + input[189] * 0.0062369971454615284 + input[190] * -0.0032994852069192886 + input[191] * 0.0038602974119397266 + input[192] * 0.0006374853911829113 + input[193] * -0.0003175691953348103 + input[194] * -0.0007928026762632013 + input[195] * 0.005701179280875334 + input[196] * -0.0039078307867886275 + input[197] * 0.0030432949405077877 + input[198] * 0.0006432197121018539 + input[199] * -0.0003378363360162393 + input[200] * -0.0008943371139837653 + input[201] * 0.005079299419143073 + input[202] * -0.0045051713913854905 + input[203] * 0.002106419230191384 + input[204] * 0.0006379107611709324 + input[205] * -0.00035096161107915516 + input[206] * -0.0010255898198576173 + input[207] * 0.004156775204640429 + input[208] * -0.005025332128395633 + input[209] * 0.0012329728128564678 + input[210] * 0.0006221575831940943 + input[211] * -0.00037673493788778175 + input[212] * -0.0011237841993874907 + input[213] * 0.003153741056065166 + input[214] * -0.005301450996636573 + input[215] * 0.00034923179676854825 + input[216] * 0.0006139098877699781 + input[217] * -0.0003929201798444901 + input[218] * -0.0012244953958318184 + input[219] * 0.0020359111599837494 + input[220] * -0.0051076163960284485
    var75 = input[221] * -0.0005882413133844319
    var76 = var74 + var75 + input[222] * 0.0006026526777577186 + input[223] * -0.00043187433410527736 + input[224] * -0.0013105297151440286 + input[225] * 0.0007416990469390879 + input[226] * -0.004709765173977723 + input[227] * -0.0015245029088798178 + input[228] * 0.0005500513192722899 + input[229] * -0.0004656526859447363 + input[230] * -0.0013509343967888414 + input[231] * -0.00034299122646876595 + input[232] * -0.004102978318351809 + input[233] * -0.002391264159819501 + input[234] * 0.0004715786190625049 + input[235] * -0.0004909143637817985 + input[236] * -0.0013730241153153229 + input[237] * -0.0011995768210048415 + input[238] * -0.0035548880495944986 + input[239] * -0.003124833444291856 + input[240] * 0.00038495417471649373 + input[241] * -0.0005301560691402705 + input[242] * -0.0013788719846062568 + input[243] * -0.0018001388137417898 + input[244] * -0.0029533356513154465 + input[245] * -0.003951692345592994 + input[246] * 0.00029062499827627573 + input[247] * -0.0005714668415477284 + input[248] * -0.0013605158229904588 + input[249] * -0.001943888586642729 + input[250] * -0.0024002069958125403 + input[251] * -0.004697442429058744 + input[252] * 0.00017221664747951788 + input[253] * -0.0005942733746186092 + input[254] * -0.0013349467253176216 + input[255] * -0.0015538809557268864 + input[256] * -0.0020681566384307863 + input[257] * -0.005213785881830267 + input[258] * 0.000037226119610350296 + input[259] * -0.0005613328717524173 + input[260] * -0.0013551237248501226 + input[261] * -0.0011415389740769863 + input[262] * -0.0018032606609921205 + input[263] * -0.005293490076639663 + input[264] * -0.00013479522736531638 + input[265] * -0.0004761163963529765 + input[266] * -0.0013710417493439761 + input[267] * -0.0010458421721881498 + input[268] * -0.0017192799144503425 + input[269] * -0.005382427631332636 + input[270] * -0.0002954138344681252 + input[271] * -0.00037337933628691625 + input[272] * -0.0014170227840828286 + input[273] * -0.0011937607984380187 + input[274] * -0.0013531543746631222 + input[275] * -0.005320927766793164
    var77 = input[276] * -0.00030776771010990536
    var78 = var76 + var77 + input[277] * -0.0002774265119189329 + input[278] * -0.0014163529928944334 + input[279] * -0.0015753617481869986 + input[280] * -0.0008972411403830611 + input[281] * -0.005447034743966644 + input[282] * -0.00035476567082403114 + input[283] * -0.000188296986724864 + input[284] * -0.001350807978825888 + input[285] * -0.0020773666678618507 + input[286] * -0.00007567081187408814 + input[287] * -0.005555873214728016 + input[288] * -0.00043710191341008326 + input[289] * -0.00009252112511707203 + input[290] * -0.0012107670605586178 + input[291] * -0.0026230749885688557 + input[292] * 0.000976793010057898 + input[293] * -0.005948362155922323 + input[294] * -0.0004883842135366659 + input[295] * 0.00001623651961073811 + input[296] * -0.0011225511883566775 + input[297] * -0.0028378340434513224 + input[298] * 0.0017111586825558408 + input[299] * -0.005853068180043303 + input[300] * -0.0005511549580682494 + input[301] * 0.00011082535275616838 + input[302] * -0.0010367510813446825 + input[303] * -0.002819714605788925 + input[304] * 0.0020331360512637303 + input[305] * -0.0048250196373715104 + input[306] * -0.000573141499724289 + input[307] * 0.00024030037010246965 + input[308] * -0.0010106581641232896 + input[309] * -0.0025324729308254337 + input[310] * 0.0017365810270561436 + input[311] * -0.0036055765499646802 + input[312] * -0.0005792056397122633 + input[313] * 0.0003102688582181208 + input[314] * -0.001009314124386179 + input[315] * -0.002419799319047315 + input[316] * 0.0010864855088696102 + input[317] * -0.0028152637621157287 + input[318] * -0.0005919877797662037 + input[319] * 0.0003101963701512517 + input[320] * -0.001031504862673392 + input[321] * -0.0028327508192583315 + input[322] * 0.0009817924342824728 + input[323] * -0.0021154483727855978 + input[324] * -0.0005717721445299183 + input[325] * 0.0002976832306051242 + input[326] * -0.000992599119081971 + input[327] * -0.003264128601891875 + input[328] * 0.0012325480524364475 + input[329] * -0.0013193324883836114 + input[330] * -0.00038411928442986804
    var79 = input[331] * 0.00028492372348001735
    var80 = var78 + var79 + input[332] * -0.0009871018718738576 + input[333] * -0.003714596422902656 + input[334] * 0.0016365736412696289 + input[335] * -0.000647102742638948 + input[336] * -0.00021128859561223896 + input[337] * 0.0003327810502876218 + input[338] * -0.0009174878801769038 + input[339] * -0.003666629686334669 + input[340] * 0.0016813915248676643 + input[341] * -0.00024256296074944586 + input[342] * -0.00006483289402962349 + input[343] * 0.0003578521746057524 + input[344] * -0.0009125244522220121 + input[345] * -0.003563614125412094 + input[346] * 0.0016569151703746342 + input[347] * 0.000154251302752591 + input[348] * 0.000021656124909041644 + input[349] * 0.0003881542741882448 + input[350] * -0.0008572007852404954 + input[351] * -0.003050118764494696 + input[352] * 0.001157387405846013 + input[353] * 0.0003886711927362974 + input[354] * 0.00004643710173951516 + input[355] * 0.00041742725482318745 + input[356] * -0.0008125948528246085 + input[357] * -0.002561596980177157 + input[358] * 0.000778280637249547 + input[359] * 0.0005667662336542744 + input[360] * 0.00007083854872232153 + input[361] * 0.00033391217029431344 + input[362] * -0.0007722981664091773 + input[363] * -0.0020671057456071408 + input[364] * 0.0007589625868931453 + input[365] * 0.0005687458204512436 + input[366] * 0.000072673096736232 + input[367] * 0.00022808043905305148 + input[368] * -0.0007164166352073622 + input[369] * -0.001741904537172434 + input[370] * 0.0006567061620074501 + input[371] * 0.0006495898479341126 + input[372] * 0.00010166050246749018 + input[373] * 0.00015794311828521213 + input[374] * -0.0006661912265046103 + input[375] * -0.0016433011710104625 + input[376] * 0.0007831310458448335 + input[377] * 0.0007376808109122626 + input[378] * 0.0001384742126676815 + input[379] * 0.00010338438145928573 + input[380] * -0.0006799607468183386 + input[381] * -0.0017103758872847902 + input[382] * 0.0009383544570179789 + input[383] * 0.0007087051924439509 + input[384] * 0.00014924678077404008 + input[385] * 0.0000700101045770584
    var81 = input[386] * -0.0006940542640010695
    var82 = var80 + var81 + input[387] * -0.001888613239389222 + input[388] * 0.0007266649159545009 + input[389] * 0.0007150595074811757 + input[390] * 0.00016826137276907847 + input[391] * 0.00007601942742699594 + input[392] * -0.0007248792058251419 + input[393] * -0.002033729254402735 + input[394] * 0.0005902591759956015 + input[395] * 0.0007237074484010711 + input[396] * 0.00015876160728212085 + input[397] * 0.00007452591501833013 + input[398] * -0.0007338439525337197 + input[399] * -0.0020818836377607913 + input[400] * 0.00047080048320710986 + input[401] * 0.000492774594978973 + input[402] * 0.0001657258727358096 + input[403] * 0.00007746840527390462 + input[404] * -0.0007510176461474738 + input[405] * -0.001904028717112175 + input[406] * 0.00030098594023977344 + input[407] * 0.00038638303739805006 + input[408] * 0.00018739171144672935 + input[409] * 0.00006533713391970543 + input[410] * -0.0007754054535950042 + input[411] * -0.0014879407304661625 + input[412] * 0.00024882127510045656 + input[413] * 0.0003819822782565054 + input[414] * 0.00024599157859759235 + input[415] * 0.000057212625237020646 + input[416] * -0.0007432991321987029 + input[417] * -0.0010454331034284213 + input[418] * 0.000453411507755988 + input[419] * 0.0002331779152428715 + input[420] * 0.0002696123091014983 + input[421] * 0.00006573360164016063 + input[422] * -0.0007122402266107864 + input[423] * -0.0008357149508019813 + input[424] * 0.0005528370617717074 + input[425] * 0.00006984731269831713 + input[426] * 0.00023938405260738252 + input[427] * 0.00003365093402109889 + input[428] * -0.0006875974642964233 + input[429] * -0.0007017639635993296 + input[430] * 0.0003802792778302483 + input[431] * -0.00007977887668849924 + input[432] * 0.00022810454416655277 + input[433] * 0.00003127319083013521 + input[434] * -0.0006585271834708963 + input[435] * -0.0004336807237660301 + input[436] * 0.00029508036514903045 + input[437] * -0.00003148379250223282 + input[438] * 0.00020070013018958898 + input[439] * 0.0000436223707870481 + input[440] * -0.0006463999982801057
    var83 = input[441] * -0.00026274664728393485
    var84 = var82 + var83 + input[442] * 0.0000364257819635666 + input[443] * 0.0001999004976196793 + input[444] * 0.0002038695836476674 + input[445] * 0.00004315694252734724 + input[446] * -0.0006555662475088725 + input[447] * -0.00017862438861393119 + input[448] * -0.00007631216132069416 + input[449] * 0.0004309878978086084 + input[450] * 0.00021024142071799992 + input[451] * 0.00003154815242601351 + input[452] * -0.000668939076610989 + input[453] * -0.00017288534338082788 + input[454] * -0.00011037346481246764 + input[455] * 0.0005644766110836548 + input[456] * 0.00020372657839721263 + input[457] * 0.00001446028725158657 + input[458] * -0.0006941062295492128 + input[459] * -0.0001558054287866963 + input[460] * -0.0001817309157228952 + input[461] * 0.0004912433697754025 + input[462] * 0.00017952451140217828 + input[463] * 0.00003434604881859872 + input[464] * -0.0007019837384281285 + input[465] * -0.0001779293013971826 + input[466] * -0.00017802590452985543 + input[467] * 0.0003560557956595658 + input[468] * 0.00015658397027613384 + input[469] * 0.00003745770476550164 + input[470] * -0.0007121766268674196 + input[471] * -0.00016199742529723364 + input[472] * -0.0002840324780401644 + input[473] * 0.00041213916548164174 + input[474] * 0.00013684636217231827 + input[475] * 0.00002953094254616269 + input[476] * -0.0007274822522313088 + input[477] * -0.00007473537204350628 + input[478] * -0.0004757995133876872 + input[479] * 0.000546326049061504 + input[480] * 0.00012245801994683177 + input[481] * 0.00002785262211233429 + input[482] * -0.0007433527436880074 + input[483] * 0.00019136780063925442 + input[484] * -0.0006364458760321209 + input[485] * 0.0007236659418651955 + input[486] * 0.00010717021183853272 + input[487] * 0.00003578973095328619 + input[488] * -0.0007488590404750572 + input[489] * 0.0004277638498990966 + input[490] * -0.0007770481751013203 + input[491] * 0.0007506124934600304 + input[492] * 0.00014972911812797876 + input[493] * 0.00003619220162646878 + input[494] * -0.0007545290433497007 + input[495] * 0.0004840314257197279
    var85 = input[496] * -0.0008000243575516578
    var86 = var84 + var85 + input[497] * 0.0006078730820398605 + input[498] * 0.0001492029790608977 + input[499] * 0.000026500842174224124 + input[500] * -0.0007727910757419156 + input[501] * 0.0005706887344232207 + input[502] * -0.0007288845855837005 + input[503] * 0.00038093727026644147 + input[504] * 0.0001260605363215778 + input[505] * 0.00001084611626236435 + input[506] * -0.0008058958265306692 + input[507] * 0.0005468088030171346 + input[508] * -0.0008019462750594629 + input[509] * 0.0003201160387283547 + input[510] * 0.00012804966487827397 + input[511] * 0.000021336428972733553 + input[512] * -0.0008324121317663542 + input[513] * 0.0006366449243542275 + input[514] * -0.0006774509732394803 + input[515] * 0.0004391573041218694 + input[516] * 0.00011512141166598015 + input[517] * 0.00002279876034525717 + input[518] * -0.0008584765669569975 + input[519] * 0.0005361979029602303 + input[520] * -0.0004115079176108197 + input[521] * 0.0004889620777066659 + input[522] * 0.00011841694570279789 + input[523] * 0.00001700929862580184 + input[524] * -0.0008636860301233269 + input[525] * 0.0005325301474320136 + input[526] * 0.000039095723994279266 + input[527] * 0.00045040629124759335 + input[528] * 0.00010477051794661248 + input[529] * 0.000001389466119057796 + input[530] * -0.0009046705390694721 + input[531] * 0.0005809737477005833 + input[532] * 0.0002816595389853137 + input[533] * 0.00031109007924527574 + input[534] * 0.00007526336606872851 + input[535] * 0.000013896212504345323 + input[536] * -0.000917059703825328 + input[537] * 0.0005056987676633119 + input[538] * 0.00028885198547861724 + input[539] * 0.00016148949823856711 + input[540] * 0.00006300048051099295 + input[541] * 0.00001421644340141311 + input[542] * -0.0009108113764729344 + input[543] * 0.0003994263301331282 + input[544] * 0.00034913017063918086 + input[545] * 0.0000035722722265706973 + input[546] * 0.00005369891772103757 + input[547] * 0.000011489611006362913 + input[548] * -0.0009031666651524438 + input[549] * 0.000419084766012693 + input[550] * 0.00043034641265802035
    var87 = input[551] * -0.0001573677919648057
    return [var20 + var21 + input[552] * 0.0007351270402890168 + input[553] * 0.00027712086668377504 + input[554] * -0.00034179617235670953 + input[555] * -0.0009897394887472728 + input[556] * 0.003507195551463681 + input[557] * -0.0037259014985820058 + input[558] * 0.00042178624541388675 + input[559] * 0.00013697514257975498 + input[560] * -0.00024187893957362453 + input[561] * -0.0013006541655020722 + input[562] * 0.0011372916974098624 + input[563] * -0.0018071357560070695 + input[564] * 0.00023388641196781041 + input[565] * 0.0003157884086943117 + input[566] * -0.0004691270069223111 + input[567] * -0.001320903294199504 + input[568] * -0.0042655493027245394 + input[569] * -0.0019483960211121238 + input[570] * 0.00041491129664403113 + input[571] * 0.00036041064763988944 + input[572] * 0.00005442184980489238 + input[573] * -0.0005318561206279468 + input[574] * -0.007359647829361357 + input[575] * -0.001329415023123154 + input[576] * 0.00027167682994437385 + input[577] * 0.000908880823233652 + input[578] * 0.00001161777816678579 + input[579] * 0.004720396072517526 + input[580] * -0.008492247171383461 + input[581] * -0.00024107254365278135 + input[582] * 0.0001992512887010352 + input[583] * 0.0016839306221929653 + input[584] * -0.0003850687213486741 + input[585] * 0.009688109859442299 + input[586] * -0.011081336915263636 + input[587] * -0.003143615952675891 + input[588] * 0.0006327027346565772 + input[589] * 0.0006940420538246575 + input[590] * -0.00016724648044160232 + input[591] * 0.014861799679637314 + input[592] * -0.00767335416587249 + input[593] * -0.008127086464697113 + input[594] * 0.0001876609003657284 + input[595] * -0.0008234636917027932 + input[596] * -0.0000524905468781331 + input[597] * 0.017552050211526008 + input[598] * -0.004704657374616268 + input[599] * -0.0074365057437536675 + input[600] * -0.0003630386698627631 + input[601] * 0.0010676528622509418 + input[602] * -0.0004851470399909688 + input[603] * 0.01717154348239661 + input[604] * -0.004173679122070269 + input[605] * -0.009916443022701676, var42 + var43 + input[552] * -0.0014398417843932898 + input[553] * -0.0004378652401122877 + input[554] * 0.000625442795389009 + input[555] * 0.0008396136681291106 + input[556] * -0.0074308568062045575 + input[557] * 0.007365911358816454 + input[558] * -0.00131561775119049 + input[559] * -0.00034447583519142536 + input[560] * 0.0006160320805551722 + input[561] * 0.0002512045524677754 + input[562] * -0.004497740525439627 + input[563] * 0.00536953625106508 + input[564] * -0.0011665322253825163 + input[565] * -0.0004348943224129344 + input[566] * 0.0006744092062834732 + input[567] * -0.0005786152068918569 + input[568] * -0.0017865269103676449 + input[569] * 0.006360993819085386 + input[570] * -0.0011805927619246172 + input[571] * -0.00046937208139200605 + input[572] * 0.00037702793082213204 + input[573] * -0.0017123929100091096 + input[574] * -0.0009657869162349377 + input[575] * 0.006070204373236492 + input[576] * -0.0008645525750596799 + input[577] * -0.0006433899794618199 + input[578] * 0.0004731858186812174 + input[579] * -0.004648793598554252 + input[580] * -0.0007034497878694898 + input[581] * 0.004065237066269917 + input[582] * -0.0010272595307608886 + input[583] * -0.0005711862249673536 + input[584] * 0.0007302129943915111 + input[585] * -0.00723741124269608 + input[586] * -0.00019291291050108295 + input[587] * 0.0008747212652207299 + input[588] * -0.0004711581203896267 + input[589] * -0.0004631196011715283 + input[590] * 0.0006180778560514413 + input[591] * -0.00932350670528739 + input[592] * -0.000602115348806004 + input[593] * 0.0021639300352839204 + input[594] * -0.00036906604460576405 + input[595] * -0.0006682847152174008 + input[596] * 0.0004464952282909017 + input[597] * -0.009504947420337174 + input[598] * -0.001566997202768163 + input[599] * 0.007117253074328672 + input[600] * -0.0005783047746277701 + input[601] * -0.0006439980898635258 + input[602] * 0.0008591674588305948 + input[603] * -0.007381895103802292 + input[604] * -0.0014824767599106226 + input[605] * 0.008447424012602022, var64 + var65 + input[552] * 0.0006562105009284408 + input[553] * 0.00014434892975268595 + input[554] * 0.0006230650590485755 + input[555] * -0.0002558115980940203 + input[556] * 0.003438555517431104 + input[557] * -0.0034447185882668656 + input[558] * 0.0008501384033771823 + input[559] * 0.00018446567806938176 + input[560] * 0.0005235329097075002 + input[561] * 0.0007448854857678269 + input[562] * 0.002810857544703708 + input[563] * -0.0033751922777303335 + input[564] * 0.0008993424419557133 + input[565] * 0.00009355682743486303 + input[566] * 0.0006867668057693823 + input[567] * 0.001851771360068369 + input[568] * 0.005539648427966093 + input[569] * -0.004204972947269172 + input[570] * 0.0007428029258272719 + input[571] * 0.00008505324655941466 + input[572] * 0.000454853248170157 + input[573] * 0.0024504811520784896 + input[574] * 0.007918478882745833 + input[575] * -0.004526639108587288 + input[576] * 0.0005881824035338852 + input[577] * -0.0002923149957014005 + input[578] * 0.0003888330898642841 + input[579] * 0.00032963958808740484 + input[580] * 0.009001894705514043 + input[581] * -0.0036530801741640104 + input[582] * 0.000833455723705385 + input[583] * -0.001132338522712585 + input[584] * 0.0005148629054879851 + input[585] * -0.0018797382355698283 + input[586] * 0.011387536865223775 + input[587] * 0.0023688320150052054 + input[588] * -0.0001638233214758296 + input[589] * -0.0002509338638189591 + input[590] * 0.0004090061503745401 + input[591] * -0.0047834903157167935 + input[592] * 0.008706971573775653 + input[593] * 0.006031361371558254 + input[594] * 0.00017442727820894544 + input[595] * 0.0014714772620131836 + input[596] * 0.0004675184514094418 + input[597] * -0.007201832619146742 + input[598] * 0.006861308375555907 + input[599] * 0.0003771551205604878 + input[600] * 0.0009262954996410594 + input[601] * -0.0004430237421322649 + input[602] * 0.0004580590310110883 + input[603] * -0.00931237594728299 + input[604] * 0.0059358877692143215 + input[605] * 0.0016063212822954634, var86 + var87 + input[552] * 0.00004850424317581673 + input[553] * 0.000016395443676152957 + input[554] * -0.0009067116820729672 + input[555] * 0.00040593741871769386 + input[556] * 0.00048510573730663155 + input[557] * -0.00019529127195892142 + input[558] * 0.00004369310239943187 + input[559] * 0.000023035014542657814 + input[560] * -0.0008976860506810819 + input[561] * 0.000304564127273679 + input[562] * 0.0005495912833244006 + input[563] * -0.0001872082173195412 + input[564] * 0.000033303371458868184 + input[565] * 0.000025549086284247077 + input[566] * -0.0008920490051227432 + input[567] * 0.00004774714103071728 + input[568] * 0.0005124277851255477 + input[569] * -0.00020762485069542096 + input[570] * 0.000022878539452947407 + input[571] * 0.000023908187193195354 + input[572] * -0.0008863030287894923 + input[573] * -0.00020623212143497323 + input[574] * 0.0004069558628491981 + input[575] * -0.00021415024151673874 + input[576] * 0.000004693341581019443 + input[577] * 0.00002682415192991493 + input[578] * -0.000873636686704549 + input[579] * -0.0004012420620459074 + input[580] * 0.00019380225373682533 + input[581] * -0.0001710843484425423 + input[582] * -0.0000054474816455426315 + input[583] * 0.00001959412548713967 + input[584] * -0.0008600071785230042 + input[585] * -0.0005709603811735965 + input[586] * -0.00011328703946047016 + input[587] * -0.00009993732754001558 + input[588] * 0.000002278707208785886 + input[589] * 0.000020011411166044885 + input[590] * -0.0008598375259765772 + input[591] * -0.0007548026586324714 + input[592] * -0.00043150205909653035 + input[593] * -0.00006820494213644618 + input[594] * 0.000006977866031111571 + input[595] * 0.00002027114490721525 + input[596] * -0.0008615231328143885 + input[597] * -0.0008452701720434868 + input[598] * -0.000589653798169625 + input[599] * -0.00005790245112827192 + input[600] * 0.000015047944849428206 + input[601] * 0.00001936896974499841 + input[602] * -0.000832079449843008 + input[603] * -0.0004772724313142167 + input[604] * -0.000279731887230489 + input[605] * -0.00013730227218942305]
