def score(input):
    var0 = 8.573623365742069 + input[0] * -0.0010917956601413266
    var1 = input[1] * -0.0007191471812703197
    var2 = var0 + var1 + input[2] * 0.000248894370184303 + input[3] * -0.005173088369895773 + input[4] * 0.0025545813181502646 + input[5] * -0.0034215701568133285 + input[6] * -0.0008978795122993459 + input[7] * -0.000659032824929364 + input[8] * 0.00021132620594030757 + input[9] * -0.0033084683452594484 + input[10] * 0.0016589743089884391 + input[11] * 0.0006546429450576007 + input[12] * -0.0015120245727910711 + input[13] * -0.0010430365613908553 + input[14] * 0.000014664371917105678 + input[15] * -0.003089516875877245 + input[16] * 0.0001246657208220839 + input[17] * -0.0058917219016956035 + input[18] * -0.0016712249389814432 + input[19] * -0.0010496805011868194 + input[20] * -0.00023840176754013687 + input[21] * -0.000469356835622276 + input[22] * -0.0005235326730068326 + input[23] * -0.0034837611640385654 + input[24] * -0.0017796395757661986 + input[25] * -0.0013236250689557941 + input[26] * -0.00030413309509583035 + input[27] * -0.00006694916981054465 + input[28] * -0.0016977952387537316 + input[29] * -0.003652880423812257 + input[30] * -0.0015757019275861783 + input[31] * -0.0020348142156587355 + input[32] * -0.0003425521251900995 + input[33] * 0.0034405479138226846 + input[34] * -0.0022283299439239805 + input[35] * -0.0004169543216633993 + input[36] * -0.001795116586069703 + input[37] * -0.0025816381274587105 + input[38] * -0.0004263932045603156 + input[39] * 0.005946491010839869 + input[40] * -0.004106020073437866 + input[41] * -0.0005876858723670688 + input[42] * -0.001988981648745178 + input[43] * -0.0028593694055465677 + input[44] * -0.00045600365998881145 + input[45] * 0.007360534505346793 + input[46] * -0.0073333110375929855 + input[47] * 0.002046158485861252 + input[48] * -0.0023055725203992355 + input[49] * -0.004160170789609277 + input[50] * -0.0005493936649054431 + input[51] * 0.006514102769409326 + input[52] * -0.005852305093485476 + input[53] * 0.0039949618656299965 + input[54] * -0.0022465581159765925 + input[55] * -0.005448893015715506
    var3 = input[56] * -0.0007403375134205929
    var4 = var2 + var3 + input[57] * 0.004895954631346625 + input[58] * -0.0005853724173321011 + input[59] * 0.005346466699667286 + input[60] * -0.0026963174297994067 + input[61] * -0.006982920829709941 + input[62] * -0.0003464725306482916 + input[63] * 0.003988564547461063 + input[64] * 0.004014668704627851 + input[65] * 0.002383348024511815 + input[66] * -0.002847295191892084 + input[67] * -0.009911129780821279 + input[68] * -0.00007864435078042855 + input[69] * 0.0020445642241899856 + input[70] * 0.002188856811211959 + input[71] * 0.0013065193965185158 + input[72] * -0.003487677320877124 + input[73] * -0.013433106132931567 + input[74] * 0.00018851510179066741 + input[75] * 0.0033065207574566394 + input[76] * -0.003736745020072725 + input[77] * 0.007473063547766455 + input[78] * -0.004559381474811317 + input[79] * -0.018771539383663417 + input[80] * -0.000724207096526268 + input[81] * 0.0020922045600929697 + input[82] * 0.002517002535938858 + input[83] * 0.004313471696364634 + input[84] * -0.008465572399162244 + input[85] * -0.02146897893366154 + input[86] * -0.00023497461381298602 + input[87] * -0.0018596559988482873 + input[88] * 0.0016267889929988937 + input[89] * 0.0021916572813981392 + input[90] * -0.012188570925637368 + input[91] * -0.024528168768742562 + input[92] * 0.0003480112600773242 + input[93] * -0.0007108951629769602 + input[94] * 0.00013390158743129747 + input[95] * -0.00010546582386407307 + input[96] * -0.015266594925125868 + input[97] * -0.026992995653984296 + input[98] * -0.000679118693824082 + input[99] * 0.001443931293175376 + input[100] * 0.00282562443937068 + input[101] * -0.00503106614286237 + input[102] * -0.016659480476635513 + input[103] * -0.028466693025032245 + input[104] * -0.0008468403558115163 + input[105] * 0.0009407021947135118 + input[106] * -0.0026232795395160643 + input[107] * 0.0011003119803962007 + input[108] * -0.019419276086282255 + input[109] * -0.029339973492111728 + input[110] * 0.000050941230999391055
    var5 = input[111] * 0.0018502157097894621
    var6 = var4 + var5 + input[112] * -0.002071491318974612 + input[113] * 0.004042411583754686 + input[114] * -0.02001901783990409 + input[115] * -0.03002370566002373 + input[116] * 0.0006523562334396055 + input[117] * -0.004324208978487143 + input[118] * -0.002729810008522271 + input[119] * 0.005771436526890309 + input[120] * -0.01804975039609763 + input[121] * -0.029258391469060573 + input[122] * -0.0017302939656778406 + input[123] * -0.006071566436793992 + input[124] * -0.0005744037087697541 + input[125] * -0.0027853925775120263 + input[126] * -0.01989653967917538 + input[127] * -0.026355101871368115 + input[128] * -0.0013869861922768847 + input[129] * -0.007744164018227587 + input[130] * -0.00508707081052185 + input[131] * -0.01136266846828855 + input[132] * -0.019743930077406064 + input[133] * -0.021541305523970267 + input[134] * -0.0016797012714355848 + input[135] * -0.0034746069422809398 + input[136] * -0.00007793327816557395 + input[137] * -0.006784762471558184 + input[138] * -0.02284280524074944 + input[139] * -0.016365027704953284 + input[140] * -0.0003638667636745533 + input[141] * -0.0051532012416104 + input[142] * 0.001721808141221237 + input[143] * -0.008395089556368331 + input[144] * -0.02271985097792595 + input[145] * -0.01402474904665363 + input[146] * -0.002334618977366869 + input[147] * -0.0060577954926959105 + input[148] * -0.007523674006743008 + input[149] * -0.007487913567954658 + input[150] * -0.021826731819560893 + input[151] * -0.009955559581806207 + input[152] * -0.0010794445045177808 + input[153] * -0.00355204005447556 + input[154] * -0.003166547169963442 + input[155] * -0.007961163777104334 + input[156] * -0.02184870364950609 + input[157] * -0.004617880418803794 + input[158] * -0.0007683780196745311 + input[159] * -0.00739870763953877 + input[160] * -0.0038878214938616916 + input[161] * -0.015779308988846823 + input[162] * -0.02042048823764208 + input[163] * -0.002482967412429372 + input[164] * -0.002724306827432933 + input[165] * -0.0037120540842949666
    var7 = input[166] * 0.00023624207513306202
    var8 = var6 + var7 + input[167] * -0.016874218753610008 + input[168] * -0.0240787369872875 + input[169] * 0.0015467298652264393 + input[170] * -0.002999516984904537 + input[171] * -0.0074057207720222345 + input[172] * 0.010623008779397666 + input[173] * -0.0024849726468252637 + input[174] * -0.025800232585892785 + input[175] * 0.006995407881758795 + input[176] * -0.0016616277170873517 + input[177] * -0.005535792875111491 + input[178] * -0.0008005137104059149 + input[179] * -0.013557024301205992 + input[180] * -0.024909554157848474 + input[181] * 0.00874282909731664 + input[182] * -0.0017240989339596213 + input[183] * -0.006335504511046182 + input[184] * -0.004347628250865827 + input[185] * -0.007944621131865403 + input[186] * -0.021481200281911264 + input[187] * 0.011863501131024995 + input[188] * -0.0023555216119620862 + input[189] * -0.0018907708474791523 + input[190] * 0.01565431844605623 + input[191] * 0.0016737786682302365 + input[192] * -0.015711139392176207 + input[193] * 0.01321474664820768 + input[194] * -0.002099259510739473 + input[195] * 0.0006121291173275316 + input[196] * 0.007554771951783574 + input[197] * -0.01110638615402411 + input[198] * -0.01196957136892811 + input[199] * 0.013252466176944942 + input[200] * -0.001445602604292167 + input[201] * -0.0019216025072552605 + input[202] * -0.006986376488151901 + input[203] * -0.00419683505636455 + input[204] * -0.007730041783019611 + input[205] * 0.01760265220214903 + input[206] * -0.0006399194640610718 + input[207] * -0.00260323723907416 + input[208] * 0.01678733397295296 + input[209] * 0.007525160671229232 + input[210] * -0.0031540613249325354 + input[211] * 0.020340937910380105 + input[212] * -0.0024998984544723725 + input[213] * -0.00377456264798618 + input[214] * -0.006938248529774276 + input[215] * 0.004574664441181084 + input[216] * -0.0002412900472871074 + input[217] * 0.02309401668621 + input[218] * -0.0021886490458033524 + input[219] * -0.004721985120136459 + input[220] * 0.005078737623387384
    var9 = input[221] * 0.0015926582388682588
    var10 = var8 + var9 + input[222] * 0.002514283570340483 + input[223] * 0.02581473432685566 + input[224] * -0.002076333074229138 + input[225] * -0.002127770636104525 + input[226] * 0.009393538796291762 + input[227] * 0.009380188490499498 + input[228] * 0.008665968953191222 + input[229] * 0.02709420767871807 + input[230] * -0.0031904751533930412 + input[231] * -0.004758628400349252 + input[232] * -0.00037211050315570226 + input[233] * 0.016232571876515976 + input[234] * 0.007940485614825375 + input[235] * 0.027877333391276307 + input[236] * 0.0007517842294612741 + input[237] * -0.002844758941363882 + input[238] * -0.0033782509446108953 + input[239] * 0.011316297835227593 + input[240] * 0.015389749923441632 + input[241] * 0.025222957310743654 + input[242] * -0.0008809060182083598 + input[243] * 0.00022949012033910034 + input[244] * 0.007575275339201713 + input[245] * 0.020444975384408863 + input[246] * 0.018440250966499157 + input[247] * 0.02243720407485244 + input[248] * -0.00022265009411345896 + input[249] * 0.0007479067488084136 + input[250] * -0.0031923025871125267 + input[251] * 0.014028265471295046 + input[252] * 0.01878382733380977 + input[253] * 0.021623975983271964 + input[254] * -0.0004411673196579516 + input[255] * 0.006085964844675738 + input[256] * -0.0048524032617222245 + input[257] * 0.010282895339488287 + input[258] * 0.019944500941819848 + input[259] * 0.0201093262463875 + input[260] * -0.0010240925173338787 + input[261] * 0.0020767701083645347 + input[262] * 0.009590856081237368 + input[263] * 0.009529632317403917 + input[264] * 0.020846212309525144 + input[265] * 0.019345641099546024 + input[266] * -0.0013108131540624651 + input[267] * -0.0020715234220661225 + input[268] * 0.007171254220396961 + input[269] * -0.001365166483998458 + input[270] * 0.020234016330603018 + input[271] * 0.016839283792266763 + input[272] * -0.0017198907592737255 + input[273] * 0.003428427645339415 + input[274] * -0.006972573208342176 + input[275] * -0.01242505758020521
    var11 = input[276] * 0.019779267504124443
    var12 = var10 + var11 + input[277] * 0.01410919762332986 + input[278] * -0.0005402110059525584 + input[279] * 0.0001321281800710065 + input[280] * -0.005901293281697936 + input[281] * -0.021302054042850578 + input[282] * 0.016086430580393437 + input[283] * 0.011765540441055041 + input[284] * -0.00036614821333018436 + input[285] * -0.0019334890805906772 + input[286] * 0.002078270056063302 + input[287] * -0.008960423270200121 + input[288] * 0.020698636600457423 + input[289] * 0.008435504968564671 + input[290] * -0.0016515535678722462 + input[291] * -0.004050324385634995 + input[292] * 0.0014215105942461158 + input[293] * -0.00777423607426934 + input[294] * 0.02054493790665931 + input[295] * 0.00466265120819397 + input[296] * -0.00009122839021634485 + input[297] * -0.004484466401183771 + input[298] * -0.0012726245779709443 + input[299] * -0.002799874698861738 + input[300] * 0.020890327420778797 + input[301] * 0.003608016687196203 + input[302] * -0.0006024663305234903 + input[303] * -0.004246180901952249 + input[304] * -0.0008772604815021078 + input[305] * -0.013363952398290824 + input[306] * 0.020031550936902374 + input[307] * 0.002642606334567114 + input[308] * -0.001901273866995669 + input[309] * -0.008209234624390879 + input[310] * -0.004540124382828381 + input[311] * -0.014899607889591082 + input[312] * 0.017988735598087363 + input[313] * 0.002435408474010482 + input[314] * -0.000809862906477648 + input[315] * -0.003777392081064264 + input[316] * 0.000339003215847725 + input[317] * -0.0222422871244412 + input[318] * 0.017301635091453084 + input[319] * 0.0018958585435090854 + input[320] * -0.0008374164220700922 + input[321] * -0.006147665623885746 + input[322] * 0.0024746154987632185 + input[323] * -0.014591600926156275 + input[324] * 0.01678631962403059 + input[325] * 0.0008312954166123956 + input[326] * -0.0006067488865993112 + input[327] * -0.003108837223015868 + input[328] * -0.00031271229606532854 + input[329] * -0.004519619533849729 + input[330] * 0.013527594068686434
    var13 = input[331] * 0.0009076492950441742
    var14 = var12 + var13 + input[332] * 0.0005270078729729125 + input[333] * -0.006227249192518645 + input[334] * -0.000534113499245418 + input[335] * 0.016620353060189257 + input[336] * 0.013689040387818506 + input[337] * 0.000039396054682840104 + input[338] * 0.00021693455993090913 + input[339] * -0.0014777033972777534 + input[340] * -0.006524887304860833 + input[341] * 0.01774008886546249 + input[342] * 0.012550847703272753 + input[343] * 0.0005938205301251116 + input[344] * -0.00021143329708974166 + input[345] * -0.0012611688246102534 + input[346] * -0.01279197573392092 + input[347] * 0.019586336403971172 + input[348] * 0.010711839964117701 + input[349] * 0.0005512373329213281 + input[350] * -0.00010142507153836169 + input[351] * 0.0018265199977647035 + input[352] * -0.006712322915682629 + input[353] * 0.015263091568945635 + input[354] * 0.009289743861455221 + input[355] * 0.00046386251972687666 + input[356] * -0.0003146431322590893 + input[357] * 0.0028323369002088822 + input[358] * -0.006115368483009238 + input[359] * 0.010344962611103603 + input[360] * 0.008232858607296698 + input[361] * 0.0010166068962216336 + input[362] * -0.0003986332733643471 + input[363] * 0.0004897067576817523 + input[364] * -0.0041556362211603425 + input[365] * 0.016850410170179412 + input[366] * 0.006306553788329526 + input[367] * 0.00026041965139511224 + input[368] * -0.00009108696340210804 + input[369] * 0.0023164233080792246 + input[370] * -0.003721562126288737 + input[371] * 0.011431852508465276 + input[372] * 0.004892694451644248 + input[373] * 0.0006953520415241206 + input[374] * 0.000339772391464745 + input[375] * 0.0032744607037732422 + input[376] * -0.00019791128104926226 + input[377] * 0.010551864803485612 + input[378] * 0.004880248756632827 + input[379] * 0.0004397210999086766 + input[380] * -0.0003672307666464912 + input[381] * 0.0037622324935467017 + input[382] * -0.0022942671508797705 + input[383] * 0.012204828967024055 + input[384] * 0.004324353341317991 + input[385] * 0.00027269730729022963
    var15 = input[386] * 0.00018525266033274487
    var16 = var14 + var15 + input[387] * 0.006582835456742791 + input[388] * -0.001875903495908968 + input[389] * 0.010886463682192088 + input[390] * 0.0038021754279006174 + input[391] * 0.0007441262368275902 + input[392] * -0.00010115693251937589 + input[393] * 0.006996531997752229 + input[394] * -0.003781126484372334 + input[395] * 0.012291585632645687 + input[396] * 0.0035931182212947353 + input[397] * 0.0007745119975908513 + input[398] * 0.000055044840418496294 + input[399] * 0.009074823263932984 + input[400] * -0.0014135858587790806 + input[401] * 0.0054936832643337615 + input[402] * 0.002747147827522603 + input[403] * 0.0005221130625153706 + input[404] * 0.000826418378085723 + input[405] * 0.008681481334184706 + input[406] * 0.0029439197274497685 + input[407] * -0.003004609960275564 + input[408] * 0.002744144966297438 + input[409] * 0.00036201374130063893 + input[410] * 0.0007478997429990002 + input[411] * 0.006064158733574127 + input[412] * 0.001543667723234008 + input[413] * -0.014408188485712813 + input[414] * 0.001216205117639429 + input[415] * 0.0007795548047230813 + input[416] * 0.00043063004925946905 + input[417] * 0.005317499014137323 + input[418] * -0.002237389120510827 + input[419] * -0.017561568540504186 + input[420] * 0.0007569587976343963 + input[421] * 0.000899114445142915 + input[422] * -0.000042575075845837624 + input[423] * 0.0035036018070197937 + input[424] * -0.004085581958981044 + input[425] * -0.014249086423788368 + input[426] * 0.0006274788977109783 + input[427] * 0.001358295618233882 + input[428] * -0.00043407386477390075 + input[429] * 0.003397946019285755 + input[430] * 0.006572900374357559 + input[431] * -0.010824061526995847 + input[432] * 0.0003828573702535472 + input[433] * 0.001169267555176448 + input[434] * -0.0002625933143825662 + input[435] * 0.00041189155976857747 + input[436] * 0.0058624064058335965 + input[437] * -0.005787338021760498 + input[438] * 0.000580064612727475 + input[439] * 0.0007942394571431081 + input[440] * -0.0006347859466068122
    var17 = input[441] * 0.00035384343905556996
    var18 = var16 + var17 + input[442] * 0.009124214106503794 + input[443] * -0.0008862588561848298 + input[444] * -0.000008429818184778619 + input[445] * 0.0007673251005669802 + input[446] * -0.00044889110129320097 + input[447] * 0.0011906381659719694 + input[448] * 0.005105233454059064 + input[449] * -0.0009203673300776532 + input[450] * -0.00019304231055208856 + input[451] * 0.0006643065624641232 + input[452] * -0.00045394632427071547 + input[453] * 0.000633544309993893 + input[454] * -0.0007315391275108496 + input[455] * 0.0005228185156408054 + input[456] * 0.00019096166930846173 + input[457] * 0.0006215699866407941 + input[458] * -0.0006325147855324242 + input[459] * -0.00012818304473918263 + input[460] * -0.005299307918262967 + input[461] * 0.004235920127980897 + input[462] * 0.0006567802374699988 + input[463] * 0.00040093998565881743 + input[464] * -0.0008555676620789263 + input[465] * -0.0015218292416251482 + input[466] * -0.005180803247085025 + input[467] * 0.007821195701452515 + input[468] * 0.00043145113809573316 + input[469] * 0.0005440786780583121 + input[470] * -0.0008091667317246179 + input[471] * -0.002251821752501173 + input[472] * 0.0004903921981908432 + input[473] * 0.007362708581221695 + input[474] * 0.00026829908702906955 + input[475] * 0.0007033113096495183 + input[476] * -0.0006971984696494241 + input[477] * -0.0035344845272297274 + input[478] * 0.0025027984395994485 + input[479] * 0.003086954955632014 + input[480] * 0.000026772232429758502 + input[481] * 0.0006395457267085003 + input[482] * -0.0002652668426197864 + input[483] * -0.006700911733577668 + input[484] * 0.001420473473257651 + input[485] * 0.0013448292305565082 + input[486] * 0.00004998272982496903 + input[487] * 0.0005801661096676639 + input[488] * -0.0001634908614958432 + input[489] * -0.00832419033696148 + input[490] * 0.0006199020111758987 + input[491] * -0.0008458766306646019 + input[492] * 0.00010976856729099986 + input[493] * 0.0005485184480674875 + input[494] * -0.000027971817851893363 + input[495] * -0.0025886528629329455
    var19 = input[496] * 0.004368636513005518
    var20 = var18 + var19 + input[497] * -0.002843597736050254 + input[498] * -0.0009680967940125908 + input[499] * 0.000885585260591702 + input[500] * 0.0012024735384775327 + input[501] * -0.0007956602338415351 + input[502] * 0.002128985004706553 + input[503] * -0.0013113250547040617 + input[504] * -0.0008603391280065833 + input[505] * 0.0007801949065259081 + input[506] * 0.001539721923116995 + input[507] * 0.012782376668193953 + input[508] * 0.0019086890334322388 + input[509] * 0.0012070772674700383 + input[510] * -0.0005997885985762269 + input[511] * 0.0006045718123312369 + input[512] * 0.0009968983760791819 + input[513] * 0.012663509078425401 + input[514] * 0.006629976519097356 + input[515] * -0.0020674242449300424 + input[516] * -0.0005786386101037644 + input[517] * 0.0016563059830336797 + input[518] * 0.0001754030510426565 + input[519] * 0.008877640786068322 + input[520] * 0.001481712731359798 + input[521] * 0.0021351024853787856 + input[522] * -0.0006128495358679264 + input[523] * 0.0012979511525910222 + input[524] * -0.0001958930709031974 + input[525] * 0.0056144318729723 + input[526] * -0.0031104456847055872 + input[527] * 0.0035315516777773715 + input[528] * -0.00006431639368022356 + input[529] * 0.0007879830494815174 + input[530] * -0.0006310276240048806 + input[531] * 0.004063649873040869 + input[532] * -0.007479392044753731 + input[533] * -0.012873128876433668 + input[534] * -0.00007095227642964184 + input[535] * 0.0014189573354899177 + input[536] * -0.0007176624488479218 + input[537] * -0.002284839267277219 + input[538] * -0.0008003203553738835 + input[539] * -0.0037581115978003476 + input[540] * 0.0004898869806596904 + input[541] * 0.0001559959127149772 + input[542] * -0.0010893065568183759 + input[543] * -0.000015292664932164568 + input[544] * 0.001767431560909711 + input[545] * 0.000414000546277235 + input[546] * -0.00022942911445757662 + input[547] * 0.0008235827109352992 + input[548] * -0.0004151398229947123 + input[549] * -0.0020670662067865473 + input[550] * -0.0010586488397259937
    var21 = input[551] * -0.00044027017964439635
    var22 = -1.4707327671149815 + input[0] * 0.0004445716688487632
    var23 = input[1] * -0.001472329329951617
    var24 = var22 + var23 + input[2] * -0.00008322358712949071 + input[3] * 0.001078887372898738 + input[4] * -0.0020675927210580328 + input[5] * 0.003488577278120899 + input[6] * 0.0004975491975667246 + input[7] * -0.0009447606644199377 + input[8] * 0.00004665505846233713 + input[9] * -0.0002029315577394045 + input[10] * -0.0007910930023303635 + input[11] * 0.0009109535990975594 + input[12] * 0.00124555267055578 + input[13] * -0.0006685716776998036 + input[14] * 0.00011738590077941476 + input[15] * -0.00008429127536758123 + input[16] * 0.0013300235668394283 + input[17] * 0.007390908670161426 + input[18] * 0.0013066322266769876 + input[19] * -0.0008739104966856634 + input[20] * 0.0003239323101613864 + input[21] * -0.0018174458727380942 + input[22] * 0.000571360371308737 + input[23] * 0.004435462213894918 + input[24] * 0.0008644058217417783 + input[25] * -0.0008130037546501529 + input[26] * 0.00029806950473073874 + input[27] * -0.0008499371916018156 + input[28] * 0.0003722902817164978 + input[29] * 0.009756006975899565 + input[30] * 0.001634516575548642 + input[31] * -0.0010613776366981294 + input[32] * 0.00042613506661111974 + input[33] * -0.0028411622405717213 + input[34] * 0.0014372220874201438 + input[35] * 0.0022278025282512527 + input[36] * 0.001899488822307368 + input[37] * -0.0009145085595176575 + input[38] * 0.0002931360392497874 + input[39] * -0.0034966465370163285 + input[40] * 0.0030929571334950127 + input[41] * 0.002845639289684908 + input[42] * 0.0019773025692871754 + input[43] * -0.000999863553588561 + input[44] * 0.0005618422989658552 + input[45] * -0.003679705472320086 + input[46] * 0.004459763087977078 + input[47] * 0.0014789119268000257 + input[48] * 0.0028357130265198047 + input[49] * -0.0008979712535204973 + input[50] * 0.0006854954693880629 + input[51] * -0.003362466719577792 + input[52] * 0.003420607104893156 + input[53] * -0.0007370255455251549 + input[54] * 0.003028057609496906 + input[55] * -0.0008363963201910562
    var25 = input[56] * 0.0007681712812092613
    var26 = var24 + var25 + input[57] * -0.0023463808217580612 + input[58] * 0.0003370278778254315 + input[59] * -0.0009378930419114353 + input[60] * 0.004602843131011089 + input[61] * -0.0010866199229066825 + input[62] * 0.0006209969669073506 + input[63] * -0.0015544223890240037 + input[64] * -0.002979502986258999 + input[65] * 0.0012941943250274087 + input[66] * 0.004610482359302865 + input[67] * -0.0015673384942435087 + input[68] * 0.0003119063514569765 + input[69] * -0.0002505105074934357 + input[70] * -0.0016799380811620033 + input[71] * 0.004994446445727614 + input[72] * 0.005064193575739688 + input[73] * -0.0019191133628128538 + input[74] * 0.00023128556853183857 + input[75] * -0.0015199617992023395 + input[76] * 0.0023190280574324424 + input[77] * 0.003352916596387849 + input[78] * 0.006941021506469095 + input[79] * -0.002338155915192035 + input[80] * 0.0009201045234284501 + input[81] * -0.0017552175719978767 + input[82] * -0.0007170455029081232 + input[83] * -0.0019093945651226232 + input[84] * 0.007830157728594005 + input[85] * -0.003273132236529212 + input[86] * 0.0007962518848975687 + input[87] * 0.0021075516330614197 + input[88] * 0.000024310345658402098 + input[89] * -0.008811841406086122 + input[90] * 0.010317796907588106 + input[91] * -0.003993397248484206 + input[92] * 0.0005170861155441549 + input[93] * 0.00044131721623185977 + input[94] * 0.0008261430001021928 + input[95] * -0.008762171480064137 + input[96] * 0.013306409382897805 + input[97] * -0.004808713941853533 + input[98] * 0.0006094247788727094 + input[99] * -0.0019551606515691836 + input[100] * -0.0008690596742851846 + input[101] * -0.008343625099454986 + input[102] * 0.014894185720208711 + input[103] * -0.0057750667763122095 + input[104] * 0.0007965858582465491 + input[105] * -0.0017110726607083011 + input[106] * 0.0009657347127709142 + input[107] * -0.011529058345508955 + input[108] * 0.018449133619330513 + input[109] * -0.006053253499396406 + input[110] * 0.0010657268410487874
    var27 = input[111] * -0.004741513119814261
    var28 = var26 + var27 + input[112] * -0.001783439293607575 + input[113] * -0.009803674980163097 + input[114] * 0.021407243380165367 + input[115] * -0.006743595655873899 + input[116] * 0.00037905019335389504 + input[117] * -0.0010348162655399596 + input[118] * -0.001135497413913252 + input[119] * -0.023321107217082894 + input[120] * 0.024378262189100795 + input[121] * -0.00603551266253803 + input[122] * 0.001531484759066655 + input[123] * 0.0007235137414432089 + input[124] * -0.003695336862097196 + input[125] * -0.014223530909859842 + input[126] * 0.02906174407903525 + input[127] * -0.006514966800759702 + input[128] * 0.0012659488816024675 + input[129] * 0.001084183734699073 + input[130] * -0.0002860670793587095 + input[131] * -0.005577235921063381 + input[132] * 0.031024797253438468 + input[133] * -0.007661495857119211 + input[134] * 0.001326835618573491 + input[135] * -0.0018731265353129345 + input[136] * -0.0053424153010866475 + input[137] * -0.007781473259141407 + input[138] * 0.03387939174702545 + input[139] * -0.008012475024370422 + input[140] * 0.0015698929184522633 + input[141] * -0.00045566867222742965 + input[142] * -0.006273061012000322 + input[143] * 0.0024897815217866624 + input[144] * 0.034485665163862624 + input[145] * -0.007629114371984039 + input[146] * 0.0027854445959312325 + input[147] * 0.00028232624816112854 + input[148] * -0.000890297815390389 + input[149] * -0.006089691933661441 + input[150] * 0.03493051565743573 + input[151] * -0.006778656638616415 + input[152] * 0.0015210616570840057 + input[153] * -0.004001673241075667 + input[154] * -0.0021631986381373696 + input[155] * 0.0010791334222661013 + input[156] * 0.0350409105479776 + input[157] * -0.007464074774596625 + input[158] * 0.0018140908111634344 + input[159] * 0.002858024683897952 + input[160] * -0.0035427732349878893 + input[161] * 0.010384383566188917 + input[162] * 0.03482089514481117 + input[163] * -0.006111116838434531 + input[164] * 0.0016386659452141293 + input[165] * 0.0020544347377359743
    var29 = input[166] * -0.005430325019831142
    var30 = var28 + var29 + input[167] * 0.009449064617922144 + input[168] * 0.033634815838303044 + input[169] * -0.006273244942496485 + input[170] * 0.0025966280955241985 + input[171] * 0.004592281004084147 + input[172] * -0.011716884920922613 + input[173] * -0.007152059823072507 + input[174] * 0.032485461539597894 + input[175] * -0.0066722997622294215 + input[176] * 0.0020727564456916774 + input[177] * 0.003475351525743547 + input[178] * 0.002677594462575882 + input[179] * 0.007600918799549221 + input[180] * 0.02960490036360465 + input[181] * -0.007213153734705648 + input[182] * 0.0012261204815037208 + input[183] * 0.004612298692136748 + input[184] * 0.007394382437763546 + input[185] * 0.0038660120342907554 + input[186] * 0.023326881967534803 + input[187] * -0.006636227544303435 + input[188] * 0.0005546704858409856 + input[189] * -0.0018745228873822785 + input[190] * -0.017507928912364634 + input[191] * -0.003827704363125688 + input[192] * 0.013989843654331832 + input[193] * -0.005870618797598085 + input[194] * 0.00017159501228131174 + input[195] * -0.005989056877937611 + input[196] * -0.003687912104345946 + input[197] * 0.004719295115406739 + input[198] * 0.007133737503557642 + input[199] * -0.001995192560322878 + input[200] * 0.00004796442098897524 + input[201] * -0.00043545871179858915 + input[202] * 0.009349931357306072 + input[203] * 0.0033022911929536246 + input[204] * 0.0014404260390479633 + input[205] * -0.001834724007625791 + input[206] * -0.000988566558205008 + input[207] * -0.0009848520231903939 + input[208] * -0.012841574177555106 + input[209] * -0.007574489317658658 + input[210] * -0.0052134588031633395 + input[211] * 0.0001856421980948708 + input[212] * 0.0011650548072522882 + input[213] * 0.0015928409644592237 + input[214] * 0.010286217360490114 + input[215] * 0.0009126994868240417 + input[216] * -0.010815122357805686 + input[217] * 0.0010801802664139348 + input[218] * 0.0011325925408967662 + input[219] * 0.0006446911884989123 + input[220] * -0.003945604296444095
    var31 = input[221] * 0.020280759222256136
    var32 = var30 + var31 + input[222] * -0.013523891396496249 + input[223] * -0.00018652963130788363 + input[224] * 0.0010511747750588747 + input[225] * -0.002744955737829655 + input[226] * -0.009306649820649295 + input[227] * 0.010686479507463488 + input[228] * -0.01737377230443632 + input[229] * 0.0008650229484374018 + input[230] * 0.0015526385972826663 + input[231] * 0.002810904827164008 + input[232] * 0.000867620589626059 + input[233] * 0.0013135610806460074 + input[234] * -0.01610494995525184 + input[235] * 0.0009751165485986289 + input[236] * -0.0017505317822100364 + input[237] * 0.0023044744558685533 + input[238] * 0.002314540633809837 + input[239] * 0.00306051771620869 + input[240] * -0.0236161131439159 + input[241] * 0.0029655898722359226 + input[242] * 0.0004991236671456709 + input[243] * -0.0024553616366022107 + input[244] * -0.008196760532715161 + input[245] * -0.0048580538660172 + input[246] * -0.02466495869683378 + input[247] * 0.0052241019130114755 + input[248] * -0.0005625378717642979 + input[249] * 0.00006157045687409512 + input[250] * 0.0013250791556605362 + input[251] * 0.0021475992559953977 + input[252] * -0.024284960827951525 + input[253] * 0.005303843285762874 + input[254] * -0.0013356721343287497 + input[255] * -0.006857368977712796 + input[256] * 0.00505731434932543 + input[257] * 0.001939029615626996 + input[258] * -0.02593169119551656 + input[259] * 0.006150144596683243 + input[260] * -0.0005008157488898905 + input[261] * -0.0018610525340561324 + input[262] * -0.008916935004224939 + input[263] * 0.0021106944476773325 + input[264] * -0.027207223654803832 + input[265] * 0.004780736977990531 + input[266] * 0.0005188904678792932 + input[267] * 0.0044736443333449364 + input[268] * -0.0045920575636456944 + input[269] * 0.014395013534498388 + input[270] * -0.025960312539615466 + input[271] * 0.004856047190238898 + input[272] * 0.0008292292121048294 + input[273] * -0.0017593550993261656 + input[274] * 0.005799483160999409 + input[275] * 0.01905187400865024
    var33 = input[276] * -0.02437503562631279
    var34 = var32 + var33 + input[277] * 0.004768732212553954 + input[278] * -0.0002795512008556618 + input[279] * 0.001337755826358169 + input[280] * 0.0016627074340000202 + input[281] * 0.02269214545790068 + input[282] * -0.02044277281590302 + input[283] * 0.004217532528197105 + input[284] * 0.00005780571272228784 + input[285] * 0.0028610095858378174 + input[286] * -0.0056992607957635074 + input[287] * 0.008462151745455225 + input[288] * -0.024116566660010434 + input[289] * 0.005426045870820814 + input[290] * 0.00042706656316257547 + input[291] * 0.0028446780569814202 + input[292] * -0.003004703362012666 + input[293] * 0.003718236342527283 + input[294] * -0.0236280911739328 + input[295] * 0.0063407171827701905 + input[296] * -0.0006887734028299225 + input[297] * -0.00008949701977585512 + input[298] * 0.003684456081846407 + input[299] * 0.0020259983291129363 + input[300] * -0.023564819735737163 + input[301] * 0.0054844270156234175 + input[302] * -0.0005515233792922615 + input[303] * -0.0020245884787958735 + input[304] * 0.0016189471299785485 + input[305] * 0.010052638088269204 + input[306] * -0.022435176566336028 + input[307] * 0.004857303287693106 + input[308] * 0.0012816818655349536 + input[309] * 0.003691574423712696 + input[310] * 0.004764130290618351 + input[311] * 0.007514888316242483 + input[312] * -0.020267684113725124 + input[313] * 0.0041451250410220655 + input[314] * 0.00020890248594202968 + input[315] * 0.0007698994050967365 + input[316] * -0.0009844437960123732 + input[317] * 0.013319275373985445 + input[318] * -0.01920563326579397 + input[319] * 0.0034251786093045587 + input[320] * -0.00012538165017528873 + input[321] * 0.003842673312780009 + input[322] * -0.0002772349369080489 + input[323] * 0.006050084686114148 + input[324] * -0.018583147197342678 + input[325] * 0.0032243923263352062 + input[326] * -0.00020365547953521185 + input[327] * 0.0010865823937619948 + input[328] * 0.0038210024287782672 + input[329] * -0.003735701150231523 + input[330] * -0.01605762964553369
    var35 = input[331] * 0.002344050227786812
    var36 = var34 + var35 + input[332] * -0.0006314604609009386 + input[333] * 0.005171388441095991 + input[334] * 0.002389505369021603 + input[335] * -0.02609593025427331 + input[336] * -0.01579465284180965 + input[337] * 0.0024646137056596675 + input[338] * -0.0004158736208950336 + input[339] * 0.0037955782748653557 + input[340] * 0.005754582465803291 + input[341] * -0.02334259654132763 + input[342] * -0.014276140433132224 + input[343] * 0.0013789850539198758 + input[344] * 0.00002710464907657038 + input[345] * 0.005045951471476128 + input[346] * 0.008966138519962811 + input[347] * -0.025362430633382994 + input[348] * -0.012906108699993393 + input[349] * 0.0012745230093713245 + input[350] * -0.00009236540004962917 + input[351] * 0.0035423731648028377 + input[352] * 0.0008927318169695335 + input[353] * -0.019816627514186752 + input[354] * -0.01130088223682532 + input[355] * 0.0012688247772840388 + input[356] * 0.00011701410887191627 + input[357] * 0.003011889903417056 + input[358] * -0.0002149830834355077 + input[359] * -0.013320387493311001 + input[360] * -0.010231512262462213 + input[361] * -0.00006134538515791963 + input[362] * 0.00022965281562661323 + input[363] * 0.005705547895618013 + input[364] * -0.0010183449437044638 + input[365] * -0.01603412633514776 + input[366] * -0.008144310214155853 + input[367] * 0.00023391922844705603 + input[368] * -0.000035527848476834474 + input[369] * 0.003857858362482102 + input[370] * 0.0015723380546799183 + input[371] * -0.008121670961409555 + input[372] * -0.006491240778685861 + input[373] * -0.0006072444341072489 + input[374] * -0.0003603841072766103 + input[375] * 0.0014964148147418688 + input[376] * 0.00013471803046410222 + input[377] * -0.006187809697377218 + input[378] * -0.006228882408777101 + input[379] * -0.000611378133571839 + input[380] * 0.0003743842616109393 + input[381] * 0.0010925769894238118 + input[382] * 0.0010828888189804878 + input[383] * -0.00853017069616811 + input[384] * -0.005437661698571466 + input[385] * -0.0004670753945778311
    var37 = input[386] * -0.00016160844797099533
    var38 = var36 + var37 + input[387] * -0.0015156096431964837 + input[388] * -0.0001792981018856773 + input[389] * -0.007631158628377086 + input[390] * -0.004600931650431865 + input[391] * -0.001023024958196174 + input[392] * 0.0001018180302024911 + input[393] * -0.0011443131625985847 + input[394] * 0.0007822369617363463 + input[395] * -0.009244255414957046 + input[396] * -0.004255279137774972 + input[397] * -0.0010942833808429548 + input[398] * 0.00010737179351357662 + input[399] * -0.0017197661482703606 + input[400] * -0.0020635403313978506 + input[401] * -0.0011100428227996952 + input[402] * -0.0030574759028952534 + input[403] * -0.0008302391406086 + input[404] * -0.00048659552644193446 + input[405] * -0.002062519046393161 + input[406] * -0.006048814723901103 + input[407] * 0.00696000007476135 + input[408] * -0.0029630033161475566 + input[409] * -0.0007275952047154462 + input[410] * -0.00037946239165790756 + input[411] * -0.0008801871538488678 + input[412] * -0.005358483966692586 + input[413] * 0.01654460428424096 + input[414] * -0.0019774764926354634 + input[415] * -0.0012318736704618788 + input[416] * -0.00011310816567189814 + input[417] * -0.0012602548958758086 + input[418] * -0.003385846854928956 + input[419] * 0.018476637942261412 + input[420] * -0.0015247437529564598 + input[421] * -0.0009518592657426046 + input[422] * 0.00011332937132564681 + input[423] * -0.0006859356058352666 + input[424] * -0.00061041231091021 + input[425] * 0.016148283455539238 + input[426] * -0.0010996304194975481 + input[427] * -0.0012693477352477716 + input[428] * 0.00043867940533019934 + input[429] * -0.0010486259519159628 + input[430] * -0.005257804323895907 + input[431] * 0.013087142578625949 + input[432] * -0.0009965741793474567 + input[433] * -0.001190120768522806 + input[434] * 0.00012551418491484257 + input[435] * 0.0009960019704552 + input[436] * -0.003095054790023945 + input[437] * 0.007381270387486869 + input[438] * -0.001301311602125395 + input[439] * -0.0008914071005329336 + input[440] * 0.00044002937993290945
    var39 = input[441] * 0.0005596264211028076
    var40 = var38 + var39 + input[442] * -0.005683044961984365 + input[443] * 0.0024370773146709245 + input[444] * -0.0008646402157629225 + input[445] * -0.000894495432304454 + input[446] * 0.00019110457803346077 + input[447] * -0.0004671169977196006 + input[448] * -0.0025781099007367893 + input[449] * 0.0023420617522946913 + input[450] * -0.0006992473452607595 + input[451] * -0.0009434687026136146 + input[452] * 0.00016229479044365595 + input[453] * -0.0010081913610400942 + input[454] * 0.0007075018657407414 + input[455] * 0.0010930442527880282 + input[456] * -0.0008035314192890195 + input[457] * -0.000982933293105771 + input[458] * 0.0003039025735351014 + input[459] * -0.001167840728349002 + input[460] * 0.002758671567434369 + input[461] * -0.0017999070180474634 + input[462] * -0.0008451749283889007 + input[463] * -0.0009016588838387784 + input[464] * 0.00044625427409971855 + input[465] * -0.0004083431726673832 + input[466] * 0.003058377898669331 + input[467] * -0.004957821527165921 + input[468] * -0.0006830131500196711 + input[469] * -0.0010322506961338448 + input[470] * 0.00044994341518628874 + input[471] * -0.0006833754702771524 + input[472] * -0.00011398511869154852 + input[473] * -0.004351119856660589 + input[474] * -0.0005276179725860489 + input[475] * -0.0011645204567381465 + input[476] * 0.0003124936592703618 + input[477] * 0.00005879787305222639 + input[478] * -0.0007624917574287699 + input[479] * -0.0015495257647875303 + input[480] * -0.00037278484374053905 + input[481] * -0.0009672642918877627 + input[482] * 0.0001585148491088356 + input[483] * 0.0030276991819862087 + input[484] * 0.00023165153411877637 + input[485] * -0.0007885255160718621 + input[486] * -0.00044255637097404124 + input[487] * -0.0009039981411019815 + input[488] * 0.00001610036493954245 + input[489] * 0.0037914816641634267 + input[490] * 0.0005171652195029494 + input[491] * 0.0010764132468716167 + input[492] * -0.0003930806222351317 + input[493] * -0.0008358685675983657 + input[494] * -0.0001165107898709717 + input[495] * 0.0011948621851102666
    var41 = input[496] * -0.001166685204650309
    var42 = var40 + var41 + input[497] * 0.0035917357201048754 + input[498] * -0.00003610320452464357 + input[499] * -0.0010706843912061455 + input[500] * -0.0005731582578475129 + input[501] * 0.00028619671091354527 + input[502] * -0.0010968494534832533 + input[503] * 0.0022309720557545805 + input[504] * -0.00011069213109975679 + input[505] * -0.0010295368757659968 + input[506] * -0.0006377662168395928 + input[507] * -0.005118164708438351 + input[508] * -0.0012816049695842447 + input[509] * 0.0009738331814417677 + input[510] * -0.00025880695510843184 + input[511] * -0.0006654633445024782 + input[512] * -0.00031446634521234494 + input[513] * -0.006966094308382848 + input[514] * -0.003056150221667631 + input[515] * 0.002185990501721814 + input[516] * -0.0001609954445150954 + input[517] * -0.0017444822015155689 + input[518] * 0.00012361100295181772 + input[519] * -0.0020441751938186253 + input[520] * -0.00004929799695983719 + input[521] * -0.0030083901288006213 + input[522] * -0.0003024154257694945 + input[523] * -0.0013925285746994793 + input[524] * 0.00019059013587601278 + input[525] * -0.0024677581277290687 + input[526] * 0.0030786292040015663 + input[527] * -0.0047483254619717155 + input[528] * -0.0008026493561489673 + input[529] * -0.001006351761938997 + input[530] * 0.00048771612538280827 + input[531] * -0.00435867527927251 + input[532] * 0.005081604427023949 + input[533] * 0.01137484465223256 + input[534] * -0.00044576546318750326 + input[535] * -0.0016183864986604908 + input[536] * 0.0008304882663842354 + input[537] * -0.000017254966925736105 + input[538] * 0.0036261928706453083 + input[539] * 0.0017923627937471095 + input[540] * -0.0008890593598230746 + input[541] * -0.0005587243921890709 + input[542] * 0.0007875678617064409 + input[543] * -0.002234244955977974 + input[544] * 0.002634966342665596 + input[545] * -0.00167318231958426 + input[546] * -0.0003081955885510801 + input[547] * -0.0008931559295739767 + input[548] * 0.00043027734688992674 + input[549] * -0.0005727477139778501 + input[550] * 0.004317746330447854
    var43 = input[551] * -0.0003983450805807507
    var44 = -2.5167798524331078 + input[0] * 0.000649969426531604
    var45 = input[1] * 0.002203587775182977
    var46 = var44 + var45 + input[2] * 0.000781177337346148 + input[3] * 0.0035266008543682835 + input[4] * -0.00044046357094633317 + input[5] * 0.0003143443833584787 + input[6] * 0.0004101486583628506 + input[7] * 0.0016162287643668985 + input[8] * 0.0006921219801598161 + input[9] * 0.0029499669490475285 + input[10] * -0.0008792113848569204 + input[11] * -0.0012087605145602814 + input[12] * 0.0002773530653047654 + input[13] * 0.001732510833489718 + input[14] * 0.0008215330405652179 + input[15] * 0.00264227977854069 + input[16] * -0.001530947038785183 + input[17] * -0.00115263274735427 + input[18] * 0.00038425809890189547 + input[19] * 0.001949154692934041 + input[20] * 0.0008684607111768198 + input[21] * 0.0018508672379670438 + input[22] * -0.0001881305483699616 + input[23] * -0.000617404181870133 + input[24] * 0.0009414433366195939 + input[25] * 0.0021647424496224325 + input[26] * 0.0009659651698133754 + input[27] * 0.0005821910031123695 + input[28] * 0.001170384897262667 + input[29] * -0.005702212133921949 + input[30] * -0.000008650295063136832 + input[31] * 0.0031277793863996282 + input[32] * 0.0008787878225713232 + input[33] * -0.0008085964022571617 + input[34] * 0.0006840787452713403 + input[35] * -0.0013502076728590506 + input[36] * -0.000017039257329864503 + input[37] * 0.0035278971305729447 + input[38] * 0.0010964807953108661 + input[39] * -0.0025135131882981603 + input[40] * 0.0009153181445372857 + input[41] * -0.0017669387137524593 + input[42] * 0.00013591042039914997 + input[43] * 0.0038996245970383675 + input[44] * 0.0008484125538547104 + input[45] * -0.0036415288778932956 + input[46] * 0.00272403272027359 + input[47] * -0.003093161705580352 + input[48] * -0.0003694078893892582 + input[49] * 0.005117538990425997 + input[50] * 0.0008150070685614415 + input[51] * -0.0030951922495160104 + input[52] * 0.0022550366801068213 + input[53] * -0.0029588853126020836 + input[54] * -0.0005727016977512928 + input[55] * 0.006352987107021106
    var47 = input[56] * 0.0009175233848871306
    var48 = var46 + var47 + input[57] * -0.00246657054848779 + input[58] * 0.00010646571698833458 + input[59] * -0.004255864008617241 + input[60] * -0.0016419241211257938 + input[61] * 0.008167607617844954 + input[62] * 0.000678151472936054 + input[63] * -0.0022976922701998777 + input[64] * -0.0011624771401919985 + input[65] * -0.0037317018471955954 + input[66] * -0.0014994872282062916 + input[67] * 0.01161627290410276 + input[68] * 0.0007281832694970416 + input[69] * -0.0014704288791047408 + input[70] * -0.0008972058427654722 + input[71] * -0.0065646976893401765 + input[72] * -0.0012589729810635842 + input[73] * 0.015531684047079424 + input[74] * 0.0005007208387085576 + input[75] * -0.0011182711968382964 + input[76] * 0.000504103106487767 + input[77] * -0.011339767728706861 + input[78] * -0.002002414962301856 + input[79] * 0.021357746314510744 + input[80] * 0.0006661231937951537 + input[81] * 0.0004859833984110639 + input[82] * -0.0025635310557786508 + input[83] * -0.0032136674173031334 + input[84] * 0.0010857005030334948 + input[85] * 0.02505611404278792 + input[86] * 0.000266995367973103 + input[87] * 0.0007863828782734717 + input[88] * -0.0024277918852095223 + input[89] * 0.005475944095159267 + input[90] * 0.0023788599414315014 + input[91] * 0.028908084202309572 + input[92] * -0.00008797650761198744 + input[93] * 0.0015256946856375222 + input[94] * -0.0017563694204048284 + input[95] * 0.007385444448099065 + input[96] * 0.0024844603372506 + input[97] * 0.032243472825117206 + input[98] * 0.000815694793524941 + input[99] * 0.0020127138339994066 + input[100] * -0.002678918850946941 + input[101] * 0.01158692565585295 + input[102] * 0.0023019137629526716 + input[103] * 0.03474705532743577 + input[104] * 0.000753467963696124 + input[105] * 0.0023373783831821104 + input[106] * 0.0011046180761397845 + input[107] * 0.008103560619827118 + input[108] * 0.0014460781340211103 + input[109] * 0.035953639876493304 + input[110] * -0.00042097244249987553
    var49 = input[111] * 0.004264953219292928
    var50 = var48 + var49 + input[112] * 0.0035224796318199347 + input[113] * 0.002889001336326318 + input[114] * -0.001016079178117348 + input[115] * 0.037348789801576514 + input[116] * -0.0003492615673652899 + input[117] * 0.00625640031418845 + input[118] * 0.003824998633492331 + input[119] * 0.014343313326803466 + input[120] * -0.006096915710371035 + input[121] * 0.03584767793669641 + input[122] * 0.0008774639098960971 + input[123] * 0.005504379986120255 + input[124] * 0.004368784494222814 + input[125] * 0.013546153418317676 + input[126] * -0.009052445359872865 + input[127] * 0.03338155404738764 + input[128] * 0.0008017858329147475 + input[129] * 0.005937966102563908 + input[130] * 0.005430159499602204 + input[131] * 0.013469878068695866 + input[132] * -0.01126747052121743 + input[133] * 0.029688344906605605 + input[134] * 0.0010105785979685933 + input[135] * 0.003665232737673247 + input[136] * 0.005419326954845974 + input[137] * 0.01111842175430191 + input[138] * -0.011068909679591973 + input[139] * 0.02478924365076314 + input[140] * -0.000582313110919603 + input[141] * 0.0030256434350843537 + input[142] * 0.004623281250282123 + input[143] * 0.0025118149195777436 + input[144] * -0.011875045587833276 + input[145] * 0.022007741268756764 + input[146] * 0.00015911002076718182 + input[147] * 0.0023767472330424597 + input[148] * 0.008999685481055994 + input[149] * 0.01035686274497219 + input[150] * -0.013286839764821248 + input[151] * 0.017042156544775824 + input[152] * 0.00015482067124287916 + input[153] * 0.0035537384400734667 + input[154] * 0.006781678899313429 + input[155] * 0.0036010697832034324 + input[156] * -0.01347956233015515 + input[157] * 0.012306297200222678 + input[158] * -0.0004513602623250129 + input[159] * 0.00024168382143402195 + input[160] * 0.00977284938458029 + input[161] * 0.0022836943570025653 + input[162] * -0.014740508311067718 + input[163] * 0.00876818021738414 + input[164] * 0.0017320121579099271 + input[165] * -0.002554198313501282
    var51 = input[166] * 0.008436481022220724
    var52 = var50 + var51 + input[167] * 0.004501932026813673 + input[168] * -0.0099438341916428 + input[169] * 0.0048430969135123585 + input[170] * 0.0011533959989084522 + input[171] * -0.001207459129039346 + input[172] * 0.005123133174086214 + input[173] * 0.006867342145776955 + input[174] * -0.007113263428394432 + input[175] * -0.0003038613988014907 + input[176] * 0.00042055245413749034 + input[177] * -0.0015730422546457554 + input[178] * 0.00270696376152187 + input[179] * 0.0035744305475631784 + input[180] * -0.005175339703955062 + input[181] * -0.0015584762186234508 + input[182] * 0.0014062580022099892 + input[183] * -0.0015111221533569928 + input[184] * 0.0015928479717983786 + input[185] * 0.0022220475488233644 + input[186] * -0.0024179135396592646 + input[187] * -0.005318043118937318 + input[188] * 0.002783855174447709 + input[189] * 0.0008992582054211848 + input[190] * 0.0063675436257978795 + input[191] * 0.000932243332728109 + input[192] * 0.0010927338694582864 + input[193] * -0.0074544220430368905 + input[194] * 0.002977390229206171 + input[195] * 0.002830490359633756 + input[196] * 0.0006497551591115139 + input[197] * 0.005807474977174601 + input[198] * 0.004194268141712296 + input[199] * -0.011395331870032714 + input[200] * 0.0024714138050679034 + input[201] * 0.00015973924675963944 + input[202] * 0.00222922967211086 + input[203] * 0.0008712348457416824 + input[204] * 0.005630284671060695 + input[205] * -0.01591218434366421 + input[206] * 0.0027513880862631286 + input[207] * 0.0015608848538804507 + input[208] * 0.0006488209817596356 + input[209] * 0.0004917804130167592 + input[210] * 0.007688566049725841 + input[211] * -0.020683839997293042 + input[212] * 0.0025077046145604047 + input[213] * 0.000326614964741504 + input[214] * 0.0013420241342267886 + input[215] * -0.0044090937680881384 + input[216] * 0.010404337093433838 + input[217] * -0.024328797682808104 + input[218] * 0.002299585040284519 + input[219] * 0.0025575710899319987 + input[220] * 0.0031980951062332602
    var53 = input[221] * -0.020036750042601144
    var54 = var52 + var53 + input[222] * 0.0104218299284727 + input[223] * -0.025784279845088142 + input[224] * 0.002305499536418072 + input[225] * 0.0037690484165866637 + input[226] * 0.0037099048983129986 + input[227] * -0.01784574692251765 + input[228] * 0.008173413509825414 + input[229] * -0.028138030284377676 + input[230] * 0.0029864094475032035 + input[231] * 0.0014301105511624833 + input[232] * 0.002735892370020913 + input[233] * -0.014841629038896879 + input[234] * 0.0076934471497421 + input[235] * -0.029018284344894216 + input[236] * 0.0023609256640315054 + input[237] * 0.0005297984944429316 + input[238] * 0.003952473468264353 + input[239] * -0.01136165238506122 + input[240] * 0.0077869911865888625 + input[241] * -0.02832378763489798 + input[242] * 0.001736436628546548 + input[243] * 0.0023602622382702765 + input[244] * 0.002990942512488208 + input[245] * -0.01228865626863522 + input[246] * 0.00584303828758413 + input[247] * -0.02778150306078792 + input[248] * 0.002153709337782564 + input[249] * -0.0006433994360097976 + input[250] * 0.0038247350487014857 + input[251] * -0.01266891740407903 + input[252] * 0.005203246174522157 + input[253] * -0.027034363527095942 + input[254] * 0.003185681154521182 + input[255] * 0.0008960184605284703 + input[256] * 0.0015360860625734981 + input[257] * -0.008525426786269986 + input[258] * 0.005805602602647656 + input[259] * -0.026353612783031805 + input[260] * 0.002959745656349213 + input[261] * -0.00003630260327951044 + input[262] * 0.0008971558059782783 + input[263] * -0.007774301503121405 + input[264] * 0.006312727451735994 + input[265] * -0.024229862810777224 + input[266] * 0.0022444803869033094 + input[267] * -0.0018590040110601034 + input[268] * -0.0011391609659822078 + input[269] * -0.008858248313049455 + input[270] * 0.005813293127592854 + input[271] * -0.021774234632602637 + input[272] * 0.002350787853459269 + input[273] * -0.0006336060763719786 + input[274] * 0.002241414881322606 + input[275] * -0.0022249769503651425
    var55 = input[276] * 0.0047359440172707315
    var56 = var54 + var55 + input[277] * -0.01890521310531059 + input[278] * 0.0022636894780207885 + input[279] * 0.000041225875517007206 + input[280] * 0.00484892687507873 + input[281] * 0.0030901815449683534 + input[282] * 0.004568431728288094 + input[283] * -0.01596673446721973 + input[284] * 0.0016831620226542565 + input[285] * 0.0008702199311221723 + input[286] * 0.0034834586582274908 + input[287] * 0.005021223929156127 + input[288] * 0.0036662019549426137 + input[289] * -0.013836621573981935 + input[290] * 0.0025107406419758974 + input[291] * 0.003106390911489894 + input[292] * 0.0007288272581220018 + input[293] * 0.008546103876326518 + input[294] * 0.0033640710314295705 + input[295] * -0.010978937898347045 + input[296] * 0.0020018071969859267 + input[297] * 0.006584074024996758 + input[298] * -0.0035562912569680545 + input[299] * 0.005019697989195474 + input[300] * 0.0029894582444075146 + input[301] * -0.009106524775673247 + input[302] * 0.002324797822701996 + input[303] * 0.008413630040518268 + input[304] * -0.002013628663533795 + input[305] * 0.00704436303870228 + input[306] * 0.0027513698837127324 + input[307] * -0.007533261156562578 + input[308] * 0.0017505567454769537 + input[309] * 0.006816579400008675 + input[310] * -0.0014981412513645684 + input[311] * 0.01053251926043059 + input[312] * 0.002660314612234103 + input[313] * -0.0066504546550962525 + input[314] * 0.0016710764961482723 + input[315] * 0.005533838933017353 + input[316] * -0.0004357134029453444 + input[317] * 0.011630239533609478 + input[318] * 0.002327240272394314 + input[319] * -0.005408735513218114 + input[320] * 0.001978282267264717 + input[321] * 0.005262850040532816 + input[322] * -0.0029227156069309844 + input[323] * 0.010730781147040316 + input[324] * 0.002257681357990927 + input[325] * -0.004120911205414858 + input[326] * 0.001765629501685301 + input[327] * 0.005386636987350291 + input[328] * -0.004003045880134468 + input[329] * 0.009798005327994708 + input[330] * 0.00290503204497276
    var57 = input[331] * -0.003288359947906797
    var58 = var56 + var57 + input[332] * 0.0010561293110309968 + input[333] * 0.0047983417864142725 + input[334] * -0.0023051593901207974 + input[335] * 0.010449298792450995 + input[336] * 0.002361236534216397 + input[337] * -0.002525925095577663 + input[338] * 0.001145816058119947 + input[339] * 0.0015822690513875397 + input[340] * 0.0003141050142630698 + input[341] * 0.006214877276014689 + input[342] * 0.001887423884261332 + input[343] * -0.0019833044113350493 + input[344] * 0.0011336244938994933 + input[345] * 0.00016972670048947625 + input[346] * 0.0033040669056810623 + input[347] * 0.006193490075884458 + input[348] * 0.002303620324900696 + input[349] * -0.0018350350745795203 + input[350] * 0.0011368869095139845 + input[351] * -0.001592743710395376 + input[352] * 0.005145903976872926 + input[353] * 0.004812544021929531 + input[354] * 0.0020822843233882626 + input[355] * -0.0017416894063814645 + input[356] * 0.0011331807232701156 + input[357] * -0.0025097949966700617 + input[358] * 0.005356823448622265 + input[359] * 0.003141282933002923 + input[360] * 0.0020429167601066383 + input[361] * -0.0009225234947665052 + input[362] * 0.001091105748213814 + input[363] * -0.0035568332043572175 + input[364] * 0.004184209849759171 + input[365] * -0.0006283743622975165 + input[366] * 0.00188274776966726 + input[367] * -0.000436199244331852 + input[368] * 0.0010323169929817013 + input[369] * -0.004360186495994512 + input[370] * 0.0012659323973152575 + input[371] * -0.003050880249397975 + input[372] * 0.001657194941796206 + input[373] * -0.000028694012328564195 + input[374] * 0.0009055037289614153 + input[375] * -0.003540133538353939 + input[376] * -0.0007986500908432725 + input[377] * -0.0040789144341028625 + input[378] * 0.00138791163848083 + input[379] * 0.00021870212742552096 + input[380] * 0.0008525111783456914 + input[381] * -0.0038055407436091222 + input[382] * 0.00024275125358968517 + input[383] * -0.0034418683277804814 + input[384] * 0.0011562800283198402 + input[385] * 0.00024369061200246026
    var59 = input[386] * 0.0008317600294329397
    var60 = var58 + var59 + input[387] * -0.0038887728985200314 + input[388] * 0.0009239345048562515 + input[389] * -0.0030936582410750215 + input[390] * 0.0008606718374223222 + input[391] * 0.00032201018969907564 + input[392] * 0.0008651015071072776 + input[393] * -0.004483006224744393 + input[394] * 0.0017185081563640186 + input[395] * -0.0029953665000032772 + input[396] * 0.0007373299696739385 + input[397] * 0.0003393952572827133 + input[398] * 0.0007365124762076557 + input[399] * -0.005689165208893111 + input[400] * 0.0022966420884394465 + input[401] * -0.004440612272462645 + input[402] * 0.00040654992683999253 + input[403] * 0.0003072669394351671 + input[404] * 0.0005967621122026853 + input[405] * -0.004794805949840103 + input[406] * 0.0021764537419378363 + input[407] * -0.004074162200821623 + input[408] * 0.00032581648512880365 + input[409] * 0.00034654763186213006 + input[410] * 0.0005578721621952725 + input[411] * -0.0033613207536986683 + input[412] * 0.0027792283068830753 + input[413] * -0.002297123604629498 + input[414] * 0.0008357814753188195 + input[415] * 0.0004134628933564217 + input[416] * 0.0005903464509507536 + input[417] * -0.0023548396375794004 + input[418] * 0.00419091733879573 + input[419] * -0.0009751175281049522 + input[420] * 0.0008452279181594132 + input[421] * -0.000011160531446317524 + input[422] * 0.0007826930614777644 + input[423] * -0.0012150420141867826 + input[424] * 0.0031773285702954564 + input[425] * -0.0018150109443434332 + input[426] * 0.0005771587691246379 + input[427] * -0.00015873113017628336 + input[428] * 0.0008237864669873186 + input[429] * -0.0007817686892084661 + input[430] * -0.002488015655191858 + input[431] * -0.002114469699194227 + input[432] * 0.0007114149334234024 + input[433] * -0.00005232393445896067 + input[434] * 0.0009380118448180625 + input[435] * 0.000047966990621062374 + input[436] * -0.0037818476812840887 + input[437] * -0.0014842415862682523 + input[438] * 0.0008173169441641928 + input[439] * 0.000008096133006654329 + input[440] * 0.0009767168155456112
    var61 = input[441] * 0.0004071735522993413
    var62 = var60 + var61 + input[442] * -0.0043205582708534356 + input[443] * -0.0015679797657546846 + input[444] * 0.0009509811945624292 + input[445] * 0.000038911427280751403 + input[446] * 0.001039441087376267 + input[447] * 0.0004701453367873618 + input[448] * -0.003335593995784961 + input[449] * -0.0015556790047494883 + input[450] * 0.000953183905431248 + input[451] * 0.00020508432745387195 + input[452] * 0.0010658060287228079 + input[453] * 0.0014353077420721431 + input[454] * -0.0006263160407414992 + input[455] * -0.0017717565780421486 + input[456] * 0.000654643838107321 + input[457] * 0.0003018546037211001 + input[458] * 0.0010997045440661703 + input[459] * 0.002141963719847885 + input[460] * 0.0020944893745154605 + input[461] * -0.0025713814752031396 + input[462] * 0.00021834249185627937 + input[463] * 0.00044347903161897386 + input[464] * 0.0011742392474282466 + input[465] * 0.002514929300506139 + input[466] * 0.0019122998246220923 + input[467] * -0.002959072106729862 + input[468] * 0.000265209609146609 + input[469] * 0.0004373347345626366 + input[470] * 0.0011231587345370932 + input[471] * 0.0033340463684727816 + input[472] * -0.0004371197331597635 + input[473] * -0.0030893632919794653 + input[474] * 0.0002574987597406074 + input[475] * 0.0004261922529412528 + input[476] * 0.0011481317430863728 + input[477] * 0.0036844789331030646 + input[478] * -0.0017503145919470502 + input[479] * -0.0017162688405095857 + input[480] * 0.000333078720113692 + input[481] * 0.0003064014610887519 + input[482] * 0.0008654931566250329 + input[483] * 0.0035237931380204574 + input[484] * -0.0016232583939919667 + input[485] * -0.0009209523066859532 + input[486] * 0.0003596207121637601 + input[487] * 0.00031491217232806646 + input[488] * 0.0009082745512870868 + input[489] * 0.003975792392372663 + input[490] * -0.0012058702394561114 + input[491] * -0.0008258057946708945 + input[492] * 0.00018849004425174155 + input[493] * 0.00028602495847786154 + input[494] * 0.0008833276714613599 + input[495] * 0.0011034959359159191
    var63 = input[496] * -0.0027995032163481946
    var64 = var62 + var63 + input[497] * -0.0013155599547422245 + input[498] * 0.0008247040408680731 + input[499] * 0.00020551294677110862 + input[500] * 0.0002140944730503947 + input[501] * 0.0000488225567101815 + input[502] * -0.0010071031648203766 + input[503] * -0.001275611802848969 + input[504] * 0.0007823867586328914 + input[505] * 0.00027491973207272263 + input[506] * 0.0000232831854100061 + input[507] * -0.007476407368875199 + input[508] * -0.00038831203052104926 + input[509] * -0.0022791167061306495 + input[510] * 0.0006799270488223822 + input[511] * 0.00006863808644852679 + input[512] * 0.0002365795309359277 + input[513] * -0.0060862004939284025 + input[514] * -0.003066073673970126 + input[515] * -0.0002812493658475814 + input[516] * 0.0005983629161928558 + input[517] * 0.00009506583514601208 + input[518] * 0.0005832362761681935 + input[519] * -0.007224416178500634 + input[520] * -0.0014293798402180407 + input[521] * 0.0006535162564232179 + input[522] * 0.0007549784032156124 + input[523] * 0.0001019948339810156 + input[524] * 0.0009023931905011739 + input[525] * -0.0038154077883967843 + input[526] * 0.0001481485273125549 + input[527] * 0.0008877804047224804 + input[528] * 0.0007380675786884097 + input[529] * 0.00023550505505007973 + input[530] * 0.0010521961792675687 + input[531] * -0.0005066694839917228 + input[532] * 0.0025835169064722854 + input[533] * 0.00123628846525832 + input[534] * 0.0004050078004386862 + input[535] * 0.00020693593101598937 + input[536] * 0.0008153944277230959 + input[537] * 0.0013862795882989079 + input[538] * -0.002690292610617665 + input[539] * 0.0017786389819550456 + input[540] * 0.00029285635843062863 + input[541] * 0.00040152778541725266 + input[542] * 0.0012413651330294984 + input[543] * 0.0014862645637166731 + input[544] * -0.004387754868020752 + input[545] * 0.001194640307870715 + input[546] * 0.000443882662378913 + input[547] * 0.00007685659302003299 + input[548] * 0.0009357088626292379 + input[549] * 0.0018242559793862757 + input[550] * -0.003357282738632874
    var65 = input[551] * 0.0008972396840495324
    var66 = -4.586110746190964 + input[0] * -0.0000027454352392066502
    var67 = input[1] * -0.000012111263961420658
    var68 = var66 + var67 + input[2] * -0.0009468481204045152 + input[3] * 0.0005676001426457193 + input[4] * -0.0000465250261470706 + input[5] * -0.0003813515046640641 + input[6] * -0.000009818343630134277 + input[7] * -0.000012435275018025579 + input[8] * -0.000950103244565829 + input[9] * 0.0005614329539696309 + input[10] * 0.000011330078198954804 + input[11] * -0.0003568360295940412 + input[12] * -0.000010881163069616044 + input[13] * -0.00002090259439907363 + input[14] * -0.0009535833132645822 + input[15] * 0.0005315283727195317 + input[16] * 0.00007625775112232726 + input[17] * -0.0003465540211116358 + input[18] * -0.000019665386597589772 + input[19] * -0.000025563695061481758 + input[20] * -0.0009539912538007665 + input[21] * 0.00043593547040971523 + input[22] * 0.00014030285006271689 + input[23] * -0.0003342968679859876 + input[24] * -0.000026209582595247672 + input[25] * -0.000028113626016339814 + input[26] * -0.0009599015794507865 + input[27] * 0.00033469535831465007 + input[28] * 0.00015512005976329847 + input[29] * -0.00040091441816504615 + input[30] * -0.000050164352898659056 + input[31] * -0.00003158753404274352 + input[32] * -0.0009623707639950567 + input[33] * 0.00020921072902260374 + input[34] * 0.00010702911122253981 + input[35] * -0.00046064053373321735 + input[36] * -0.0000873329789074842 + input[37] * -0.00003175044359711921 + input[38] * -0.0009632236300038861 + input[39] * 0.00006366871447536117 + input[40] * 0.00009774479541096485 + input[41] * -0.0004910147035757997 + input[42] * -0.00012423134093991298 + input[43] * -0.000040391637902968864 + input[44] * -0.000954251192835738 + input[45] * -0.000039300155128347864 + input[46] * 0.00014951522936289285 + input[47] * -0.0004319087070939267 + input[48] * -0.00016073261673027917 + input[49] * -0.000059396947295677446 + input[50] * -0.0009511088730467354 + input[51] * -0.000056443800309093696 + input[52] * 0.00017666130849983036 + input[53] * -0.0002990510075152479 + input[54] * -0.00020879779576835506 + input[55] * -0.00006769777111394974
    var69 = input[56] * -0.0009453571526784677
    var70 = var68 + var69 + input[57] * -0.00008300326109603695 + input[58] * 0.0001418788225225026 + input[59] * -0.00015270964915105147 + input[60] * -0.0002646015800842404 + input[61] * -0.00009806686522751777 + input[62] * -0.0009526759091987412 + input[63] * -0.00013644988823251737 + input[64] * 0.00012731142182788094 + input[65] * 0.00005415949764193656 + input[66] * -0.00026369993920306135 + input[67] * -0.00013780462903678918 + input[68] * -0.0009614452701775558 + input[69] * -0.0003236248375885433 + input[70] * 0.00038828711272178543 + input[71] * 0.0002637318470776988 + input[72] * -0.00031754327379774467 + input[73] * -0.0001794645513331517 + input[74] * -0.0009205215090349165 + input[75] * -0.0006682877614132441 + input[76] * 0.0009136138561545842 + input[77] * 0.0005137875845361124 + input[78] * -0.00037922506935473714 + input[79] * -0.0002480510156531313 + input[80] * -0.0008620206207014868 + input[81] * -0.0008229703865050171 + input[82] * 0.0007635740227458018 + input[83] * 0.0008095902860433835 + input[84] * -0.00045028583246339057 + input[85] * -0.00031400287259480205 + input[86] * -0.0008282726390623596 + input[87] * -0.0010342785124832577 + input[88] * 0.0007766925465464222 + input[89] * 0.0011442400294989408 + input[90] * -0.0005080859233797686 + input[91] * -0.0003865181850799782 + input[92] * -0.000777120868014452 + input[93] * -0.00125611673889369 + input[94] * 0.0007963248328625793 + input[95] * 0.0014821928557960415 + input[96] * -0.0005242747950198546 + input[97] * -0.00044176322927559994 + input[98] * -0.0007460008785785818 + input[99] * -0.0015014844756111908 + input[100] * 0.0007223540858522751 + input[101] * 0.001787765586427193 + input[102] * -0.0005366190065224924 + input[103] * -0.0005052955260869219 + input[104] * -0.0007032134661366387 + input[105] * -0.0015670079171949674 + input[106] * 0.000552926750595303 + input[107] * 0.002325185745244049 + input[108] * -0.0004759356670660482 + input[109] * -0.0005604128849802024 + input[110] * -0.0006956956295532297
    var71 = input[111] * -0.0013736558092762416
    var72 = var70 + var71 + input[112] * 0.00033245098075014015 + input[113] * 0.0028722620600386784 + input[114] * -0.00037214636214083865 + input[115] * -0.0005814884856736487 + input[116] * -0.0006821448594331926 + input[117] * -0.0008973750701724244 + input[118] * 0.00004030878893061997 + input[119] * 0.003206357363349053 + input[120] * -0.00023159608262998734 + input[121] * -0.0005537738050928303 + input[122] * -0.0006786547032898906 + input[123] * -0.00015632729078659922 + input[124] * -0.00009904392337346313 + input[125] * 0.003462770069019853 + input[126] * -0.00011275903998449737 + input[127] * -0.0005114853752553115 + input[128] * -0.0006807485222452846 + input[129] * 0.0007220141809393846 + input[130] * -0.0000570216097389785 + input[131] * 0.0034700263206303293 + input[132] * -0.000013396654812471642 + input[133] * -0.00048554352551138165 + input[134] * -0.0006577129451114536 + input[135] * 0.0016825007398907194 + input[136] * 0.0000010216243948904068 + input[137] * 0.003447813976379573 + input[138] * 0.00003232317331810429 + input[139] * -0.00041174092143545133 + input[140] * -0.0006237130438621178 + input[141] * 0.00258322647872179 + input[142] * -0.00007202837950931131 + input[143] * 0.0033934931149956485 + input[144] * 0.00010923140189908202 + input[145] * -0.00035387785011503983 + input[146] * -0.0006099356393362377 + input[147] * 0.0033987220114600515 + input[148] * -0.0005857136589233805 + input[149] * 0.0032207427566417223 + input[150] * 0.0001830559269474186 + input[151] * -0.0003079403243501121 + input[152] * -0.0005964378238133794 + input[153] * 0.003999974855444613 + input[154] * -0.0014519330912129962 + input[155] * 0.0032809605716315254 + input[156] * 0.00028735543168366406 + input[157] * -0.00022434200682056371 + input[158] * -0.0005943525291681462 + input[159] * 0.004298999134177576 + input[160] * -0.0023422546557310443 + input[161] * 0.0031112310656490625 + input[162] * 0.00034010140389747654 + input[163] * -0.0001740959665196172 + input[164] * -0.0006463712756947465 + input[165] * 0.004211817660038071
    var73 = input[166] * -0.0032423980775151194
    var74 = var72 + var73 + input[167] * 0.0029232221088710633 + input[168] * 0.0003877553406260188 + input[169] * -0.00011658183624294765 + input[170] * -0.0007505071095317398 + input[171] * 0.004020898896956652 + input[172] * -0.004029257032548101 + input[173] * 0.002769690324113877 + input[174] * 0.0004280344746876637 + input[175] * -0.000019246720730335034 + input[176] * -0.0008316811827451186 + input[177] * 0.003633483603997138 + input[178] * -0.004584044513671653 + input[179] * 0.002381674954089721 + input[180] * 0.00047999349819626366 + input[181] * 0.000028800856010371245 + input[182] * -0.0009082795497566663 + input[183] * 0.0032343279722496635 + input[184] * -0.004639602158669338 + input[185] * 0.001856561548751451 + input[186] * 0.0005722318540322015 + input[187] * 0.00009076953221369111 + input[188] * -0.0009830040483287126 + input[189] * 0.0028660355294274154 + input[190] * -0.004513933159459284 + input[191] * 0.0012216823621702866 + input[192] * 0.0006285618683816561 + input[193] * 0.00011029419242540539 + input[194] * -0.0010497257307492448 + input[195] * 0.002546437400969779 + input[196] * -0.004516615006518292 + input[197] * 0.0005796160614490184 + input[198] * 0.0006415657236533963 + input[199] * 0.0001380582534089123 + input[200] * -0.0010737756217658369 + input[201] * 0.0021973219722959893 + input[202] * -0.004592784541238708 + input[203] * 0.000023309017677360674 + input[204] * 0.0006593310729064761 + input[205] * 0.000144256149139119 + input[206] * -0.001122902063998091 + input[207] * 0.0020272044083915375 + input[208] * -0.004594580777133007 + input[209] * -0.0004424517665804205 + input[210] * 0.0006789540783658948 + input[211] * 0.00015725988881666554 + input[212] * -0.0011728609673410375 + input[213] * 0.0018551067187967845 + input[214] * -0.004689992964923958 + input[215] * -0.001078270159906391 + input[216] * 0.0006520753116549912 + input[217] * 0.00015460073018266465 + input[218] * -0.0012435285353782292 + input[219] * 0.0015197228417196393 + input[220] * -0.004331228433158908
    var75 = input[221] * -0.001836667418505763
    var76 = var74 + var75 + input[222] * 0.0005877778976790529 + input[223] * 0.00015607514953872479 + input[224] * -0.001280341237247975 + input[225] * 0.0011036779573669728 + input[226] * -0.0037967938739385206 + input[227] * -0.0022209210754265555 + input[228] * 0.0005343898414157691 + input[229] * 0.00017879965722074657 + input[230] * -0.0013485728913930981 + input[231] * 0.0005176130220431964 + input[232] * -0.0032314024564791526 + input[233] * -0.0027045039182432926 + input[234] * 0.0004710171906810101 + input[235] * 0.00016583440501869538 + input[236] * -0.0013621781112832887 + input[237] * 0.000010485991071417779 + input[238] * -0.0028887631574568986 + input[239] * -0.0030151631663495647 + input[240] * 0.00043937203388344064 + input[241] * 0.00013524045191789738 + input[242] * -0.0013546542774846026 + input[243] * -0.00013439072199347157 + input[244] * -0.0023694573189638607 + input[245] * -0.003298265249730095 + input[246] * 0.00038166944274949674 + input[247] * 0.00012019707292311735 + input[248] * -0.0013685213719047296 + input[249] * -0.00016607776965553637 + input[250] * -0.001957511617240888 + input[251] * -0.003506947323184766 + input[252] * 0.0002978873196194231 + input[253] * 0.00010654425806055375 + input[254] * -0.0014088417005352163 + input[255] * -0.00012461432747808382 + input[256] * -0.0017409971501694472 + input[257] * -0.003696498168819635 + input[258] * 0.00018158765105022383 + input[259] * 0.00009414193996074646 + input[260] * -0.001434837390126372 + input[261] * -0.00017941497101823433 + input[262] * -0.0015710768829817292 + input[263] * -0.0038660252619388356 + input[264] * 0.00004828389354413263 + input[265] * 0.000103484733240509 + input[266] * -0.0014525577007205735 + input[267] * -0.0005431169002062333 + input[268] * -0.0014400356907658288 + input[269] * -0.004171598737427666 + input[270] * -0.00008699691857803156 + input[271] * 0.00007890365009662303 + input[272] * -0.001460126306291409 + input[273] * -0.0010354664696235855 + input[274] * -0.0010683248339767863 + input[275] * -0.004401839478054099
    var77 = input[276] * -0.00014017589507919322
    var78 = var76 + var77 + input[277] * 0.000027283269426432526 + input[278] * -0.0014439272712139589 + input[279] * -0.001511109881926679 + input[280] * -0.0006103410273782732 + input[281] * -0.0044802729599927 + input[282] * -0.00021208949277549372 + input[283] * -0.00001633850203287514 + input[284] * -0.0013748195220481384 + input[285] * -0.0017977404363469526 + input[286] * 0.00013753208147610283 + input[287] * -0.004522952404383947 + input[288] * -0.00024827189538718534 + input[289] * -0.000024929265404113906 + input[290] * -0.0012862536372677267 + input[291] * -0.001900744582812399 + input[292] * 0.0008543655096406932 + input[293] * -0.004490104144559113 + input[294] * -0.0002809177641533602 + input[295] * -0.00002443049261745657 + input[296] * -0.0012218054039421023 + input[297] * -0.002010110604002235 + input[298] * 0.001144459753071468 + input[299] * -0.004245821619423554 + input[300] * -0.00031496592944640244 + input[301] * 0.00001408107285357149 + input[302] * -0.0011708081128886454 + input[303] * -0.0021428606597341383 + input[304] * 0.0012719420150447364 + input[305] * -0.003733048728662804 + input[306] * -0.00034774425427579626 + input[307] * 0.0000333515343019017 + input[308] * -0.0011309647440203542 + input[309] * -0.002298919199299653 + input[310] * 0.0012741353435626798 + input[311] * -0.0031477996870722886 + input[312] * -0.0003813660965935436 + input[313] * 0.00006992114006322271 + input[314] * -0.0010701160756170628 + input[315] * -0.0025263462570270265 + input[316] * 0.001081153983101253 + input[317] * -0.002707227783156614 + input[318] * -0.000423242098050895 + input[319] * 0.00008769836040354705 + input[320] * -0.0010154841950237256 + input[321] * -0.0029578577294095657 + input[322] * 0.0007253350450670736 + input[323] * -0.002189264907011105 + input[324] * -0.00046085378467639553 + input[325] * 0.0000652234624659354 + input[326] * -0.0009552251355554912 + input[327] * -0.0033643821580817677 + input[328] * 0.0004947557474106125 + input[329] * -0.0015426846439310926 + input[330] * -0.00037499646812315385
    var79 = input[331] * 0.000036660425074025686
    var80 = var78 + var79 + input[332] * -0.0009516767231077342 + input[333] * -0.0037424810349773346 + input[334] * 0.0004497675203305767 + input[335] * -0.0009737215983874082 + input[336] * -0.00025562408022326394 + input[337] * 0.00002191533523353539 + input[338] * -0.0009468769971614588 + input[339] * -0.00390014392896559 + input[340] * 0.00045619982478074523 + input[341] * -0.0006123696001722168 + input[342] * -0.0001621311544009779 + input[343] * 0.000010498827288388575 + input[344] * -0.0009492958458925493 + input[345] * -0.003954509347350993 + input[346] * 0.0005217703082660298 + input[347] * -0.00041739584649673283 + input[348] * -0.00010935158902464262 + input[349] * 0.00000927473228542371 + input[350] * -0.0009430964379322718 + input[351] * -0.0037761494521734154 + input[352] * 0.0006736871218354803 + input[353] * -0.0002590080767169639 + input[354] * -0.00007114594801854905 + input[355] * 0.000009002109369323757 + input[356] * -0.0009355516998890745 + input[357] * -0.003334431806963719 + input[358] * 0.0009735281178191356 + input[359] * -0.0001658580508257968 + input[360] * -0.00004426310494215035 + input[361] * -0.00003273801629803515 + input[362] * -0.0009221252904821273 + input[363] * -0.0026384214489572474 + input[364] * 0.000989771315100285 + input[365] * -0.00018790947276506561 + input[366] * -0.00004499134384212371 + input[367] * -0.000058139635510974886 + input[368] * -0.0009057021811088181 + input[369] * -0.001814095174586303 + input[370] * 0.0008832916742856754 + input[371] * -0.0002593012976878507 + input[372] * -0.00005864861475606105 + input[373] * -0.00005941359508872162 + input[374] * -0.000884892013155506 + input[375] * -0.0012307419801828368 + input[376] * 0.0008618433414195603 + input[377] * -0.00028514067203384906 + input[378] * -0.000039277986338217654 + input[379] * -0.000047045093762430546 + input[380] * -0.0008596646733160252 + input[381] * -0.0010492687393846714 + input[382] * 0.0009686270782994294 + input[383] * -0.00023278994310259549 + input[384] * -0.00004297167106816436 + input[385] * -0.000049312524714809984
    var81 = input[386] * -0.0008554042418003263
    var82 = var80 + var81 + input[387] * -0.0011784529150498904 + input[388] * 0.0011312670929286093 + input[389] * -0.00016164681276841699 + input[390] * -0.0000619156148930427 + input[391] * -0.00004311146833042909 + input[392] * -0.0008657626047957108 + input[393] * -0.00136921261043182 + input[394] * 0.0012803813662651973 + input[395] * -0.00005196371771556808 + input[396] * -0.00007516905319585646 + input[397] * -0.000019623874030402485 + input[398] * -0.000898929110144695 + input[399] * -0.0016658919067902521 + input[400] * 0.001180484101733499 + input[401] * 0.000056971830897411984 + input[402] * -0.00009622185146950966 + input[403] * 0.0000008591386583640411 + input[404] * -0.0009365849638510444 + input[405] * -0.0018241563379706414 + input[406] * 0.000928441254510683 + input[407] * 0.00011877208630514254 + input[408] * -0.00010695813528076673 + input[409] * 0.000019033831552992587 + input[410] * -0.0009263095135407468 + input[411] * -0.0018226508260455636 + input[412] * 0.001035587936573067 + input[413] * 0.00016070780607152428 + input[414] * -0.00007451010032508144 + input[415] * 0.00003885597238276379 + input[416] * -0.0009078683345423857 + input[417] * -0.0017024044806994933 + input[418] * 0.0014323186366416417 + input[419] * 0.00006004812631908664 + input[420] * -0.00007744296283947606 + input[421] * 0.0000639053520463384 + input[422] * -0.0008534473569616177 + input[423] * -0.0016026241870110616 + input[424] * 0.0015186656995940454 + input[425] * -0.0000841860874349295 + input[426] * -0.00010500724733996925 + input[427] * 0.00006978324719037678 + input[428] * -0.0008283920075472894 + input[429] * -0.0015675513781706334 + input[430] * 0.00117291960472663 + input[431] * -0.000148611352462832 + input[432] * -0.00009769812433087604 + input[433] * 0.00007317714780542151 + input[434] * -0.00080093271535435 + input[435] * -0.0014558605208490904 + input[436] * 0.0010144960654740647 + input[437] * -0.000109690779484558 + input[438] * -0.00009606995476753125 + input[439] * 0.00008907151038328888 + input[440] * -0.0007819602488754195
    var83 = input[441] * -0.0013206434124585773
    var84 = var82 + var83 + input[442] * 0.0008793891263307831 + input[443] * 0.000017161307242800382 + input[444] * -0.0000779111606153618 + input[445] * 0.00008825890445661359 + input[446] * -0.0007816545641200309 + input[447] * -0.0011936665050373157 + input[448] * 0.0008084704424604942 + input[449] * 0.00013398458250639105 + input[450] * -0.00006089424961847304 + input[451] * 0.00007407781269560083 + input[452] * -0.0007741544948991704 + input[453] * -0.0010606606910204116 + input[454] * 0.0006503533025102197 + input[455] * 0.00015589380958711625 + input[456] * -0.000042074088126266034 + input[457] * 0.0000595087027437913 + input[458] * -0.0007710923320719098 + input[459] * -0.0008459399467512127 + input[460] * 0.00044614697631365093 + input[461] * 0.00013536836524235426 + input[462] * -0.000029947800936671057 + input[463] * 0.00005723986656069799 + input[464] * -0.0007649258594516823 + input[465] * -0.0005847568862025908 + input[466] * 0.0002101255237948469 + input[467] * 0.00009569793241327304 + input[468] * -0.000013647597221876604 + input[469] * 0.000050837283512624166 + input[470] * -0.0007639354180014039 + input[471] * -0.0003988491456831645 + input[472] * 0.00006071265366411619 + input[473] * 0.00007777456738437709 + input[474] * 0.000001820125817172863 + input[475] * 0.0000350168941470534 + input[476] * -0.0007634269327099407 + input[477] * -0.00020879227891532287 + input[478] * 0.000010007909784415919 + input[479] * 0.00017883964962999338 + input[480] * 0.000012933891197873551 + input[481] * 0.000021317104089877667 + input[482] * -0.0007587411631168145 + input[483] * 0.000149419413581273 + input[484] * -0.000028866613373102277 + input[485] * 0.0003646485921663516 + input[486] * 0.0000329529289859831 + input[487] * 0.000008919859105410222 + input[488] * -0.0007608840547336528 + input[489] * 0.000556916280435487 + input[490] * 0.00006880300879127863 + input[491] * 0.00059526917843083 + input[492] * 0.00009482201069300937 + input[493] * 0.0000013251610522810042 + input[494] * -0.0007388450637413576 + input[495] * 0.00029029474191066005
    var85 = input[496] * -0.0004024480919958481
    var86 = var84 + var85 + input[497] * 0.0005674219706542003 + input[498] * 0.00017949595767050033 + input[499] * -0.00002041381615742591 + input[500] * -0.00084340975368427 + input[501] * 0.0004606409662205205 + input[502] * -0.00002503238638436717 + input[503] * 0.00035596480176300186 + input[504] * 0.00018864450047480024 + input[505] * -0.00002557776283354896 + input[506] * -0.0009252388916917226 + input[507] * -0.000187804590885688 + input[508] * -0.00023877203330850209 + input[509] * 0.0000982062571813017 + input[510] * 0.00017866850486354782 + input[511] * -0.000007746554278118576 + input[512] * -0.000919011561806856 + input[513] * 0.00038878572388376136 + input[514] * -0.00050775262344647 + input[515] * 0.00016268310901875556 + input[516] * 0.00014127113842774105 + input[517] * -0.00000688961666427625 + input[518] * -0.0008822503301649592 + input[519] * 0.00039095058626613453 + input[520] * -0.000003034894179200836 + input[521] * 0.00021977138696223716 + input[522] * 0.00016028655842177967 + input[523] * -0.000007417411873626231 + input[524] * -0.0008970902554767112 + input[525] * 0.0006687340431532509 + input[526] * -0.00011633204662234192 + input[527] * 0.00032899337943226303 + input[528] * 0.0001288981711414651 + input[529] * -0.000017136342593017743 + input[530] * -0.0009088846806490878 + input[531] * 0.0008016948902231162 + input[532] * -0.0001857292887486509 + input[533] * 0.0002619957589011849 + input[534] * 0.00011170993917914707 + input[535] * -0.000007506767846393772 + input[536] * -0.0009282202452628239 + input[537] * 0.0009158146459049502 + input[538] * -0.00013557990465408213 + input[539] * 0.00018710982205512363 + input[540] * 0.00010631602073282551 + input[541] * 0.0000012006940560330284 + input[542] * -0.0009396264379203177 + input[543] * 0.0007632730571917354 + input[544] * -0.000014643035559994065 + input[545] * 0.00006454146539331594 + input[546] * 0.00009374204063008235 + input[547] * -0.000007283374382001343 + input[548] * -0.0009508463865276405 + input[549] * 0.0008155579413745773 + input[550] * 0.00009818524790209448
    var87 = input[551] * -0.00005862442386850655
    return [var20 + var21 + input[552] * -0.00006609145123326126 + input[553] * 0.0010932040784481204 + input[554] * -0.00039733545121944 + input[555] * -0.001650041630292303 + input[556] * -0.0015872442101808513 + input[557] * -0.003091026491349622 + input[558] * -0.0002726732444082822 + input[559] * 0.0010353682956511547 + input[560] * -0.00042312844759217447 + input[561] * -0.002174735175542378 + input[562] * -0.0027570412781468493 + input[563] * -0.0015663341557894958 + input[564] * -0.0005395638531235465 + input[565] * 0.0013624347303800076 + input[566] * -0.0003730453546483054 + input[567] * -0.0015443721642656285 + input[568] * -0.006142236195186233 + input[569] * 0.001445555182207142 + input[570] * -0.0008548746224050334 + input[571] * 0.0014191978558031311 + input[572] * -0.00010399267532630631 + input[573] * -0.00047098875523785146 + input[574] * -0.008666438239498215 + input[575] * 0.004541813134901003 + input[576] * -0.0003955947149491964 + input[577] * 0.001317952030723559 + input[578] * 0.00017700455044929907 + input[579] * 0.0041842474373472195 + input[580] * -0.008003167325273472 + input[581] * 0.004711414046984135 + input[582] * -0.00021041485878667756 + input[583] * 0.0011918509388613569 + input[584] * 0.000011115678756494338 + input[585] * 0.008519284136503116 + input[586] * -0.008219733278527269 + input[587] * 0.005202444532550734 + input[588] * -0.0002603077383009557 + input[589] * 0.000827000730298823 + input[590] * -0.000016831084880732917 + input[591] * 0.013226180906303845 + input[592] * -0.006550483345291975 + input[593] * 0.004038358106937348 + input[594] * -0.00025345319368142805 + input[595] * 0.0007656163919067989 + input[596] * 0.000018709984160579488 + input[597] * 0.01548416298233902 + input[598] * -0.003936230919690934 + input[599] * -0.002050972258982217 + input[600] * -0.00005369551469185045 + input[601] * 0.0010746683518348089 + input[602] * -0.0004984249754341462 + input[603] * 0.014207432165023327 + input[604] * -0.006759586130871817 + input[605] * -0.006848624584608198, var42 + var43 + input[552] * -0.0005529290106850682 + input[553] * -0.0009231086110704716 + input[554] * 0.0005081005967326287 + input[555] * -0.001447681373081452 + input[556] * 0.003357013150543376 + input[557] * 0.0016232282233167403 + input[558] * -0.0003025134872637886 + input[559] * -0.0009694004759766827 + input[560] * 0.0005209270109902642 + input[561] * -0.0008788840712386836 + input[562] * 0.002708827830185771 + input[563] * -0.0005864320898116671 + input[564] * -0.00046150930536791095 + input[565] * -0.0010990535030483888 + input[566] * 0.0004484970352818082 + input[567] * -0.0005389374634962151 + input[568] * 0.004518615886360272 + input[569] * -0.003196924193451604 + input[570] * -0.0003608882217462499 + input[571] * -0.0010393748083522589 + input[572] * 0.0003745960876427174 + input[573] * -0.00011546081463374623 + input[574] * 0.005537612684083427 + input[575] * -0.0036112763304890945 + input[576] * -0.0005562032326388876 + input[577] * -0.0008282735898635089 + input[578] * 0.00013191828374935617 + input[579] * -0.002976540141454164 + input[580] * 0.006234209243631593 + input[581] * -0.0020923141606435116 + input[582] * -0.0005908140819176619 + input[583] * -0.0008887105722975314 + input[584] * 0.0003044011409372917 + input[585] * -0.0044442469249104215 + input[586] * 0.008265644131313244 + input[587] * -0.0017450469766319193 + input[588] * -0.0005649253452126805 + input[589] * -0.0008676569256701284 + input[590] * 0.0003417327335817619 + input[591] * -0.006438172539889409 + input[592] * 0.008134742649430256 + input[593] * -0.0012881623533721725 + input[594] * -0.0005600982239016213 + input[595] * -0.0010320092687504821 + input[596] * 0.0002652153770747672 + input[597] * -0.007851417816465164 + input[598] * 0.007047930101777521 + input[599] * 0.003138030662523656 + input[600] * -0.0003575014385867572 + input[601] * -0.0010778181443354311 + input[602] * 0.0005519205933004502 + input[603] * -0.007298026271704841 + input[604] * 0.0071691997753633345 + input[605] * 0.005231524424428945, var64 + var65 + input[552] * 0.0005339877117837517 + input[553] * -0.00016565932390184043 + input[554] * 0.0008639890706040368 + input[555] * 0.002315184078484791 + input[556] * -0.0019339767094466366 + input[557] * 0.001535625552669581 + input[558] * 0.0004926249943336172 + input[559] * -0.00006879344937257817 + input[560] * 0.0008801708626543255 + input[561] * 0.0023735850482448063 + input[562] * -0.00013649056659170039 + input[563] * 0.00217179465051406 + input[564] * 0.0009274216230800567 + input[565] * -0.0002572341746606869 + input[566] * 0.0009043396323206144 + input[567] * 0.0015666080177928843 + input[568] * 0.0015016634873061766 + input[569] * 0.0017403646864007371 + input[570] * 0.0011369167387822092 + input[571] * -0.00037083980269583827 + input[572] * 0.0007171512298290835 + input[573] * 0.00020457736386987672 + input[574] * 0.0031124632896837026 + input[575] * -0.0008708668972665381 + input[576] * 0.0008883780196805881 + input[577] * -0.0004876659949720327 + input[578] * 0.000685940609195154 + input[579] * -0.001423139589594795 + input[580] * 0.0018555462515091822 + input[581] * -0.002476775068935934 + input[582] * 0.0007602189891188385 + input[583] * -0.0003062931564040114 + input[584] * 0.0006887491250608227 + input[585] * -0.004092692541629137 + input[586] * 0.0001241468521058516 + input[587] * -0.0033364598434930948 + input[588] * 0.0007964206248456759 + input[589] * 0.00004024230975786918 + input[590] * 0.0006708295211981906 + input[591] * -0.006611007439736886 + input[592] * -0.001358391792069371 + input[593] * -0.0027169570077035616 + input[594] * 0.0007940931247465728 + input[595] * 0.0002666301334682565 + input[596] * 0.0007070154010773362 + input[597] * -0.007381000106865918 + input[598] * -0.002981559540148614 + input[599] * -0.0011863062282832263 + input[600] * 0.00039060761533724737 + input[601] * 0.00000423992097601704 + input[602] * 0.0009052693734703236 + input[603] * -0.007033930731527123 + input[604] * -0.0006093795009088885 + input[605] * 0.0013829361209283172, var86 + var87 + input[552] * 0.00008503275013505601 + input[553] * -0.000004436143476329278 + input[554] * -0.0009747542161204908 + input[555] * 0.0007825389248843401 + input[556] * 0.00016420776907725713 + input[557] * -0.00006782728468139566 + input[558] * 0.00008256173733884035 + input[559] * 0.000002825629697554215 + input[560] * -0.0009779694260555773 + input[561] * 0.0006800341985331277 + input[562] * 0.00018470401454663942 + input[563] * -0.000019028404957334394 + input[564] * 0.00007365153541177819 + input[565] * -0.0000061470526714845595 + input[566] * -0.0009797913129573992 + input[567] * 0.0005167016099680396 + input[568] * 0.00012195682151153673 + input[569] * 0.000011004324799824985 + input[570] * 0.00007884610536941181 + input[571] * -0.000008983244755488434 + input[572] * -0.00098775464214929 + input[573] * 0.0003818722060012463 + input[574] * 0.000016362265722553228 + input[575] * -0.00005966990719029595 + input[576] * 0.00006341992790790577 + input[577] * -0.0000020124458883526334 + input[578] * -0.0009948634433979329 + input[579] * 0.00021543229369695648 + input[580] * -0.00008658816987209087 + input[581] * -0.00014232481745136703 + input[582] * 0.00004100995158578067 + input[583] * 0.0000031527898398684428 + input[584] * -0.001004265944758557 + input[585] * 0.00001765533002702638 + input[586] * -0.00017005770489669466 + input[587] * -0.00012093771247371357 + input[588] * 0.000028812458668334234 + input[589] * 0.00000041388561298900697 + input[590] * -0.000995731169902926 + input[591] * -0.00017700092668905039 + input[592] * -0.00022586751207593914 + input[593] * -0.000033238745909059524 + input[594] * 0.000019458292836816627 + input[595] * -0.00000023725662514068575 + input[596] * -0.0009909407623163314 + input[597] * -0.00025174505901900496 + input[598] * -0.000130139641943825 + input[599] * 0.00009924782469717061 + input[600] * 0.000020589337941771642 + input[601] * -0.000001090128476011171 + input[602] * -0.0009587649913400479 + input[603] * 0.00012452483820212803 + input[604] * 0.00019976585641457933 + input[605] * 0.0002341640392087292]
